svm_type c_svc
kernel_type rbf
gamma 0.00392157
nr_class 2
total_sv 852
rho 0.985755
label 1 -1
probA -3023.77
probB -3021.39
nr_sv 284 568
SV
2 0:0 1:0.007874 2:0.003937 3:0 4:0 5:0.007874 6:0 7:0.007874 8:0 9:0 10:0 11:0 12:0.027559 13:0 14:0 15:0 16:0 17:0 18:0 19:0.011811 20:0 21:0 22:0 23:0 24:0 25:0 26:0 27:0 28:0 29:0 30:0 31:0 32:0.035433 33:0 34:0 35:0 36:0.003937 37:0 38:0 39:0.003937 40:0 41:0.003937 42:0.007874 43:0.003937 44:0 45:0.03937 46:0 47:0 48:0.003937 49:0 50:0.003937 51:0.015748 52:0.003937 53:0 54:0 55:0.003937 56:0 57:0 58:0 59:0 60:0 61:0 62:0 63:0.003937 64:0 65:0 66:0.003937 67:0 68:0 69:0 70:0.015748 71:0.003937 72:0 73:0 74:0.007874 75:0 76:0 77:0 78:0.003937 79:0 80:0 81:0 82:0.003937 83:0 84:0 85:0.007874 86:0 87:0 88:0 89:0.007874 90:0 91:0 92:0.003937 93:0 94:0 95:0 96:0 97:0.007874 98:0 99:0.003937 100:0 101:0 102:0.015748 103:0 104:0 105:0.003937 106:0 107:0 108:0 109:0.015748 110:0.003937 111:0.003937 112:0.003937 113:0 114:0.003937 115:0 116:0 117:0 118:0 119:0 120:0.007874 121:0 122:0.003937 123:0.003937 124:0.003937 125:0.023622 126:0 127:0 128:0.003937 129:0 130:0.003937 131:0 132:0 133:0 134:0 135:0.015748 136:0.007874 137:0 138:0 139:0 140:0.007874 141:0.003937 142:0 143:0 144:0.007874 145:0 146:0 147:0.007874 148:0.003937 149:0.023622 150:0 151:0 152:0.003937 153:0 154:0 155:0 156:0 157:0 158:0 159:0 160:0 161:0 162:0 163:0 164:0.019685 165:0.003937 166:0.007874 167:0.023622 168:0 169:0 170:0.007874 171:0.003937 172:0.015748 173:0 174:0 175:0 176:0.027559 177:0.003937 178:0 179:0 180:0.011811 181:0.011811 182:0.035433 183:0.007874 184:0 185:0 186:0 187:0 188:0 189:0.007874 190:0.003937 191:0 192:0.015748 193:0 194:0 195:0 196:0 197:0.003937 198:0.003937 199:0.003937 200:0 201:0.007874 202:0.007874 203:0 204:0 205:0 206:0.035433 207:0.011811 208:0 209:0 210:0.019685 211:0.007874 212:0 213:0 214:0.011811 215:0 216:0.007874 217:0.007874 218:0 219:0.015748 220:0.007874 221:0.03937 222:0 223:0 224:0 225:0.019685 226:0 227:0 228:0 229:0 230:0 231:0.007874 232:0 233:0 234:0 235:0.003937 236:0 237:0 238:0.03937 239:0 240:0 241:0.003937 242:0.007874 243:0.011811 244:0.007874 245:0 246:0 247:0 248:0.003937 249:0 250:0 251:0.019685 252:0.007874 253:0.007874 254:0 255:0 
2 0:0 1:0 2:0.010582 3:0 4:0.005291 5:0 6:0 7:0 8:0 9:0 10:0 11:0.005291 12:0 13:0 14:0 15:0.010582 16:0.010582 17:0 18:0 19:0.010582 20:0.005291 21:0.005291 22:0 23:0 24:0 25:0 26:0.015873 27:0 28:0 29:0 30:0 31:0.047619 32:0.037037 33:0.026455 34:0 35:0 36:0.005291 37:0 38:0 39:0 40:0 41:0 42:0.005291 43:0 44:0 45:0 46:0 47:0.005291 48:0.005291 49:0.021164 50:0 51:0 52:0.005291 53:0 54:0 55:0 56:0 57:0 58:0.021164 59:0 60:0.005291 61:0 62:0 63:0 64:0 65:0 66:0.005291 67:0 68:0 69:0 70:0 71:0 72:0 73:0 74:0 75:0 76:0 77:0 78:0.005291 79:0 80:0.005291 81:0 82:0.010582 83:0 84:0 85:0 86:0 87:0.010582 88:0 89:0.005291 90:0 91:0.005291 92:0.031746 93:0 94:0 95:0 96:0 97:0 98:0 99:0.031746 100:0 101:0 102:0.005291 103:0 104:0 105:0.010582 106:0 107:0.010582 108:0 109:0.010582 110:0.031746 111:0.005291 112:0 113:0 114:0 115:0 116:0 117:0 118:0 119:0.005291 120:0 121:0 122:0.015873 123:0 124:0 125:0 126:0 127:0 128:0.010582 129:0 130:0 131:0 132:0.010582 133:0 134:0 135:0 136:0 137:0 138:0 139:0 140:0.010582 141:0 142:0 143:0 144:0.015873 145:0 146:0.015873 147:0.037037 148:0.005291 149:0.005291 150:0.037037 151:0 152:0 153:0 154:0.005291 155:0 156:0 157:0.005291 158:0 159:0 160:0 161:0.005291 162:0 163:0 164:0.005291 165:0 166:0 167:0.037037 168:0 169:0 170:0 171:0.015873 172:0 173:0.005291 174:0 175:0 176:0.010582 177:0 178:0 179:0 180:0 181:0.005291 182:0 183:0.010582 184:0 185:0.005291 186:0.005291 187:0 188:0 189:0 190:0.010582 191:0.010582 192:0 193:0.026455 194:0 195:0 196:0.015873 197:0 198:0 199:0 200:0 201:0 202:0.005291 203:0.005291 204:0 205:0.037037 206:0.005291 207:0.005291 208:0 209:0 210:0 211:0 212:0 213:0.026455 214:0.005291 215:0 216:0 217:0.010582 218:0 219:0 220:0.031746 221:0 222:0 223:0 224:0 225:0 226:0 227:0 228:0 229:0 230:0 231:0 232:0 233:0.010582 234:0 235:0 236:0 237:0 238:0.010582 239:0 240:0 241:0 242:0 243:0 244:0 245:0.005291 246:0 247:0 248:0 249:0 250:0 251:0.042328 252:0 253:0 254:0 255:0 
2 0:0 1:0 2:0 3:0 4:0 5:0 6:0.086957 7:0.043478 8:0 9:0 10:0 11:0 12:0 13:0 14:0 15:0 16:0 17:0 18:0 19:0 20:0 21:0 22:0 23:0.043478 24:0 25:0 26:0 27:0 28:0 29:0.043478 30:0 31:0 32:0.043478 33:0 34:0.043478 35:0 36:0 37:0 38:0 39:0 40:0 41:0 42:0 43:0 44:0 45:0 46:0 47:0 48:0 49:0 50:0 51:0 52:0 53:0 54:0 55:0 56:0 57:0 58:0 59:0 60:0.043478 61:0 62:0 63:0 64:0 65:0 66:0 67:0 68:0 69:0 70:0 71:0 72:0 73:0 74:0 75:0 76:0 77:0 78:0 79:0 80:0 81:0 82:0 83:0 84:0 85:0.130435 86:0 87:0 88:0 89:0 90:0 91:0.043478 92:0 93:0 94:0 95:0 96:0 97:0 98:0 99:0.043478 100:0 101:0 102:0 103:0 104:0 105:0 106:0 107:0 108:0 109:0 110:0 111:0 112:0 113:0 114:0 115:0 116:0 117:0 118:0 119:0 120:0 121:0 122:0 123:0 124:0 125:0 126:0 127:0 128:0.086957 129:0 130:0 131:0 132:0 133:0 134:0 135:0 136:0 137:0 138:0 139:0 140:0 141:0 142:0 143:0 144:0 145:0.173913 146:0 147:0 148:0 149:0 150:0 151:0 152:0 153:0 154:0 155:0 156:0 157:0 158:0 159:0 160:0 161:0 162:0 163:0 164:0 165:0 166:0 167:0 168:0 169:0 170:0 171:0 172:0 173:0 174:0 175:0 176:0 177:0 178:0 179:0 180:0 181:0 182:0 183:0 184:0 185:0 186:0 187:0 188:0 189:0 190:0 191:0 192:0 193:0 194:0 195:0 196:0.130435 197:0 198:0 199:0 200:0 201:0 202:0 203:0 204:0 205:0 206:0 207:0 208:0 209:0 210:0 211:0 212:0 213:0 214:0 215:0 216:0 217:0 218:0 219:0 220:0.043478 221:0 222:0 223:0 224:0 225:0 226:0 227:0 228:0 229:0 230:0 231:0 232:0 233:0 234:0 235:0 236:0 237:0 238:0 239:0 240:0 241:0 242:0 243:0 244:0 245:0 246:0 247:0 248:0 249:0 250:0 251:0 252:0 253:0 254:0 255:0 
2 0:0 1:0 2:0.012195 3:0 4:0 5:0 6:0.012195 7:0 8:0.02439 9:0 10:0 11:0 12:0 13:0 14:0 15:0 16:0 17:0.012195 18:0 19:0 20:0.012195 21:0 22:0 23:0 24:0 25:0.02439 26:0 27:0 28:0 29:0.012195 30:0 31:0 32:0.02439 33:0 34:0 35:0.02439 36:0.036585 37:0 38:0 39:0 40:0 41:0 42:0 43:0 44:0 45:0 46:0 47:0 48:0.036585 49:0 50:0 51:0 52:0 53:0 54:0 55:0 56:0 57:0 58:0.012195 59:0 60:0 61:0 62:0 63:0 64:0 65:0 66:0 67:0 68:0 69:0 70:0 71:0.012195 72:0.036585 73:0 74:0 75:0 76:0 77:0 78:0 79:0 80:0 81:0 82:0 83:0 84:0 85:0 86:0.012195 87:0.012195 88:0 89:0.012195 90:0 91:0 92:0.012195 93:0 94:0 95:0 96:0 97:0 98:0 99:0 100:0 101:0 102:0 103:0.02439 104:0 105:0 106:0 107:0.02439 108:0.02439 109:0 110:0.012195 111:0 112:0 113:0 114:0 115:0 116:0 117:0 118:0.012195 119:0 120:0 121:0 122:0.060976 123:0.012195 124:0 125:0 126:0 127:0 128:0 129:0 130:0 131:0.036585 132:0 133:0 134:0 135:0 136:0 137:0 138:0 139:0 140:0.012195 141:0.012195 142:0.012195 143:0 144:0.012195 145:0 146:0 147:0 148:0 149:0.04878 150:0 151:0 152:0 153:0 154:0 155:0 156:0 157:0.036585 158:0.012195 159:0 160:0.012195 161:0 162:0 163:0 164:0.012195 165:0 166:0 167:0 168:0 169:0 170:0.02439 171:0 172:0 173:0 174:0 175:0 176:0 177:0 178:0 179:0 180:0 181:0 182:0.02439 183:0 184:0 185:0 186:0 187:0 188:0 189:0 190:0 191:0 192:0.02439 193:0 194:0 195:0 196:0.060976 197:0 198:0.012195 199:0 200:0 201:0 202:0 203:0 204:0 205:0.012195 206:0 207:0 208:0 209:0 210:0 211:0 212:0 213:0.012195 214:0 215:0 216:0 217:0 218:0 219:0 220:0.036585 221:0 222:0 223:0 224:0 225:0 226:0 227:0 228:0 229:0 230:0 231:0 232:0 233:0 234:0 235:0 236:0 237:0 238:0.036585 239:0 240:0 241:0 242:0 243:0 244:0 245:0 246:0 247:0 248:0 249:0 250:0.012195 251:0.02439 252:0 253:0 254:0 255:0 
2 0:0 1:0.002457 2:0.007371 3:0 4:0.004914 5:0.004914 6:0 7:0 8:0 9:0.044226 10:0 11:0 12:0.002457 13:0 14:0 15:0 16:0.004914 17:0.004914 18:0.004914 19:0 20:0 21:0.017199 22:0 23:0 24:0 25:0.004914 26:0.002457 27:0 28:0.002457 29:0 30:0.007371 31:0.002457 32:0 33:0 34:0 35:0.017199 36:0.022113 37:0.022113 38:0 39:0 40:0.002457 41:0 42:0 43:0.012285 44:0.007371 45:0.002457 46:0.002457 47:0.002457 48:0.002457 49:0 50:0 51:0 52:0 53:0 54:0 55:0 56:0.002457 57:0.002457 58:0.039312 59:0.002457 60:0.019656 61:0.004914 62:0 63:0 64:0 65:0 66:0.04914 67:0 68:0.007371 69:0.004914 70:0.002457 71:0.02457 72:0.002457 73:0.004914 74:0.004914 75:0.036855 76:0 77:0 78:0.004914 79:0 80:0 81:0.002457 82:0.002457 83:0 84:0 85:0.017199 86:0 87:0 88:0 89:0 90:0 91:0.002457 92:0.022113 93:0.002457 94:0.002457 95:0.017199 96:0 97:0 98:0 99:0 100:0 101:0 102:0.004914 103:0 104:0 105:0.002457 106:0 107:0.002457 108:0.009828 109:0.051597 110:0.002457 111:0.007371 112:0 113:0 114:0 115:0 116:0 117:0.007371 118:0 119:0 120:0.004914 121:0.017199 122:0.027027 123:0.02457 124:0 125:0 126:0 127:0 128:0.004914 129:0 130:0 131:0.007371 132:0.002457 133:0.004914 134:0.004914 135:0 136:0 137:0 138:0.007371 139:0.002457 140:0 141:0 142:0.004914 143:0.002457 144:0.004914 145:0.002457 146:0.004914 147:0.004914 148:0.004914 149:0.002457 150:0.002457 151:0.007371 152:0.007371 153:0.002457 154:0 155:0 156:0 157:0.007371 158:0.002457 159:0 160:0.007371 161:0 162:0.002457 163:0.002457 164:0.007371 165:0 166:0 167:0.002457 168:0 169:0.002457 170:0.002457 171:0.004914 172:0.004914 173:0 174:0 175:0 176:0 177:0.002457 178:0 179:0 180:0 181:0.007371 182:0 183:0 184:0.004914 185:0 186:0.004914 187:0.007371 188:0 189:0.002457 190:0 191:0 192:0 193:0.012285 194:0 195:0 196:0.012285 197:0 198:0 199:0.007371 200:0.004914 201:0.002457 202:0.004914 203:0 204:0.002457 205:0.012285 206:0 207:0 208:0.012285 209:0 210:0 211:0.017199 212:0.009828 213:0 214:0 215:0.002457 216:0 217:0 218:0 219:0 220:0 221:0.002457 222:0.002457 223:0 224:0.002457 225:0.004914 226:0 227:0.002457 228:0 229:0 230:0 231:0.009828 232:0 233:0.002457 234:0 235:0.004914 236:0.002457 237:0.007371 238:0 239:0 240:0.002457 241:0.002457 242:0.007371 243:0.004914 244:0 245:0 246:0.007371 247:0.002457 248:0 249:0 250:0 251:0 252:0.004914 253:0 254:0.002457 255:0.004914 
2 0:0.001414 1:0.002829 2:0 3:0 4:0 5:0.001414 6:0.008487 7:0.007072 8:0 9:0.018388 10:0 11:0 12:0.004243 13:0 14:0 15:0.011315 16:0.009901 17:0 18:0.002829 19:0.004243 20:0.005658 21:0.004243 22:0.015559 23:0 24:0.001414 25:0 26:0.019802 27:0.002829 28:0.007072 29:0.005658 30:0.001414 31:0.001414 32:0.001414 33:0.001414 34:0.004243 35:0.007072 36:0.016973 37:0.021216 38:0 39:0.005658 40:0.001414 41:0.002829 42:0.004243 43:0.002829 44:0 45:0.004243 46:0 47:0 48:0.002829 49:0 50:0.002829 51:0.005658 52:0 53:0.001414 54:0.005658 55:0.002829 56:0.014144 57:0.001414 58:0.018388 59:0 60:0.005658 61:0 62:0.004243 63:0 64:0 65:0.005658 66:0.015559 67:0.002829 68:0 69:0.005658 70:0.001414 71:0.005658 72:0.002829 73:0.001414 74:0.002829 75:0.016973 76:0.001414 77:0 78:0.001414 79:0.005658 80:0.008487 81:0.001414 82:0 83:0.001414 84:0 85:0.001414 86:0 87:0 88:0.001414 89:0.002829 90:0.005658 91:0.001414 92:0.011315 93:0.001414 94:0 95:0.011315 96:0.001414 97:0.005658 98:0 99:0.001414 100:0.002829 101:0 102:0.008487 103:0.01273 104:0 105:0.002829 106:0 107:0 108:0.005658 109:0.009901 110:0.009901 111:0.004243 112:0.004243 113:0 114:0.001414 115:0.004243 116:0.008487 117:0 118:0.011315 119:0.002829 120:0.001414 121:0.002829 122:0.005658 123:0.022631 124:0 125:0.004243 126:0 127:0 128:0 129:0.001414 130:0 131:0.007072 132:0.001414 133:0.001414 134:0.007072 135:0 136:0.004243 137:0.004243 138:0.002829 139:0 140:0.005658 141:0.002829 142:0.009901 143:0.004243 144:0.011315 145:0.001414 146:0.018388 147:0.001414 148:0 149:0.005658 150:0 151:0 152:0.002829 153:0.005658 154:0.016973 155:0 156:0 157:0.028289 158:0.001414 159:0 160:0.001414 161:0.004243 162:0.011315 163:0 164:0.005658 165:0 166:0.005658 167:0 168:0.002829 169:0.001414 170:0.001414 171:0.002829 172:0.002829 173:0 174:0.005658 175:0 176:0.002829 177:0.009901 178:0 179:0.001414 180:0 181:0.01273 182:0.002829 183:0.005658 184:0 185:0.005658 186:0.005658 187:0.011315 188:0.002829 189:0 190:0.004243 191:0.001414 192:0.002829 193:0.009901 194:0.002829 195:0 196:0.001414 197:0.011315 198:0 199:0.001414 200:0.002829 201:0.01273 202:0 203:0 204:0.004243 205:0.028289 206:0.002829 207:0.001414 208:0.008487 209:0 210:0 211:0.001414 212:0.004243 213:0 214:0.005658 215:0 216:0.001414 217:0 218:0.008487 219:0 220:0.008487 221:0.002829 222:0.002829 223:0 224:0.002829 225:0.001414 226:0 227:0.001414 228:0 229:0.001414 230:0.001414 231:0.015559 232:0 233:0.001414 234:0.007072 235:0 236:0.001414 237:0.004243 238:0.001414 239:0.001414 240:0 241:0 242:0.009901 243:0.01273 244:0.004243 245:0.001414 246:0.002829 247:0 248:0 249:0.002829 250:0 251:0.005658 252:0.001414 253:0 254:0 255:0.007072 
2 0:0.001019 1:0.003058 2:0.012232 3:0.002039 4:0.001019 5:0.003058 6:0.001019 7:0.003058 8:0.002039 9:0.006116 10:0 11:0.005097 12:0.005097 13:0.003058 14:0.004077 15:0.01631 16:0.002039 17:0 18:0.003058 19:0 20:0 21:0.002039 22:0.003058 23:0.011213 24:0.005097 25:0.006116 26:0.014271 27:0 28:0.004077 29:0 30:0 31:0.001019 32:0.003058 33:0.004077 34:0.004077 35:0.009174 36:0.012232 37:0.005097 38:0.001019 39:0 40:0.001019 41:0.006116 42:0.003058 43:0.003058 44:0.006116 45:0.002039 46:0.003058 47:0.008155 48:0.005097 49:0.001019 50:0.001019 51:0 52:0.001019 53:0.007136 54:0 55:0.006116 56:0.006116 57:0.008155 58:0.002039 59:0.005097 60:0.001019 61:0.002039 62:0.001019 63:0 64:0 65:0 66:0.009174 67:0.001019 68:0.009174 69:0.009174 70:0.007136 71:0.013252 72:0.012232 73:0 74:0.008155 75:0.003058 76:0.003058 77:0.001019 78:0.004077 79:0.004077 80:0.009174 81:0.012232 82:0.002039 83:0 84:0.005097 85:0.001019 86:0.002039 87:0.008155 88:0.001019 89:0.007136 90:0.001019 91:0.003058 92:0.008155 93:0.003058 94:0 95:0.002039 96:0.002039 97:0 98:0.002039 99:0.001019 100:0.001019 101:0.002039 102:0.012232 103:0.002039 104:0.005097 105:0.005097 106:0.001019 107:0 108:0.001019 109:0.005097 110:0.007136 111:0.001019 112:0.007136 113:0.003058 114:0.006116 115:0 116:0.001019 117:0.01631 118:0.010194 119:0.001019 120:0.005097 121:0.003058 122:0.006116 123:0.002039 124:0.002039 125:0 126:0.002039 127:0.001019 128:0.006116 129:0 130:0.004077 131:0.003058 132:0.010194 133:0.002039 134:0.003058 135:0 136:0.002039 137:0.001019 138:0.001019 139:0.001019 140:0 141:0.001019 142:0.001019 143:0.009174 144:0.014271 145:0 146:0 147:0.007136 148:0.004077 149:0.008155 150:0.005097 151:0.005097 152:0.002039 153:0.005097 154:0.014271 155:0.001019 156:0.008155 157:0.006116 158:0.003058 159:0.002039 160:0 161:0.003058 162:0.009174 163:0.002039 164:0.003058 165:0 166:0.002039 167:0.002039 168:0.004077 169:0.001019 170:0.004077 171:0.001019 172:0.001019 173:0.004077 174:0.001019 175:0.004077 176:0.001019 177:0.002039 178:0.001019 179:0.001019 180:0.002039 181:0.013252 182:0.004077 183:0 184:0.004077 185:0 186:0.002039 187:0.019368 188:0.011213 189:0 190:0.003058 191:0.014271 192:0.001019 193:0.014271 194:0.001019 195:0.002039 196:0.007136 197:0.001019 198:0.006116 199:0 200:0.001019 201:0.001019 202:0.004077 203:0.001019 204:0.011213 205:0.014271 206:0 207:0 208:0.001019 209:0.001019 210:0.002039 211:0 212:0.007136 213:0.004077 214:0.005097 215:0.009174 216:0.001019 217:0 218:0.006116 219:0.002039 220:0.005097 221:0.003058 222:0.005097 223:0.001019 224:0.002039 225:0.003058 226:0.001019 227:0.004077 228:0.001019 229:0.002039 230:0 231:0 232:0.011213 233:0.007136 234:0.004077 235:0.002039 236:0 237:0.015291 238:0.001019 239:0.003058 240:0.001019 241:0.002039 242:0.01631 243:0.008155 244:0 245:0.001019 246:0.011213 247:0 248:0 249:0 250:0.002039 251:0.020387 252:0.001019 253:0.002039 254:0.004077 255:0.002039 
2 0:0 1:0.001907 2:0.003813 3:0 4:0.018112 5:0.00572 6:0.000953 7:0.001907 8:0.001907 9:0.001907 10:0.000953 11:0.006673 12:0.013346 13:0.001907 14:0 15:0.004766 16:0.014299 17:0.00286 18:0.000953 19:0.001907 20:0.001907 21:0.003813 22:0 23:0.001907 24:0.000953 25:0.003813 26:0.00858 27:0.00286 28:0 29:0 30:0.004766 31:0.009533 32:0 33:0.00286 34:0.00286 35:0 36:0.007626 37:0.013346 38:0 39:0.001907 40:0 41:0 42:0.000953 43:0.007626 44:0.006673 45:0.00286 46:0.000953 47:0.010486 48:0.001907 49:0.003813 50:0 51:0 52:0 53:0.00286 54:0 55:0.000953 56:0.012393 57:0.003813 58:0.028599 59:0 60:0.00572 61:0.001907 62:0.000953 63:0.001907 64:0 65:0 66:0.027645 67:0.001907 68:0.000953 69:0.004766 70:0.011439 71:0.004766 72:0.007626 73:0.001907 74:0.004766 75:0.007626 76:0.000953 77:0.000953 78:0.007626 79:0.003813 80:0.004766 81:0.007626 82:0.000953 83:0.000953 84:0 85:0.003813 86:0.00286 87:0.004766 88:0 89:0.004766 90:0 91:0 92:0.010486 93:0.004766 94:0 95:0.00572 96:0 97:0.001907 98:0.00286 99:0 100:0.000953 101:0 102:0.007626 103:0.000953 104:0.000953 105:0.00572 106:0 107:0.00286 108:0.009533 109:0.007626 110:0.00572 111:0.000953 112:0.009533 113:0.000953 114:0.001907 115:0 116:0.001907 117:0 118:0.00572 119:0.003813 120:0.001907 121:0 122:0.00572 123:0.003813 124:0 125:0 126:0.001907 127:0.001907 128:0.00286 129:0.000953 130:0.001907 131:0.017159 132:0.011439 133:0 134:0.004766 135:0.003813 136:0.004766 137:0.00286 138:0 139:0.000953 140:0.00286 141:0 142:0.000953 143:0.00286 144:0.021926 145:0.010486 146:0.003813 147:0.006673 148:0.006673 149:0.004766 150:0.000953 151:0 152:0.001907 153:0.001907 154:0.020972 155:0.001907 156:0.000953 157:0.012393 158:0.000953 159:0.001907 160:0.000953 161:0.001907 162:0.00286 163:0.001907 164:0.00858 165:0.00286 166:0.009533 167:0.003813 168:0.00286 169:0.000953 170:0.011439 171:0.003813 172:0 173:0.000953 174:0 175:0.000953 176:0.004766 177:0.003813 178:0 179:0 180:0 181:0.007626 182:0.004766 183:0.00286 184:0.000953 185:0 186:0.004766 187:0.006673 188:0.000953 189:0 190:0.001907 191:0.007626 192:0.003813 193:0.035272 194:0.001907 195:0.000953 196:0.006673 197:0.006673 198:0.00572 199:0.00286 200:0.007626 201:0.004766 202:0.006673 203:0.00286 204:0.001907 205:0.022879 206:0 207:0 208:0.003813 209:0 210:0.004766 211:0.006673 212:0.001907 213:0.000953 214:0.000953 215:0 216:0.000953 217:0 218:0.000953 219:0.00286 220:0.010486 221:0 222:0.00286 223:0.000953 224:0.004766 225:0.000953 226:0 227:0.001907 228:0.003813 229:0 230:0.006673 231:0.000953 232:0.000953 233:0.006673 234:0.000953 235:0.001907 236:0.00286 237:0 238:0.000953 239:0.000953 240:0.006673 241:0 242:0.00572 243:0.00286 244:0.004766 245:0.004766 246:0.046711 247:0.000953 248:0.000953 249:0 250:0.003813 251:0.003813 252:0.007626 253:0 254:0.000953 255:0.000953 
2 0:0 1:0.006726 2:0 3:0 4:0.003363 5:0.001121 6:0.002242 7:0.003363 8:0.003363 9:0.002242 10:0 11:0.001121 12:0.002242 13:0.002242 14:0.002242 15:0.01009 16:0.003363 17:0.002242 18:0.003363 19:0 20:0 21:0 22:0 23:0.001121 24:0 25:0.001121 26:0.005605 27:0 28:0.001121 29:0.003363 30:0.003363 31:0.001121 32:0 33:0.002242 34:0.001121 35:0 36:0.007848 37:0 38:0.006726 39:0.011211 40:0.005605 41:0.016816 42:0.006726 43:0.001121 44:0.001121 45:0.020179 46:0.002242 47:0.006726 48:0.006726 49:0.006726 50:0 51:0.004484 52:0.003363 53:0.004484 54:0.001121 55:0.001121 56:0.020179 57:0.004484 58:0 59:0.001121 60:0 61:0 62:0.002242 63:0.007848 64:0.012332 65:0.005605 66:0 67:0.003363 68:0.001121 69:0.004484 70:0.004484 71:0 72:0.004484 73:0.001121 74:0 75:0.014574 76:0.005605 77:0.005605 78:0.002242 79:0.003363 80:0.003363 81:0 82:0.01009 83:0 84:0 85:0.003363 86:0.003363 87:0.006726 88:0.003363 89:0.01009 90:0.001121 91:0.012332 92:0.005605 93:0.003363 94:0.001121 95:0.007848 96:0.003363 97:0.002242 98:0.002242 99:0 100:0.003363 101:0.001121 102:0.003363 103:0.004484 104:0.001121 105:0.01009 106:0 107:0.007848 108:0.003363 109:0.001121 110:0.007848 111:0.003363 112:0.002242 113:0.001121 114:0.005605 115:0 116:0 117:0 118:0 119:0.002242 120:0.002242 121:0 122:0.004484 123:0.011211 124:0.003363 125:0.0213 126:0.002242 127:0.001121 128:0.008969 129:0.001121 130:0.003363 131:0.006726 132:0 133:0 134:0.002242 135:0.005605 136:0.005605 137:0.017937 138:0 139:0.004484 140:0.001121 141:0 142:0.003363 143:0 144:0 145:0.004484 146:0.011211 147:0.003363 148:0.002242 149:0.004484 150:0.003363 151:0.001121 152:0.001121 153:0.017937 154:0.004484 155:0.004484 156:0 157:0.006726 158:0.003363 159:0.002242 160:0.005605 161:0.002242 162:0.008969 163:0 164:0.017937 165:0.002242 166:0.005605 167:0.001121 168:0.002242 169:0.001121 170:0.003363 171:0.01009 172:0.001121 173:0.006726 174:0 175:0.001121 176:0.004484 177:0.004484 178:0 179:0 180:0.005605 181:0.002242 182:0.003363 183:0 184:0 185:0 186:0 187:0.001121 188:0.003363 189:0.005605 190:0.001121 191:0.003363 192:0.002242 193:0.001121 194:0.001121 195:0.002242 196:0.007848 197:0.003363 198:0.016816 199:0.003363 200:0.001121 201:0.004484 202:0.006726 203:0.001121 204:0.001121 205:0.008969 206:0.004484 207:0.004484 208:0.024664 209:0.004484 210:0.002242 211:0.01009 212:0 213:0.007848 214:0.01009 215:0 216:0.001121 217:0.001121 218:0.013453 219:0.002242 220:0.003363 221:0.006726 222:0 223:0.0213 224:0.004484 225:0.01009 226:0.004484 227:0 228:0 229:0 230:0.008969 231:0.006726 232:0 233:0.001121 234:0.006726 235:0.003363 236:0.002242 237:0 238:0.002242 239:0.005605 240:0.005605 241:0 242:0.002242 243:0.007848 244:0.001121 245:0 246:0.004484 247:0.004484 248:0.002242 249:0.015695 250:0 251:0.01009 252:0.001121 253:0 254:0 255:0.002242 
2 0:0 1:0.009901 2:0.005776 3:0.000825 4:0.00165 5:0.0033 6:0.004125 7:0.005776 8:0.002475 9:0.000825 10:0 11:0.007426 12:0.000825 13:0.002475 14:0.0033 15:0.020627 16:0.004125 17:0.00165 18:0.000825 19:0.002475 20:0.00495 21:0.005776 22:0.00495 23:0.004125 24:0.002475 25:0.004125 26:0.00495 27:0 28:0.002475 29:0.00165 30:0.004125 31:0.0033 32:0.004125 33:0.012376 34:0.007426 35:0.0033 36:0.0033 37:0.004125 38:0.00165 39:0.00165 40:0 41:0.00165 42:0.004125 43:0.008251 44:0.002475 45:0.002475 46:0.00165 47:0.004125 48:0.004125 49:0.004125 50:0.000825 51:0.002475 52:0 53:0.00165 54:0.000825 55:0.010726 56:0.000825 57:0.00495 58:0.00495 59:0 60:0.000825 61:0.00165 62:0.00165 63:0.00165 64:0.000825 65:0.00495 66:0.006601 67:0.0033 68:0.00165 69:0.002475 70:0.004125 71:0.009901 72:0.0033 73:0.0033 74:0.002475 75:0.032178 76:0.000825 77:0.00165 78:0.002475 79:0.0033 80:0.00495 81:0.005776 82:0.0033 83:0.002475 84:0.008251 85:0.0033 86:0.005776 87:0.004125 88:0.00165 89:0.000825 90:0.000825 91:0.002475 92:0.016502 93:0.004125 94:0 95:0.004125 96:0.002475 97:0 98:0.000825 99:0 100:0.002475 101:0.002475 102:0.00495 103:0.004125 104:0.002475 105:0 106:0 107:0.0033 108:0.00165 109:0.00165 110:0.009901 111:0.012376 112:0.006601 113:0.000825 114:0.00495 115:0 116:0.00495 117:0.00165 118:0.004125 119:0.00495 120:0.00495 121:0.004125 122:0.008251 123:0.004125 124:0.00165 125:0.002475 126:0.011551 127:0 128:0.006601 129:0.0033 130:0.00165 131:0.00165 132:0.000825 133:0.0033 134:0.00165 135:0.002475 136:0.00495 137:0.0033 138:0.00165 139:0.000825 140:0.000825 141:0.006601 142:0.008251 143:0.000825 144:0.002475 145:0.004125 146:0.002475 147:0.002475 148:0.00165 149:0.000825 150:0.00495 151:0 152:0.004125 153:0.00165 154:0.014851 155:0.009076 156:0.00165 157:0.000825 158:0.002475 159:0.002475 160:0 161:0.004125 162:0.00165 163:0.0033 164:0.002475 165:0.000825 166:0.00165 167:0.007426 168:0.00165 169:0.006601 170:0.021452 171:0.00165 172:0.007426 173:0.00165 174:0.017327 175:0 176:0.004125 177:0.008251 178:0 179:0.000825 180:0 181:0.005776 182:0.006601 183:0.009076 184:0.00165 185:0.002475 186:0.0033 187:0.0033 188:0.014026 189:0.00165 190:0.004125 191:0.004125 192:0.009076 193:0.002475 194:0.00495 195:0.006601 196:0.004125 197:0.004125 198:0.004125 199:0.011551 200:0.006601 201:0.000825 202:0 203:0.0033 204:0.007426 205:0.006601 206:0.000825 207:0.00165 208:0.002475 209:0.00165 210:0.000825 211:0.011551 212:0.00495 213:0.0033 214:0.00495 215:0.002475 216:0.000825 217:0.00495 218:0.002475 219:0.002475 220:0.00165 221:0.00495 222:0.00165 223:0 224:0 225:0.002475 226:0.0033 227:0.0033 228:0.002475 229:0.000825 230:0 231:0.004125 232:0.004125 233:0.009901 234:0.005776 235:0.000825 236:0.00165 237:0 238:0.00495 239:0.00165 240:0.009901 241:0.000825 242:0.015677 243:0.0033 244:0.0033 245:0 246:0.002475 247:0.002475 248:0.002475 249:0.007426 250:0 251:0.027228 252:0.002475 253:0.002475 254:0.000825 255:0.004125 
2 0:0.005587 1:0 2:0.022346 3:0.005587 4:0 5:0 6:0 7:0.005587 8:0.005587 9:0 10:0 11:0 12:0.01676 13:0 14:0 15:0 16:0 17:0 18:0 19:0 20:0.03352 21:0 22:0 23:0.005587 24:0 25:0 26:0.011173 27:0 28:0 29:0.005587 30:0 31:0.005587 32:0 33:0 34:0.03352 35:0 36:0.005587 37:0 38:0 39:0 40:0 41:0.005587 42:0 43:0.005587 44:0 45:0 46:0 47:0 48:0.01676 49:0 50:0 51:0.022346 52:0.005587 53:0 54:0 55:0 56:0 57:0.01676 58:0 59:0 60:0.005587 61:0 62:0 63:0 64:0 65:0.027933 66:0 67:0 68:0.005587 69:0 70:0 71:0.011173 72:0 73:0.005587 74:0.011173 75:0 76:0 77:0 78:0 79:0 80:0 81:0.01676 82:0 83:0.01676 84:0.005587 85:0 86:0.005587 87:0.01676 88:0 89:0 90:0 91:0 92:0.005587 93:0.011173 94:0 95:0 96:0 97:0.01676 98:0 99:0.005587 100:0 101:0 102:0 103:0 104:0.005587 105:0.005587 106:0 107:0 108:0 109:0 110:0.005587 111:0.01676 112:0 113:0.03352 114:0 115:0 116:0 117:0 118:0 119:0 120:0 121:0 122:0.01676 123:0 124:0 125:0 126:0.005587 127:0 128:0.005587 129:0 130:0 131:0.011173 132:0 133:0 134:0 135:0 136:0 137:0 138:0 139:0 140:0 141:0 142:0 143:0.022346 144:0 145:0.078212 146:0 147:0.005587 148:0 149:0.011173 150:0.011173 151:0 152:0 153:0 154:0 155:0 156:0 157:0 158:0 159:0 160:0 161:0.011173 162:0 163:0 164:0 165:0 166:0 167:0 168:0.005587 169:0 170:0 171:0.011173 172:0 173:0 174:0 175:0 176:0 177:0 178:0 179:0 180:0 181:0.01676 182:0 183:0 184:0.005587 185:0 186:0 187:0 188:0.039106 189:0 190:0.011173 191:0 192:0 193:0 194:0 195:0.03352 196:0 197:0 198:0 199:0.01676 200:0 201:0 202:0 203:0 204:0 205:0 206:0 207:0 208:0 209:0 210:0 211:0.01676 212:0 213:0 214:0 215:0 216:0.01676 217:0 218:0 219:0.005587 220:0.022346 221:0 222:0.005587 223:0 224:0.005587 225:0.005587 226:0 227:0 228:0.005587 229:0 230:0 231:0 232:0 233:0 234:0 235:0 236:0.005587 237:0 238:0.005587 239:0 240:0.011173 241:0 242:0 243:0 244:0.005587 245:0.011173 246:0.005587 247:0 248:0 249:0 250:0.03352 251:0.03352 252:0.011173 253:0 254:0.005587 255:0 
2 0:0 1:0 2:0.007692 3:0 4:0 5:0 6:0.069231 7:0.015385 8:0 9:0 10:0 11:0.015385 12:0 13:0 14:0 15:0.007692 16:0 17:0.007692 18:0 19:0.007692 20:0 21:0 22:0 23:0 24:0 25:0.007692 26:0.015385 27:0 28:0 29:0 30:0 31:0 32:0.015385 33:0.007692 34:0.015385 35:0 36:0 37:0.007692 38:0.030769 39:0 40:0 41:0 42:0.015385 43:0.007692 44:0 45:0 46:0 47:0 48:0.023077 49:0 50:0 51:0 52:0.007692 53:0 54:0 55:0.046154 56:0 57:0 58:0.053846 59:0 60:0 61:0 62:0 63:0 64:0 65:0 66:0.015385 67:0 68:0 69:0 70:0 71:0 72:0 73:0 74:0 75:0 76:0 77:0 78:0.007692 79:0 80:0.007692 81:0 82:0 83:0 84:0 85:0 86:0 87:0 88:0 89:0 90:0 91:0 92:0 93:0.015385 94:0 95:0.007692 96:0 97:0.015385 98:0 99:0 100:0.007692 101:0 102:0 103:0.023077 104:0 105:0 106:0 107:0 108:0 109:0 110:0 111:0.023077 112:0 113:0.007692 114:0 115:0 116:0 117:0 118:0.015385 119:0 120:0 121:0 122:0.023077 123:0.023077 124:0 125:0 126:0.046154 127:0 128:0 129:0 130:0 131:0.023077 132:0 133:0 134:0 135:0 136:0 137:0 138:0 139:0 140:0 141:0 142:0.030769 143:0 144:0.007692 145:0 146:0 147:0 148:0 149:0.023077 150:0.007692 151:0 152:0 153:0 154:0 155:0 156:0 157:0.007692 158:0 159:0 160:0 161:0 162:0 163:0 164:0.023077 165:0 166:0 167:0 168:0 169:0 170:0.015385 171:0 172:0 173:0 174:0 175:0 176:0 177:0 178:0 179:0 180:0 181:0 182:0 183:0 184:0 185:0 186:0 187:0.007692 188:0.007692 189:0.030769 190:0 191:0 192:0.007692 193:0.007692 194:0.030769 195:0 196:0 197:0 198:0.015385 199:0.023077 200:0 201:0 202:0 203:0 204:0 205:0 206:0 207:0 208:0 209:0 210:0 211:0.007692 212:0 213:0.007692 214:0 215:0 216:0 217:0 218:0 219:0 220:0 221:0.015385 222:0 223:0 224:0 225:0 226:0 227:0 228:0 229:0 230:0 231:0 232:0 233:0 234:0 235:0 236:0 237:0 238:0.038462 239:0 240:0.023077 241:0 242:0 243:0 244:0 245:0 246:0 247:0 248:0 249:0 250:0 251:0.015385 252:0 253:0 254:0 255:0 
2 0:0 1:0.009412 2:0.007059 3:0 4:0.002353 5:0 6:0.002353 7:0.007059 8:0 9:0.009412 10:0 11:0 12:0 13:0.002353 14:0 15:0.007059 16:0.018824 17:0.009412 18:0 19:0.002353 20:0 21:0.002353 22:0 23:0.002353 24:0 25:0.004706 26:0.018824 27:0.002353 28:0 29:0 30:0.002353 31:0 32:0.004706 33:0 34:0 35:0.014118 36:0.002353 37:0.018824 38:0 39:0 40:0 41:0 42:0.014118 43:0.009412 44:0.002353 45:0.002353 46:0 47:0.004706 48:0 49:0.009412 50:0 51:0.002353 52:0 53:0.007059 54:0 55:0 56:0.018824 57:0.002353 58:0.004706 59:0 60:0.002353 61:0.002353 62:0 63:0.004706 64:0 65:0 66:0 67:0.009412 68:0.002353 69:0 70:0.004706 71:0.016471 72:0.004706 73:0.004706 74:0.009412 75:0.007059 76:0 77:0 78:0.007059 79:0.009412 80:0.004706 81:0 82:0 83:0 84:0.004706 85:0.014118 86:0.004706 87:0.002353 88:0 89:0.007059 90:0.007059 91:0 92:0.004706 93:0 94:0 95:0.004706 96:0 97:0 98:0 99:0 100:0.004706 101:0.004706 102:0 103:0 104:0.004706 105:0 106:0 107:0.007059 108:0.002353 109:0.004706 110:0.002353 111:0.002353 112:0.002353 113:0 114:0 115:0 116:0.002353 117:0 118:0.007059 119:0.004706 120:0 121:0.004706 122:0.016471 123:0.007059 124:0 125:0 126:0 127:0.007059 128:0.004706 129:0.002353 130:0 131:0.014118 132:0.004706 133:0 134:0.007059 135:0.004706 136:0.014118 137:0.004706 138:0 139:0 140:0 141:0.002353 142:0.002353 143:0.009412 144:0 145:0.002353 146:0.014118 147:0.007059 148:0.009412 149:0.002353 150:0.002353 151:0 152:0 153:0.002353 154:0.007059 155:0 156:0.002353 157:0.016471 158:0 159:0.002353 160:0.004706 161:0.018824 162:0 163:0.004706 164:0.002353 165:0.004706 166:0.004706 167:0 168:0.002353 169:0 170:0.014118 171:0.002353 172:0.009412 173:0 174:0.007059 175:0 176:0.002353 177:0.002353 178:0 179:0 180:0 181:0.023529 182:0.009412 183:0 184:0.002353 185:0.002353 186:0.016471 187:0.004706 188:0.009412 189:0.004706 190:0.002353 191:0.009412 192:0.004706 193:0.007059 194:0.004706 195:0.009412 196:0.002353 197:0.002353 198:0 199:0 200:0.025882 201:0.004706 202:0 203:0 204:0.004706 205:0.032941 206:0 207:0.002353 208:0 209:0 210:0.002353 211:0.002353 212:0 213:0 214:0.002353 215:0 216:0 217:0 218:0 219:0.009412 220:0.007059 221:0 222:0.007059 223:0 224:0.009412 225:0 226:0.002353 227:0 228:0.004706 229:0 230:0.004706 231:0.009412 232:0 233:0.016471 234:0 235:0.004706 236:0.004706 237:0 238:0.014118 239:0 240:0.007059 241:0 242:0.009412 243:0 244:0.002353 245:0 246:0.009412 247:0.002353 248:0.002353 249:0 250:0 251:0 252:0.004706 253:0.004706 254:0 255:0 
2 0:0 1:0 2:0.00299 3:0.001495 4:0.004484 5:0.008969 6:0.00299 7:0.001495 8:0.001495 9:0.020927 10:0.004484 11:0.001495 12:0.00299 13:0 14:0 15:0.011958 16:0.005979 17:0.013453 18:0.004484 19:0.00299 20:0.004484 21:0.00299 22:0 23:0 24:0 25:0.001495 26:0.013453 27:0 28:0 29:0.004484 30:0.001495 31:0.007474 32:0.001495 33:0.00299 34:0.005979 35:0.014948 36:0.007474 37:0.005979 38:0.001495 39:0.001495 40:0 41:0.001495 42:0.004484 43:0.004484 44:0 45:0.00299 46:0.001495 47:0.004484 48:0.001495 49:0.007474 50:0 51:0 52:0.001495 53:0.00299 54:0 55:0.001495 56:0.007474 57:0.00299 58:0.019432 59:0.00299 60:0 61:0.00299 62:0 63:0.013453 64:0.00299 65:0.001495 66:0.008969 67:0.001495 68:0 69:0.001495 70:0.004484 71:0.007474 72:0.004484 73:0.001495 74:0.00299 75:0.004484 76:0.001495 77:0 78:0.005979 79:0.004484 80:0.004484 81:0 82:0.001495 83:0 84:0 85:0.001495 86:0.004484 87:0.001495 88:0.011958 89:0.007474 90:0.001495 91:0.001495 92:0.00299 93:0 94:0.011958 95:0.020927 96:0.007474 97:0.010463 98:0 99:0.00299 100:0.005979 101:0.004484 102:0.00299 103:0.004484 104:0.001495 105:0 106:0.004484 107:0.005979 108:0.007474 109:0.008969 110:0.00299 111:0.005979 112:0.001495 113:0 114:0.007474 115:0 116:0.001495 117:0.008969 118:0 119:0.00299 120:0.008969 121:0.001495 122:0.00299 123:0.017937 124:0 125:0.001495 126:0.007474 127:0.007474 128:0 129:0.004484 130:0 131:0.004484 132:0.00299 133:0 134:0.007474 135:0.013453 136:0.016442 137:0.007474 138:0 139:0 140:0.00299 141:0.001495 142:0.00299 143:0 144:0.010463 145:0.005979 146:0.001495 147:0.004484 148:0.004484 149:0.004484 150:0.004484 151:0 152:0.004484 153:0.005979 154:0.007474 155:0.001495 156:0 157:0.001495 158:0.001495 159:0 160:0.00299 161:0.005979 162:0 163:0 164:0.004484 165:0 166:0 167:0 168:0.001495 169:0 170:0.007474 171:0.007474 172:0 173:0 174:0.007474 175:0 176:0 177:0.004484 178:0 179:0.007474 180:0 181:0.026906 182:0.004484 183:0.007474 184:0 185:0.001495 186:0.004484 187:0.023916 188:0 189:0 190:0.001495 191:0.011958 192:0.004484 193:0.013453 194:0 195:0.004484 196:0.001495 197:0.004484 198:0.001495 199:0.00299 200:0.004484 201:0.004484 202:0.001495 203:0 204:0.004484 205:0.010463 206:0.001495 207:0.001495 208:0.008969 209:0.00299 210:0.001495 211:0.008969 212:0 213:0.008969 214:0.00299 215:0 216:0.004484 217:0.001495 218:0 219:0 220:0.010463 221:0.004484 222:0.010463 223:0 224:0.005979 225:0 226:0 227:0 228:0.004484 229:0 230:0.001495 231:0.013453 232:0 233:0.00299 234:0.004484 235:0.001495 236:0.001495 237:0 238:0.001495 239:0.011958 240:0.005979 241:0 242:0.00299 243:0 244:0.001495 245:0.005979 246:0.001495 247:0.001495 248:0 249:0 250:0.004484 251:0.007474 252:0.001495 253:0.008969 254:0 255:0.001495 
2 0:0 1:0.002484 2:0.003727 3:0.006211 4:0 5:0 6:0.003727 7:0.003727 8:0.003727 9:0.001242 10:0.001242 11:0.003727 12:0.004969 13:0.001242 14:0.002484 15:0 16:0.001242 17:0.004969 18:0 19:0.001242 20:0.004969 21:0.003727 22:0 23:0.006211 24:0 25:0.009938 26:0.001242 27:0.002484 28:0 29:0.006211 30:0.001242 31:0 32:0 33:0.004969 34:0.012422 35:0.001242 36:0.013665 37:0.017391 38:0.007453 39:0 40:0.006211 41:0 42:0 43:0.003727 44:0.001242 45:0 46:0 47:0.001242 48:0.002484 49:0.002484 50:0.006211 51:0.002484 52:0.002484 53:0 54:0.002484 55:0.002484 56:0.003727 57:0.008696 58:0.026087 59:0 60:0.006211 61:0.002484 62:0.02236 63:0 64:0.001242 65:0 66:0.002484 67:0.004969 68:0.002484 69:0.006211 70:0 71:0.026087 72:0.008696 73:0.004969 74:0.007453 75:0.018634 76:0 77:0.003727 78:0.006211 79:0.003727 80:0.002484 81:0.003727 82:0.004969 83:0.003727 84:0.002484 85:0 86:0.003727 87:0.003727 88:0 89:0.004969 90:0.016149 91:0.007453 92:0.014907 93:0.006211 94:0 95:0.003727 96:0 97:0.004969 98:0.001242 99:0.01118 100:0.019876 101:0.004969 102:0.008696 103:0.001242 104:0.004969 105:0.007453 106:0 107:0.004969 108:0.006211 109:0 110:0 111:0.002484 112:0.003727 113:0.001242 114:0.004969 115:0 116:0 117:0 118:0.004969 119:0.001242 120:0 121:0 122:0.01118 123:0.001242 124:0 125:0 126:0.002484 127:0.006211 128:0.001242 129:0.001242 130:0 131:0.001242 132:0.003727 133:0 134:0.003727 135:0.004969 136:0 137:0 138:0 139:0.002484 140:0 141:0.004969 142:0 143:0.002484 144:0.002484 145:0 146:0.001242 147:0.007453 148:0.001242 149:0.006211 150:0.002484 151:0 152:0.001242 153:0 154:0.007453 155:0 156:0.002484 157:0.001242 158:0 159:0 160:0.008696 161:0.003727 162:0.001242 163:0 164:0.004969 165:0.004969 166:0.001242 167:0.003727 168:0.007453 169:0.006211 170:0.01118 171:0.014907 172:0.01118 173:0 174:0.012422 175:0.008696 176:0 177:0.012422 178:0.002484 179:0.016149 180:0 181:0.016149 182:0.004969 183:0.006211 184:0 185:0.004969 186:0.004969 187:0.002484 188:0.008696 189:0 190:0.004969 191:0.012422 192:0 193:0.004969 194:0 195:0.002484 196:0.006211 197:0.001242 198:0.001242 199:0.002484 200:0.004969 201:0 202:0.003727 203:0.003727 204:0 205:0.03354 206:0.001242 207:0.003727 208:0.002484 209:0 210:0.001242 211:0.001242 212:0 213:0.009938 214:0.003727 215:0 216:0.001242 217:0.003727 218:0.001242 219:0.009938 220:0.007453 221:0.001242 222:0.006211 223:0.003727 224:0.002484 225:0 226:0.001242 227:0 228:0.002484 229:0.002484 230:0.007453 231:0.02236 232:0 233:0 234:0.001242 235:0.001242 236:0.004969 237:0.001242 238:0.002484 239:0 240:0.002484 241:0 242:0.003727 243:0.001242 244:0.003727 245:0.003727 246:0.001242 247:0.002484 248:0.001242 249:0 250:0.001242 251:0.013665 252:0.001242 253:0 254:0 255:0.001242 
2 0:0 1:0 2:0 3:0 4:0 5:0.006667 6:0.006667 7:0 8:0 9:0 10:0 11:0.013333 12:0.006667 13:0 14:0 15:0 16:0 17:0 18:0 19:0.006667 20:0 21:0 22:0 23:0 24:0 25:0 26:0 27:0 28:0 29:0 30:0 31:0 32:0 33:0 34:0.066667 35:0 36:0 37:0 38:0 39:0 40:0 41:0 42:0.006667 43:0.006667 44:0 45:0 46:0 47:0 48:0 49:0.006667 50:0 51:0 52:0 53:0 54:0 55:0 56:0 57:0.006667 58:0 59:0 60:0.006667 61:0 62:0 63:0 64:0 65:0 66:0 67:0 68:0 69:0 70:0 71:0 72:0 73:0.02 74:0 75:0 76:0 77:0 78:0 79:0 80:0.04 81:0 82:0 83:0 84:0 85:0 86:0 87:0 88:0 89:0 90:0 91:0 92:0 93:0.013333 94:0 95:0 96:0 97:0.02 98:0 99:0.006667 100:0 101:0.006667 102:0.073333 103:0.013333 104:0.006667 105:0 106:0 107:0 108:0.026667 109:0 110:0 111:0.04 112:0.006667 113:0 114:0 115:0 116:0 117:0 118:0 119:0 120:0 121:0 122:0 123:0 124:0 125:0 126:0 127:0.006667 128:0.006667 129:0 130:0 131:0.006667 132:0 133:0 134:0 135:0.006667 136:0 137:0 138:0 139:0 140:0 141:0.006667 142:0.02 143:0 144:0 145:0 146:0.006667 147:0 148:0 149:0.013333 150:0.006667 151:0 152:0 153:0 154:0 155:0 156:0 157:0.026667 158:0 159:0 160:0 161:0 162:0 163:0 164:0 165:0 166:0 167:0.013333 168:0 169:0 170:0 171:0.013333 172:0.026667 173:0 174:0 175:0.02 176:0.086667 177:0 178:0 179:0.006667 180:0.02 181:0 182:0 183:0 184:0 185:0 186:0 187:0 188:0 189:0 190:0 191:0 192:0 193:0.006667 194:0.02 195:0 196:0 197:0.026667 198:0 199:0.026667 200:0 201:0 202:0 203:0.013333 204:0 205:0.046667 206:0 207:0 208:0 209:0 210:0 211:0 212:0 213:0 214:0 215:0 216:0 217:0 218:0.006667 219:0 220:0.06 221:0.013333 222:0 223:0.013333 224:0.006667 225:0 226:0 227:0 228:0.006667 229:0 230:0 231:0 232:0 233:0 234:0 235:0 236:0 237:0 238:0 239:0 240:0 241:0 242:0 243:0.013333 244:0.006667 245:0 246:0 247:0 248:0 249:0 250:0 251:0.013333 252:0.013333 253:0 254:0 255:0 
2 0:0 1:0.02649 2:0 3:0.003311 4:0 5:0.003311 6:0.003311 7:0 8:0 9:0.023179 10:0.003311 11:0 12:0.003311 13:0 14:0 15:0.006623 16:0.013245 17:0 18:0 19:0 20:0 21:0 22:0 23:0.003311 24:0.009934 25:0.013245 26:0 27:0.009934 28:0 29:0 30:0 31:0 32:0 33:0 34:0.003311 35:0 36:0.006623 37:0 38:0 39:0 40:0 41:0 42:0 43:0 44:0 45:0.013245 46:0 47:0.023179 48:0 49:0 50:0.003311 51:0.006623 52:0 53:0 54:0 55:0.006623 56:0.003311 57:0.003311 58:0.003311 59:0 60:0.006623 61:0 62:0 63:0 64:0 65:0.003311 66:0 67:0 68:0.009934 69:0 70:0 71:0.009934 72:0.016556 73:0.013245 74:0.003311 75:0.003311 76:0 77:0.013245 78:0 79:0 80:0.006623 81:0 82:0 83:0 84:0.003311 85:0.009934 86:0 87:0 88:0 89:0 90:0 91:0.019868 92:0 93:0.009934 94:0 95:0 96:0 97:0.003311 98:0 99:0.003311 100:0 101:0 102:0.043046 103:0.006623 104:0 105:0.003311 106:0.009934 107:0 108:0 109:0.003311 110:0.003311 111:0 112:0.003311 113:0.013245 114:0 115:0 116:0.003311 117:0.003311 118:0.006623 119:0 120:0.003311 121:0 122:0.033113 123:0 124:0.006623 125:0 126:0 127:0 128:0 129:0 130:0.003311 131:0 132:0 133:0 134:0 135:0 136:0 137:0 138:0 139:0 140:0.009934 141:0 142:0 143:0 144:0.003311 145:0.102649 146:0.003311 147:0.003311 148:0 149:0.006623 150:0 151:0 152:0 153:0 154:0 155:0 156:0 157:0.003311 158:0.016556 159:0.009934 160:0 161:0 162:0.039735 163:0.006623 164:0 165:0.003311 166:0.009934 167:0.003311 168:0.003311 169:0 170:0 171:0.019868 172:0.003311 173:0 174:0 175:0 176:0.006623 177:0.003311 178:0 179:0 180:0 181:0.009934 182:0 183:0 184:0 185:0 186:0 187:0.003311 188:0 189:0 190:0.003311 191:0 192:0 193:0.009934 194:0.003311 195:0 196:0.016556 197:0 198:0.009934 199:0.003311 200:0 201:0 202:0.036424 203:0 204:0 205:0.009934 206:0.009934 207:0 208:0.009934 209:0.003311 210:0 211:0 212:0 213:0 214:0.003311 215:0 216:0.013245 217:0 218:0 219:0.003311 220:0.006623 221:0 222:0 223:0.003311 224:0.003311 225:0.009934 226:0.019868 227:0.003311 228:0 229:0 230:0 231:0.003311 232:0 233:0 234:0.009934 235:0 236:0 237:0 238:0.003311 239:0 240:0 241:0 242:0 243:0.003311 244:0 245:0 246:0 247:0 248:0 249:0 250:0.013245 251:0.003311 252:0.033113 253:0 254:0 255:0 
2 0:0 1:0 2:0.029851 3:0 4:0 5:0 6:0 7:0.029851 8:0.014925 9:0 10:0 11:0.014925 12:0 13:0 14:0 15:0.014925 16:0 17:0 18:0 19:0.029851 20:0.014925 21:0 22:0 23:0 24:0 25:0.029851 26:0 27:0 28:0 29:0 30:0 31:0 32:0 33:0 34:0.014925 35:0 36:0 37:0 38:0 39:0 40:0 41:0.029851 42:0 43:0 44:0 45:0 46:0 47:0 48:0.029851 49:0 50:0 51:0 52:0 53:0 54:0 55:0 56:0 57:0.014925 58:0 59:0 60:0.029851 61:0 62:0 63:0 64:0 65:0 66:0 67:0 68:0 69:0 70:0 71:0 72:0 73:0 74:0.029851 75:0 76:0 77:0 78:0 79:0 80:0 81:0 82:0.014925 83:0 84:0 85:0 86:0.029851 87:0 88:0 89:0 90:0 91:0 92:0.014925 93:0 94:0 95:0 96:0 97:0 98:0 99:0.014925 100:0 101:0.014925 102:0 103:0 104:0 105:0 106:0 107:0 108:0 109:0 110:0 111:0 112:0 113:0 114:0 115:0 116:0 117:0 118:0 119:0 120:0 121:0 122:0 123:0 124:0 125:0 126:0 127:0 128:0 129:0 130:0 131:0 132:0 133:0 134:0 135:0 136:0 137:0 138:0 139:0 140:0 141:0 142:0.029851 143:0 144:0 145:0.014925 146:0 147:0 148:0 149:0.029851 150:0.074627 151:0 152:0 153:0 154:0 155:0 156:0 157:0 158:0 159:0 160:0 161:0 162:0 163:0 164:0 165:0 166:0 167:0.029851 168:0 169:0 170:0.044776 171:0 172:0 173:0 174:0 175:0.029851 176:0 177:0 178:0.014925 179:0.014925 180:0 181:0 182:0 183:0 184:0 185:0 186:0 187:0 188:0.014925 189:0 190:0 191:0 192:0 193:0 194:0 195:0.074627 196:0 197:0 198:0 199:0 200:0 201:0 202:0 203:0 204:0 205:0 206:0 207:0 208:0 209:0 210:0 211:0 212:0 213:0.014925 214:0 215:0 216:0 217:0 218:0 219:0 220:0.044776 221:0 222:0 223:0 224:0 225:0 226:0 227:0 228:0.029851 229:0 230:0 231:0 232:0 233:0 234:0 235:0 236:0 237:0 238:0 239:0 240:0.014925 241:0 242:0 243:0 244:0 245:0.014925 246:0 247:0 248:0 249:0 250:0.014925 251:0.074627 252:0 253:0 254:0 255:0 
2 0:0 1:0.004831 2:0 3:0 4:0.004831 5:0.009662 6:0.014493 7:0 8:0 9:0 10:0 11:0 12:0 13:0 14:0 15:0.009662 16:0 17:0 18:0 19:0.004831 20:0 21:0 22:0 23:0 24:0 25:0 26:0 27:0.014493 28:0 29:0.004831 30:0 31:0 32:0.05314 33:0 34:0 35:0 36:0.004831 37:0 38:0.004831 39:0.009662 40:0 41:0 42:0 43:0.024155 44:0 45:0.004831 46:0 47:0 48:0 49:0.004831 50:0 51:0 52:0 53:0 54:0 55:0 56:0.004831 57:0 58:0 59:0 60:0.024155 61:0.009662 62:0 63:0 64:0.082126 65:0.004831 66:0 67:0 68:0 69:0 70:0 71:0 72:0 73:0.014493 74:0 75:0.004831 76:0 77:0 78:0 79:0.009662 80:0.004831 81:0 82:0.014493 83:0.019324 84:0 85:0.014493 86:0 87:0.009662 88:0 89:0 90:0 91:0 92:0.004831 93:0.004831 94:0 95:0 96:0 97:0.004831 98:0 99:0.019324 100:0 101:0 102:0 103:0 104:0.009662 105:0 106:0 107:0 108:0 109:0 110:0 111:0.024155 112:0 113:0.043478 114:0 115:0.004831 116:0 117:0 118:0 119:0 120:0 121:0 122:0.004831 123:0 124:0 125:0 126:0 127:0 128:0 129:0 130:0 131:0.004831 132:0 133:0.004831 134:0 135:0 136:0.019324 137:0 138:0 139:0 140:0.004831 141:0 142:0.009662 143:0 144:0 145:0 146:0 147:0 148:0 149:0.033816 150:0.009662 151:0 152:0 153:0 154:0.004831 155:0 156:0 157:0.033816 158:0 159:0 160:0 161:0 162:0.004831 163:0.004831 164:0 165:0 166:0 167:0 168:0.019324 169:0 170:0.004831 171:0 172:0 173:0 174:0 175:0.004831 176:0.014493 177:0 178:0 179:0 180:0.004831 181:0 182:0.009662 183:0 184:0 185:0 186:0 187:0 188:0 189:0.004831 190:0.014493 191:0 192:0 193:0 194:0 195:0 196:0.004831 197:0.004831 198:0 199:0.009662 200:0.004831 201:0 202:0 203:0 204:0 205:0 206:0.033816 207:0 208:0 209:0 210:0 211:0.009662 212:0 213:0.004831 214:0 215:0 216:0 217:0.009662 218:0 219:0 220:0 221:0.014493 222:0 223:0.004831 224:0.004831 225:0.004831 226:0 227:0 228:0 229:0 230:0 231:0.009662 232:0 233:0 234:0.009662 235:0 236:0.024155 237:0 238:0.004831 239:0 240:0.004831 241:0 242:0.024155 243:0.004831 244:0 245:0 246:0.009662 247:0 248:0 249:0.05314 250:0 251:0.014493 252:0.004831 253:0 254:0 255:0 
2 0:0.002503 1:0.006258 2:0.005006 3:0 4:0.006258 5:0.005006 6:0.000626 7:0.001252 8:0.008135 9:0.006884 10:0.005006 11:0.005006 12:0.005006 13:0.002503 14:0.000626 15:0.01189 16:0.001877 17:0.001252 18:0.003129 19:0.001877 20:0.005006 21:0.00438 22:0.003755 23:0.002503 24:0 25:0.005632 26:0.005632 27:0.003129 28:0 29:0.006258 30:0.002503 31:0.006884 32:0.003755 33:0.005632 34:0.002503 35:0 36:0.003129 37:0.001877 38:0 39:0.008761 40:0 41:0.006884 42:0.006884 43:0.00438 44:0.001877 45:0.001877 46:0.002503 47:0.000626 48:0.005006 49:0.005006 50:0 51:0.013767 52:0.005006 53:0.003129 54:0.000626 55:0.001877 56:0.006258 57:0.003129 58:0.005006 59:0.001877 60:0.001877 61:0.002503 62:0.000626 63:0.006884 64:0.010013 65:0.006884 66:0.001252 67:0.002503 68:0.001252 69:0.001877 70:0.005006 71:0.001252 72:0 73:0.001252 74:0.001877 75:0.003755 76:0.002503 77:0.003129 78:0.00438 79:0.002503 80:0.022528 81:0.002503 82:0.009387 83:0.000626 84:0.003755 85:0.000626 86:0.010638 87:0.003129 88:0.006884 89:0.007509 90:0.001252 91:0.003129 92:0 93:0 94:0 95:0 96:0.00438 97:0.002503 98:0.001252 99:0.002503 100:0.005006 101:0.00438 102:0.003129 103:0.005006 104:0.003129 105:0.002503 106:0.000626 107:0.005632 108:0.006884 109:0.003129 110:0.008135 111:0.007509 112:0.001252 113:0 114:0.008761 115:0.001252 116:0.002503 117:0.001877 118:0.006258 119:0.001252 120:0.008761 121:0.00438 122:0.002503 123:0.001252 124:0.002503 125:0.006258 126:0.002503 127:0.003129 128:0.000626 129:0.007509 130:0 131:0.005632 132:0.001877 133:0.001877 134:0.002503 135:0.015645 136:0.003755 137:0.006258 138:0.003755 139:0.002503 140:0.015019 141:0.006258 142:0.001252 143:0.001252 144:0.001877 145:0.001877 146:0.00438 147:0.001877 148:0.003755 149:0.001877 150:0.00438 151:0.00438 152:0.003755 153:0.00438 154:0.008761 155:0.001877 156:0.003129 157:0 158:0.001877 159:0.001252 160:0.001877 161:0.001877 162:0.001252 163:0.001877 164:0.006258 165:0.002503 166:0.002503 167:0.003129 168:0.005632 169:0.002503 170:0.010013 171:0.005632 172:0.006884 173:0.005006 174:0.010013 175:0.000626 176:0.001877 177:0.001252 178:0.001877 179:0.003755 180:0 181:0.001252 182:0.00438 183:0.005006 184:0.002503 185:0.006258 186:0.001877 187:0.001877 188:0.003755 189:0.003129 190:0.003129 191:0.005632 192:0.005632 193:0.000626 194:0.000626 195:0.012516 196:0.001252 197:0.010013 198:0.000626 199:0.00438 200:0.003755 201:0.003755 202:0.007509 203:0.003755 204:0.003755 205:0.001877 206:0.003129 207:0.003129 208:0.00438 209:0.002503 210:0.001252 211:0.009387 212:0.002503 213:0.001877 214:0.008135 215:0 216:0.002503 217:0.001252 218:0.007509 219:0.002503 220:0.012516 221:0.002503 222:0.005006 223:0 224:0.010638 225:0.006258 226:0.003755 227:0.001252 228:0.007509 229:0.001252 230:0.002503 231:0.005632 232:0.002503 233:0.005006 234:0.005632 235:0.003129 236:0.005632 237:0.001252 238:0.012516 239:0.006258 240:0.001252 241:0.001877 242:0.006884 243:0.007509 244:0.006884 245:0.008135 246:0.005006 247:0.001877 248:0 249:0.00438 250:0.000626 251:0.010638 252:0.001877 253:0.005006 254:0.001877 255:0.00438 
2 0:0 1:0.002837 2:0.005674 3:0 4:0.005674 5:0.012766 6:0 7:0.001418 8:0 9:0.004255 10:0 11:0.001418 12:0.002837 13:0.004255 14:0.007092 15:0.001418 16:0.001418 17:0.005674 18:0 19:0 20:0 21:0 22:0.001418 23:0 24:0.005674 25:0.002837 26:0.002837 27:0.001418 28:0 29:0.002837 30:0.005674 31:0.002837 32:0.001418 33:0.004255 34:0.004255 35:0.001418 36:0.007092 37:0.008511 38:0 39:0.001418 40:0 41:0.004255 42:0.005674 43:0.008511 44:0.002837 45:0.002837 46:0.001418 47:0 48:0.007092 49:0.002837 50:0 51:0.001418 52:0.001418 53:0.001418 54:0 55:0.004255 56:0.004255 57:0.004255 58:0.021277 59:0.008511 60:0.004255 61:0.002837 62:0.001418 63:0.007092 64:0 65:0 66:0.009929 67:0.008511 68:0.002837 69:0.004255 70:0 71:0.002837 72:0 73:0.008511 74:0.002837 75:0.002837 76:0 77:0.001418 78:0.002837 79:0.008511 80:0 81:0.002837 82:0.001418 83:0.001418 84:0 85:0.005674 86:0.005674 87:0.004255 88:0 89:0.014184 90:0 91:0 92:0.008511 93:0.005674 94:0.004255 95:0.011348 96:0.011348 97:0.004255 98:0.005674 99:0.007092 100:0.001418 101:0.004255 102:0 103:0 104:0.005674 105:0.005674 106:0 107:0.002837 108:0.008511 109:0.012766 110:0.004255 111:0.021277 112:0.002837 113:0 114:0.004255 115:0.001418 116:0 117:0.002837 118:0.002837 119:0.011348 120:0.005674 121:0.004255 122:0.005674 123:0.001418 124:0.001418 125:0 126:0.002837 127:0.005674 128:0.001418 129:0 130:0.001418 131:0.007092 132:0.002837 133:0.002837 134:0.004255 135:0.012766 136:0.005674 137:0.004255 138:0.009929 139:0.008511 140:0.005674 141:0 142:0.002837 143:0.007092 144:0.002837 145:0 146:0.002837 147:0.001418 148:0.004255 149:0.001418 150:0.004255 151:0.004255 152:0.009929 153:0.001418 154:0.004255 155:0.001418 156:0 157:0.002837 158:0 159:0.001418 160:0.012766 161:0.004255 162:0.005674 163:0.004255 164:0.004255 165:0.005674 166:0.002837 167:0.004255 168:0.012766 169:0.002837 170:0 171:0.002837 172:0.009929 173:0.001418 174:0.001418 175:0.008511 176:0.005674 177:0.004255 178:0.002837 179:0 180:0.008511 181:0.001418 182:0.005674 183:0.001418 184:0 185:0.001418 186:0.005674 187:0.004255 188:0.004255 189:0.001418 190:0.002837 191:0.001418 192:0.011348 193:0.002837 194:0 195:0.001418 196:0.001418 197:0.004255 198:0.004255 199:0.007092 200:0.007092 201:0.001418 202:0.001418 203:0.004255 204:0.007092 205:0 206:0.002837 207:0.005674 208:0.009929 209:0 210:0 211:0.005674 212:0 213:0.001418 214:0 215:0.007092 216:0.002837 217:0.005674 218:0.001418 219:0.014184 220:0.001418 221:0.004255 222:0.015603 223:0 224:0.005674 225:0 226:0.002837 227:0.001418 228:0.009929 229:0.002837 230:0.012766 231:0.002837 232:0.005674 233:0.008511 234:0.001418 235:0.005674 236:0.002837 237:0.002837 238:0.001418 239:0.001418 240:0.008511 241:0.008511 242:0.007092 243:0 244:0.002837 245:0.008511 246:0.008511 247:0.008511 248:0.005674 249:0.001418 250:0 251:0.002837 252:0.001418 253:0.002837 254:0.001418 255:0.001418 
2 0:0.002044 1:0.002044 2:0.010218 3:0 4:0.004087 5:0.009537 6:0.004087 7:0.002044 8:0.001362 9:0.012262 10:0.002725 11:0.004768 12:0.001362 13:0.002044 14:0 15:0.000681 16:0.008856 17:0.004087 18:0 19:0.002725 20:0.004087 21:0.002725 22:0.000681 23:0 24:0 25:0.003406 26:0.008174 27:0.002044 28:0.001362 29:0.001362 30:0.002044 31:0.004087 32:0.004087 33:0.001362 34:0.002725 35:0.010218 36:0.003406 37:0.016349 38:0 39:0.001362 40:0.002044 41:0.003406 42:0.004087 43:0.004087 44:0 45:0.003406 46:0.000681 47:0.002044 48:0.002044 49:0.004087 50:0.001362 51:0.002044 52:0.004768 53:0.000681 54:0 55:0 56:0.002725 57:0.004768 58:0.01158 59:0.000681 60:0.004768 61:0.002725 62:0 63:0.006131 64:0.000681 65:0.001362 66:0.014305 67:0.000681 68:0.002044 69:0.004087 70:0.004087 71:0.013624 72:0.003406 73:0.002725 74:0.001362 75:0.015668 76:0.002044 77:0 78:0.002725 79:0.00545 80:0.007493 81:0.002044 82:0 83:0.002725 84:0 85:0.006131 86:0.010218 87:0.002044 88:0.000681 89:0.007493 90:0.000681 91:0 92:0.004087 93:0.002725 94:0.004087 95:0.014986 96:0.004087 97:0.002044 98:0.000681 99:0.004087 100:0.000681 101:0.014305 102:0.004768 103:0.002044 104:0.003406 105:0.00545 106:0.001362 107:0.002725 108:0.016349 109:0.009537 110:0.010899 111:0.008856 112:0 113:0.000681 114:0 115:0.000681 116:0.004087 117:0.002725 118:0.008856 119:0.002044 120:0.00545 121:0.004087 122:0.012943 123:0.00545 124:0.004768 125:0 126:0.002044 127:0.003406 128:0.004087 129:0.00545 130:0.002044 131:0.003406 132:0.002044 133:0.002044 134:0.002725 135:0.01158 136:0.018392 137:0.003406 138:0.001362 139:0.003406 140:0.00545 141:0.012262 142:0.006812 143:0.002725 144:0.014986 145:0.006812 146:0.010899 147:0.002044 148:0.001362 149:0.003406 150:0.008856 151:0.001362 152:0.000681 153:0.002044 154:0.006812 155:0.000681 156:0.001362 157:0.002044 158:0.002044 159:0.001362 160:0.003406 161:0.004087 162:0.003406 163:0.002725 164:0.004087 165:0.001362 166:0.002725 167:0.002725 168:0.00545 169:0 170:0.002044 171:0.004087 172:0.004087 173:0.004768 174:0.015668 175:0.002725 176:0.004768 177:0.002044 178:0.000681 179:0 180:0.002044 181:0.016349 182:0.003406 183:0.004087 184:0.000681 185:0.002044 186:0.013624 187:0.013624 188:0.001362 189:0.003406 190:0.002044 191:0.003406 192:0.004768 193:0.006131 194:0.00545 195:0.008856 196:0.008174 197:0.000681 198:0.001362 199:0.000681 200:0.002044 201:0.002725 202:0.01158 203:0.002725 204:0.002044 205:0.002725 206:0.002044 207:0.000681 208:0.012262 209:0.003406 210:0.002044 211:0.010218 212:0.000681 213:0.001362 214:0.002044 215:0.001362 216:0.000681 217:0.003406 218:0.001362 219:0.000681 220:0.010899 221:0.002725 222:0.002725 223:0.002044 224:0.008856 225:0.002044 226:0.003406 227:0.001362 228:0.002725 229:0.002044 230:0 231:0.009537 232:0.000681 233:0.001362 234:0.002725 235:0.000681 236:0.002725 237:0 238:0.002044 239:0.000681 240:0.002044 241:0.001362 242:0.010218 243:0.004087 244:0.006131 245:0.004087 246:0.003406 247:0.004087 248:0.001362 249:0.001362 250:0.001362 251:0.000681 252:0.002725 253:0.000681 254:0.002044 255:0.001362 
2 0:0 1:0 2:0 3:0 4:0 5:0 6:0 7:0 8:0 9:0 10:0 11:0 12:0 13:0 14:0 15:0 16:0.055556 17:0.055556 18:0 19:0 20:0 21:0 22:0 23:0 24:0 25:0 26:0 27:0 28:0 29:0 30:0 31:0 32:0 33:0 34:0 35:0 36:0 37:0 38:0 39:0 40:0 41:0 42:0 43:0 44:0 45:0 46:0 47:0 48:0 49:0 50:0 51:0 52:0 53:0 54:0 55:0 56:0 57:0 58:0 59:0 60:0 61:0 62:0 63:0 64:0 65:0 66:0 67:0 68:0 69:0 70:0 71:0 72:0 73:0.037037 74:0 75:0 76:0 77:0 78:0 79:0 80:0.018519 81:0 82:0.037037 83:0 84:0 85:0 86:0 87:0 88:0 89:0 90:0 91:0 92:0 93:0 94:0 95:0 96:0 97:0 98:0 99:0 100:0 101:0 102:0 103:0 104:0 105:0 106:0 107:0 108:0 109:0.018519 110:0.037037 111:0.018519 112:0 113:0 114:0 115:0 116:0 117:0 118:0 119:0 120:0 121:0 122:0.037037 123:0.018519 124:0.018519 125:0.018519 126:0 127:0 128:0 129:0 130:0 131:0 132:0 133:0 134:0 135:0 136:0 137:0 138:0 139:0 140:0 141:0 142:0 143:0 144:0 145:0 146:0 147:0 148:0 149:0.018519 150:0.037037 151:0 152:0 153:0 154:0 155:0.018519 156:0 157:0 158:0 159:0 160:0 161:0 162:0 163:0 164:0.018519 165:0 166:0.018519 167:0 168:0 169:0 170:0 171:0 172:0.018519 173:0 174:0 175:0 176:0.111111 177:0 178:0 179:0 180:0 181:0 182:0 183:0 184:0 185:0 186:0 187:0 188:0 189:0 190:0 191:0 192:0 193:0 194:0 195:0 196:0 197:0 198:0 199:0 200:0 201:0 202:0 203:0 204:0 205:0.018519 206:0.037037 207:0 208:0 209:0 210:0 211:0 212:0 213:0 214:0.055556 215:0 216:0 217:0 218:0 219:0 220:0.111111 221:0 222:0 223:0.018519 224:0.018519 225:0 226:0.018519 227:0 228:0 229:0 230:0 231:0 232:0 233:0 234:0.037037 235:0 236:0 237:0 238:0 239:0 240:0 241:0 242:0 243:0 244:0 245:0 246:0 247:0 248:0 249:0.055556 250:0 251:0.018519 252:0 253:0 254:0 255:0 
2 0:0.001317 1:0.001975 2:0.007242 3:0 4:0.002633 5:0.002633 6:0.000658 7:0.001317 8:0.003292 9:0.003292 10:0.001317 11:0.005267 12:0.005925 13:0.001975 14:0.003292 15:0.0158 16:0.01185 17:0.000658 18:0 19:0.001975 20:0.000658 21:0.001317 22:0.007242 23:0.001317 24:0.001975 25:0.007242 26:0.005267 27:0.003292 28:0.00395 29:0.001317 30:0.001975 31:0.001975 32:0.003292 33:0.00395 34:0.005267 35:0.001975 36:0.008558 37:0.006583 38:0.001317 39:0.001317 40:0 41:0.006583 42:0.003292 43:0.001317 44:0.007242 45:0.0079 46:0.005925 47:0.003292 48:0.010533 49:0.004608 50:0 51:0.000658 52:0.000658 53:0.005267 54:0.001317 55:0 56:0.004608 57:0.006583 58:0.006583 59:0 60:0.001317 61:0.001317 62:0 63:0.002633 64:0 65:0 66:0.010533 67:0.001975 68:0.001317 69:0.009217 70:0.002633 71:0.009875 72:0.005267 73:0 74:0.005925 75:0.030283 76:0.001317 77:0.00395 78:0.002633 79:0.00395 80:0.005267 81:0.005267 82:0.001975 83:0.001317 84:0.001975 85:0.001317 86:0.001317 87:0.01185 88:0.001317 89:0.000658 90:0.000658 91:0.000658 92:0.026991 93:0.006583 94:0 95:0.0237 96:0 97:0.00395 98:0.001975 99:0.003292 100:0 101:0.001975 102:0.010533 103:0.003292 104:0.002633 105:0.001317 106:0.000658 107:0.001975 108:0.001975 109:0.012508 110:0.020408 111:0.001317 112:0.003292 113:0.001317 114:0.007242 115:0 116:0.007242 117:0.001975 118:0.00395 119:0.002633 120:0.001317 121:0.002633 122:0.006583 123:0.006583 124:0.001975 125:0 126:0.002633 127:0 128:0.002633 129:0 130:0 131:0.004608 132:0.0079 133:0.000658 134:0.005925 135:0.002633 136:0.001317 137:0.003292 138:0.000658 139:0 140:0.001975 141:0 142:0.001975 143:0.0079 144:0.01975 145:0.001975 146:0.001975 147:0.005925 148:0.008558 149:0.00395 150:0.012508 151:0.004608 152:0.001317 153:0.001317 154:0.009217 155:0.001317 156:0.002633 157:0.030941 158:0.001317 159:0.000658 160:0 161:0.006583 162:0.005925 163:0.003292 164:0.001317 165:0.005925 166:0.002633 167:0.005267 168:0 169:0.001975 170:0.004608 171:0.012508 172:0.00395 173:0.003292 174:0 175:0.002633 176:0.000658 177:0.003292 178:0.000658 179:0.001317 180:0 181:0.010533 182:0.003292 183:0.001975 184:0.001975 185:0.005267 186:0.009217 187:0 188:0.002633 189:0 190:0.001975 191:0.005925 192:0.001317 193:0.010533 194:0 195:0.001975 196:0.002633 197:0.004608 198:0.005267 199:0.001317 200:0.001317 201:0.001975 202:0.009217 203:0.001975 204:0.005267 205:0.0079 206:0.000658 207:0.002633 208:0.018433 209:0.002633 210:0.005925 211:0.00395 212:0.007242 213:0.004608 214:0.0079 215:0.001975 216:0.003292 217:0 218:0.002633 219:0.006583 220:0.003292 221:0.005267 222:0.001317 223:0.001317 224:0.00395 225:0.000658 226:0.000658 227:0.002633 228:0.001317 229:0 230:0.001975 231:0.002633 232:0.001975 233:0.004608 234:0.001975 235:0.002633 236:0.001317 237:0.001317 238:0.000658 239:0.001975 240:0.001317 241:0.001317 242:0.005267 243:0.007242 244:0.001317 245:0.000658 246:0.005925 247:0 248:0 249:0.000658 250:0.001975 251:0.019092 252:0.005925 253:0.001317 254:0.002633 255:0.001317 
2 0:0.003937 1:0 2:0.017717 3:0 4:0.003937 5:0 6:0.001969 7:0.009843 8:0 9:0.009843 10:0 11:0.011811 12:0.001969 13:0 14:0 15:0.019685 16:0.005906 17:0.001969 18:0 19:0 20:0.001969 21:0.007874 22:0 23:0.005906 24:0 25:0.001969 26:0.015748 27:0 28:0 29:0 30:0.001969 31:0.001969 32:0 33:0.003937 34:0.001969 35:0 36:0 37:0.047244 38:0 39:0 40:0 41:0 42:0.001969 43:0.009843 44:0.003937 45:0 46:0 47:0.009843 48:0.001969 49:0.003937 50:0 51:0 52:0.001969 53:0.003937 54:0 55:0 56:0.003937 57:0.023622 58:0.025591 59:0 60:0.003937 61:0.001969 62:0 63:0.005906 64:0 65:0 66:0.035433 67:0 68:0.001969 69:0.007874 70:0.007874 71:0.027559 72:0.009843 73:0.001969 74:0.007874 75:0.011811 76:0 77:0 78:0 79:0.005906 80:0.005906 81:0.011811 82:0.003937 83:0.001969 84:0 85:0 86:0 87:0.003937 88:0 89:0 90:0 91:0 92:0.001969 93:0.001969 94:0 95:0.009843 96:0 97:0.001969 98:0 99:0 100:0.001969 101:0.007874 102:0.005906 103:0.005906 104:0 105:0 106:0 107:0 108:0.001969 109:0.007874 110:0 111:0 112:0.001969 113:0 114:0.003937 115:0 116:0 117:0.003937 118:0.031496 119:0.009843 120:0 121:0 122:0.023622 123:0.009843 124:0 125:0 126:0.005906 127:0.001969 128:0.003937 129:0 130:0.001969 131:0.011811 132:0.005906 133:0 134:0 135:0.003937 136:0.007874 137:0 138:0 139:0 140:0 141:0 142:0 143:0.007874 144:0.023622 145:0.003937 146:0.019685 147:0.011811 148:0.005906 149:0.001969 150:0 151:0 152:0 153:0 154:0.007874 155:0.001969 156:0 157:0.01378 158:0 159:0 160:0.001969 161:0 162:0.001969 163:0.001969 164:0.009843 165:0 166:0.001969 167:0.001969 168:0.003937 169:0 170:0.003937 171:0.001969 172:0 173:0 174:0 175:0 176:0 177:0.001969 178:0 179:0.001969 180:0 181:0.023622 182:0 183:0 184:0 185:0 186:0.011811 187:0.025591 188:0.007874 189:0 190:0.009843 191:0.003937 192:0 193:0.017717 194:0.001969 195:0.009843 196:0.003937 197:0 198:0 199:0.007874 200:0.005906 201:0 202:0.001969 203:0 204:0 205:0.015748 206:0 207:0.001969 208:0.003937 209:0 210:0.001969 211:0.007874 212:0 213:0.001969 214:0 215:0 216:0 217:0 218:0 219:0 220:0.007874 221:0 222:0 223:0 224:0.001969 225:0 226:0 227:0 228:0 229:0 230:0 231:0.003937 232:0 233:0.005906 234:0 235:0 236:0 237:0 238:0 239:0 240:0.007874 241:0.001969 242:0.009843 243:0.003937 244:0.001969 245:0 246:0.001969 247:0.001969 248:0 249:0 250:0.005906 251:0.033465 252:0.011811 253:0 254:0 255:0 
2 0:0 1:0.012945 2:0.003236 3:0 4:0 5:0.006472 6:0.001618 7:0.006472 8:0.001618 9:0.012945 10:0 11:0.008091 12:0.001618 13:0 14:0.001618 15:0.004854 16:0.02589 17:0.006472 18:0 19:0.004854 20:0 21:0 22:0 23:0.004854 24:0 25:0 26:0.022654 27:0.001618 28:0 29:0.001618 30:0.001618 31:0.003236 32:0.001618 33:0.001618 34:0 35:0.038835 36:0.012945 37:0.017799 38:0.008091 39:0 40:0 41:0.004854 42:0.008091 43:0.008091 44:0.004854 45:0.012945 46:0.001618 47:0.004854 48:0.017799 49:0.019417 50:0.001618 51:0 52:0.001618 53:0.001618 54:0 55:0.006472 56:0.012945 57:0.001618 58:0.001618 59:0 60:0.008091 61:0.001618 62:0 63:0.004854 64:0 65:0 66:0.001618 67:0 68:0 69:0 70:0.019417 71:0.004854 72:0.001618 73:0.004854 74:0.001618 75:0.001618 76:0 77:0 78:0.008091 79:0.003236 80:0.009709 81:0.006472 82:0 83:0 84:0 85:0.004854 86:0 87:0.004854 88:0 89:0.004854 90:0.003236 91:0 92:0.008091 93:0.009709 94:0 95:0.003236 96:0 97:0.001618 98:0 99:0.008091 100:0 101:0.001618 102:0.006472 103:0.001618 104:0 105:0 106:0 107:0.008091 108:0.012945 109:0.016181 110:0.009709 111:0 112:0.004854 113:0 114:0.004854 115:0 116:0 117:0 118:0.004854 119:0.006472 120:0 121:0.001618 122:0.004854 123:0.014563 124:0 125:0 126:0.003236 127:0.001618 128:0.001618 129:0 130:0 131:0.017799 132:0.003236 133:0 134:0.003236 135:0.009709 136:0.017799 137:0.001618 138:0.004854 139:0 140:0 141:0 142:0 143:0 144:0 145:0 146:0.006472 147:0 148:0.003236 149:0.001618 150:0.009709 151:0 152:0.001618 153:0.001618 154:0.004854 155:0 156:0 157:0.040453 158:0.003236 159:0 160:0 161:0.006472 162:0 163:0.003236 164:0.024272 165:0 166:0.001618 167:0 168:0 169:0 170:0.001618 171:0.001618 172:0.004854 173:0.003236 174:0 175:0 176:0.011327 177:0.004854 178:0 179:0.001618 180:0.003236 181:0.004854 182:0.006472 183:0.001618 184:0 185:0.003236 186:0.006472 187:0.02589 188:0.004854 189:0.004854 190:0.006472 191:0.004854 192:0.001618 193:0.001618 194:0.001618 195:0.006472 196:0.004854 197:0.004854 198:0 199:0.001618 200:0 201:0.006472 202:0 203:0.001618 204:0 205:0.003236 206:0 207:0 208:0.001618 209:0 210:0.006472 211:0.004854 212:0 213:0.001618 214:0.009709 215:0 216:0 217:0.003236 218:0 219:0 220:0.003236 221:0 222:0 223:0.001618 224:0.003236 225:0.006472 226:0 227:0 228:0.001618 229:0.004854 230:0.003236 231:0.011327 232:0 233:0 234:0.006472 235:0 236:0.003236 237:0 238:0 239:0 240:0.006472 241:0 242:0.035599 243:0 244:0.006472 245:0 246:0.006472 247:0.003236 248:0 249:0 250:0 251:0.003236 252:0.004854 253:0 254:0.001618 255:0 
2 0:0 1:0.005131 2:0.005131 3:0.00057 4:0.00171 5:0.006271 6:0.00171 7:0.002851 8:0.00114 9:0.00171 10:0.00057 11:0.012543 12:0.005701 13:0 14:0.002851 15:0.009122 16:0.005701 17:0.002851 18:0.00057 19:0.00057 20:0.002851 21:0.00114 22:0.00057 23:0.002851 24:0.00171 25:0.005131 26:0.019954 27:0.003421 28:0 29:0.00114 30:0.004561 31:0.012543 32:0.003421 33:0.003421 34:0.002851 35:0.007412 36:0.011973 37:0.002851 38:0.003421 39:0.003991 40:0.00057 41:0.009122 42:0.005131 43:0.006271 44:0 45:0.021095 46:0.00057 47:0.002851 48:0.002851 49:0.006271 50:0 51:0 52:0.00057 53:0.010832 54:0.00057 55:0.003421 56:0.015393 57:0.009692 58:0.00057 59:0 60:0 61:0.00057 62:0.002281 63:0.003421 64:0.002281 65:0 66:0.00171 67:0 68:0.00057 69:0.00114 70:0.010832 71:0.003991 72:0.007412 73:0 74:0.004561 75:0.00057 76:0.00171 77:0 78:0.003991 79:0.00114 80:0.007412 81:0.005131 82:0.003421 83:0.00114 84:0 85:0.006271 86:0.002281 87:0.004561 88:0 89:0.007412 90:0.002851 91:0.003991 92:0.002851 93:0.002851 94:0.00114 95:0.005701 96:0 97:0.003991 98:0.007412 99:0.003991 100:0.002851 101:0.00114 102:0.010262 103:0.005131 104:0.00057 105:0.00114 106:0.00057 107:0.013113 108:0.008552 109:0.00171 110:0.003421 111:0.003991 112:0.005701 113:0.00057 114:0.005131 115:0.00057 116:0 117:0.00114 118:0.014253 119:0.003421 120:0.00171 121:0.00171 122:0.004561 123:0.002281 124:0.003991 125:0.00114 126:0.005701 127:0.00114 128:0.002281 129:0.00114 130:0 131:0.011403 132:0.003991 133:0 134:0.006842 135:0.00171 136:0.003991 137:0.010262 138:0 139:0.00171 140:0.002851 141:0 142:0.005701 143:0.002281 144:0.006842 145:0.002851 146:0.005701 147:0.004561 148:0.007982 149:0.005701 150:0.002851 151:0.00114 152:0 153:0.003421 154:0.003991 155:0 156:0.00057 157:0.005701 158:0.005131 159:0.011403 160:0.002281 161:0.003421 162:0.006271 163:0.00057 164:0.003991 165:0.003421 166:0.011403 167:0.00114 168:0 169:0.002851 170:0.005701 171:0.010262 172:0.002851 173:0.003991 174:0 175:0.003421 176:0.009122 177:0.010262 178:0.00171 179:0.003421 180:0.00057 181:0.012543 182:0.003421 183:0.00057 184:0.002851 185:0.00171 186:0.00114 187:0.003991 188:0.005131 189:0.00171 190:0.003421 191:0.00057 192:0.005701 193:0.003421 194:0.003991 195:0.006842 196:0.008552 197:0.007982 198:0.00114 199:0.002851 200:0.003421 201:0.014823 202:0.011973 203:0.003421 204:0.00057 205:0.004561 206:0.009692 207:0.008552 208:0.003991 209:0.00057 210:0.013683 211:0.002851 212:0.00057 213:0.003421 214:0.006842 215:0 216:0.00114 217:0.00114 218:0.004561 219:0.002281 220:0.006842 221:0.002851 222:0 223:0.003421 224:0.012543 225:0.017104 226:0.003421 227:0 228:0.00171 229:0.00057 230:0.004561 231:0.014823 232:0 233:0.00114 234:0.009692 235:0.002281 236:0.00114 237:0 238:0.00057 239:0.002281 240:0.002851 241:0.002281 242:0.013683 243:0.004561 244:0.00171 245:0.00114 246:0.002851 247:0.002851 248:0.002281 249:0.002281 250:0.002281 251:0.005131 252:0.002281 253:0.002281 254:0 255:0.00057 
2 0:0 1:0.001008 2:0.013105 3:0 4:0.002016 5:0.009073 6:0.002016 7:0.00504 8:0.003024 9:0.001008 10:0.004032 11:0.004032 12:0.002016 13:0 14:0.003024 15:0.003024 16:0.007056 17:0.012097 18:0 19:0.003024 20:0.00504 21:0 22:0 23:0.001008 24:0 25:0.004032 26:0.010081 27:0.003024 28:0 29:0.003024 30:0.003024 31:0.003024 32:0.002016 33:0.004032 34:0.006048 35:0.008065 36:0.013105 37:0.010081 38:0.001008 39:0.001008 40:0 41:0.002016 42:0.010081 43:0.009073 44:0 45:0.001008 46:0 47:0.003024 48:0.025202 49:0.003024 50:0.001008 51:0 52:0.001008 53:0.003024 54:0 55:0.009073 56:0.002016 57:0.006048 58:0.004032 59:0 60:0.004032 61:0.002016 62:0.001008 63:0 64:0 65:0 66:0.00504 67:0 68:0.001008 69:0 70:0.002016 71:0.010081 72:0.007056 73:0.003024 74:0.009073 75:0.008065 76:0.001008 77:0 78:0.007056 79:0.009073 80:0.004032 81:0.001008 82:0 83:0.001008 84:0 85:0.004032 86:0.001008 87:0.004032 88:0 89:0.016129 90:0.001008 91:0.006048 92:0.008065 93:0.009073 94:0 95:0.00504 96:0 97:0.004032 98:0 99:0.007056 100:0.004032 101:0.007056 102:0.006048 103:0.006048 104:0 105:0 106:0 107:0.001008 108:0.008065 109:0.002016 110:0.00504 111:0.012097 112:0.006048 113:0.001008 114:0.003024 115:0 116:0 117:0 118:0.015121 119:0.003024 120:0 121:0.001008 122:0.018145 123:0.010081 124:0.001008 125:0 126:0.001008 127:0.007056 128:0.002016 129:0 130:0.001008 131:0.020161 132:0.004032 133:0 134:0.003024 135:0.00504 136:0.004032 137:0.003024 138:0 139:0.001008 140:0.002016 141:0 142:0.011089 143:0.003024 144:0.010081 145:0.012097 146:0.011089 147:0.007056 148:0.003024 149:0.012097 150:0.008065 151:0 152:0 153:0 154:0.009073 155:0.001008 156:0 157:0.013105 158:0.003024 159:0.001008 160:0 161:0.014113 162:0.003024 163:0.001008 164:0.013105 165:0.002016 166:0 167:0 168:0.001008 169:0.001008 170:0.006048 171:0.007056 172:0.00504 173:0 174:0.001008 175:0 176:0.010081 177:0.008065 178:0 179:0.002016 180:0 181:0.010081 182:0.004032 183:0.001008 184:0 185:0.002016 186:0.010081 187:0.013105 188:0.00504 189:0.001008 190:0.003024 191:0.002016 192:0.006048 193:0.006048 194:0.009073 195:0.010081 196:0.002016 197:0.006048 198:0.001008 199:0.008065 200:0 201:0.007056 202:0.007056 203:0.003024 204:0 205:0.004032 206:0 207:0 208:0.00504 209:0 210:0.001008 211:0.006048 212:0.002016 213:0.004032 214:0.00504 215:0 216:0.006048 217:0 218:0 219:0.010081 220:0.014113 221:0 222:0 223:0.001008 224:0.008065 225:0.004032 226:0.001008 227:0.003024 228:0.002016 229:0.001008 230:0.002016 231:0.009073 232:0 233:0.009073 234:0.003024 235:0.001008 236:0.003024 237:0.002016 238:0.001008 239:0 240:0.006048 241:0 242:0.023185 243:0.001008 244:0.011089 245:0 246:0.002016 247:0 248:0 249:0.002016 250:0.003024 251:0.004032 252:0.00504 253:0.002016 254:0 255:0 
2 0:0.001259 1:0.001259 2:0 3:0.002519 4:0.007557 5:0.012594 6:0.002519 7:0.001259 8:0.001259 9:0.001259 10:0.001259 11:0.002519 12:0.005038 13:0 14:0 15:0.001259 16:0.002519 17:0.025189 18:0 19:0 20:0.008816 21:0.002519 22:0 23:0.005038 24:0.002519 25:0.001259 26:0.007557 27:0.006297 28:0 29:0.001259 30:0.003778 31:0.008816 32:0 33:0.005038 34:0 35:0.001259 36:0.006297 37:0.007557 38:0.002519 39:0 40:0.005038 41:0 42:0.001259 43:0.010076 44:0.001259 45:0.003778 46:0.001259 47:0.001259 48:0.003778 49:0.006297 50:0.003778 51:0 52:0.003778 53:0.002519 54:0.001259 55:0.001259 56:0.001259 57:0.001259 58:0.005038 59:0.003778 60:0 61:0.005038 62:0.005038 63:0.002519 64:0.006297 65:0.001259 66:0.013854 67:0.003778 68:0.003778 69:0 70:0.003778 71:0.008816 72:0.003778 73:0.020151 74:0.002519 75:0.002519 76:0.001259 77:0.001259 78:0.005038 79:0 80:0.006297 81:0.003778 82:0 83:0 84:0.006297 85:0 86:0 87:0.003778 88:0 89:0 90:0 91:0 92:0.003778 93:0 94:0.003778 95:0.008816 96:0.005038 97:0.002519 98:0 99:0.005038 100:0 101:0.008816 102:0 103:0 104:0.001259 105:0 106:0 107:0.008816 108:0.012594 109:0.008816 110:0 111:0.021411 112:0.001259 113:0.006297 114:0.007557 115:0 116:0.013854 117:0 118:0.006297 119:0 120:0.016373 121:0.005038 122:0.002519 123:0.006297 124:0 125:0.006297 126:0 127:0.003778 128:0.002519 129:0.001259 130:0 131:0.008816 132:0.003778 133:0 134:0.002519 135:0.008816 136:0.013854 137:0.011335 138:0.001259 139:0.002519 140:0.001259 141:0.001259 142:0.002519 143:0.003778 144:0.003778 145:0.007557 146:0.016373 147:0.013854 148:0.002519 149:0 150:0.001259 151:0.002519 152:0.016373 153:0.001259 154:0.005038 155:0.007557 156:0 157:0.005038 158:0.001259 159:0 160:0.003778 161:0.001259 162:0.003778 163:0.002519 164:0.011335 165:0.002519 166:0.001259 167:0.002519 168:0.002519 169:0.003778 170:0 171:0.006297 172:0.005038 173:0.007557 174:0.001259 175:0 176:0 177:0.010076 178:0.005038 179:0.001259 180:0 181:0.001259 182:0.003778 183:0.002519 184:0 185:0.006297 186:0.008816 187:0.005038 188:0.006297 189:0 190:0.003778 191:0.005038 192:0.002519 193:0.002519 194:0.002519 195:0.003778 196:0.002519 197:0.006297 198:0.006297 199:0.013854 200:0.007557 201:0.001259 202:0.020151 203:0.001259 204:0.003778 205:0.017632 206:0 207:0.005038 208:0.002519 209:0 210:0.005038 211:0.008816 212:0.001259 213:0 214:0.001259 215:0 216:0.001259 217:0 218:0 219:0.010076 220:0.002519 221:0 222:0.021411 223:0 224:0.003778 225:0.003778 226:0.001259 227:0.001259 228:0 229:0 230:0.001259 231:0.015113 232:0.003778 233:0 234:0.002519 235:0.002519 236:0.007557 237:0.001259 238:0.005038 239:0 240:0.006297 241:0.001259 242:0.001259 243:0.007557 244:0.005038 245:0.02267 246:0.005038 247:0.002519 248:0 249:0 250:0 251:0.001259 252:0.002519 253:0.002519 254:0.001259 255:0.001259 
2 0:0.001698 1:0 2:0.011885 3:0 4:0.008489 5:0.011885 6:0.010187 7:0.005093 8:0.006791 9:0.006791 10:0 11:0.008489 12:0 13:0.001698 14:0.005093 15:0.005093 16:0.011885 17:0.001698 18:0 19:0 20:0.005093 21:0.003396 22:0.001698 23:0.003396 24:0.001698 25:0.001698 26:0.008489 27:0.003396 28:0 29:0.003396 30:0.013582 31:0.005093 32:0.003396 33:0.020374 34:0.001698 35:0.006791 36:0.006791 37:0.005093 38:0.001698 39:0.001698 40:0.001698 41:0 42:0.001698 43:0.008489 44:0.003396 45:0.006791 46:0.001698 47:0.006791 48:0.001698 49:0.003396 50:0 51:0 52:0.001698 53:0.005093 54:0.001698 55:0.001698 56:0.001698 57:0.018676 58:0.001698 59:0 60:0.008489 61:0.005093 62:0.001698 63:0.006791 64:0 65:0.001698 66:0.005093 67:0 68:0.003396 69:0.006791 70:0.005093 71:0.022071 72:0.011885 73:0.003396 74:0.005093 75:0 76:0 77:0.005093 78:0.001698 79:0.001698 80:0.003396 81:0.010187 82:0 83:0 84:0.003396 85:0.003396 86:0.003396 87:0.001698 88:0 89:0 90:0 91:0 92:0.001698 93:0 94:0 95:0.003396 96:0 97:0 98:0.006791 99:0.003396 100:0.001698 101:0.005093 102:0.008489 103:0.001698 104:0.003396 105:0 106:0 107:0.003396 108:0.005093 109:0.006791 110:0.008489 111:0.001698 112:0.011885 113:0.005093 114:0.003396 115:0 116:0.001698 117:0 118:0.011885 119:0.011885 120:0.003396 121:0.001698 122:0.016978 123:0.003396 124:0.003396 125:0.001698 126:0.001698 127:0.013582 128:0.008489 129:0.006791 130:0.005093 131:0.005093 132:0.010187 133:0.001698 134:0 135:0.001698 136:0.001698 137:0.006791 138:0.001698 139:0 140:0.003396 141:0.005093 142:0.006791 143:0.003396 144:0.006791 145:0.005093 146:0 147:0.003396 148:0.006791 149:0.008489 150:0.001698 151:0 152:0 153:0 154:0.008489 155:0 156:0.001698 157:0.001698 158:0 159:0.016978 160:0 161:0.006791 162:0.001698 163:0.001698 164:0.003396 165:0 166:0.01528 167:0 168:0.010187 169:0.008489 170:0.008489 171:0.001698 172:0.005093 173:0.001698 174:0.003396 175:0.008489 176:0.003396 177:0 178:0.001698 179:0 180:0 181:0.018676 182:0.001698 183:0.005093 184:0.001698 185:0 186:0.003396 187:0.010187 188:0.003396 189:0 190:0.005093 191:0.001698 192:0.001698 193:0 194:0 195:0.008489 196:0.006791 197:0 198:0 199:0 200:0.005093 201:0 202:0.001698 203:0 204:0 205:0.013582 206:0 207:0.001698 208:0.001698 209:0.001698 210:0.011885 211:0.006791 212:0 213:0 214:0.003396 215:0 216:0 217:0 218:0 219:0.006791 220:0.006791 221:0.008489 222:0.003396 223:0 224:0.008489 225:0.001698 226:0.001698 227:0.001698 228:0.005093 229:0.001698 230:0 231:0.006791 232:0 233:0.003396 234:0 235:0.005093 236:0 237:0 238:0.001698 239:0 240:0.01528 241:0 242:0.018676 243:0.001698 244:0 245:0 246:0.001698 247:0.001698 248:0.005093 249:0 250:0.010187 251:0.010187 252:0.008489 253:0.001698 254:0 255:0 
2 0:0 1:0.002632 2:0.007895 3:0 4:0.005263 5:0 6:0 7:0.002632 8:0.002632 9:0.026316 10:0 11:0.002632 12:0.002632 13:0 14:0 15:0 16:0.021053 17:0.018421 18:0 19:0 20:0 21:0 22:0 23:0 24:0 25:0 26:0.015789 27:0 28:0 29:0 30:0 31:0 32:0 33:0 34:0 35:0.015789 36:0.005263 37:0.055263 38:0 39:0 40:0 41:0.002632 42:0 43:0.007895 44:0 45:0 46:0 47:0 48:0.002632 49:0.007895 50:0 51:0 52:0 53:0 54:0 55:0 56:0.007895 57:0 58:0.034211 59:0 60:0.013158 61:0.007895 62:0 63:0 64:0 65:0 66:0.042105 67:0 68:0 69:0 70:0 71:0.055263 72:0 73:0.002632 74:0 75:0.018421 76:0 77:0 78:0 79:0.007895 80:0.002632 81:0 82:0 83:0 84:0 85:0 86:0 87:0.013158 88:0 89:0.005263 90:0 91:0 92:0.007895 93:0 94:0 95:0.026316 96:0 97:0 98:0 99:0.002632 100:0 101:0 102:0.005263 103:0 104:0 105:0 106:0 107:0 108:0.018421 109:0.015789 110:0.013158 111:0 112:0.007895 113:0 114:0 115:0 116:0 117:0 118:0.023684 119:0 120:0.002632 121:0 122:0.023684 123:0.010526 124:0 125:0 126:0 127:0 128:0 129:0 130:0.002632 131:0.047368 132:0.002632 133:0 134:0 135:0 136:0 137:0.010526 138:0.002632 139:0 140:0 141:0 142:0 143:0 144:0.015789 145:0 146:0.007895 147:0 148:0 149:0.021053 150:0 151:0 152:0 153:0 154:0.010526 155:0 156:0 157:0.094737 158:0 159:0 160:0 161:0 162:0 163:0 164:0 165:0 166:0.002632 167:0 168:0 169:0.002632 170:0.002632 171:0 172:0 173:0.002632 174:0.002632 175:0 176:0.005263 177:0 178:0 179:0 180:0 181:0.021053 182:0 183:0 184:0 185:0 186:0.002632 187:0.015789 188:0 189:0 190:0.005263 191:0.005263 192:0 193:0.026316 194:0 195:0 196:0 197:0.013158 198:0.002632 199:0 200:0.002632 201:0 202:0 203:0 204:0 205:0.023684 206:0 207:0 208:0.013158 209:0 210:0 211:0 212:0 213:0 214:0 215:0 216:0 217:0 218:0 219:0.005263 220:0.007895 221:0 222:0 223:0 224:0.005263 225:0 226:0 227:0 228:0 229:0 230:0 231:0.002632 232:0 233:0 234:0 235:0.002632 236:0 237:0 238:0 239:0 240:0.015789 241:0 242:0.007895 243:0 244:0 245:0 246:0 247:0 248:0 249:0 250:0.002632 251:0.007895 252:0.002632 253:0 254:0 255:0 
2 0:0 1:0.003407 2:0.005111 3:0 4:0.005111 5:0 6:0 7:0 8:0 9:0.025554 10:0 11:0.010221 12:0.003407 13:0.003407 14:0 15:0.010221 16:0.017036 17:0.008518 18:0 19:0.001704 20:0 21:0.001704 22:0.013629 23:0 24:0 25:0.001704 26:0.003407 27:0.001704 28:0 29:0 30:0.001704 31:0.003407 32:0 33:0.001704 34:0.003407 35:0.010221 36:0.011925 37:0.006814 38:0 39:0 40:0 41:0.006814 42:0 43:0.003407 44:0 45:0.003407 46:0.001704 47:0.003407 48:0.003407 49:0.001704 50:0 51:0 52:0 53:0.001704 54:0 55:0 56:0.001704 57:0.005111 58:0.022147 59:0 60:0.001704 61:0.001704 62:0 63:0.013629 64:0 65:0 66:0.063032 67:0.003407 68:0 69:0 70:0.011925 71:0.015332 72:0.003407 73:0.006814 74:0.005111 75:0.025554 76:0 77:0 78:0.001704 79:0.006814 80:0 81:0 82:0.001704 83:0 84:0 85:0.001704 86:0 87:0.001704 88:0 89:0.001704 90:0 91:0 92:0.006814 93:0.008518 94:0 95:0.034072 96:0 97:0.006814 98:0 99:0.003407 100:0.001704 101:0.001704 102:0.001704 103:0.003407 104:0 105:0 106:0 107:0.001704 108:0.013629 109:0.005111 110:0.010221 111:0.005111 112:0.001704 113:0 114:0.006814 115:0.001704 116:0.005111 117:0 118:0.003407 119:0 120:0 121:0.005111 122:0.008518 123:0.032368 124:0 125:0 126:0.006814 127:0.001704 128:0 129:0 130:0 131:0 132:0.003407 133:0.003407 134:0.010221 135:0.015332 136:0.010221 137:0.001704 138:0.001704 139:0.001704 140:0.003407 141:0 142:0.001704 143:0 144:0.020443 145:0 146:0.015332 147:0.001704 148:0.003407 149:0.001704 150:0 151:0 152:0 153:0.001704 154:0.040886 155:0.001704 156:0 157:0.003407 158:0 159:0 160:0.028961 161:0.005111 162:0.005111 163:0 164:0.020443 165:0.011925 166:0 167:0 168:0.003407 169:0 170:0.005111 171:0.005111 172:0.008518 173:0 174:0 175:0.001704 176:0 177:0.006814 178:0 179:0.001704 180:0 181:0.006814 182:0 183:0 184:0 185:0.001704 186:0.006814 187:0.005111 188:0 189:0.001704 190:0.003407 191:0 192:0 193:0.001704 194:0.001704 195:0 196:0.001704 197:0.001704 198:0.001704 199:0.011925 200:0.011925 201:0.005111 202:0.006814 203:0.001704 204:0 205:0.008518 206:0 207:0 208:0.015332 209:0 210:0 211:0.008518 212:0.003407 213:0 214:0.001704 215:0 216:0 217:0 218:0 219:0.005111 220:0.008518 221:0.001704 222:0.001704 223:0 224:0.001704 225:0 226:0.001704 227:0.001704 228:0 229:0 230:0.001704 231:0.028961 232:0.001704 233:0.001704 234:0 235:0.001704 236:0.003407 237:0.003407 238:0 239:0 240:0.003407 241:0 242:0 243:0 244:0 245:0.001704 246:0.001704 247:0.006814 248:0 249:0 250:0 251:0.006814 252:0.001704 253:0 254:0.003407 255:0 
2 0:0 1:0 2:0.009524 3:0 4:0.004762 5:0 6:0.004762 7:0.004762 8:0.004762 9:0.030952 10:0 11:0.009524 12:0.004762 13:0 14:0.002381 15:0 16:0.02381 17:0.004762 18:0.002381 19:0 20:0 21:0.004762 22:0 23:0 24:0 25:0 26:0.014286 27:0 28:0 29:0 30:0 31:0.002381 32:0 33:0 34:0 35:0.014286 36:0.002381 37:0.030952 38:0 39:0 40:0 41:0 42:0 43:0.007143 44:0 45:0.002381 46:0 47:0 48:0 49:0.014286 50:0 51:0 52:0.002381 53:0.016667 54:0 55:0.002381 56:0 57:0.004762 58:0.064286 59:0 60:0.009524 61:0 62:0 63:0 64:0 65:0 66:0.052381 67:0 68:0.007143 69:0.004762 70:0 71:0.019048 72:0.007143 73:0 74:0 75:0.009524 76:0 77:0 78:0.004762 79:0.007143 80:0.004762 81:0.004762 82:0 83:0 84:0 85:0.002381 86:0 87:0.004762 88:0 89:0.014286 90:0 91:0 92:0.014286 93:0.002381 94:0.002381 95:0.028571 96:0 97:0 98:0 99:0 100:0 101:0 102:0.004762 103:0.002381 104:0 105:0 106:0 107:0 108:0 109:0.002381 110:0.014286 111:0.002381 112:0.004762 113:0 114:0 115:0 116:0 117:0.002381 118:0.011905 119:0.004762 120:0 121:0 122:0.035714 123:0.007143 124:0 125:0 126:0 127:0 128:0 129:0 130:0 131:0.033333 132:0 133:0 134:0 135:0 136:0 137:0 138:0 139:0 140:0 141:0 142:0.004762 143:0.004762 144:0.040476 145:0 146:0.004762 147:0 148:0 149:0.009524 150:0 151:0 152:0 153:0 154:0.007143 155:0 156:0 157:0.02381 158:0 159:0 160:0 161:0 162:0 163:0.002381 164:0.011905 165:0 166:0.002381 167:0.002381 168:0.011905 169:0 170:0.019048 171:0 172:0 173:0 174:0 175:0 176:0.002381 177:0.004762 178:0 179:0 180:0 181:0.011905 182:0.004762 183:0.007143 184:0 185:0.004762 186:0.011905 187:0.02381 188:0.004762 189:0 190:0 191:0.021429 192:0 193:0.021429 194:0.002381 195:0 196:0.007143 197:0.002381 198:0 199:0.002381 200:0.014286 201:0 202:0 203:0 204:0 205:0.028571 206:0 207:0 208:0 209:0 210:0 211:0 212:0 213:0 214:0 215:0 216:0 217:0 218:0 219:0.002381 220:0.007143 221:0 222:0 223:0 224:0 225:0 226:0 227:0 228:0 229:0 230:0 231:0 232:0 233:0.004762 234:0 235:0 236:0 237:0 238:0.007143 239:0 240:0.004762 241:0 242:0.02381 243:0.002381 244:0 245:0 246:0.004762 247:0 248:0 249:0 250:0 251:0.002381 252:0.002381 253:0 254:0 255:0 
2 0:0 1:0.008351 2:0.006263 3:0.002088 4:0 5:0.002088 6:0 7:0.002088 8:0 9:0.018789 10:0 11:0 12:0 13:0 14:0 15:0.020877 16:0.012526 17:0.022965 18:0 19:0.002088 20:0.002088 21:0.002088 22:0 23:0 24:0 25:0.004175 26:0.012526 27:0.004175 28:0 29:0.004175 30:0.002088 31:0.008351 32:0 33:0 34:0.004175 35:0.035491 36:0.002088 37:0.025052 38:0 39:0.002088 40:0.002088 41:0.006263 42:0 43:0.004175 44:0.002088 45:0.006263 46:0 47:0 48:0 49:0.022965 50:0 51:0 52:0 53:0 54:0 55:0.002088 56:0.012526 57:0.002088 58:0.010438 59:0 60:0.006263 61:0 62:0.008351 63:0 64:0 65:0 66:0.008351 67:0 68:0 69:0 70:0.006263 71:0.008351 72:0.004175 73:0.004175 74:0.006263 75:0.010438 76:0.002088 77:0.002088 78:0.006263 79:0.002088 80:0.002088 81:0 82:0.002088 83:0.002088 84:0 85:0 86:0.002088 87:0.002088 88:0 89:0.004175 90:0 91:0.004175 92:0.006263 93:0.002088 94:0 95:0.010438 96:0 97:0.010438 98:0 99:0.002088 100:0 101:0 102:0.004175 103:0.004175 104:0.002088 105:0 106:0 107:0.002088 108:0.004175 109:0.004175 110:0.014614 111:0.002088 112:0.014614 113:0 114:0.002088 115:0.004175 116:0 117:0 118:0.006263 119:0 120:0 121:0 122:0.014614 123:0.002088 124:0 125:0.002088 126:0.002088 127:0.002088 128:0 129:0 130:0 131:0.008351 132:0 133:0 134:0.006263 135:0.004175 136:0.006263 137:0.004175 138:0 139:0 140:0.004175 141:0.006263 142:0.002088 143:0 144:0.012526 145:0.006263 146:0.004175 147:0 148:0.002088 149:0.02714 150:0.004175 151:0 152:0 153:0.002088 154:0.006263 155:0 156:0 157:0.004175 158:0.012526 159:0 160:0 161:0.002088 162:0.006263 163:0.004175 164:0.029228 165:0.002088 166:0.002088 167:0.008351 168:0.018789 169:0 170:0.002088 171:0.004175 172:0.010438 173:0 174:0 175:0.002088 176:0.004175 177:0.002088 178:0 179:0.002088 180:0.004175 181:0.014614 182:0 183:0.004175 184:0 185:0 186:0.002088 187:0.010438 188:0.002088 189:0 190:0.006263 191:0.010438 192:0.006263 193:0.004175 194:0.012526 195:0.008351 196:0 197:0.008351 198:0.002088 199:0.008351 200:0.008351 201:0.004175 202:0.010438 203:0 204:0.002088 205:0.031315 206:0.004175 207:0 208:0.008351 209:0 210:0 211:0.002088 212:0 213:0.002088 214:0.002088 215:0 216:0 217:0 218:0.004175 219:0 220:0.002088 221:0 222:0.006263 223:0 224:0 225:0.008351 226:0.002088 227:0 228:0 229:0.008351 230:0 231:0.020877 232:0 233:0.004175 234:0.002088 235:0 236:0.008351 237:0 238:0 239:0 240:0.002088 241:0 242:0.006263 243:0.006263 244:0 245:0.006263 246:0.004175 247:0 248:0.006263 249:0 250:0 251:0.004175 252:0.004175 253:0 254:0 255:0 
2 0:0 1:0.009524 2:0.004233 3:0 4:0.004233 5:0.001058 6:0.005291 7:0.001058 8:0.001058 9:0.021164 10:0 11:0.005291 12:0.003175 13:0.002116 14:0.002116 15:0.003175 16:0.006349 17:0.012698 18:0 19:0 20:0.001058 21:0.004233 22:0.007407 23:0.001058 24:0 25:0.002116 26:0.020106 27:0.001058 28:0.002116 29:0 30:0.009524 31:0.003175 32:0 33:0.008466 34:0 35:0.005291 36:0.009524 37:0.046561 38:0 39:0.012698 40:0 41:0.004233 42:0.001058 43:0.004233 44:0 45:0.024339 46:0 47:0.001058 48:0.002116 49:0.001058 50:0.001058 51:0 52:0 53:0 54:0 55:0.001058 56:0.007407 57:0.004233 58:0.01164 59:0 60:0.003175 61:0.004233 62:0 63:0.006349 64:0.004233 65:0 66:0.019048 67:0.004233 68:0.007407 69:0.001058 70:0.007407 71:0.035979 72:0 73:0.003175 74:0.002116 75:0.005291 76:0.001058 77:0 78:0.003175 79:0.005291 80:0.002116 81:0.002116 82:0.003175 83:0 84:0.001058 85:0.001058 86:0 87:0.002116 88:0 89:0.003175 90:0.003175 91:0.001058 92:0.008466 93:0 94:0 95:0.013757 96:0.003175 97:0 98:0.001058 99:0.001058 100:0.001058 101:0 102:0.005291 103:0.002116 104:0.001058 105:0 106:0 107:0.005291 108:0.014815 109:0.010582 110:0.015873 111:0.003175 112:0.003175 113:0 114:0.001058 115:0.001058 116:0 117:0.002116 118:0.009524 119:0 120:0.002116 121:0.001058 122:0.008466 123:0.01164 124:0.001058 125:0.005291 126:0.008466 127:0.001058 128:0 129:0 130:0.001058 131:0.010582 132:0.01164 133:0 134:0 135:0.005291 136:0.003175 137:0.003175 138:0 139:0.001058 140:0.001058 141:0 142:0.002116 143:0.002116 144:0.012698 145:0.008466 146:0.013757 147:0 148:0.001058 149:0.005291 150:0 151:0.001058 152:0.003175 153:0.007407 154:0.007407 155:0 156:0.004233 157:0.019048 158:0.003175 159:0 160:0.005291 161:0.004233 162:0.009524 163:0.001058 164:0.01164 165:0.004233 166:0.004233 167:0.001058 168:0.003175 169:0.001058 170:0.002116 171:0.006349 172:0.004233 173:0.004233 174:0 175:0 176:0 177:0.013757 178:0.001058 179:0 180:0 181:0.010582 182:0.004233 183:0 184:0 185:0.001058 186:0.008466 187:0.020106 188:0.002116 189:0 190:0.001058 191:0 192:0.003175 193:0.019048 194:0.001058 195:0.003175 196:0.002116 197:0.002116 198:0.001058 199:0.003175 200:0.003175 201:0.004233 202:0.004233 203:0.004233 204:0.002116 205:0.013757 206:0.001058 207:0 208:0.005291 209:0 210:0.002116 211:0.001058 212:0.003175 213:0 214:0.009524 215:0 216:0 217:0 218:0.006349 219:0 220:0.002116 221:0.001058 222:0.003175 223:0 224:0.004233 225:0.006349 226:0.008466 227:0.001058 228:0 229:0.001058 230:0 231:0.013757 232:0.001058 233:0.001058 234:0.007407 235:0.001058 236:0 237:0.001058 238:0 239:0 240:0.004233 241:0.001058 242:0.009524 243:0.003175 244:0 245:0.005291 246:0 247:0.004233 248:0 249:0.005291 250:0.001058 251:0.004233 252:0.004233 253:0 254:0 255:0.001058 
2 0:0 1:0.016736 2:0.004184 3:0 4:0 5:0.004184 6:0.004184 7:0 8:0.008368 9:0 10:0 11:0 12:0 13:0 14:0 15:0.016736 16:0 17:0.008368 18:0.004184 19:0.008368 20:0.008368 21:0 22:0 23:0.012552 24:0 25:0.004184 26:0 27:0.012552 28:0 29:0.029289 30:0 31:0.004184 32:0.008368 33:0.012552 34:0 35:0 36:0 37:0.004184 38:0.004184 39:0 40:0 41:0 42:0.004184 43:0 44:0 45:0 46:0 47:0 48:0.058577 49:0.004184 50:0 51:0 52:0 53:0.004184 54:0 55:0 56:0 57:0 58:0 59:0 60:0 61:0 62:0 63:0.012552 64:0 65:0.008368 66:0 67:0 68:0 69:0 70:0.004184 71:0.012552 72:0.004184 73:0.004184 74:0.004184 75:0 76:0 77:0.008368 78:0 79:0 80:0.029289 81:0.004184 82:0 83:0.008368 84:0 85:0 86:0 87:0 88:0 89:0.033473 90:0 91:0.016736 92:0.004184 93:0.012552 94:0 95:0 96:0 97:0.004184 98:0 99:0.004184 100:0 101:0.008368 102:0.004184 103:0.008368 104:0.008368 105:0 106:0 107:0 108:0.004184 109:0 110:0 111:0.020921 112:0.004184 113:0.004184 114:0 115:0 116:0 117:0 118:0.004184 119:0.004184 120:0 121:0.004184 122:0.004184 123:0 124:0 125:0 126:0.008368 127:0 128:0 129:0 130:0 131:0.008368 132:0.004184 133:0 134:0.004184 135:0.008368 136:0.008368 137:0 138:0 139:0 140:0.004184 141:0 142:0.004184 143:0 144:0 145:0 146:0 147:0 148:0.012552 149:0.041841 150:0.037657 151:0 152:0 153:0 154:0.004184 155:0 156:0.004184 157:0 158:0 159:0 160:0.004184 161:0.004184 162:0.008368 163:0 164:0 165:0.008368 166:0.004184 167:0 168:0.004184 169:0 170:0.004184 171:0.004184 172:0.016736 173:0 174:0.016736 175:0 176:0 177:0.008368 178:0 179:0 180:0.004184 181:0 182:0.008368 183:0 184:0 185:0.008368 186:0 187:0 188:0 189:0 190:0.029289 191:0.004184 192:0.004184 193:0 194:0 195:0 196:0.008368 197:0.033473 198:0 199:0.020921 200:0.004184 201:0 202:0.008368 203:0 204:0 205:0.008368 206:0 207:0 208:0 209:0 210:0.004184 211:0 212:0 213:0.004184 214:0.004184 215:0 216:0 217:0 218:0 219:0.004184 220:0.033473 221:0 222:0 223:0 224:0 225:0 226:0 227:0 228:0.004184 229:0 230:0 231:0.004184 232:0 233:0 234:0 235:0 236:0.004184 237:0 238:0.012552 239:0 240:0 241:0 242:0 243:0.004184 244:0.004184 245:0 246:0 247:0 248:0 249:0 250:0 251:0.029289 252:0 253:0.008368 254:0 255:0 
2 0:0 1:0.001887 2:0.011321 3:0 4:0.001887 5:0.011321 6:0.009434 7:0.007547 8:0.003774 9:0.016981 10:0 11:0.001887 12:0.001887 13:0 14:0 15:0.001887 16:0.032075 17:0.00566 18:0 19:0 20:0.00566 21:0.001887 22:0 23:0 24:0 25:0.001887 26:0.003774 27:0.001887 28:0 29:0 30:0.001887 31:0.003774 32:0 33:0.00566 34:0 35:0.018868 36:0.009434 37:0.009434 38:0 39:0 40:0 41:0 42:0 43:0.022642 44:0.001887 45:0.001887 46:0 47:0.001887 48:0 49:0.007547 50:0 51:0 52:0 53:0.007547 54:0 55:0.001887 56:0 57:0.001887 58:0.007547 59:0 60:0.001887 61:0.001887 62:0 63:0.001887 64:0 65:0 66:0.011321 67:0 68:0.00566 69:0.001887 70:0 71:0.024528 72:0.001887 73:0.00566 74:0.00566 75:0.009434 76:0 77:0 78:0.011321 79:0.003774 80:0.00566 81:0.001887 82:0 83:0 84:0 85:0.003774 86:0 87:0 88:0.001887 89:0.001887 90:0 91:0.001887 92:0.001887 93:0.001887 94:0.001887 95:0.032075 96:0.001887 97:0.003774 98:0.003774 99:0.003774 100:0 101:0 102:0.00566 103:0.00566 104:0 105:0 106:0 107:0 108:0 109:0.009434 110:0.020755 111:0.00566 112:0 113:0.00566 114:0 115:0.003774 116:0 117:0 118:0.015094 119:0 120:0.001887 121:0 122:0.022642 123:0.00566 124:0 125:0.007547 126:0.001887 127:0.001887 128:0.001887 129:0 130:0 131:0.007547 132:0.003774 133:0 134:0 135:0.003774 136:0.001887 137:0.001887 138:0 139:0 140:0 141:0 142:0 143:0.001887 144:0.043396 145:0.007547 146:0.011321 147:0 148:0.001887 149:0.011321 150:0.003774 151:0 152:0.001887 153:0 154:0.013208 155:0 156:0 157:0.030189 158:0.001887 159:0 160:0.001887 161:0 162:0 163:0 164:0 165:0 166:0.001887 167:0.003774 168:0 169:0 170:0.001887 171:0.009434 172:0.00566 173:0 174:0 175:0.001887 176:0 177:0 178:0.001887 179:0.001887 180:0 181:0.024528 182:0 183:0.003774 184:0 185:0 186:0.001887 187:0.049057 188:0.015094 189:0.001887 190:0.018868 191:0.018868 192:0.001887 193:0.00566 194:0 195:0 196:0.003774 197:0.009434 198:0 199:0.00566 200:0.00566 201:0 202:0.015094 203:0 204:0 205:0.009434 206:0 207:0 208:0.009434 209:0 210:0 211:0 212:0 213:0 214:0.007547 215:0 216:0 217:0 218:0 219:0 220:0.007547 221:0.001887 222:0.009434 223:0.001887 224:0.007547 225:0.001887 226:0 227:0.001887 228:0.001887 229:0.003774 230:0.00566 231:0.001887 232:0 233:0 234:0.001887 235:0 236:0.015094 237:0 238:0 239:0 240:0 241:0 242:0.028302 243:0.003774 244:0.00566 245:0.009434 246:0 247:0 248:0 249:0 250:0.001887 251:0.00566 252:0.001887 253:0 254:0 255:0 
2 0:0.001302 1:0.001302 2:0.018229 3:0.001302 4:0 5:0.002604 6:0.001302 7:0.00651 8:0.002604 9:0.003906 10:0.001302 11:0.014323 12:0.018229 13:0.001302 14:0.001302 15:0.016927 16:0.001302 17:0.002604 18:0 19:0.003906 20:0 21:0 22:0 23:0.003906 24:0 25:0.003906 26:0.00651 27:0.002604 28:0 29:0 30:0.001302 31:0.003906 32:0.001302 33:0.002604 34:0 35:0.00651 36:0.002604 37:0.005208 38:0 39:0 40:0 41:0.002604 42:0 43:0.001302 44:0.001302 45:0.001302 46:0.001302 47:0.002604 48:0.003906 49:0.013021 50:0 51:0 52:0 53:0.009115 54:0 55:0.001302 56:0.003906 57:0.003906 58:0.011719 59:0 60:0.003906 61:0.005208 62:0 63:0.002604 64:0 65:0 66:0.028646 67:0 68:0 69:0.003906 70:0 71:0.013021 72:0.007812 73:0 74:0.003906 75:0.013021 76:0.002604 77:0 78:0.003906 79:0.003906 80:0.009115 81:0.011719 82:0.001302 83:0.002604 84:0.002604 85:0.003906 86:0 87:0.019531 88:0 89:0.002604 90:0 91:0.002604 92:0.007812 93:0 94:0 95:0.015625 96:0 97:0.003906 98:0.001302 99:0.003906 100:0.002604 101:0.002604 102:0.00651 103:0.00651 104:0.001302 105:0.003906 106:0 107:0.001302 108:0.010417 109:0.002604 110:0.003906 111:0 112:0.002604 113:0.002604 114:0 115:0 116:0.001302 117:0.001302 118:0.018229 119:0 120:0 121:0 122:0.002604 123:0.007812 124:0 125:0.001302 126:0.002604 127:0.002604 128:0.001302 129:0.010417 130:0.002604 131:0.003906 132:0.002604 133:0 134:0.001302 135:0.007812 136:0.005208 137:0.014323 138:0 139:0.001302 140:0 141:0.013021 142:0 143:0.002604 144:0.018229 145:0 146:0.00651 147:0.001302 148:0.002604 149:0.011719 150:0 151:0 152:0 153:0.002604 154:0.001302 155:0 156:0 157:0.00651 158:0 159:0 160:0 161:0 162:0 163:0.00651 164:0.005208 165:0 166:0.002604 167:0.005208 168:0.003906 169:0 170:0.001302 171:0.020833 172:0.010417 173:0 174:0.011719 175:0.00651 176:0.007812 177:0.002604 178:0 179:0 180:0 181:0.03776 182:0.005208 183:0 184:0 185:0.00651 186:0.005208 187:0.013021 188:0.009115 189:0 190:0.001302 191:0.015625 192:0.003906 193:0.003906 194:0.00651 195:0.014323 196:0.002604 197:0.005208 198:0 199:0 200:0.003906 201:0.002604 202:0.013021 203:0.001302 204:0 205:0.007812 206:0.010417 207:0.002604 208:0.003906 209:0.001302 210:0 211:0 212:0 213:0.00651 214:0.005208 215:0 216:0 217:0 218:0 219:0.002604 220:0.010417 221:0 222:0 223:0.001302 224:0.002604 225:0.005208 226:0.001302 227:0.003906 228:0.009115 229:0.001302 230:0.002604 231:0.002604 232:0 233:0 234:0.009115 235:0.001302 236:0.001302 237:0.001302 238:0.001302 239:0.002604 240:0.011719 241:0 242:0.027344 243:0.00651 244:0 245:0.00651 246:0.001302 247:0 248:0.002604 249:0 250:0.001302 251:0.014323 252:0.011719 253:0 254:0 255:0.002604 
2 0:0 1:0 2:0.007181 3:0 4:0 5:0 6:0 7:0.019749 8:0.007181 9:0.001795 10:0 11:0.003591 12:0.003591 13:0.005386 14:0 15:0.017953 16:0 17:0.001795 18:0.001795 19:0.001795 20:0 21:0 22:0 23:0.005386 24:0 25:0 26:0.007181 27:0 28:0.003591 29:0.001795 30:0 31:0.021544 32:0.003591 33:0.001795 34:0.003591 35:0.007181 36:0.001795 37:0.008977 38:0 39:0 40:0 41:0.001795 42:0.005386 43:0.005386 44:0 45:0.001795 46:0 47:0.003591 48:0.005386 49:0.012567 50:0.001795 51:0 52:0 53:0.005386 54:0.001795 55:0.001795 56:0.005386 57:0 58:0.007181 59:0 60:0.005386 61:0.001795 62:0 63:0.005386 64:0 65:0 66:0.005386 67:0.012567 68:0 69:0.005386 70:0.005386 71:0.012567 72:0.005386 73:0.014363 74:0.003591 75:0.016158 76:0.003591 77:0 78:0.007181 79:0.001795 80:0.010772 81:0 82:0.001795 83:0.008977 84:0.001795 85:0.001795 86:0 87:0.007181 88:0 89:0.003591 90:0.003591 91:0.001795 92:0.005386 93:0.008977 94:0 95:0.016158 96:0 97:0 98:0 99:0.007181 100:0.001795 101:0.003591 102:0.010772 103:0.001795 104:0.007181 105:0 106:0.007181 107:0 108:0.010772 109:0.005386 110:0.003591 111:0.001795 112:0.008977 113:0 114:0.001795 115:0.001795 116:0.003591 117:0 118:0.010772 119:0 120:0.001795 121:0.003591 122:0.007181 123:0.003591 124:0 125:0 126:0 127:0.008977 128:0.005386 129:0 130:0.001795 131:0 132:0.007181 133:0 134:0 135:0 136:0 137:0.005386 138:0.001795 139:0 140:0 141:0.001795 142:0.010772 143:0 144:0 145:0.001795 146:0.010772 147:0.008977 148:0.001795 149:0.001795 150:0.005386 151:0 152:0.001795 153:0.003591 154:0.008977 155:0 156:0 157:0.012567 158:0 159:0 160:0.007181 161:0 162:0 163:0 164:0.008977 165:0.001795 166:0 167:0.007181 168:0.003591 169:0 170:0.010772 171:0 172:0.012567 173:0 174:0 175:0.008977 176:0 177:0 178:0 179:0.007181 180:0 181:0.001795 182:0.001795 183:0.003591 184:0 185:0.001795 186:0.003591 187:0.003591 188:0.023339 189:0.003591 190:0.035907 191:0.005386 192:0.005386 193:0.019749 194:0.010772 195:0.001795 196:0.001795 197:0.001795 198:0.001795 199:0.001795 200:0.001795 201:0.001795 202:0.007181 203:0 204:0.005386 205:0.019749 206:0 207:0 208:0 209:0 210:0 211:0.012567 212:0.001795 213:0.021544 214:0.001795 215:0 216:0 217:0 218:0 219:0.001795 220:0.001795 221:0 222:0.007181 223:0 224:0.003591 225:0.003591 226:0.001795 227:0 228:0.012567 229:0.007181 230:0 231:0.007181 232:0.007181 233:0 234:0 235:0 236:0.005386 237:0 238:0 239:0.001795 240:0.008977 241:0 242:0.003591 243:0.012567 244:0.007181 245:0.005386 246:0 247:0.003591 248:0 249:0 250:0 251:0.043088 252:0 253:0 254:0 255:0.003591 
2 0:0.004474 1:0.004474 2:0.011186 3:0 4:0 5:0.002237 6:0.011186 7:0.004474 8:0 9:0.006711 10:0.002237 11:0.011186 12:0.002237 13:0 14:0 15:0.002237 16:0.006711 17:0 18:0 19:0 20:0.020134 21:0.004474 22:0 23:0.006711 24:0 25:0.006711 26:0.01566 27:0.004474 28:0 29:0.006711 30:0.002237 31:0.024609 32:0.01566 33:0.002237 34:0 35:0.002237 36:0.011186 37:0.013423 38:0.002237 39:0 40:0 41:0 42:0.002237 43:0.004474 44:0.011186 45:0 46:0 47:0.006711 48:0.004474 49:0.002237 50:0 51:0.004474 52:0.002237 53:0.004474 54:0 55:0 56:0 57:0.002237 58:0.004474 59:0 60:0.002237 61:0.008949 62:0 63:0.004474 64:0 65:0.004474 66:0 67:0 68:0.002237 69:0.008949 70:0 71:0.006711 72:0.020134 73:0.006711 74:0.002237 75:0.002237 76:0 77:0 78:0.004474 79:0.002237 80:0.006711 81:0.004474 82:0.004474 83:0 84:0.004474 85:0 86:0.004474 87:0.002237 88:0 89:0.006711 90:0.002237 91:0.008949 92:0.002237 93:0 94:0 95:0.002237 96:0 97:0.002237 98:0 99:0.002237 100:0.004474 101:0 102:0.004474 103:0 104:0 105:0 106:0.002237 107:0 108:0.013423 109:0.002237 110:0.002237 111:0.004474 112:0.008949 113:0.002237 114:0 115:0.002237 116:0.008949 117:0.002237 118:0.008949 119:0.004474 120:0.004474 121:0 122:0.004474 123:0 124:0.002237 125:0 126:0.002237 127:0 128:0.004474 129:0 130:0 131:0.006711 132:0 133:0 134:0 135:0 136:0.002237 137:0.004474 138:0 139:0 140:0 141:0 142:0.008949 143:0 144:0.008949 145:0.024609 146:0.004474 147:0.006711 148:0.004474 149:0.011186 150:0 151:0 152:0 153:0 154:0.011186 155:0.002237 156:0.002237 157:0.004474 158:0.002237 159:0.002237 160:0 161:0.013423 162:0.002237 163:0.004474 164:0 165:0 166:0.008949 167:0.004474 168:0.013423 169:0 170:0 171:0.006711 172:0.006711 173:0 174:0 175:0.004474 176:0.006711 177:0 178:0 179:0 180:0.002237 181:0.008949 182:0.006711 183:0 184:0.004474 185:0 186:0.011186 187:0.011186 188:0 189:0.006711 190:0.002237 191:0.006711 192:0 193:0.004474 194:0.004474 195:0.004474 196:0 197:0.011186 198:0.002237 199:0.004474 200:0 201:0.011186 202:0.006711 203:0 204:0 205:0.01566 206:0.002237 207:0.002237 208:0.013423 209:0 210:0.002237 211:0.004474 212:0 213:0.004474 214:0 215:0 216:0.002237 217:0.006711 218:0 219:0.002237 220:0.011186 221:0.011186 222:0.002237 223:0.002237 224:0.011186 225:0 226:0.002237 227:0.002237 228:0 229:0 230:0 231:0.002237 232:0 233:0.002237 234:0.002237 235:0 236:0.011186 237:0 238:0.006711 239:0 240:0.011186 241:0 242:0.008949 243:0.013423 244:0 245:0.006711 246:0.044743 247:0 248:0.002237 249:0 250:0.002237 251:0.013423 252:0.006711 253:0.002237 254:0 255:0 
2 0:0 1:0.001499 2:0.010495 3:0 4:0.004498 5:0.001499 6:0.001499 7:0.001499 8:0 9:0.008996 10:0 11:0.004498 12:0.013493 13:0 14:0.001499 15:0.004498 16:0.008996 17:0.005997 18:0 19:0 20:0 21:0 22:0 23:0 24:0 25:0.005997 26:0.004498 27:0.002999 28:0 29:0 30:0 31:0 32:0 33:0.002999 34:0.004498 35:0.08096 36:0.016492 37:0.017991 38:0 39:0 40:0.001499 41:0 42:0 43:0.005997 44:0.001499 45:0 46:0 47:0.001499 48:0.007496 49:0.001499 50:0 51:0 52:0.002999 53:0.001499 54:0 55:0.001499 56:0.005997 57:0.002999 58:0.004498 59:0 60:0.013493 61:0.001499 62:0 63:0 64:0 65:0 66:0.005997 67:0 68:0.001499 69:0.001499 70:0.001499 71:0.016492 72:0.005997 73:0.001499 74:0.002999 75:0.007496 76:0 77:0 78:0.007496 79:0.002999 80:0.004498 81:0 82:0 83:0 84:0 85:0.002999 86:0.001499 87:0.004498 88:0 89:0 90:0 91:0 92:0.017991 93:0.002999 94:0.038981 95:0.028486 96:0.022489 97:0.001499 98:0 99:0.004498 100:0 101:0 102:0.002999 103:0.002999 104:0 105:0.002999 106:0 107:0 108:0.005997 109:0.002999 110:0.01949 111:0 112:0.008996 113:0.001499 114:0.002999 115:0 116:0.002999 117:0 118:0.004498 119:0.002999 120:0.013493 121:0.001499 122:0.062969 123:0.004498 124:0 125:0.004498 126:0 127:0 128:0.002999 129:0.001499 130:0.002999 131:0.052474 132:0 133:0 134:0.002999 135:0 136:0.001499 137:0.002999 138:0 139:0 140:0 141:0 142:0.001499 143:0.014993 144:0.002999 145:0.004498 146:0 147:0.005997 148:0.001499 149:0.004498 150:0.005997 151:0 152:0.007496 153:0 154:0.005997 155:0 156:0 157:0.010495 158:0.001499 159:0.002999 160:0 161:0 162:0.002999 163:0 164:0.001499 165:0 166:0.002999 167:0.001499 168:0.004498 169:0 170:0.005997 171:0.010495 172:0 173:0 174:0 175:0.001499 176:0.014993 177:0.004498 178:0 179:0 180:0 181:0.025487 182:0.001499 183:0 184:0 185:0 186:0.011994 187:0.004498 188:0 189:0 190:0.001499 191:0 192:0 193:0.010495 194:0.004498 195:0.005997 196:0.001499 197:0.001499 198:0.001499 199:0.004498 200:0 201:0.001499 202:0.005997 203:0.001499 204:0.001499 205:0.037481 206:0 207:0 208:0.014993 209:0 210:0 211:0.001499 212:0.001499 213:0.002999 214:0.001499 215:0 216:0 217:0 218:0 219:0.004498 220:0.013493 221:0.001499 222:0 223:0 224:0.010495 225:0 226:0.004498 227:0 228:0.001499 229:0 230:0 231:0.005997 232:0 233:0.001499 234:0 235:0 236:0 237:0 238:0 239:0 240:0.002999 241:0 242:0.007496 243:0 244:0.005997 245:0 246:0 247:0 248:0.007496 249:0 250:0 251:0.004498 252:0 253:0 254:0 255:0 
