svm_type c_svc
kernel_type rbf
gamma 0.00392157
nr_class 2
total_sv 1368
rho 1.00375
label 1 -1
probA -4494.26
probB -4492.21
nr_sv 228 1140
SV
5 0:0.007942 1:0.015884 2:0 3:0.003971 4:0.005956 5:0.008604 6:0.005295 7:0.001985 8:0.003971 9:0.003971 10:0.003971 11:0.001985 12:0.001985 13:0.003309 14:0.001985 15:0.006618 16:0.005956 17:0.00728 18:0.001324 19:0.00728 20:0.001324 21:0.003309 22:0.003309 23:0.002647 24:0 25:0.003971 26:0.00728 27:0.005295 28:0.016545 29:0.00728 30:0.005295 31:0.002647 32:0.001985 33:0.001324 34:0.001985 35:0.000662 36:0.001985 37:0.001985 38:0.000662 39:0.001985 40:0.006618 41:0.002647 42:0.01456 43:0.004633 44:0.000662 45:0.005956 46:0.001985 47:0 48:0.009265 49:0.005295 50:0.002647 51:0.015884 52:0.008604 53:0.001324 54:0.001985 55:0 56:0.002647 57:0 58:0.001985 59:0.001985 60:0.002647 61:0.007942 62:0.001985 63:0.003309 64:0.004633 65:0.011913 66:0.011913 67:0.002647 68:0 69:0.001985 70:0.011251 71:0.003309 72:0.001985 73:0.002647 74:0.000662 75:0.003309 76:0.001324 77:0 78:0.003309 79:0.005956 80:0.001324 81:0.001985 82:0.002647 83:0.001324 84:0.000662 85:0.001985 86:0.020516 87:0.001985 88:0.000662 89:0.004633 90:0.001324 91:0.002647 92:0.006618 93:0.003971 94:0.002647 95:0.002647 96:0.001985 97:0.002647 98:0.001324 99:0.009265 100:0.001324 101:0.006618 102:0.003309 103:0.003971 104:0.002647 105:0.001324 106:0.000662 107:0.001985 108:0.007942 109:0.009265 110:0.000662 111:0.00728 112:0.001324 113:0.001985 114:0.003309 115:0.004633 116:0.002647 117:0.001985 118:0.003309 119:0.003309 120:0.003971 121:0.003971 122:0.000662 123:0.005956 124:0.003971 125:0 126:0.000662 127:0.007942 128:0.001324 129:0.010589 130:0.000662 131:0.001985 132:0.004633 133:0.001324 134:0.000662 135:0.005956 136:0.010589 137:0.001985 138:0.005295 139:0.001985 140:0.009927 141:0.009265 142:0.00728 143:0.002647 144:0.007942 145:0.003309 146:0.012574 147:0.004633 148:0.001985 149:0.001985 150:0.002647 151:0 152:0.007942 153:0.00728 154:0.009927 155:0.001985 156:0 157:0.003309 158:0.004633 159:0.001985 160:0.004633 161:0.005956 162:0.006618 163:0.000662 164:0.009927 165:0.003971 166:0.001985 167:0.003971 168:0.005295 169:0.003971 170:0.011913 171:0.001324 172:0.00728 173:0.000662 174:0.002647 175:0.002647 176:0.000662 177:0.009265 178:0.003971 179:0.005295 180:0.004633 181:0.001324 182:0.002647 183:0.003309 184:0.000662 185:0.013898 186:0.005956 187:0.001985 188:0.000662 189:0.001324 190:0.001324 191:0.005295 192:0.003971 193:0.005956 194:0.009265 195:0.003309 196:0.000662 197:0.008604 198:0.002647 199:0.008604 200:0.007942 201:0.005295 202:0.003309 203:0.002647 204:0.001985 205:0.000662 206:0.001985 207:0.000662 208:0.000662 209:0.001324 210:0.001324 211:0.000662 212:0.001985 213:0 214:0.000662 215:0.001324 216:0.001324 217:0 218:0.005295 219:0.001324 220:0.003309 221:0.001324 222:0.005956 223:0.003971 224:0.005956 225:0.005956 226:0.005956 227:0.001324 228:0.005956 229:0.001324 230:0.002647 231:0.003309 232:0.006618 233:0.001324 234:0.000662 235:0.001985 236:0.00728 237:0.002647 238:0.004633 239:0.000662 240:0.001324 241:0.001985 242:0.005956 243:0.003309 244:0.008604 245:0.002647 246:0 247:0.003971 248:0.003971 249:0.001324 250:0.002647 251:0.001324 252:0.001324 253:0.00728 254:0.001324 255:0.001324 
5 0:0 1:0.001757 2:0 3:0.003515 4:0 5:0.003515 6:0.00703 7:0.001757 8:0 9:0 10:0 11:0.005272 12:0 13:0 14:0 15:0.010545 16:0 17:0.001757 18:0 19:0.008787 20:0 21:0 22:0.01406 23:0.001757 24:0.010545 25:0 26:0 27:0 28:0.00703 29:0.02109 30:0.005272 31:0.003515 32:0.00703 33:0.001757 34:0.001757 35:0 36:0.001757 37:0.001757 38:0.001757 39:0.001757 40:0.003515 41:0 42:0 43:0 44:0.005272 45:0.005272 46:0 47:0.005272 48:0.001757 49:0.003515 50:0.005272 51:0 52:0 53:0 54:0.00703 55:0.001757 56:0.005272 57:0 58:0 59:0.005272 60:0.003515 61:0.001757 62:0.003515 63:0.005272 64:0.003515 65:0.001757 66:0 67:0.01406 68:0.008787 69:0.01406 70:0.001757 71:0 72:0 73:0.010545 74:0 75:0 76:0.005272 77:0 78:0.001757 79:0 80:0.010545 81:0.001757 82:0.00703 83:0 84:0.001757 85:0.001757 86:0.001757 87:0 88:0 89:0.005272 90:0.003515 91:0.003515 92:0 93:0 94:0.010545 95:0 96:0.003515 97:0.001757 98:0 99:0 100:0 101:0 102:0.00703 103:0.00703 104:0.005272 105:0.001757 106:0 107:0 108:0 109:0 110:0 111:0.008787 112:0.001757 113:0.008787 114:0.005272 115:0.005272 116:0 117:0.001757 118:0.001757 119:0 120:0.001757 121:0.012302 122:0 123:0.001757 124:0.001757 125:0 126:0.00703 127:0.015817 128:0.010545 129:0.001757 130:0 131:0.001757 132:0.005272 133:0.001757 134:0 135:0.029877 136:0.010545 137:0.005272 138:0.010545 139:0.001757 140:0 141:0 142:0.001757 143:0 144:0.001757 145:0.003515 146:0.003515 147:0.001757 148:0 149:0 150:0.001757 151:0.003515 152:0.003515 153:0.001757 154:0.010545 155:0.001757 156:0.001757 157:0 158:0.003515 159:0.001757 160:0.012302 161:0 162:0.00703 163:0.00703 164:0.012302 165:0.003515 166:0.003515 167:0.003515 168:0 169:0.005272 170:0.005272 171:0 172:0.003515 173:0 174:0.005272 175:0.005272 176:0.005272 177:0.00703 178:0.008787 179:0.01406 180:0 181:0.008787 182:0.00703 183:0 184:0.008787 185:0 186:0 187:0 188:0.001757 189:0.015817 190:0.012302 191:0 192:0.003515 193:0 194:0.00703 195:0 196:0.001757 197:0 198:0.003515 199:0.026362 200:0 201:0.003515 202:0.00703 203:0.003515 204:0.00703 205:0.012302 206:0.001757 207:0 208:0 209:0.001757 210:0.001757 211:0.005272 212:0.001757 213:0.00703 214:0.010545 215:0.008787 216:0.001757 217:0 218:0.001757 219:0.001757 220:0 221:0.01406 222:0.012302 223:0.001757 224:0 225:0.005272 226:0 227:0.00703 228:0.010545 229:0.019332 230:0.003515 231:0.001757 232:0.012302 233:0.001757 234:0.001757 235:0.001757 236:0.02812 237:0.024605 238:0 239:0 240:0 241:0.00703 242:0.003515 243:0.003515 244:0.001757 245:0.00703 246:0.001757 247:0.008787 248:0 249:0 250:0 251:0.00703 252:0 253:0.00703 254:0.003515 255:0.001757 
5 0:0.000853 1:0 2:0.009386 3:0.001706 4:0.001706 5:0.003413 6:0.000853 7:0.001706 8:0.004266 9:0.035836 10:0.004266 11:0 12:0 13:0.00256 14:0.005119 15:0.004266 16:0.000853 17:0.00256 18:0 19:0.012799 20:0.015358 21:0.001706 22:0.001706 23:0.001706 24:0.005119 25:0.00256 26:0.009386 27:0.000853 28:0 29:0 30:0.00256 31:0.008532 32:0 33:0.001706 34:0.004266 35:0.023891 36:0.009386 37:0.015358 38:0.003413 39:0.00256 40:0.000853 41:0.004266 42:0.001706 43:0.005973 44:0.00256 45:0 46:0.001706 47:0.012799 48:0.001706 49:0.004266 50:0.005119 51:0.007679 52:0.001706 53:0.005119 54:0.001706 55:0.00256 56:0 57:0.008532 58:0.000853 59:0.000853 60:0 61:0 62:0.012799 63:0 64:0.006826 65:0.004266 66:0.000853 67:0.00256 68:0.010239 69:0.001706 70:0.000853 71:0.007679 72:0.004266 73:0.001706 74:0.003413 75:0.000853 76:0.00256 77:0.001706 78:0.009386 79:0.005119 80:0.011945 81:0.00256 82:0.005973 83:0.000853 84:0.00256 85:0.00256 86:0.00256 87:0.003413 88:0 89:0.000853 90:0 91:0 92:0.005119 93:0 94:0.010239 95:0.015358 96:0.022184 97:0.001706 98:0.001706 99:0 100:0.000853 101:0.00256 102:0.014505 103:0.000853 104:0.001706 105:0.003413 106:0.000853 107:0.000853 108:0.004266 109:0.001706 110:0.001706 111:0.00256 112:0.001706 113:0.004266 114:0.000853 115:0.000853 116:0.00256 117:0.001706 118:0.00256 119:0 120:0.003413 121:0 122:0.029863 123:0 124:0.003413 125:0.011945 126:0.00256 127:0.001706 128:0.001706 129:0.010239 130:0.001706 131:0.005973 132:0.001706 133:0.006826 134:0 135:0.000853 136:0.00256 137:0.005973 138:0 139:0.000853 140:0.003413 141:0.000853 142:0.005119 143:0.006826 144:0.007679 145:0.012799 146:0.000853 147:0.004266 148:0.001706 149:0.001706 150:0.001706 151:0.008532 152:0.007679 153:0.00256 154:0.000853 155:0.000853 156:0.001706 157:0.004266 158:0 159:0.005973 160:0.000853 161:0 162:0.000853 163:0.005119 164:0.00256 165:0 166:0.009386 167:0.00256 168:0.003413 169:0 170:0.00256 171:0.004266 172:0 173:0.004266 174:0.006826 175:0.000853 176:0.001706 177:0.000853 178:0.000853 179:0.00256 180:0.00256 181:0.016212 182:0.008532 183:0.001706 184:0 185:0.006826 186:0 187:0.017065 188:0.000853 189:0.001706 190:0.000853 191:0.00256 192:0.001706 193:0.005973 194:0 195:0.004266 196:0.009386 197:0.005973 198:0.00256 199:0.001706 200:0.001706 201:0 202:0.003413 203:0.000853 204:0.003413 205:0.005973 206:0.003413 207:0.003413 208:0 209:0.001706 210:0.00256 211:0.001706 212:0 213:0.003413 214:0.006826 215:0.001706 216:0.007679 217:0.007679 218:0 219:0.000853 220:0.003413 221:0.005119 222:0.013652 223:0 224:0.009386 225:0 226:0.000853 227:0.005119 228:0 229:0 230:0.001706 231:0.000853 232:0.004266 233:0.003413 234:0.000853 235:0 236:0.001706 237:0 238:0.015358 239:0 240:0 241:0 242:0.006826 243:0.006826 244:0.005119 245:0.012799 246:0.007679 247:0.00256 248:0 249:0.00256 250:0.014505 251:0.003413 252:0.009386 253:0.006826 254:0 255:0 
5 0:0.002738 1:0.006572 2:0.002738 3:0.001643 4:0.004929 5:0.010405 6:0.002191 7:0.006572 8:0.005476 9:0.002738 10:0.002191 11:0.002738 12:0.004381 13:0.003286 14:0.001643 15:0.000548 16:0.004929 17:0.003286 18:0.002738 19:0.004929 20:0.004381 21:0.006024 22:0.00931 23:0.002738 24:0.003834 25:0.004381 26:0.001095 27:0.003834 28:0.010953 29:0.003286 30:0.004381 31:0.002738 32:0.004929 33:0.003834 34:0.001095 35:0 36:0.002738 37:0.003286 38:0.002191 39:0.004929 40:0.000548 41:0.003286 42:0.00931 43:0.003286 44:0.003834 45:0.006024 46:0.004381 47:0.002738 48:0.006572 49:0.002738 50:0.002738 51:0.001643 52:0.001643 53:0.007667 54:0.005476 55:0.008215 56:0.002191 57:0.003834 58:0.001643 59:0.001095 60:0.004381 61:0.004929 62:0.002191 63:0.005476 64:0.000548 65:0.002191 66:0.008215 67:0.001643 68:0.002191 69:0.008762 70:0.004381 71:0.001643 72:0.006572 73:0.002738 74:0.005476 75:0.002191 76:0.005476 77:0.004381 78:0.004381 79:0.012596 80:0.002738 81:0.002738 82:0.011501 83:0.001643 84:0.003834 85:0.003834 86:0.003834 87:0.001095 88:0.001643 89:0.002191 90:0.003834 91:0.002738 92:0.000548 93:0.002738 94:0.002738 95:0.004929 96:0.002738 97:0.008215 98:0.003286 99:0.002191 100:0.002191 101:0.007119 102:0.008762 103:0.005476 104:0.002191 105:0.002191 106:0.002738 107:0.003286 108:0.004381 109:0.001643 110:0.001095 111:0.008215 112:0.004381 113:0.003286 114:0.003286 115:0.003286 116:0.003834 117:0.004381 118:0.003286 119:0.002191 120:0.007667 121:0.003286 122:0.001095 123:0.007667 124:0.004381 125:0.000548 126:0.004381 127:0.003286 128:0.003834 129:0.004381 130:0.003286 131:0.001095 132:0.002191 133:0.001643 134:0.004929 135:0.002191 136:0.006024 137:0.002191 138:0.002738 139:0.004381 140:0.001643 141:0.002738 142:0.005476 143:0.003286 144:0.001095 145:0.002738 146:0.002738 147:0.004381 148:0.001095 149:0.003834 150:0.005476 151:0.002191 152:0.002191 153:0.007119 154:0.007119 155:0.007119 156:0.002191 157:0.000548 158:0.006572 159:0.003834 160:0.002191 161:0.003286 162:0.009858 163:0.002191 164:0.001095 165:0.002738 166:0.001095 167:0.002191 168:0.002191 169:0.001095 170:0.004929 171:0.006572 172:0.007119 173:0.006572 174:0 175:0.003286 176:0.011501 177:0.002191 178:0.001095 179:0.002738 180:0.006024 181:0.001643 182:0.000548 183:0.001643 184:0.006572 185:0.004929 186:0.004929 187:0.001095 188:0.003286 189:0.001643 190:0.000548 191:0.001095 192:0.006024 193:0.003834 194:0.002738 195:0.003286 196:0.00931 197:0.003286 198:0.003834 199:0.003834 200:0.007667 201:0.003286 202:0.002191 203:0.004381 204:0.004929 205:0.001095 206:0.008215 207:0.006024 208:0.000548 209:0.003834 210:0.007119 211:0.001643 212:0.011501 213:0.008762 214:0.003834 215:0.004929 216:0.005476 217:0.001095 218:0.001095 219:0.003834 220:0.004929 221:0.004929 222:0.007667 223:0.002191 224:0.003834 225:0.002191 226:0.006024 227:0.001643 228:0.002738 229:0.003286 230:0.006572 231:0.003286 232:0.004381 233:0.013143 234:0.008215 235:0.002191 236:0.002191 237:0.003834 238:0.003286 239:0.002191 240:0.004929 241:0.001643 242:0.001095 243:0.003834 244:0.004381 245:0.004381 246:0.004929 247:0.003286 248:0.003286 249:0.003286 250:0.006024 251:0.002191 252:0.004381 253:0.006572 254:0.001095 255:0.003834 
5 0:0.000956 1:0.0043 2:0.001911 3:0 4:0.001433 5:0.002867 6:0.000478 7:0.002389 8:0.000478 9:0.033923 10:0.001433 11:0.001433 12:0 13:0.001911 14:0.003822 15:0.006689 16:0.016245 17:0.011945 18:0.000478 19:0.003344 20:0.000478 21:0.000478 22:0 23:0.000956 24:0.002867 25:0.000478 26:0.021022 27:0.001433 28:0.000478 29:0.004778 30:0.011467 31:0.0043 32:0.001433 33:0 34:0.000478 35:0.0258 36:0.012422 37:0.031056 38:0.000956 39:0 40:0.000478 41:0.000478 42:0.002867 43:0.005733 44:0.000956 45:0.001911 46:0.001433 47:0.001433 48:0.007645 49:0.007167 50:0.001911 51:0.0043 52:0.001911 53:0.002389 54:0.000478 55:0.000478 56:0.004778 57:0.001911 58:0.008122 59:0.000956 60:0.002389 61:0.001911 62:0.000478 63:0.007645 64:0.000478 65:0.002867 66:0.005733 67:0.003822 68:0 69:0 70:0.003822 71:0.0172 72:0.001911 73:0.005733 74:0.002389 75:0.011945 76:0 77:0.000478 78:0.007167 79:0.001911 80:0.001433 81:0.001433 82:0 83:0 84:0.001433 85:0.000956 86:0.002389 87:0 88:0 89:0.008122 90:0 91:0.000478 92:0.002867 93:0.000956 94:0 95:0.011945 96:0 97:0.000956 98:0.007167 99:0.000478 100:0 101:0.007645 102:0.000956 103:0 104:0.003344 105:0.000478 106:0.001911 107:0.006689 108:0.014333 109:0.005256 110:0.016722 111:0.006211 112:0.002389 113:0.000478 114:0.000956 115:0 116:0 117:0.003344 118:0.004778 119:0.002867 120:0.005733 121:0.002867 122:0.023411 123:0.006689 124:0.000478 125:0.002389 126:0.002389 127:0.008122 128:0.000956 129:0.002389 130:0.000956 131:0.010033 132:0.001911 133:0.001433 134:0.003822 135:0.006689 136:0.006689 137:0.009078 138:0.000956 139:0 140:0.006689 141:0.000478 142:0.002389 143:0.000478 144:0.018156 145:0.000956 146:0.020545 147:0.003344 148:0.004778 149:0 150:0.002867 151:0.001911 152:0.002389 153:0.000956 154:0.0086 155:0.002389 156:0.000956 157:0.021978 158:0.002389 159:0.002389 160:0.008122 161:0.006689 162:0.002389 163:0.002867 164:0.011467 165:0.008122 166:0.001911 167:0 168:0.005256 169:0.009556 170:0.0043 171:0.006689 172:0.002389 173:0.000478 174:0.000956 175:0 176:0 177:0.007645 178:0 179:0.000478 180:0.002867 181:0.0043 182:0.000956 183:0.001433 184:0.000478 185:0.004778 186:0.0043 187:0.016245 188:0.001911 189:0 190:0.002389 191:0.000478 192:0.010033 193:0.006211 194:0.005256 195:0.005256 196:0 197:0.014333 198:0.001911 199:0.003822 200:0.000478 201:0.009078 202:0.009556 203:0.002867 204:0.002389 205:0.009078 206:0.000956 207:0 208:0.0086 209:0.001433 210:0.004778 211:0.003344 212:0.000478 213:0.000478 214:0.000956 215:0.000956 216:0.000478 217:0.002867 218:0.003344 219:0.005256 220:0.000478 221:0.000956 222:0.001911 223:0 224:0.003344 225:0.001433 226:0.001433 227:0.000956 228:0.000478 229:0.000478 230:0.002389 231:0.0172 232:0.001433 233:0.0043 234:0.005256 235:0.006211 236:0.000956 237:0.001433 238:0.001433 239:0.000956 240:0.008122 241:0.000956 242:0.003344 243:0.002389 244:0.003822 245:0.002867 246:0.001433 247:0.007645 248:0.0043 249:0 250:0.000478 251:0.001911 252:0.001433 253:0.001911 254:0 255:0 
5 0:0.002997 1:0.007992 2:0.000999 3:0.000999 4:0.001998 5:0.001998 6:0.00999 7:0.001998 8:0.003996 9:0.001998 10:0.000999 11:0.002997 12:0 13:0.000999 14:0.003996 15:0 16:0.003996 17:0.004995 18:0 19:0.001998 20:0.001998 21:0.002997 22:0.004995 23:0.000999 24:0.001998 25:0.001998 26:0.002997 27:0.003996 28:0.004995 29:0.000999 30:0.000999 31:0.000999 32:0.000999 33:0 34:0.001998 35:0.012987 36:0.023976 37:0.007992 38:0.003996 39:0 40:0 41:0.000999 42:0.011988 43:0.004995 44:0.000999 45:0 46:0.000999 47:0.005994 48:0.004995 49:0.006993 50:0.002997 51:0.000999 52:0.006993 53:0.002997 54:0.005994 55:0.008991 56:0.005994 57:0.001998 58:0.00999 59:0.001998 60:0.004995 61:0.007992 62:0.002997 63:0.003996 64:0 65:0.002997 66:0.001998 67:0.002997 68:0.003996 69:0.008991 70:0 71:0.002997 72:0.00999 73:0.006993 74:0.002997 75:0.00999 76:0.001998 77:0.003996 78:0.001998 79:0.001998 80:0.001998 81:0.001998 82:0.000999 83:0.001998 84:0.001998 85:0.002997 86:0.001998 87:0.005994 88:0 89:0.002997 90:0 91:0.003996 92:0.007992 93:0.004995 94:0.001998 95:0.003996 96:0.001998 97:0.002997 98:0.000999 99:0.003996 100:0.002997 101:0.002997 102:0.000999 103:0.007992 104:0.007992 105:0 106:0.003996 107:0.001998 108:0.00999 109:0.002997 110:0.004995 111:0.007992 112:0.002997 113:0 114:0.000999 115:0.003996 116:0.001998 117:0.008991 118:0.00999 119:0.002997 120:0.003996 121:0.007992 122:0.003996 123:0.000999 124:0.003996 125:0 126:0.003996 127:0.004995 128:0.002997 129:0.001998 130:0 131:0 132:0.000999 133:0.002997 134:0.002997 135:0.002997 136:0.003996 137:0.000999 138:0.00999 139:0.002997 140:0 141:0 142:0.004995 143:0.003996 144:0.014985 145:0.00999 146:0.00999 147:0.003996 148:0.002997 149:0.006993 150:0.008991 151:0.00999 152:0.004995 153:0.002997 154:0.002997 155:0.000999 156:0.001998 157:0.001998 158:0.001998 159:0.007992 160:0.004995 161:0.002997 162:0.003996 163:0.001998 164:0.003996 165:0.002997 166:0.003996 167:0.014985 168:0.000999 169:0.001998 170:0.006993 171:0.013986 172:0.000999 173:0 174:0.000999 175:0.006993 176:0.001998 177:0.001998 178:0.004995 179:0 180:0.011988 181:0.013986 182:0.002997 183:0.002997 184:0.005994 185:0.007992 186:0.00999 187:0.003996 188:0.001998 189:0.002997 190:0.006993 191:0.001998 192:0.001998 193:0.002997 194:0.007992 195:0 196:0.003996 197:0.008991 198:0.001998 199:0.000999 200:0.001998 201:0.000999 202:0.004995 203:0.000999 204:0.004995 205:0.005994 206:0.005994 207:0.002997 208:0.007992 209:0.000999 210:0.000999 211:0.007992 212:0.004995 213:0.010989 214:0 215:0.006993 216:0.000999 217:0.003996 218:0 219:0.003996 220:0.001998 221:0.000999 222:0.010989 223:0.000999 224:0.001998 225:0.000999 226:0.001998 227:0.000999 228:0.007992 229:0.003996 230:0.006993 231:0.002997 232:0.006993 233:0 234:0.002997 235:0 236:0.006993 237:0.004995 238:0.001998 239:0.000999 240:0.000999 241:0.000999 242:0.002997 243:0.000999 244:0.002997 245:0.004995 246:0.002997 247:0.004995 248:0.001998 249:0.000999 250:0.004995 251:0.002997 252:0.007992 253:0.005994 254:0.002997 255:0.001998 
5 0:0 1:0.000866 2:0.005195 3:0.002597 4:0.001732 5:0.004329 6:0.009524 7:0.002597 8:0.002597 9:0.006061 10:0 11:0.006926 12:0.003463 13:0.003463 14:0.003463 15:0.003463 16:0.000866 17:0.006926 18:0.007792 19:0 20:0 21:0.006926 22:0.001732 23:0.002597 24:0.005195 25:0.004329 26:0.007792 27:0.001732 28:0.000866 29:0.004329 30:0.000866 31:0.006926 32:0.000866 33:0.000866 34:0 35:0.003463 36:0.007792 37:0.011255 38:0.003463 39:0.003463 40:0 41:0.000866 42:0 43:0.002597 44:0.005195 45:0.002597 46:0 47:0.009524 48:0.005195 49:0.003463 50:0.001732 51:0 52:0 53:0.003463 54:0 55:0 56:0.005195 57:0.005195 58:0.006926 59:0 60:0.008658 61:0.003463 62:0.000866 63:0.006926 64:0.000866 65:0.000866 66:0.047619 67:0.004329 68:0.001732 69:0.005195 70:0.004329 71:0.008658 72:0.001732 73:0.006926 74:0.001732 75:0.011255 76:0.005195 77:0.003463 78:0.001732 79:0.007792 80:0.003463 81:0.003463 82:0.000866 83:0.000866 84:0.006926 85:0.006061 86:0.000866 87:0.008658 88:0.000866 89:0 90:0.006926 91:0.001732 92:0.011255 93:0.002597 94:0 95:0.008658 96:0 97:0.000866 98:0.000866 99:0.006061 100:0.014719 101:0.000866 102:0 103:0.013853 104:0.001732 105:0.000866 106:0.000866 107:0.000866 108:0.006061 109:0.003463 110:0.029437 111:0.006926 112:0.001732 113:0 114:0.001732 115:0.000866 116:0 117:0.005195 118:0.006061 119:0.001732 120:0.002597 121:0.006061 122:0.006061 123:0.004329 124:0.003463 125:0.002597 126:0.006061 127:0.003463 128:0.005195 129:0.004329 130:0.000866 131:0.005195 132:0.001732 133:0.000866 134:0.001732 135:0 136:0.004329 137:0.001732 138:0 139:0 140:0 141:0.000866 142:0.002597 143:0.003463 144:0.018182 145:0.005195 146:0.005195 147:0.004329 148:0.002597 149:0.009524 150:0 151:0.001732 152:0.003463 153:0.006061 154:0.001732 155:0.001732 156:0.000866 157:0.002597 158:0.001732 159:0.004329 160:0.000866 161:0.003463 162:0.007792 163:0.004329 164:0.005195 165:0.004329 166:0.004329 167:0.008658 168:0.009524 169:0.002597 170:0.002597 171:0.001732 172:0.000866 173:0.007792 174:0.000866 175:0.001732 176:0.005195 177:0.003463 178:0.001732 179:0 180:0.000866 181:0.004329 182:0.008658 183:0.006061 184:0.000866 185:0.000866 186:0.000866 187:0.012987 188:0.006926 189:0.001732 190:0.01039 191:0.006926 192:0.000866 193:0.004329 194:0.004329 195:0.006061 196:0.002597 197:0.001732 198:0.002597 199:0.01039 200:0.006061 201:0.002597 202:0.004329 203:0.007792 204:0.001732 205:0.003463 206:0.000866 207:0.000866 208:0.002597 209:0.002597 210:0.000866 211:0.011255 212:0.000866 213:0.006926 214:0 215:0.003463 216:0.001732 217:0 218:0.004329 219:0.007792 220:0.004329 221:0.000866 222:0.007792 223:0.000866 224:0.004329 225:0.001732 226:0.003463 227:0.006926 228:0.006926 229:0.002597 230:0.002597 231:0.003463 232:0.001732 233:0.004329 234:0.005195 235:0 236:0.005195 237:0 238:0.004329 239:0.006061 240:0.006926 241:0.000866 242:0.009524 243:0.002597 244:0.000866 245:0.005195 246:0.004329 247:0.004329 248:0.000866 249:0.001732 250:0.000866 251:0.003463 252:0 253:0 254:0.000866 255:0.006926 
5 0:0.002515 1:0.007544 2:0.001676 3:0.007544 4:0.003353 5:0.001676 6:0.000838 7:0.013412 8:0.004191 9:0.000838 10:0.005868 11:0.004191 12:0.003353 13:0 14:0.001676 15:0.015088 16:0 17:0 18:0 19:0.001676 20:0.012573 21:0.005868 22:0.004191 23:0.001676 24:0.000838 25:0.003353 26:0 27:0.004191 28:0.016764 29:0.002515 30:0.001676 31:0.001676 32:0.005029 33:0.005029 34:0 35:0 36:0.003353 37:0 38:0.000838 39:0 40:0.005868 41:0.005029 42:0 43:0.004191 44:0.002515 45:0 46:0.006706 47:0.013412 48:0.001676 49:0.004191 50:0.006706 51:0.017603 52:0.000838 53:0.006706 54:0.002515 55:0.002515 56:0 57:0.008382 58:0 59:0.007544 60:0.002515 61:0 62:0.005029 63:0.002515 64:0.001676 65:0.004191 66:0 67:0.000838 68:0.002515 69:0.00922 70:0.005029 71:0.000838 72:0.006706 73:0.001676 74:0.005029 75:0.007544 76:0.004191 77:0.00922 78:0.006706 79:0.002515 80:0.003353 81:0.027661 82:0.004191 83:0.016764 84:0.002515 85:0.002515 86:0.004191 87:0.011735 88:0.001676 89:0.005868 90:0 91:0.000838 92:0.005868 93:0.005868 94:0.003353 95:0 96:0.008382 97:0.008382 98:0.003353 99:0.001676 100:0.000838 101:0.005029 102:0.001676 103:0.005029 104:0.001676 105:0.001676 106:0 107:0.000838 108:0 109:0 110:0.002515 111:0.004191 112:0.003353 113:0.005868 114:0.000838 115:0.004191 116:0.000838 117:0.005029 118:0.003353 119:0.002515 120:0.006706 121:0 122:0.003353 123:0 124:0.003353 125:0.000838 126:0.001676 127:0.000838 128:0.004191 129:0.003353 130:0.003353 131:0.002515 132:0.003353 133:0 134:0.006706 135:0.001676 136:0 137:0.002515 138:0.005029 139:0.000838 140:0.001676 141:0.003353 142:0.004191 143:0.010897 144:0.004191 145:0.010059 146:0.003353 147:0.007544 148:0.005029 149:0.008382 150:0.005029 151:0.00922 152:0.006706 153:0.001676 154:0.000838 155:0.003353 156:0.005868 157:0 158:0.002515 159:0.004191 160:0.002515 161:0.002515 162:0.003353 163:0.006706 164:0 165:0.002515 166:0.005029 167:0.006706 168:0.004191 169:0.000838 170:0.002515 171:0.000838 172:0.002515 173:0.005029 174:0.007544 175:0.004191 176:0.005868 177:0.000838 178:0.000838 179:0.001676 180:0 181:0.012573 182:0.010897 183:0.00922 184:0.005029 185:0.010897 186:0.001676 187:0.001676 188:0.00922 189:0.000838 190:0.005029 191:0.001676 192:0.002515 193:0 194:0.000838 195:0.006706 196:0.005029 197:0.000838 198:0.000838 199:0.001676 200:0.002515 201:0 202:0.002515 203:0.005029 204:0.008382 205:0.000838 206:0.005029 207:0.004191 208:0.000838 209:0.003353 210:0.000838 211:0.000838 212:0.002515 213:0.000838 214:0.002515 215:0.004191 216:0.003353 217:0.001676 218:0.004191 219:0.00922 220:0.004191 221:0.005868 222:0.006706 223:0 224:0.005029 225:0.000838 226:0.001676 227:0.00922 228:0.004191 229:0.001676 230:0.001676 231:0.000838 232:0.001676 233:0.003353 234:0.001676 235:0.003353 236:0.001676 237:0.012573 238:0.007544 239:0.001676 240:0.003353 241:0.002515 242:0.002515 243:0.000838 244:0.005029 245:0.010897 246:0.006706 247:0.001676 248:0 249:0.000838 250:0.00922 251:0.012573 252:0.008382 253:0.005029 254:0.000838 255:0.002515 
5 0:0 1:0.000763 2:0.00458 3:0.000763 4:0.001527 5:0.007634 6:0.001527 7:0.00229 8:0.001527 9:0.008397 10:0 11:0.00916 12:0.003817 13:0.00687 14:0.00229 15:0.008397 16:0.003817 17:0.00916 18:0 19:0.00229 20:0.00229 21:0.000763 22:0.003053 23:0.001527 24:0.001527 25:0.003817 26:0.003053 27:0.00229 28:0.007634 29:0.00458 30:0.006107 31:0.005344 32:0.00458 33:0.000763 34:0.005344 35:0.00229 36:0.001527 37:0.007634 38:0.00229 39:0 40:0.00229 41:0.00229 42:0.014504 43:0.007634 44:0.000763 45:0.003053 46:0.006107 47:0.003053 48:0.00687 49:0.00458 50:0.001527 51:0 52:0.01145 53:0.000763 54:0.000763 55:0.00458 56:0.003817 57:0.00687 58:0.003817 59:0.00229 60:0.012977 61:0.00229 62:0.00229 63:0.00458 64:0 65:0.001527 66:0.00229 67:0.016031 68:0.003817 69:0.005344 70:0.005344 71:0.001527 72:0.006107 73:0.017557 74:0.005344 75:0.00458 76:0.005344 77:0.00458 78:0.012214 79:0.005344 80:0.003053 81:0.00458 82:0 83:0 84:0.00229 85:0.003053 86:0.000763 87:0.006107 88:0 89:0.006107 90:0.00229 91:0.001527 92:0.007634 93:0 94:0.00458 95:0.00229 96:0.003053 97:0.005344 98:0.003817 99:0.003817 100:0.001527 101:0.003817 102:0.017557 103:0.000763 104:0 105:0.000763 106:0.000763 107:0.003817 108:0.007634 109:0.006107 110:0.021374 111:0.00687 112:0.001527 113:0.001527 114:0.00458 115:0.00229 116:0.001527 117:0.000763 118:0.003053 119:0.003053 120:0.00458 121:0.012977 122:0.00458 123:0.00916 124:0.001527 125:0 126:0.00687 127:0.00458 128:0.003053 129:0.00458 130:0 131:0.00229 132:0.003817 133:0.000763 134:0.006107 135:0.006107 136:0.006107 137:0.00229 138:0 139:0.001527 140:0.003053 141:0 142:0.000763 143:0.003053 144:0.000763 145:0 146:0.00687 147:0.00458 148:0.008397 149:0.00458 150:0.010687 151:0.003817 152:0.00458 153:0.001527 154:0.007634 155:0.003053 156:0.00458 157:0.014504 158:0.006107 159:0.001527 160:0.007634 161:0.000763 162:0.00229 163:0.001527 164:0.00458 165:0.008397 166:0.00229 167:0.000763 168:0.003817 169:0.001527 170:0.00229 171:0.018321 172:0.00458 173:0.003053 174:0.000763 175:0 176:0 177:0 178:0 179:0.000763 180:0 181:0.000763 182:0.000763 183:0.003053 184:0.00458 185:0.003817 186:0.00229 187:0.003053 188:0.00458 189:0.00229 190:0.000763 191:0.007634 192:0 193:0.000763 194:0.005344 195:0.00229 196:0.00458 197:0 198:0.003053 199:0.006107 200:0.003817 201:0.003053 202:0.00687 203:0.003817 204:0.00916 205:0.006107 206:0.001527 207:0.008397 208:0.019847 209:0.001527 210:0.005344 211:0.001527 212:0.001527 213:0.001527 214:0.000763 215:0.00229 216:0.001527 217:0 218:0.000763 219:0.003053 220:0.00229 221:0.000763 222:0.00458 223:0 224:0.012214 225:0.007634 226:0.000763 227:0.000763 228:0.003053 229:0 230:0.00229 231:0.007634 232:0.007634 233:0.00229 234:0.001527 235:0.005344 236:0.006107 237:0.001527 238:0.000763 239:0.001527 240:0.000763 241:0.001527 242:0.003817 243:0.012214 244:0.010687 245:0.00687 246:0.006107 247:0.005344 248:0.000763 249:0.000763 250:0.00229 251:0.00229 252:0.003817 253:0.003817 254:0 255:0.000763 
5 0:0 1:0.020018 2:0 3:0.00273 4:0.00091 5:0.00182 6:0.017288 7:0.00546 8:0.00091 9:0.00546 10:0 11:0.00364 12:0.008189 13:0.00273 14:0.00091 15:0.006369 16:0.00273 17:0.00455 18:0.00182 19:0.00182 20:0.00273 21:0.010919 22:0.007279 23:0.00091 24:0.00455 25:0.00455 26:0.008189 27:0.00364 28:0.00455 29:0.00182 30:0.00364 31:0.006369 32:0.00091 33:0.007279 34:0.00182 35:0 36:0.014559 37:0.00091 38:0.00091 39:0 40:0.00091 41:0.00364 42:0.00546 43:0.00182 44:0 45:0.014559 46:0.00364 47:0.00091 48:0.007279 49:0.00273 50:0.00546 51:0.006369 52:0.00364 53:0.00364 54:0.00364 55:0.00091 56:0.00091 57:0.00091 58:0 59:0.00182 60:0.011829 61:0.00182 62:0.006369 63:0.008189 64:0 65:0.00182 66:0.00091 67:0.009099 68:0.00273 69:0.00546 70:0.00364 71:0.00546 72:0.00273 73:0.00364 74:0.00273 75:0.00364 76:0.00455 77:0.00091 78:0.00364 79:0.00182 80:0.00546 81:0 82:0.00364 83:0.00455 84:0.00455 85:0.00182 86:0 87:0.00455 88:0.00273 89:0.00182 90:0.00364 91:0.00546 92:0.011829 93:0.00364 94:0.00273 95:0.00364 96:0.00182 97:0.00182 98:0 99:0.006369 100:0.012739 101:0.00091 102:0.00546 103:0.017288 104:0 105:0.00182 106:0.00273 107:0 108:0.00546 109:0.00273 110:0.008189 111:0.00091 112:0.00546 113:0.013649 114:0.00455 115:0.007279 116:0.007279 117:0.00546 118:0.00273 119:0.00091 120:0.00273 121:0 122:0.00273 123:0.00455 124:0.00273 125:0 126:0.006369 127:0.00546 128:0.010009 129:0 130:0.00182 131:0.00546 132:0.00091 133:0.00091 134:0.00091 135:0.00546 136:0.00364 137:0.00091 138:0.00091 139:0 140:0.00091 141:0.00182 142:0.008189 143:0 144:0.00182 145:0.00455 146:0.00091 147:0.00455 148:0.00091 149:0.00455 150:0.00182 151:0.00182 152:0.00546 153:0.00455 154:0.00364 155:0.00273 156:0.00273 157:0 158:0.008189 159:0.00182 160:0.007279 161:0.00273 162:0.014559 163:0.00182 164:0.00273 165:0.00182 166:0 167:0.006369 168:0.00455 169:0.00182 170:0.00091 171:0.008189 172:0.00364 173:0.00182 174:0 175:0.00455 176:0.00455 177:0.00182 178:0 179:0.00273 180:0.00182 181:0.00273 182:0.00091 183:0.00546 184:0.00455 185:0.00364 186:0.00091 187:0.008189 188:0.00273 189:0.00091 190:0.006369 191:0.00182 192:0.00546 193:0.00364 194:0.00364 195:0 196:0.009099 197:0.00182 198:0.00364 199:0.00364 200:0.00546 201:0.00182 202:0.006369 203:0.00273 204:0.00455 205:0.00546 206:0.006369 207:0.00091 208:0.00364 209:0.00091 210:0.00091 211:0.00455 212:0.012739 213:0.00546 214:0.007279 215:0.008189 216:0.008189 217:0.00364 218:0.00182 219:0.008189 220:0.006369 221:0.00364 222:0.00455 223:0 224:0.010919 225:0.00273 226:0.008189 227:0.00091 228:0.00273 229:0.00091 230:0.00455 231:0.009099 232:0.00091 233:0.006369 234:0.00546 235:0.006369 236:0.010009 237:0.00182 238:0.00546 239:0 240:0.00182 241:0.00455 242:0.00364 243:0.00364 244:0 245:0.00546 246:0.006369 247:0.00364 248:0 249:0.00364 250:0.00182 251:0.00182 252:0.006369 253:0.00364 254:0.00546 255:0.00091 
5 0:0.000822 1:0 2:0.001643 3:0.000822 4:0.012325 5:0.003287 6:0.025472 7:0.001643 8:0.000822 9:0.019721 10:0 11:0.004108 12:0.006574 13:0.00493 14:0.001643 15:0.004108 16:0.001643 17:0.004108 18:0.000822 19:0.000822 20:0 21:0.00986 22:0.007395 23:0.002465 24:0.005752 25:0.004108 26:0.005752 27:0.000822 28:0.005752 29:0 30:0.002465 31:0.004108 32:0.005752 33:0.001643 34:0.000822 35:0.010682 36:0.007395 37:0.002465 38:0 39:0 40:0.007395 41:0 42:0 43:0.004108 44:0.004108 45:0 46:0.001643 47:0.005752 48:0.001643 49:0.003287 50:0.002465 51:0 52:0 53:0.00493 54:0.003287 55:0 56:0 57:0.001643 58:0.003287 59:0.004108 60:0.018077 61:0.007395 62:0.006574 63:0.003287 64:0 65:0 66:0.004108 67:0.00986 68:0.010682 69:0.006574 70:0.001643 71:0.011504 72:0.001643 73:0.012325 74:0.001643 75:0.009039 76:0.000822 77:0.000822 78:0.016434 79:0.009039 80:0.004108 81:0.001643 82:0 83:0 84:0.002465 85:0.011504 86:0.000822 87:0.006574 88:0 89:0.001643 90:0.003287 91:0.000822 92:0.013147 93:0.001643 94:0.008217 95:0.008217 96:0.00493 97:0.000822 98:0.000822 99:0.013147 100:0 101:0.000822 102:0.001643 103:0.000822 104:0 105:0 106:0 107:0.000822 108:0.003287 109:0.003287 110:0.007395 111:0.001643 112:0.002465 113:0.000822 114:0.001643 115:0.010682 116:0.019721 117:0 118:0.003287 119:0.006574 120:0.00493 121:0.00986 122:0.016434 123:0.002465 124:0.001643 125:0.001643 126:0.003287 127:0.002465 128:0.009039 129:0 130:0 131:0.005752 132:0.001643 133:0.004108 134:0.002465 135:0.003287 136:0.000822 137:0.002465 138:0.006574 139:0.001643 140:0 141:0 142:0.018899 143:0.002465 144:0.001643 145:0.00493 146:0.001643 147:0.004108 148:0.000822 149:0.009039 150:0.000822 151:0.003287 152:0.008217 153:0.000822 154:0.009039 155:0 156:0.006574 157:0.005752 158:0.002465 159:0.001643 160:0.001643 161:0.003287 162:0 163:0.006574 164:0.004108 165:0.000822 166:0.000822 167:0.003287 168:0.007395 169:0 170:0.000822 171:0.004108 172:0.003287 173:0 174:0 175:0.008217 176:0.001643 177:0 178:0 179:0.000822 180:0.000822 181:0.003287 182:0 183:0 184:0.002465 185:0.003287 186:0.001643 187:0.010682 188:0.000822 189:0.000822 190:0.003287 191:0.001643 192:0 193:0.025472 194:0.005752 195:0 196:0.003287 197:0.000822 198:0.000822 199:0.003287 200:0.004108 201:0.002465 202:0.005752 203:0 204:0.001643 205:0.017256 206:0 207:0.000822 208:0.026294 209:0 210:0.001643 211:0.001643 212:0.013147 213:0.003287 214:0.002465 215:0.004108 216:0 217:0 218:0.002465 219:0.002465 220:0.00493 221:0.003287 222:0.020542 223:0 224:0.002465 225:0 226:0.001643 227:0.013969 228:0.001643 229:0.001643 230:0 231:0.007395 232:0.001643 233:0.004108 234:0 235:0.002465 236:0.017256 237:0.000822 238:0 239:0.000822 240:0.00986 241:0.001643 242:0.00493 243:0.000822 244:0.001643 245:0.013147 246:0.00493 247:0.002465 248:0 249:0 250:0.001643 251:0.000822 252:0.002465 253:0.000822 254:0 255:0.002465 
5 0:0 1:0 2:0 3:0.001167 4:0.001167 5:0.004667 6:0.001167 7:0.002334 8:0.002334 9:0.001167 10:0.001167 11:0.001167 12:0 13:0.007001 14:0.003501 15:0.003501 16:0.007001 17:0.005834 18:0 19:0.003501 20:0.001167 21:0.002334 22:0.005834 23:0.002334 24:0.007001 25:0 26:0.003501 27:0.002334 28:0.005834 29:0.002334 30:0.003501 31:0.008168 32:0.002334 33:0.002334 34:0.004667 35:0.014002 36:0.005834 37:0.016336 38:0.001167 39:0 40:0.002334 41:0.001167 42:0 43:0.021004 44:0.002334 45:0 46:0.007001 47:0.005834 48:0 49:0.007001 50:0.005834 51:0.001167 52:0.004667 53:0 54:0.001167 55:0.002334 56:0.002334 57:0 58:0.01867 59:0 60:0 61:0.007001 62:0.003501 63:0.005834 64:0 65:0 66:0.023337 67:0.003501 68:0.005834 69:0 70:0.001167 71:0.002334 72:0.004667 73:0.007001 74:0.003501 75:0 76:0 77:0.002334 78:0.029172 79:0.001167 80:0.002334 81:0 82:0 83:0 84:0.004667 85:0.003501 86:0 87:0.001167 88:0.001167 89:0.001167 90:0 91:0.001167 92:0.004667 93:0 94:0.011669 95:0.005834 96:0.011669 97:0.001167 98:0.004667 99:0.004667 100:0.007001 101:0.002334 102:0 103:0 104:0.010502 105:0.001167 106:0.003501 107:0.003501 108:0.005834 109:0.007001 110:0.002334 111:0.009335 112:0.001167 113:0.003501 114:0.003501 115:0.002334 116:0.003501 117:0.002334 118:0 119:0.005834 120:0.014002 121:0.004667 122:0.001167 123:0.003501 124:0.001167 125:0 126:0.004667 127:0.002334 128:0.001167 129:0 130:0.002334 131:0.026838 132:0.012835 133:0.007001 134:0 135:0 136:0.002334 137:0.002334 138:0.001167 139:0.001167 140:0 141:0 142:0.002334 143:0 144:0 145:0 146:0.008168 147:0.011669 148:0.007001 149:0.002334 150:0.009335 151:0.003501 152:0.007001 153:0 154:0.003501 155:0.002334 156:0.001167 157:0.021004 158:0 159:0.005834 160:0.001167 161:0.009335 162:0 163:0.002334 164:0.003501 165:0.009335 166:0 167:0.003501 168:0.007001 169:0.003501 170:0.005834 171:0.001167 172:0.003501 173:0.004667 174:0 175:0 176:0.001167 177:0.001167 178:0.002334 179:0.002334 180:0 181:0.005834 182:0 183:0 184:0.005834 185:0.001167 186:0.003501 187:0.008168 188:0.005834 189:0 190:0.003501 191:0.001167 192:0 193:0.011669 194:0.009335 195:0 196:0 197:0.001167 198:0.001167 199:0.008168 200:0 201:0.001167 202:0.003501 203:0 204:0.008168 205:0.029172 206:0 207:0 208:0 209:0.005834 210:0.001167 211:0.008168 212:0.004667 213:0.003501 214:0.002334 215:0.002334 216:0.001167 217:0.002334 218:0 219:0 220:0.002334 221:0.014002 222:0.007001 223:0 224:0.004667 225:0.002334 226:0 227:0.001167 228:0.008168 229:0.001167 230:0.008168 231:0.005834 232:0.009335 233:0.015169 234:0 235:0.004667 236:0.010502 237:0.001167 238:0.002334 239:0.002334 240:0.008168 241:0.003501 242:0.003501 243:0.001167 244:0.001167 245:0.014002 246:0.005834 247:0.009335 248:0.001167 249:0 250:0.005834 251:0.004667 252:0.002334 253:0.003501 254:0.003501 255:0.001167 
5 0:0 1:0.001035 2:0.003106 3:0 4:0.006211 5:0 6:0.004141 7:0.006211 8:0.004141 9:0.001035 10:0.004141 11:0.003106 12:0.003106 13:0.004141 14:0.00207 15:0.008282 16:0.006211 17:0.004141 18:0.00207 19:0.006211 20:0.004141 21:0.00207 22:0.003106 23:0.006211 24:0.001035 25:0.001035 26:0.008282 27:0 28:0.00207 29:0.004141 30:0.004141 31:0.007246 32:0 33:0 34:0.003106 35:0.004141 36:0.013458 37:0.003106 38:0.001035 39:0.001035 40:0.004141 41:0.005176 42:0.02381 43:0.009317 44:0.001035 45:0 46:0.00207 47:0.004141 48:0.007246 49:0.005176 50:0.00207 51:0.00207 52:0.005176 53:0.003106 54:0.001035 55:0.005176 56:0.003106 57:0.003106 58:0.007246 59:0.001035 60:0.00207 61:0.001035 62:0 63:0 64:0 65:0 66:0.005176 67:0.011387 68:0.005176 69:0.012422 70:0.004141 71:0.001035 72:0.003106 73:0.007246 74:0.004141 75:0.008282 76:0.001035 77:0.005176 78:0.003106 79:0.003106 80:0.020704 81:0.011387 82:0 83:0.014493 84:0.00207 85:0.001035 86:0.001035 87:0.011387 88:0.001035 89:0.003106 90:0 91:0.003106 92:0.009317 93:0.006211 94:0 95:0.003106 96:0 97:0.005176 98:0.007246 99:0.00207 100:0.001035 101:0.012422 102:0.003106 103:0.008282 104:0.003106 105:0 106:0.004141 107:0 108:0.008282 109:0.005176 110:0.00207 111:0 112:0.005176 113:0.001035 114:0.007246 115:0.00207 116:0.001035 117:0.00207 118:0.006211 119:0.004141 120:0.00207 121:0.001035 122:0.003106 123:0.003106 124:0.00207 125:0 126:0.00207 127:0.001035 128:0.008282 129:0 130:0.001035 131:0.004141 132:0.013458 133:0 134:0.006211 135:0.013458 136:0.001035 137:0.004141 138:0.001035 139:0.001035 140:0.001035 141:0.001035 142:0.005176 143:0.003106 144:0.00207 145:0.008282 146:0.00207 147:0.004141 148:0.001035 149:0.004141 150:0.014493 151:0 152:0.001035 153:0.00207 154:0.006211 155:0.00207 156:0.00207 157:0.011387 158:0 159:0.001035 160:0.012422 161:0.005176 162:0.00207 163:0.003106 164:0.009317 165:0.006211 166:0.003106 167:0.008282 168:0.004141 169:0.00207 170:0.001035 171:0.003106 172:0 173:0.001035 174:0 175:0.005176 176:0.004141 177:0.00207 178:0 179:0.00207 180:0.003106 181:0.003106 182:0.00207 183:0.005176 184:0.005176 185:0.00207 186:0.004141 187:0.011387 188:0.001035 189:0.00207 190:0.008282 191:0.007246 192:0.001035 193:0.004141 194:0.001035 195:0.005176 196:0 197:0 198:0.003106 199:0 200:0.003106 201:0.001035 202:0.00207 203:0.003106 204:0.004141 205:0.011387 206:0 207:0.005176 208:0.008282 209:0.004141 210:0.001035 211:0.004141 212:0.003106 213:0.004141 214:0.009317 215:0.003106 216:0 217:0.001035 218:0.006211 219:0.006211 220:0.005176 221:0.003106 222:0.006211 223:0 224:0.00207 225:0.008282 226:0 227:0.00207 228:0.009317 229:0.001035 230:0 231:0.008282 232:0.00207 233:0.007246 234:0.003106 235:0 236:0.007246 237:0 238:0.004141 239:0.001035 240:0.006211 241:0.001035 242:0.006211 243:0.008282 244:0.016563 245:0.003106 246:0.006211 247:0.004141 248:0 249:0 250:0.003106 251:0.012422 252:0.003106 253:0.003106 254:0 255:0 
5 0:0 1:0.02646 2:0.002737 3:0.000912 4:0.012774 5:0.005474 6:0.005474 7:0.00365 8:0.009124 9:0.001825 10:0 11:0.009124 12:0.002737 13:0.000912 14:0.010036 15:0.001825 16:0.000912 17:0.00365 18:0 19:0 20:0.006387 21:0.010036 22:0.005474 23:0.000912 24:0.000912 25:0.006387 26:0.011861 27:0.00365 28:0.002737 29:0 30:0.009124 31:0.00365 32:0.001825 33:0.000912 34:0.001825 35:0.000912 36:0.004562 37:0.012774 38:0 39:0.000912 40:0 41:0.001825 42:0.00365 43:0.007299 44:0 45:0.010036 46:0.002737 47:0.004562 48:0.005474 49:0.005474 50:0 51:0.001825 52:0.00365 53:0.007299 54:0.001825 55:0.008212 56:0.010036 57:0.008212 58:0.028285 59:0 60:0.002737 61:0.001825 62:0.000912 63:0.010036 64:0 65:0 66:0.006387 67:0.005474 68:0 69:0.010036 70:0.013686 71:0.010036 72:0.004562 73:0.002737 74:0.006387 75:0.02281 76:0.001825 77:0.006387 78:0.007299 79:0.009124 80:0.008212 81:0.001825 82:0.000912 83:0 84:0.000912 85:0.000912 86:0.002737 87:0.001825 88:0 89:0.000912 90:0 91:0.001825 92:0.010949 93:0.004562 94:0 95:0.00365 96:0 97:0.006387 98:0.009124 99:0.001825 100:0 101:0.006387 102:0.009124 103:0.002737 104:0.00365 105:0.000912 106:0 107:0 108:0.005474 109:0.009124 110:0.002737 111:0.002737 112:0.00365 113:0.001825 114:0.000912 115:0 116:0.005474 117:0 118:0.002737 119:0.005474 120:0.001825 121:0.00365 122:0.004562 123:0.00365 124:0.001825 125:0 126:0.002737 127:0.001825 128:0.000912 129:0.004562 130:0.001825 131:0.001825 132:0.002737 133:0 134:0.001825 135:0.002737 136:0.000912 137:0.00365 138:0 139:0.000912 140:0.005474 141:0.001825 142:0.001825 143:0.002737 144:0.002737 145:0.004562 146:0.004562 147:0.002737 148:0.006387 149:0.006387 150:0.006387 151:0.000912 152:0.000912 153:0.007299 154:0.002737 155:0.00365 156:0 157:0.000912 158:0.017336 159:0.011861 160:0.008212 161:0.004562 162:0.007299 163:0.001825 164:0.008212 165:0.006387 166:0.009124 167:0.000912 168:0.00365 169:0.015511 170:0 171:0.004562 172:0.006387 173:0.001825 174:0.00365 175:0 176:0.004562 177:0.005474 178:0 179:0 180:0.000912 181:0.002737 182:0 183:0.001825 184:0.002737 185:0.008212 186:0.007299 187:0.002737 188:0.001825 189:0.001825 190:0.004562 191:0.000912 192:0.001825 193:0.002737 194:0.000912 195:0.005474 196:0 197:0.002737 198:0.001825 199:0.00365 200:0.005474 201:0.002737 202:0.010949 203:0.000912 204:0.002737 205:0.005474 206:0.001825 207:0.00365 208:0.001825 209:0.001825 210:0.008212 211:0.007299 212:0.006387 213:0 214:0.004562 215:0.000912 216:0.001825 217:0 218:0 219:0.004562 220:0.00365 221:0 222:0 223:0 224:0.006387 225:0.007299 226:0.002737 227:0.000912 228:0.001825 229:0.002737 230:0.004562 231:0.00365 232:0 233:0.006387 234:0.00365 235:0.005474 236:0.000912 237:0.000912 238:0.001825 239:0 240:0.005474 241:0 242:0.001825 243:0.005474 244:0.009124 245:0 246:0.000912 247:0.009124 248:0 249:0 250:0.004562 251:0.012774 252:0.002737 253:0.006387 254:0.002737 255:0 
5 0:0.001812 1:0.005435 2:0.006039 3:0.00785 4:0.00785 5:0.001812 6:0.008454 7:0.004831 8:0.002415 9:0.003623 10:0.003019 11:0.001208 12:0.000604 13:0.003019 14:0.001812 15:0.002415 16:0.004831 17:0.002415 18:0.000604 19:0.002415 20:0.005435 21:0.002415 22:0.000604 23:0.000604 24:0.006039 25:0.001812 26:0.004227 27:0.001812 28:0.003019 29:0.007246 30:0.004227 31:0.001208 32:0.004831 33:0.003019 34:0.005435 35:0.017512 36:0.009058 37:0.004831 38:0.006039 39:0 40:0.005435 41:0.003623 42:0.003623 43:0.01087 44:0.01087 45:0.001208 46:0.004227 47:0.000604 48:0.004227 49:0.001208 50:0.008454 51:0.002415 52:0.003019 53:0.003623 54:0.003623 55:0.008454 56:0.000604 57:0.001208 58:0.020531 59:0.001208 60:0.006039 61:0.004831 62:0.001208 63:0.003623 64:0.001812 65:0.003623 66:0.018116 67:0.003019 68:0.004831 69:0.007246 70:0.001208 71:0.001208 72:0.001812 73:0.003019 74:0.002415 75:0.00785 76:0.001812 77:0.003019 78:0.005435 79:0.004831 80:0.001208 81:0.001208 82:0.001208 83:0.003019 84:0.005435 85:0.006643 86:0 87:0.001208 88:0 89:0.006039 90:0.002415 91:0.000604 92:0.009662 93:0.001812 94:0.006039 95:0.003623 96:0.001812 97:0.004227 98:0.001208 99:0.003019 100:0.004227 101:0.000604 102:0.003623 103:0.001208 104:0.003623 105:0 106:0.003019 107:0.004831 108:0.003623 109:0.003019 110:0.011473 111:0.009058 112:0.005435 113:0.004831 114:0.004227 115:0.002415 116:0.004227 117:0.001812 118:0.002415 119:0.005435 120:0.009058 121:0.003623 122:0.009058 123:0.005435 124:0.003019 125:0.000604 126:0.001208 127:0.000604 128:0.004831 129:0.001208 130:0 131:0.006643 132:0.003623 133:0.004831 134:0.001208 135:0.001208 136:0.000604 137:0.002415 138:0.003623 139:0.002415 140:0.00785 141:0 142:0.012077 143:0.004227 144:0.000604 145:0.002415 146:0.005435 147:0.012681 148:0.004831 149:0.005435 150:0.006643 151:0.00785 152:0.011473 153:0.003019 154:0.005435 155:0.009662 156:0.007246 157:0 158:0.004227 159:0.002415 160:0.001812 161:0.004227 162:0.001812 163:0.003623 164:0.004227 165:0.003623 166:0.000604 167:0.001812 168:0.009662 169:0.002415 170:0.000604 171:0.002415 172:0.006039 173:0.001208 174:0.000604 175:0.004227 176:0.003019 177:0.002415 178:0.001812 179:0.005435 180:0.002415 181:0.009662 182:0 183:0.001208 184:0.004831 185:0.005435 186:0.002415 187:0.003019 188:0.004831 189:0.004227 190:0.000604 191:0.001812 192:0.001812 193:0.006039 194:0.00785 195:0.002415 196:0.000604 197:0.006643 198:0.002415 199:0.00785 200:0.004227 201:0.001812 202:0.004831 203:0.001208 204:0.004227 205:0.004227 206:0 207:0.001812 208:0.003019 209:0.006039 210:0.001812 211:0.005435 212:0.003623 213:0.004227 214:0.001208 215:0.011473 216:0.005435 217:0.002415 218:0 219:0.00785 220:0.002415 221:0.007246 222:0.005435 223:0 224:0.004227 225:0.002415 226:0.001208 227:0.006039 228:0.001812 229:0.003623 230:0.001208 231:0.002415 232:0.004227 233:0.013889 234:0.001812 235:0.004227 236:0.001208 237:0.000604 238:0.001208 239:0.001208 240:0.011473 241:0.003623 242:0.004831 243:0.001208 244:0.006039 245:0.006643 246:0.003019 247:0.002415 248:0.002415 249:0 250:0.002415 251:0.006039 252:0.000604 253:0.001208 254:0.001208 255:0.001812 
5 0:0 1:0.003444 2:0 3:0.003444 4:0.005741 5:0 6:0.019518 7:0.009185 8:0.001148 9:0.022962 10:0 11:0.004592 12:0 13:0 14:0.001148 15:0.005741 16:0.013777 17:0.003444 18:0.001148 19:0.004592 20:0.001148 21:0.006889 22:0.012629 23:0.002296 24:0.005741 25:0.005741 26:0.004592 27:0.002296 28:0.008037 29:0 30:0.002296 31:0.014925 32:0.010333 33:0.011481 34:0.001148 35:0.001148 36:0.004592 37:0.011481 38:0.001148 39:0 40:0.003444 41:0.003444 42:0.003444 43:0.011481 44:0.002296 45:0.003444 46:0.001148 47:0.002296 48:0.001148 49:0.001148 50:0.003444 51:0 52:0.001148 53:0.002296 54:0.005741 55:0.006889 56:0.003444 57:0.001148 58:0.003444 59:0.003444 60:0.008037 61:0 62:0.006889 63:0.002296 64:0 65:0 66:0.010333 67:0.003444 68:0.011481 69:0.011481 70:0 71:0.006889 72:0.006889 73:0.011481 74:0.003444 75:0.005741 76:0.001148 77:0 78:0.009185 79:0.001148 80:0.006889 81:0.001148 82:0 83:0 84:0 85:0.002296 86:0 87:0.002296 88:0 89:0.003444 90:0.006889 91:0.004592 92:0 93:0.004592 94:0.004592 95:0.003444 96:0.001148 97:0 98:0 99:0.013777 100:0.003444 101:0.002296 102:0.010333 103:0.002296 104:0.001148 105:0.005741 106:0 107:0.005741 108:0.004592 109:0.011481 110:0.011481 111:0.021814 112:0.001148 113:0.001148 114:0.002296 115:0.001148 116:0.006889 117:0.002296 118:0 119:0 120:0.011481 121:0.004592 122:0.010333 123:0.004592 124:0.001148 125:0 126:0.001148 127:0.001148 128:0.005741 129:0 130:0 131:0.003444 132:0.002296 133:0.001148 134:0.002296 135:0.005741 136:0.006889 137:0.002296 138:0.002296 139:0.006889 140:0 141:0 142:0.011481 143:0.003444 144:0.003444 145:0 146:0.004592 147:0.010333 148:0.001148 149:0.006889 150:0.008037 151:0.001148 152:0.002296 153:0 154:0.001148 155:0.001148 156:0.004592 157:0.006889 158:0.004592 159:0 160:0 161:0.002296 162:0.017222 163:0.002296 164:0.004592 165:0.001148 166:0.008037 167:0.005741 168:0.004592 169:0 170:0.004592 171:0.001148 172:0.001148 173:0.004592 174:0.002296 175:0.008037 176:0.005741 177:0.001148 178:0.003444 179:0.001148 180:0 181:0.005741 182:0.002296 183:0.003444 184:0 185:0 186:0 187:0.019518 188:0.001148 189:0 190:0.001148 191:0.001148 192:0.001148 193:0.010333 194:0.002296 195:0 196:0.005741 197:0.005741 198:0.009185 199:0.008037 200:0.005741 201:0.001148 202:0.004592 203:0 204:0.003444 205:0.003444 206:0.001148 207:0 208:0.001148 209:0 210:0.001148 211:0.003444 212:0.003444 213:0.008037 214:0.003444 215:0.006889 216:0.004592 217:0.003444 218:0 219:0.001148 220:0 221:0.014925 222:0.003444 223:0.002296 224:0.003444 225:0.004592 226:0.002296 227:0.001148 228:0.009185 229:0.005741 230:0 231:0.005741 232:0.006889 233:0.001148 234:0.002296 235:0.002296 236:0.005741 237:0.002296 238:0.002296 239:0 240:0.003444 241:0.005741 242:0.002296 243:0.011481 244:0 245:0.005741 246:0.003444 247:0.002296 248:0.001148 249:0 250:0 251:0.003444 252:0.001148 253:0 254:0 255:0.004592 
5 0:0.000934 1:0.004669 2:0.001867 3:0 4:0.004669 5:0.003735 6:0.009337 7:0.003735 8:0.000934 9:0 10:0.002801 11:0.000934 12:0.000934 13:0.005602 14:0.000934 15:0.000934 16:0.000934 17:0.003735 18:0.000934 19:0.004669 20:0.000934 21:0.005602 22:0.016807 23:0 24:0.005602 25:0.000934 26:0.000934 27:0.000934 28:0.013072 29:0.003735 30:0.001867 31:0.000934 32:0.001867 33:0.003735 34:0.001867 35:0.000934 36:0 37:0.001867 38:0.006536 39:0.024276 40:0.002801 41:0.000934 42:0.020542 43:0.004669 44:0.004669 45:0.002801 46:0.000934 47:0.000934 48:0.002801 49:0.003735 50:0.00747 51:0.003735 52:0.015873 53:0 54:0.000934 55:0.000934 56:0.005602 57:0 58:0.000934 59:0.02521 60:0.003735 61:0.003735 62:0.005602 63:0.002801 64:0.037348 65:0.001867 66:0 67:0.009337 68:0.006536 69:0.011204 70:0 71:0.000934 72:0 73:0.004669 74:0 75:0.005602 76:0.001867 77:0 78:0.004669 79:0.003735 80:0.000934 81:0.000934 82:0.001867 83:0 84:0.003735 85:0.002801 86:0.003735 87:0.000934 88:0.004669 89:0.001867 90:0.004669 91:0.002801 92:0.001867 93:0.001867 94:0.023343 95:0.005602 96:0.005602 97:0.001867 98:0.001867 99:0.003735 100:0.000934 101:0.015873 102:0.001867 103:0 104:0.003735 105:0.000934 106:0 107:0 108:0.002801 109:0.004669 110:0.000934 111:0.004669 112:0 113:0.010271 114:0.012138 115:0.011204 116:0.003735 117:0.005602 118:0 119:0 120:0.004669 121:0.011204 122:0.000934 123:0.000934 124:0 125:0.012138 126:0.000934 127:0.000934 128:0.001867 129:0 130:0.00747 131:0.000934 132:0.000934 133:0.022409 134:0 135:0.010271 136:0.000934 137:0.000934 138:0.003735 139:0.002801 140:0.001867 141:0.003735 142:0.00747 143:0.002801 144:0 145:0.000934 146:0.004669 147:0.004669 148:0 149:0.004669 150:0.002801 151:0.015873 152:0.004669 153:0.004669 154:0 155:0.003735 156:0.000934 157:0 158:0.004669 159:0 160:0.003735 161:0.001867 162:0.000934 163:0.000934 164:0.005602 165:0 166:0 167:0.001867 168:0.002801 169:0.000934 170:0.000934 171:0 172:0.00747 173:0.000934 174:0.001867 175:0.003735 176:0.00747 177:0.000934 178:0.008403 179:0.001867 180:0.003735 181:0 182:0 183:0.000934 184:0.006536 185:0 186:0.003735 187:0 188:0.004669 189:0.006536 190:0.002801 191:0 192:0.002801 193:0 194:0.004669 195:0.000934 196:0.005602 197:0.006536 198:0.000934 199:0.010271 200:0.001867 201:0.001867 202:0.003735 203:0.002801 204:0.002801 205:0.000934 206:0.003735 207:0 208:0.011204 209:0 210:0 211:0.006536 212:0.010271 213:0.001867 214:0.003735 215:0.019608 216:0 217:0.004669 218:0 219:0.000934 220:0.004669 221:0.003735 222:0.006536 223:0.002801 224:0.005602 225:0.001867 226:0.001867 227:0.002801 228:0.000934 229:0.000934 230:0.002801 231:0.006536 232:0.012138 233:0.002801 234:0.002801 235:0.001867 236:0.013072 237:0.002801 238:0.009337 239:0.002801 240:0.000934 241:0.002801 242:0.003735 243:0.002801 244:0.01774 245:0.008403 246:0.001867 247:0.002801 248:0 249:0.006536 250:0.002801 251:0 252:0 253:0.005602 254:0.000934 255:0.004669 
5 0:0 1:0.006721 2:0.001494 3:0.001494 4:0.002987 5:0.00224 6:0.005975 7:0.003734 8:0.000747 9:0.005975 10:0.002987 11:0.006721 12:0.005228 13:0.000747 14:0.000747 15:0.005228 16:0.006721 17:0.002987 18:0.000747 19:0.001494 20:0 21:0.008215 22:0.005975 23:0.002987 24:0.002987 25:0.003734 26:0.014937 27:0 28:0 29:0.000747 30:0.001494 31:0.002987 32:0.001494 33:0.002987 34:0.001494 35:0.000747 36:0.004481 37:0.010456 38:0.002987 39:0 40:0.000747 41:0.000747 42:0.001494 43:0.008215 44:0.005228 45:0.001494 46:0.003734 47:0.001494 48:0.002987 49:0.005975 50:0.00224 51:0.007468 52:0.001494 53:0.002987 54:0 55:0.00224 56:0.007468 57:0.00224 58:0.005975 59:0.001494 60:0.008215 61:0.002987 62:0.002987 63:0.001494 64:0.003734 65:0.01643 66:0.005228 67:0.001494 68:0.005228 69:0.005228 70:0.00224 71:0.007468 72:0.001494 73:0.005975 74:0 75:0.006721 76:0.000747 77:0.001494 78:0.006721 79:0.004481 80:0.005975 81:0.00224 82:0.001494 83:0.000747 84:0.001494 85:0.004481 86:0.001494 87:0.002987 88:0.000747 89:0.00224 90:0.001494 91:0.000747 92:0.005228 93:0.005228 94:0.007468 95:0.005228 96:0.007468 97:0 98:0.001494 99:0.001494 100:0 101:0.009709 102:0.001494 103:0.000747 104:0.001494 105:0.000747 106:0 107:0.001494 108:0.005228 109:0.003734 110:0.000747 111:0.004481 112:0.003734 113:0 114:0.004481 115:0.00224 116:0.010456 117:0.000747 118:0.007468 119:0.004481 120:0.010456 121:0.009709 122:0.005228 123:0.011202 124:0.000747 125:0.000747 126:0 127:0.002987 128:0.000747 129:0.004481 130:0 131:0.007468 132:0.00224 133:0.001494 134:0.001494 135:0.003734 136:0.007468 137:0.00224 138:0.001494 139:0.004481 140:0.005975 141:0 142:0.005228 143:0.008962 144:0.011949 145:0.000747 146:0.011202 147:0.004481 148:0.003734 149:0.00224 150:0.00224 151:0.000747 152:0.006721 153:0.000747 154:0.010456 155:0.000747 156:0.001494 157:0.023898 158:0.001494 159:0.004481 160:0.00224 161:0.005228 162:0.00224 163:0.005975 164:0.006721 165:0.00224 166:0.006721 167:0.000747 168:0.00224 169:0 170:0.005228 171:0.00224 172:0.00224 173:0.001494 174:0.004481 175:0 176:0.002987 177:0.003734 178:0.005228 179:0.001494 180:0.001494 181:0.005228 182:0.003734 183:0.002987 184:0.003734 185:0.001494 186:0.002987 187:0.014937 188:0.000747 189:0.003734 190:0.005228 191:0.008215 192:0.00224 193:0.022405 194:0.007468 195:0.010456 196:0.000747 197:0.003734 198:0.00224 199:0.011202 200:0.006721 201:0.003734 202:0.002987 203:0.001494 204:0.006721 205:0.050037 206:0.002987 207:0.000747 208:0.000747 209:0.004481 210:0.002987 211:0.001494 212:0.011202 213:0.001494 214:0.005228 215:0 216:0 217:0.000747 218:0 219:0.005228 220:0.002987 221:0.005228 222:0.004481 223:0 224:0.008962 225:0.001494 226:0.003734 227:0.00224 228:0.00224 229:0.000747 230:0.002987 231:0.002987 232:0 233:0.005228 234:0.006721 235:0.001494 236:0.00224 237:0.005228 238:0 239:0.001494 240:0.003734 241:0.000747 242:0.010456 243:0.002987 244:0.00224 245:0.009709 246:0.003734 247:0.001494 248:0 249:0.001494 250:0.005228 251:0.007468 252:0.00224 253:0 254:0.000747 255:0.000747 
5 0:0.003455 1:0.001536 2:0.000768 3:0.001152 4:0.003071 5:0.008445 6:0.001152 7:0.003455 8:0.006142 9:0 10:0.001536 11:0.00691 12:0.005374 13:0.001919 14:0.007294 15:0.000768 16:0.000384 17:0.002687 18:0.001152 19:0.004223 20:0.007294 21:0.003071 22:0.001152 23:0.008061 24:0.000384 25:0.006526 26:0.001919 27:0.008445 28:0.000384 29:0.003839 30:0.00499 31:0.000384 32:0.004607 33:0.00499 34:0.0119 35:0.000384 36:0.000768 37:0.000768 38:0.000384 39:0.001536 40:0.002687 41:0.004607 42:0.002687 43:0.003455 44:0.003455 45:0.002303 46:0.009981 47:0.020345 48:0.004223 49:0.006526 50:0.001536 51:0.003839 52:0.006142 53:0.007294 54:0.003455 55:0.005758 56:0.001536 57:0.012284 58:0 59:0 60:0.002303 61:0.008061 62:0.000384 63:0.00499 64:0.003071 65:0 66:0 67:0.002303 68:0.001536 69:0.001919 70:0.00499 71:0.000768 72:0.009597 73:0.001536 74:0.009597 75:0.001152 76:0.003071 77:0.011132 78:0.004223 79:0.002303 80:0.002303 81:0.007294 82:0.003455 83:0.004607 84:0.004223 85:0.001536 86:0.002687 87:0.017274 88:0.003839 89:0.000768 90:0.001152 91:0.003071 92:0.003071 93:0.001919 94:0 95:0 96:0.000384 97:0.008445 98:0.01382 99:0.000384 100:0.001536 101:0.004607 102:0.001536 103:0.006142 104:0.003455 105:0.001919 106:0.000768 107:0.006526 108:0.001536 109:0.000384 110:0.002303 111:0.003839 112:0.004607 113:0.002303 114:0.004223 115:0 116:0.000384 117:0.002687 118:0.003071 119:0.009213 120:0.001152 121:0.000384 122:0.000384 123:0.001536 124:0.009981 125:0.001536 126:0.005758 127:0.004607 128:0.008445 129:0.008445 130:0.005758 131:0.001919 132:0.004607 133:0.000384 134:0.007678 135:0.003839 136:0.003071 137:0.003455 138:0.001152 139:0.001536 140:0.006142 141:0.006142 142:0.008445 143:0.009981 144:0.000384 145:0.003455 146:0.002687 147:0.005374 148:0.012668 149:0.003455 150:0.007678 151:0.000384 152:0.003839 153:0.001536 154:0.000768 155:0.002303 156:0.006526 157:0.000768 158:0.001919 159:0.021497 160:0.002687 161:0.009597 162:0.002303 163:0.008445 164:0.003071 165:0.005758 166:0.008445 167:0.00499 168:0.003071 169:0.003839 170:0.005758 171:0.004223 172:0.005374 173:0.00499 174:0.002303 175:0.000768 176:0.009213 177:0.002303 178:0.000384 179:0.001152 180:0.002687 181:0 182:0.00499 183:0.002303 184:0.001919 185:0.003839 186:0.001152 187:0.000768 188:0.006142 189:0 190:0.002687 191:0.002303 192:0.003455 193:0.000768 194:0.003071 195:0.010365 196:0.00499 197:0.003071 198:0.00499 199:0.001919 200:0.003071 201:0.002303 202:0.003071 203:0.00691 204:0.004223 205:0.001152 206:0.005374 207:0.008445 208:0.000768 209:0.001536 210:0.004607 211:0.00499 212:0.001152 213:0.006526 214:0.000768 215:0.000768 216:0.007678 217:0.001152 218:0.002303 219:0.004223 220:0.006526 221:0.003839 222:0.001152 223:0 224:0.005374 225:0.003839 226:0.000768 227:0.00499 228:0.003071 229:0.001919 230:0.003839 231:0.000768 232:0.002687 233:0.006526 234:0.003839 235:0.003455 236:0.001919 237:0.000768 238:0.004223 239:0.000768 240:0.004607 241:0.007294 242:0.003455 243:0.001536 244:0.007294 245:0.001536 246:0.010749 247:0.003839 248:0.001152 249:0.001536 250:0.017274 251:0.002687 252:0.015355 253:0.003071 254:0.005374 255:0.000768 
5 0:0 1:0.006427 2:0.015424 3:0.001285 4:0.008997 5:0.001285 6:0.023136 7:0.007712 8:0.002571 9:0.003856 10:0.006427 11:0.002571 12:0 13:0 14:0 15:0.008997 16:0.002571 17:0.005141 18:0 19:0.001285 20:0.003856 21:0.003856 22:0.002571 23:0.005141 24:0.007712 25:0.001285 26:0.003856 27:0 28:0.003856 29:0.001285 30:0.005141 31:0.001285 32:0.001285 33:0.001285 34:0 35:0.003856 36:0.007712 37:0.007712 38:0 39:0.001285 40:0.001285 41:0.003856 42:0.006427 43:0.002571 44:0.001285 45:0.001285 46:0 47:0.003856 48:0.003856 49:0.002571 50:0.003856 51:0.003856 52:0.006427 53:0 54:0.002571 55:0 56:0.001285 57:0 58:0.003856 59:0 60:0.025707 61:0.002571 62:0 63:0.002571 64:0 65:0 66:0.002571 67:0.001285 68:0.011568 69:0.001285 70:0.003856 71:0.011568 72:0 73:0.005141 74:0.002571 75:0.005141 76:0.002571 77:0.002571 78:0.002571 79:0.014139 80:0.010283 81:0.006427 82:0 83:0.012853 84:0 85:0.007712 86:0.005141 87:0.005141 88:0.001285 89:0.002571 90:0.001285 91:0.002571 92:0.005141 93:0 94:0 95:0.001285 96:0.001285 97:0.001285 98:0 99:0.002571 100:0 101:0 102:0.032134 103:0.006427 104:0 105:0 106:0.002571 107:0 108:0.005141 109:0.007712 110:0.007712 111:0 112:0.002571 113:0.005141 114:0.002571 115:0.002571 116:0.006427 117:0.002571 118:0.005141 119:0.003856 120:0.001285 121:0.001285 122:0.003856 123:0.003856 124:0.001285 125:0 126:0 127:0 128:0.003856 129:0.005141 130:0 131:0.017995 132:0.005141 133:0.002571 134:0.002571 135:0.010283 136:0.002571 137:0.006427 138:0.001285 139:0 140:0.005141 141:0.006427 142:0.008997 143:0 144:0 145:0.003856 146:0.015424 147:0.002571 148:0 149:0.001285 150:0 151:0.001285 152:0.001285 153:0 154:0.005141 155:0.001285 156:0 157:0.025707 158:0 159:0.001285 160:0.007712 161:0 162:0.002571 163:0.005141 164:0.002571 165:0.001285 166:0.006427 167:0.005141 168:0.003856 169:0.001285 170:0.015424 171:0.006427 172:0.001285 173:0 174:0.007712 175:0 176:0 177:0.005141 178:0.001285 179:0.001285 180:0.001285 181:0.020566 182:0.007712 183:0.010283 184:0 185:0.007712 186:0.003856 187:0.001285 188:0.002571 189:0 190:0.014139 191:0.007712 192:0.001285 193:0.005141 194:0.002571 195:0.001285 196:0.001285 197:0 198:0 199:0.005141 200:0.015424 201:0 202:0.002571 203:0 204:0.001285 205:0.030848 206:0.006427 207:0 208:0.002571 209:0 210:0.005141 211:0 212:0.003856 213:0.001285 214:0.005141 215:0.007712 216:0.002571 217:0.007712 218:0 219:0.002571 220:0.001285 221:0.001285 222:0.011568 223:0 224:0.007712 225:0 226:0.001285 227:0.003856 228:0.006427 229:0.001285 230:0 231:0.001285 232:0.001285 233:0.001285 234:0.001285 235:0.001285 236:0.001285 237:0.001285 238:0.001285 239:0 240:0.003856 241:0.001285 242:0.014139 243:0.012853 244:0.003856 245:0.015424 246:0.003856 247:0.002571 248:0 249:0 250:0.002571 251:0.011568 252:0.002571 253:0.001285 254:0 255:0 
5 0:0.003073 1:0.00478 2:0.002048 3:0.001024 4:0.003414 5:0.006145 6:0.004097 7:0.003073 8:0.000683 9:0.00717 10:0.001024 11:0.003073 12:0.00239 13:0.002731 14:0.003414 15:0.008194 16:0.005463 17:0.005121 18:0.005121 19:0.00478 20:0.004097 21:0.008877 22:0.015364 23:0.003756 24:0.012974 25:0.002731 26:0.001024 27:0.006145 28:0.020826 29:0.002048 30:0.001366 31:0.001366 32:0.005463 33:0.005804 34:0.00239 35:0.00478 36:0.006145 37:0.005463 38:0.005121 39:0.000341 40:0.000341 41:0.00239 42:0.005463 43:0.006145 44:0.007853 45:0.003073 46:0.005804 47:0.004438 48:0.005804 49:0.002731 50:0.005804 51:0.000341 52:0.001707 53:0.003073 54:0.002048 55:0.005463 56:0.003073 57:0.004097 58:0.00717 59:0.003756 60:0.001024 61:0.001707 62:0.003414 63:0.002731 64:0.001024 65:0.002048 66:0.008535 67:0.004097 68:0.005804 69:0.007511 70:0.002731 71:0.00239 72:0.003414 73:0.005121 74:0.002048 75:0.000683 76:0.002048 77:0.004438 78:0.008194 79:0.004097 80:0.005463 81:0.001366 82:0.001366 83:0.000683 84:0.003756 85:0.003073 86:0.001366 87:0.006828 88:0.001024 89:0.002731 90:0.001366 91:0.005463 92:0.002731 93:0.005463 94:0.003414 95:0.005463 96:0.001707 97:0.002048 98:0.003414 99:0.001707 100:0.000683 101:0.004438 102:0.003073 103:0.006487 104:0.003073 105:0.003756 106:0.000683 107:0.00239 108:0.006145 109:0.006487 110:0.008194 111:0.002731 112:0.002731 113:0.006487 114:0.002731 115:0.00478 116:0.007853 117:0.008877 118:0.002731 119:0.004438 120:0.00478 121:0.006145 122:0.003756 123:0.005121 124:0.001707 125:0.000683 126:0.003756 127:0.006487 128:0.00478 129:0.001707 130:0.00478 131:0.002048 132:0.005804 133:0.003414 134:0.005121 135:0.003073 136:0.001707 137:0.001024 138:0.001366 139:0.001024 140:0.004097 141:0.004097 142:0.003756 143:0.006828 144:0.003414 145:0.001707 146:0.004438 147:0.008194 148:0.00478 149:0.003756 150:0.006828 151:0.008194 152:0.004438 153:0.000683 154:0.001366 155:0.002731 156:0.004438 157:0.000683 158:0.00239 159:0.003073 160:0.004438 161:0.003756 162:0.00717 163:0.003756 164:0.005463 165:0.003414 166:0.002048 167:0.00239 168:0.005804 169:0.002731 170:0.002731 171:0.004097 172:0.00478 173:0.00239 174:0.00478 175:0.000683 176:0.002731 177:0.006828 178:0.001707 179:0.000683 180:0.004438 181:0.005463 182:0.000341 183:0.000683 184:0.008194 185:0.002731 186:0.007853 187:0.004097 188:0.005121 189:0.003414 190:0.001366 191:0.001366 192:0.004097 193:0.002048 194:0.005121 195:0.003073 196:0.004438 197:0.003073 198:0.003756 199:0.008194 200:0.00956 201:0.003073 202:0.005463 203:0.003414 204:0.00478 205:0.003073 206:0.002048 207:0.001707 208:0.002048 209:0.00478 210:0.001024 211:0.002048 212:0.007511 213:0.005463 214:0.00478 215:0.006145 216:0.004438 217:0.001024 218:0.002731 219:0.004097 220:0.003756 221:0.005121 222:0.003756 223:0.002048 224:0.000341 225:0.002048 226:0.001707 227:0.004097 228:0.002048 229:0.000341 230:0.002731 231:0.006487 232:0.005804 233:0.006828 234:0.004438 235:0.003414 236:0.003073 237:0.005804 238:0.001366 239:0.001366 240:0.007511 241:0.003756 242:0.00478 243:0.002048 244:0.006145 245:0.006487 246:0.005121 247:0.003756 248:0.000683 249:0.001024 250:0.00239 251:0.005121 252:0.001707 253:0.003756 254:0.002731 255:0.002048 
5 0:0 1:0.002865 2:0 3:0 4:0 5:0 6:0 7:0.002865 8:0 9:0.002865 10:0 11:0.002865 12:0.002865 13:0.002865 14:0 15:0.017192 16:0 17:0.011461 18:0 19:0 20:0 21:0 22:0 23:0.005731 24:0 25:0 26:0.002865 27:0.002865 28:0 29:0.008596 30:0.005731 31:0.005731 32:0 33:0 34:0 35:0 36:0.002865 37:0.002865 38:0 39:0.011461 40:0 41:0.002865 42:0 43:0 44:0 45:0.005731 46:0 47:0 48:0 49:0.002865 50:0.005731 51:0 52:0 53:0 54:0 55:0 56:0.002865 57:0 58:0 59:0 60:0 61:0.002865 62:0.008596 63:0.002865 64:0.022923 65:0 66:0.002865 67:0.008596 68:0.002865 69:0 70:0.002865 71:0 72:0.002865 73:0.014327 74:0.002865 75:0.005731 76:0 77:0.002865 78:0 79:0.002865 80:0.017192 81:0.002865 82:0.031519 83:0 84:0.005731 85:0 86:0.002865 87:0 88:0.005731 89:0 90:0 91:0 92:0 93:0 94:0 95:0.008596 96:0 97:0 98:0 99:0 100:0.008596 101:0 102:0.037249 103:0.002865 104:0 105:0.002865 106:0 107:0.002865 108:0 109:0 110:0 111:0.008596 112:0.002865 113:0 114:0.002865 115:0 116:0 117:0.002865 118:0.002865 119:0 120:0 121:0.011461 122:0 123:0.022923 124:0 125:0 126:0 127:0 128:0 129:0 130:0.002865 131:0 132:0.002865 133:0 134:0.002865 135:0 136:0 137:0.014327 138:0 139:0.002865 140:0 141:0 142:0 143:0 144:0 145:0 146:0.008596 147:0 148:0 149:0 150:0 151:0.002865 152:0.002865 153:0 154:0.014327 155:0 156:0 157:0.017192 158:0 159:0 160:0.011461 161:0 162:0.002865 163:0 164:0.002865 165:0 166:0 167:0 168:0 169:0 170:0.005731 171:0 172:0.002865 173:0 174:0.002865 175:0.005731 176:0 177:0.17192 178:0 179:0 180:0 181:0 182:0.002865 183:0 184:0 185:0 186:0 187:0.008596 188:0 189:0.002865 190:0.011461 191:0.028653 192:0 193:0.008596 194:0 195:0 196:0 197:0.008596 198:0 199:0.005731 200:0 201:0.002865 202:0 203:0 204:0 205:0.008596 206:0.005731 207:0 208:0.002865 209:0 210:0.008596 211:0.008596 212:0 213:0.002865 214:0.008596 215:0.002865 216:0 217:0 218:0.002865 219:0 220:0 221:0 222:0 223:0 224:0 225:0.014327 226:0.017192 227:0 228:0 229:0 230:0.005731 231:0.002865 232:0 233:0 234:0.002865 235:0.002865 236:0.014327 237:0.017192 238:0 239:0 240:0 241:0 242:0.008596 243:0.011461 244:0 245:0 246:0 247:0.002865 248:0 249:0.097421 250:0.005731 251:0 252:0 253:0.002865 254:0 255:0 
5 0:0.006319 1:0.005529 2:0 3:0.00316 4:0.00158 5:0.00158 6:0.003949 7:0.00158 8:0 9:0.00158 10:0.005529 11:0.00316 12:0 13:0.009479 14:0.00158 15:0.00079 16:0.003949 17:0 18:0.00079 19:0.004739 20:0 21:0.00316 22:0.019747 23:0.00316 24:0.008689 25:0.00237 26:0.00316 27:0 28:0.012638 29:0.005529 30:0.00158 31:0.006319 32:0.004739 33:0.00237 34:0.00158 35:0.00237 36:0.003949 37:0.00237 38:0.006319 39:0 40:0.008689 41:0.00079 42:0.003949 43:0.003949 44:0.003949 45:0.00158 46:0.007109 47:0.00158 48:0.00079 49:0.003949 50:0.011848 51:0.004739 52:0.003949 53:0.00079 54:0.007899 55:0 56:0 57:0 58:0.00158 59:0.014218 60:0 61:0.00237 62:0.011058 63:0.00316 64:0 65:0.006319 66:0.00079 67:0.006319 68:0.015008 69:0.006319 70:0 71:0 72:0.00079 73:0 74:0 75:0 76:0.003949 77:0.00158 78:0.006319 79:0 80:0.003949 81:0.00079 82:0.00237 83:0.00316 84:0.00237 85:0.00237 86:0.007109 87:0.005529 88:0 89:0 90:0.007109 91:0.003949 92:0 93:0.00237 94:0.017378 95:0.00079 96:0.020537 97:0.00079 98:0.00316 99:0.00158 100:0.009479 101:0.004739 102:0.005529 103:0.009479 104:0.007899 105:0.00079 106:0.003949 107:0.00316 108:0.007109 109:0.003949 110:0.00158 111:0.00158 112:0 113:0.003949 114:0.003949 115:0.009479 116:0.00158 117:0.014218 118:0.00158 119:0.00158 120:0.00316 121:0.015798 122:0 123:0.00079 124:0.00079 125:0 126:0.003949 127:0.00158 128:0.003949 129:0.00158 130:0 131:0.00079 132:0.00316 133:0.004739 134:0.00237 135:0 136:0.00158 137:0.008689 138:0.00079 139:0.00316 140:0 141:0.00316 142:0.004739 143:0.00316 144:0 145:0.00237 146:0.00316 147:0.00237 148:0 149:0.00158 150:0 151:0.031596 152:0.004739 153:0.004739 154:0 155:0.018957 156:0.006319 157:0 158:0.00237 159:0 160:0.003949 161:0 162:0.00316 163:0.00316 164:0.00316 165:0.004739 166:0.00237 167:0.00079 168:0.00158 169:0.00237 170:0.00079 171:0.00158 172:0.003949 173:0.00237 174:0.003949 175:0.00237 176:0 177:0.009479 178:0.008689 179:0.007109 180:0.007899 181:0 182:0.00158 183:0 184:0.015008 185:0 186:0 187:0.004739 188:0.007109 189:0.006319 190:0.00237 191:0.00079 192:0.004739 193:0 194:0.00316 195:0 196:0.00158 197:0 198:0.004739 199:0.007899 200:0.004739 201:0 202:0.00158 203:0.00158 204:0.018957 205:0 206:0.00237 207:0.003949 208:0.00158 209:0.011848 210:0.003949 211:0.00079 212:0.00316 213:0.004739 214:0.00158 215:0.011058 216:0.003949 217:0.004739 218:0.003949 219:0.00158 220:0.00158 221:0.004739 222:0.006319 223:0.00079 224:0 225:0 226:0.004739 227:0.005529 228:0 229:0.00079 230:0.00079 231:0.00237 232:0.010269 233:0.005529 234:0.007899 235:0.003949 236:0.005529 237:0.030806 238:0.003949 239:0 240:0.00237 241:0.009479 242:0 243:0.007899 244:0.00079 245:0.004739 246:0.004739 247:0.003949 248:0 249:0.00079 250:0.00079 251:0.004739 252:0.00079 253:0.017378 254:0.003949 255:0.004739 
5 0:0.002507 1:0.005015 2:0.002507 3:0.002507 4:0.004597 5:0.001672 6:0.001672 7:0.003343 8:0.000836 9:0.01379 10:0.000418 11:0.006686 12:0.005433 13:0.002925 14:0.003761 15:0.000418 16:0.000418 17:0.004179 18:0.002089 19:0.000418 20:0.000836 21:0.004597 22:0.041371 23:0.002507 24:0.004179 25:0.002925 26:0.003761 27:0.004179 28:0.004179 29:0.002089 30:0.003761 31:0.003761 32:0.001254 33:0.002925 34:0.001254 35:0 36:0.002925 37:0.006686 38:0.001672 39:0.003343 40:0.006686 41:0.002507 42:0.002507 43:0.000418 44:0.002507 45:0.003343 46:0.002089 47:0.005015 48:0.004179 49:0.002507 50:0.007522 51:0.001254 52:0.000836 53:0.006268 54:0.004179 55:0.002925 56:0.009611 57:0.002925 58:0.002925 59:0.003761 60:0.001672 61:0.006686 62:0.005015 63:0.005015 64:0.006268 65:0.001254 66:0.008776 67:0.002507 68:0.006686 69:0.004179 70:0.005433 71:0.002925 72:0.003761 73:0.005015 74:0.000836 75:0.002925 76:0.003761 77:0.002925 78:0.003761 79:0.002089 80:0.006268 81:0.001254 82:0.012954 83:0 84:0.004179 85:0.002925 86:0.004597 87:0.003343 88:0.002925 89:0.000836 90:0.006686 91:0.003343 92:0.004597 93:0.002089 94:0.009193 95:0.008358 96:0.03761 97:0.00585 98:0.004597 99:0.002925 100:0.004597 101:0 102:0.002089 103:0.006268 104:0.002089 105:0.006686 106:0.001254 107:0.002925 108:0.006686 109:0.003761 110:0.005015 111:0.005015 112:0 113:0.000836 114:0.000836 115:0.002925 116:0.001672 117:0.013372 118:0.001672 119:0.003343 120:0.004597 121:0.004597 122:0.000836 123:0.014208 124:0.004179 125:0.001672 126:0.003343 127:0.002089 128:0.004179 129:0.002507 130:0.002507 131:0.000418 132:0.001254 133:0.002925 134:0.002507 135:0.002507 136:0.005433 137:0.002089 138:0.010865 139:0.010029 140:0.001254 141:0.001254 142:0.001254 143:0.001254 144:0.011701 145:0.002507 146:0.01588 147:0.005015 148:0.001672 149:0.000418 150:0.005015 151:0.004179 152:0.002925 153:0.003761 154:0.004597 155:0.002089 156:0.003761 157:0.000418 158:0.002089 159:0.002925 160:0.004597 161:0.002925 162:0.003343 163:0.004179 164:0.002925 165:0.00585 166:0.002507 167:0.002925 168:0.001672 169:0.006686 170:0.003343 171:0.000836 172:0.001254 173:0.002925 174:0.002089 175:0.006268 176:0.006268 177:0.006268 178:0.007104 179:0.001254 180:0.001254 181:0.001254 182:0.002089 183:0.001672 184:0.002925 185:0.004179 186:0.005433 187:0.00585 188:0.003761 189:0.001672 190:0.002089 191:0.000836 192:0.000418 193:0.001672 194:0.000418 195:0.002089 196:0.007522 197:0.003343 198:0.002089 199:0.004179 200:0.000836 201:0.007104 202:0.001254 203:0.003343 204:0.004179 205:0.000836 206:0.004179 207:0.005433 208:0.003761 209:0.000836 210:0.005433 211:0.005433 212:0.005433 213:0.001672 214:0.002089 215:0.005433 216:0.002925 217:0.000418 218:0.002507 219:0.004597 220:0.001254 221:0.002507 222:0.004597 223:0.007522 224:0.000836 225:0.005433 226:0.00585 227:0.002507 228:0.001672 229:0.004179 230:0.005015 231:0.005015 232:0.007522 233:0.003343 234:0.004597 235:0.004597 236:0.001254 237:0.002925 238:0.000418 239:0.002925 240:0.001254 241:0.002925 242:0.002089 243:0.002925 244:0.000418 245:0.002507 246:0.004597 247:0.004179 248:0.007522 249:0.005015 250:0.003761 251:0.005015 252:0.002089 253:0.002089 254:0.009193 255:0.001672 
5 0:0.000597 1:0.020883 2:0.006563 3:0.000597 4:0.001193 5:0.00358 6:0.00179 7:0.000597 8:0.004773 9:0.00895 10:0.00537 11:0.002983 12:0.004773 13:0.000597 14:0.00358 15:0.007757 16:0.004773 17:0.002387 18:0.00537 19:0.001193 20:0.005967 21:0.002387 22:0.008353 23:0.00179 24:0.004773 25:0.002387 26:0.004773 27:0.001193 28:0 29:0.004177 30:0.004773 31:0.002387 32:0.006563 33:0.00716 34:0.01432 35:0.008353 36:0.010143 37:0.00358 38:0.000597 39:0.022076 40:0.000597 41:0.00358 42:0.004773 43:0 44:0.004177 45:0.005967 46:0.00179 47:0.002387 48:0.001193 49:0.002387 50:0.001193 51:0.00358 52:0.002387 53:0.001193 54:0 55:0.006563 56:0.000597 57:0.00537 58:0.001193 59:0.001193 60:0.00179 61:0 62:0.000597 63:0.00358 64:0.024463 65:0.00179 66:0.000597 67:0.00179 68:0.005967 69:0.00716 70:0.00537 71:0.00358 72:0.00358 73:0.002983 74:0.002387 75:0.000597 76:0.007757 77:0.000597 78:0.002387 79:0 80:0.011933 81:0.00537 82:0.026253 83:0.004773 84:0.00358 85:0.002387 86:0.006563 87:0.00179 88:0.002983 89:0.00358 90:0.004773 91:0.000597 92:0 93:0.001193 94:0.006563 95:0.004177 96:0.001193 97:0.004177 98:0.008353 99:0.001193 100:0.002983 101:0.002387 102:0.00895 103:0.00895 104:0.000597 105:0.010143 106:0 107:0.001193 108:0.00179 109:0.002387 110:0.001193 111:0.000597 112:0.001193 113:0.01253 114:0.00358 115:0.000597 116:0.001193 117:0.000597 118:0.00179 119:0.002387 120:0.002387 121:0.00179 122:0.00537 123:0.001193 124:0.002983 125:0.00895 126:0.00716 127:0.000597 128:0.00358 129:0.008353 130:0.002983 131:0.00179 132:0.00358 133:0.001193 134:0.001193 135:0.002387 136:0.00179 137:0.005967 138:0.004773 139:0.001193 140:0.002983 141:0.00716 142:0.00358 143:0.001193 144:0.004177 145:0.006563 146:0.004177 147:0.00358 148:0.002387 149:0.00358 150:0.00179 151:0.000597 152:0 153:0.002983 154:0.004177 155:0.000597 156:0.001193 157:0 158:0.01074 159:0.00895 160:0.002387 161:0.002983 162:0.008353 163:0.005967 164:0.002983 165:0.004177 166:0.001193 167:0.007757 168:0.00179 169:0.004773 170:0.01253 171:0.001193 172:0.001193 173:0.005967 174:0.01253 175:0.00179 176:0.007757 177:0.006563 178:0.002387 179:0.00179 180:0 181:0.002387 182:0.01432 183:0.004177 184:0.001193 185:0.004773 186:0.00537 187:0.002983 188:0.00179 189:0.000597 190:0.00537 191:0.008353 192:0.000597 193:0.002387 194:0.001193 195:0.00358 196:0.006563 197:0.00179 198:0.000597 199:0.00179 200:0.00179 201:0.002983 202:0.004177 203:0.000597 204:0.002387 205:0.004773 206:0.004773 207:0.002387 208:0 209:0.002387 210:0.00358 211:0.00179 212:0.002983 213:0.000597 214:0.01253 215:0.00179 216:0.00358 217:0 218:0.002983 219:0.002387 220:0.001193 221:0.002983 222:0.00537 223:0.006563 224:0.00537 225:0.002983 226:0.006563 227:0.002387 228:0.00358 229:0.001193 230:0 231:0.002387 232:0.00179 233:0.002387 234:0.004773 235:0.002387 236:0.00179 237:0.000597 238:0.010143 239:0.00358 240:0.001193 241:0 242:0.004177 243:0.01432 244:0.005967 245:0.002983 246:0.004177 247:0.00179 248:0.001193 249:0.011337 250:0.008353 251:0.00716 252:0.002983 253:0.001193 254:0.000597 255:0.002983 
5 0:0.001977 1:0.002472 2:0.000989 3:0.002966 4:0.003955 5:0.00346 6:0.000494 7:0.002472 8:0.004449 9:0 10:0.002966 11:0.010381 12:0.002472 13:0.004449 14:0.004449 15:0.002472 16:0.000494 17:0.006426 18:0.005437 19:0.000494 20:0.00346 21:0.00346 22:0.004449 23:0.004943 24:0.013841 25:0.002966 26:0.00346 27:0.005932 28:0.007415 29:0.004943 30:0.00692 31:0.000494 32:0.000989 33:0.005932 34:0.006426 35:0.000494 36:0.003955 37:0.002966 38:0 39:0.002472 40:0.002966 41:0.00692 42:0.000989 43:0.000494 44:0.004943 45:0.004449 46:0.003955 47:0.004943 48:0.001483 49:0.011864 50:0.002472 51:0 52:0.000989 53:0.00692 54:0.001977 55:0.004449 56:0.004943 57:0.007415 58:0.012852 59:0.00346 60:0.000494 61:0.001483 62:0.000494 63:0.00692 64:0.00346 65:0.000989 66:0.015818 67:0.001483 68:0.012852 69:0.00692 70:0.002966 71:0.001977 72:0.002472 73:0.000494 74:0.002472 75:0.004943 76:0.005437 77:0.00692 78:0.001483 79:0.005437 80:0.000989 81:0.00346 82:0.002966 83:0.000494 84:0.00346 85:0.001483 86:0.010381 87:0.002966 88:0.005437 89:0.003955 90:0.004449 91:0.004449 92:0.000989 93:0.000989 94:0.004449 95:0.000494 96:0.011369 97:0.003955 98:0.010875 99:0.000494 100:0.003955 101:0.002966 102:0 103:0.001483 104:0.004449 105:0.003955 106:0.001483 107:0.00346 108:0.004449 109:0.001483 110:0.001483 111:0.003955 112:0.003955 113:0.00346 114:0.002966 115:0.001977 116:0.002966 117:0.00692 118:0.001977 119:0.006426 120:0.005932 121:0.005932 122:0.002472 123:0.004449 124:0.002472 125:0.001977 126:0.004449 127:0.009886 128:0.002472 129:0.00692 130:0.003955 131:0.001483 132:0.010875 133:0.005437 134:0.001977 135:0.00692 136:0.006426 137:0.004449 138:0.00346 139:0.002966 140:0.003955 141:0.007415 142:0.000989 143:0.000989 144:0.000989 145:0.000494 146:0.004943 147:0.001977 148:0.006426 149:0.002472 150:0 151:0.021256 152:0.002966 153:0.004943 154:0.005437 155:0.005932 156:0.00346 157:0 158:0.00346 159:0.002966 160:0.006426 161:0.007415 162:0.000494 163:0.005932 164:0.002966 165:0.004943 166:0.000989 167:0.005437 168:0.002472 169:0.012358 170:0 171:0.000494 172:0.00692 173:0.005932 174:0.007415 175:0.002472 176:0.001483 177:0.002472 178:0.002472 179:0.002472 180:0.001977 181:0.001977 182:0.002966 183:0.002966 184:0.004943 185:0.004449 186:0.004449 187:0.001483 188:0.001977 189:0.001977 190:0.001483 191:0.002472 192:0.002472 193:0.001977 194:0.004449 195:0.003955 196:0.004449 197:0.004943 198:0.001483 199:0.001977 200:0.000989 201:0.003955 202:0.005437 203:0.005932 204:0.005932 205:0.002966 206:0.002472 207:0.005437 208:0.000989 209:0.000989 210:0.011369 211:0.002472 212:0.002966 213:0.002472 214:0.002472 215:0.009886 216:0.000989 217:0.000494 218:0.002472 219:0.003955 220:0.000494 221:0.004943 222:0.00346 223:0.000989 224:0.002472 225:0.004943 226:0 227:0.005437 228:0.001483 229:0 230:0.005932 231:0.002472 232:0.005932 233:0.004449 234:0.00346 235:0.004449 236:0.002472 237:0.008898 238:0.002472 239:0.008403 240:0.007909 241:0.001483 242:0.005932 243:0 244:0.000494 245:0.007415 246:0.007415 247:0.006426 248:0.005932 249:0.000494 250:0.004449 251:0.00346 252:0.001977 253:0.005437 254:0.004449 255:0.007909 
5 0:0 1:0.001868 2:0.001868 3:0.003736 4:0.00934 5:0.001245 6:0.004359 7:0.006227 8:0.001868 9:0.003736 10:0 11:0.007472 12:0.003113 13:0.003736 14:0.007472 15:0.007472 16:0.008095 17:0.00934 18:0 19:0.001245 20:0 21:0.011208 22:0.011831 23:0.005604 24:0.002491 25:0.002491 26:0.002491 27:0.001868 28:0.009963 29:0.001245 30:0.014944 31:0.001868 32:0.002491 33:0.005604 34:0.001245 35:0.004981 36:0.004981 37:0.011831 38:0.005604 39:0.001868 40:0.000623 41:0.003113 42:0.003113 43:0.002491 44:0 45:0.002491 46:0.005604 47:0.002491 48:0.004359 49:0.003113 50:0.002491 51:0 52:0.001868 53:0.003736 54:0.000623 55:0.001868 56:0.004359 57:0.001245 58:0.023661 59:0.002491 60:0.007472 61:0.002491 62:0.003736 63:0.008095 64:0 65:0.000623 66:0.008095 67:0.008717 68:0.001245 69:0.005604 70:0.003736 71:0.003736 72:0.001245 73:0.001868 74:0.006849 75:0.004359 76:0.004359 77:0.004359 78:0.003113 79:0.004981 80:0.001868 81:0.001868 82:0.001245 83:0.000623 84:0.002491 85:0.002491 86:0.004981 87:0.003736 88:0 89:0.003736 90:0.004981 91:0.004359 92:0.004359 93:0.002491 94:0.001245 95:0.004359 96:0.002491 97:0.008717 98:0.016189 99:0.001868 100:0 101:0.001245 102:0.001245 103:0.006849 104:0.002491 105:0.000623 106:0 107:0.003736 108:0.004359 109:0.012453 110:0.010585 111:0.003736 112:0.004359 113:0.001245 114:0.004981 115:0.003736 116:0.004981 117:0.004359 118:0.003113 119:0.007472 120:0.005604 121:0.003736 122:0.008095 123:0.013699 124:0.004981 125:0.001245 126:0.001868 127:0.002491 128:0.008095 129:0.001245 130:0.004359 131:0.008095 132:0.003113 133:0.003113 134:0.014944 135:0.002491 136:0.002491 137:0.003736 138:0.001245 139:0.002491 140:0.001868 141:0.000623 142:0.004981 143:0.001245 144:0.004981 145:0.003113 146:0.006849 147:0.003113 148:0.006849 149:0.003113 150:0.005604 151:0.003113 152:0.004359 153:0.001868 154:0.008095 155:0.001245 156:0.004359 157:0.006227 158:0.001868 159:0.005604 160:0.006227 161:0.008095 162:0.001245 163:0.003113 164:0.005604 165:0.006849 166:0.004359 167:0.007472 168:0.003736 169:0.013699 170:0.006227 171:0.003736 172:0.002491 173:0.006227 174:0.000623 175:0.003113 176:0.000623 177:0.002491 178:0.001245 179:0.003736 180:0.000623 181:0.001245 182:0.000623 183:0.000623 184:0.003736 185:0.001868 186:0.005604 187:0.007472 188:0.003736 189:0.003113 190:0.003113 191:0.001868 192:0.003113 193:0.004981 194:0.003736 195:0 196:0.002491 197:0.003736 198:0.003736 199:0.001245 200:0.003736 201:0.003113 202:0.001868 203:0.002491 204:0.001245 205:0.010585 206:0.002491 207:0.004981 208:0.004981 209:0.001868 210:0.006227 211:0.001868 212:0.000623 213:0.002491 214:0.001868 215:0.003113 216:0 217:0.001245 218:0.001868 219:0.006227 220:0.000623 221:0 222:0.010585 223:0.001868 224:0.004981 225:0.000623 226:0 227:0.002491 228:0.003736 229:0.003736 230:0.003113 231:0.006227 232:0.001868 233:0.004359 234:0 235:0.00934 236:0.001868 237:0.003113 238:0.000623 239:0.001868 240:0.003113 241:0.002491 242:0.006227 243:0.003736 244:0.002491 245:0.003736 246:0.006227 247:0.005604 248:0.001245 249:0.001245 250:0.001245 251:0.007472 252:0.002491 253:0.005604 254:0.001245 255:0.001245 
5 0:0.005371 1:0.022556 2:0.005371 3:0 4:0.004296 5:0.003222 6:0 7:0.003222 8:0.001074 9:0.011815 10:0 11:0.002148 12:0.004296 13:0.002148 14:0.001074 15:0.008593 16:0.004296 17:0.003222 18:0 19:0.002148 20:0 21:0.007519 22:0.001074 23:0 24:0.010741 25:0.002148 26:0.010741 27:0.001074 28:0 29:0.002148 30:0.003222 31:0.004296 32:0 33:0.002148 34:0.001074 35:0.007519 36:0.011815 37:0.005371 38:0 39:0.001074 40:0 41:0.002148 42:0.002148 43:0.002148 44:0.006445 45:0.004296 46:0 47:0.002148 48:0.007519 49:0.003222 50:0 51:0.001074 52:0 53:0 54:0.005371 55:0.002148 56:0.011815 57:0.003222 58:0.015038 59:0.003222 60:0.007519 61:0.002148 62:0 63:0.001074 64:0 65:0 66:0.006445 67:0.006445 68:0.016112 69:0.005371 70:0.003222 71:0.003222 72:0.001074 73:0.002148 74:0.001074 75:0.012889 76:0 77:0.001074 78:0.001074 79:0 80:0.005371 81:0.002148 82:0.005371 83:0 84:0 85:0.001074 86:0 87:0.004296 88:0 89:0.001074 90:0 91:0 92:0.012889 93:0.004296 94:0.004296 95:0.004296 96:0.005371 97:0.003222 98:0.005371 99:0.003222 100:0 101:0.001074 102:0.002148 103:0.002148 104:0.003222 105:0 106:0.002148 107:0.005371 108:0.012889 109:0.008593 110:0.007519 111:0.002148 112:0.003222 113:0 114:0 115:0 116:0.002148 117:0 118:0.001074 119:0.004296 120:0 121:0.002148 122:0.013963 123:0.007519 124:0.002148 125:0 126:0.001074 127:0.003222 128:0.006445 129:0 130:0.002148 131:0.001074 132:0.003222 133:0.001074 134:0.004296 135:0.001074 136:0.005371 137:0.011815 138:0 139:0 140:0 141:0.001074 142:0.007519 143:0 144:0.001074 145:0.003222 146:0.007519 147:0.004296 148:0.002148 149:0.001074 150:0.006445 151:0.002148 152:0 153:0 154:0.004296 155:0.001074 156:0.002148 157:0.006445 158:0.009667 159:0.003222 160:0.003222 161:0.004296 162:0.005371 163:0.001074 164:0.004296 165:0.003222 166:0 167:0.002148 168:0.003222 169:0.001074 170:0.007519 171:0.001074 172:0 173:0.006445 174:0.002148 175:0.001074 176:0 177:0.048335 178:0 179:0 180:0 181:0 182:0.004296 183:0.003222 184:0.002148 185:0.003222 186:0.005371 187:0.020408 188:0.002148 189:0 190:0.001074 191:0.020408 192:0.001074 193:0.020408 194:0.001074 195:0 196:0.002148 197:0.002148 198:0.001074 199:0 200:0 201:0.008593 202:0.007519 203:0.002148 204:0.004296 205:0.010741 206:0 207:0.001074 208:0.015038 209:0 210:0 211:0.001074 212:0.003222 213:0.001074 214:0.017186 215:0.024705 216:0.001074 217:0.001074 218:0 219:0.007519 220:0.002148 221:0.004296 222:0.002148 223:0.004296 224:0.004296 225:0.003222 226:0.023631 227:0.001074 228:0.001074 229:0 230:0.001074 231:0.010741 232:0.004296 233:0.001074 234:0.005371 235:0 236:0.001074 237:0.001074 238:0.004296 239:0 240:0.003222 241:0 242:0.007519 243:0.006445 244:0.003222 245:0.002148 246:0.004296 247:0.001074 248:0 249:0.039742 250:0.002148 251:0.005371 252:0.007519 253:0 254:0.001074 255:0 
5 0:0 1:0.007053 2:0.015674 3:0 4:0.013323 5:0.003918 6:0.01489 7:0.001567 8:0.005486 9:0.00627 10:0 11:0.002351 12:0.005486 13:0.002351 14:0.001567 15:0 16:0.007837 17:0.010972 18:0 19:0.000784 20:0.003135 21:0.013323 22:0.003135 23:0 24:0.002351 25:0.00627 26:0.004702 27:0.000784 28:0 29:0.000784 30:0.003918 31:0.005486 32:0 33:0.003135 34:0.001567 35:0.01489 36:0.01489 37:0.014107 38:0 39:0 40:0.004702 41:0.001567 42:0.002351 43:0.007053 44:0.001567 45:0 46:0 47:0.003135 48:0.003135 49:0.003918 50:0.003918 51:0.001567 52:0.001567 53:0.004702 54:0 55:0.003918 56:0.000784 57:0.004702 58:0.005486 59:0.003135 60:0.014107 61:0.000784 62:0.004702 63:0.001567 64:0 65:0 66:0.00627 67:0.002351 68:0.00627 69:0.000784 70:0.004702 71:0.009404 72:0.004702 73:0.008621 74:0.00627 75:0.011755 76:0.000784 77:0 78:0.004702 79:0.000784 80:0 81:0.003918 82:0.000784 83:0 84:0.000784 85:0.007053 86:0.001567 87:0.002351 88:0 89:0.003135 90:0.000784 91:0.000784 92:0.010972 93:0.001567 94:0.018025 95:0.025078 96:0.013323 97:0.001567 98:0.003918 99:0.010972 100:0.001567 101:0.001567 102:0.000784 103:0.004702 104:0.000784 105:0 106:0 107:0.001567 108:0.012539 109:0.011755 110:0.009404 111:0.008621 112:0.005486 113:0.000784 114:0.004702 115:0.00627 116:0.010188 117:0.003918 118:0.007053 119:0.002351 120:0.005486 121:0 122:0.020376 123:0.011755 124:0.002351 125:0.000784 126:0.003135 127:0.003918 128:0.003918 129:0.00627 130:0 131:0.010188 132:0.002351 133:0.003135 134:0.003135 135:0.003918 136:0 137:0.003918 138:0.002351 139:0.000784 140:0 141:0.000784 142:0.00627 143:0.007837 144:0.018025 145:0.003135 146:0.007053 147:0.002351 148:0.002351 149:0.004702 150:0.003135 151:0.000784 152:0.003918 153:0 154:0.005486 155:0.000784 156:0 157:0.002351 158:0.000784 159:0.009404 160:0 161:0.007053 162:0.000784 163:0.001567 164:0.003918 165:0.002351 166:0.007053 167:0.002351 168:0.010188 169:0.002351 170:0.002351 171:0.003135 172:0.004702 173:0.001567 174:0 175:0 176:0 177:0.005486 178:0.007837 179:0 180:0.000784 181:0.02116 182:0.002351 183:0.002351 184:0.000784 185:0 186:0.009404 187:0.004702 188:0.001567 189:0 190:0.000784 191:0.000784 192:0.002351 193:0.010188 194:0.002351 195:0.004702 196:0 197:0.000784 198:0 199:0.000784 200:0.000784 201:0.001567 202:0.002351 203:0 204:0 205:0.00627 206:0.001567 207:0.004702 208:0.005486 209:0 210:0.008621 211:0.005486 212:0.007837 213:0.000784 214:0.001567 215:0.000784 216:0 217:0 218:0 219:0.009404 220:0.007053 221:0 222:0.008621 223:0.000784 224:0.003918 225:0.002351 226:0 227:0.004702 228:0 229:0 230:0.001567 231:0.00627 232:0.000784 233:0.00627 234:0.00627 235:0 236:0.008621 237:0.000784 238:0.002351 239:0.000784 240:0.011755 241:0 242:0.007053 243:0.002351 244:0.000784 245:0.005486 246:0.003918 247:0.000784 248:0 249:0 250:0.003918 251:0.002351 252:0.005486 253:0.000784 254:0.002351 255:0.000784 
5 0:0.004326 1:0.002884 2:0.001442 3:0 4:0.006489 5:0.004326 6:0.005768 7:0.001442 8:0 9:0.002163 10:0 11:0.001442 12:0.003605 13:0.010094 14:0 15:0.004326 16:0.003605 17:0.012978 18:0.000721 19:0.002884 20:0.000721 21:0.007931 22:0.005768 23:0.004326 24:0.005768 25:0.005768 26:0.007931 27:0.000721 28:0.005047 29:0.005047 30:0.000721 31:0.005047 32:0 33:0.001442 34:0.002884 35:0 36:0.000721 37:0.006489 38:0.005768 39:0.003605 40:0.003605 41:0.001442 42:0.002884 43:0.005768 44:0.001442 45:0.007931 46:0.004326 47:0.000721 48:0.003605 49:0.001442 50:0.005768 51:0.000721 52:0.000721 53:0.007931 54:0.003605 55:0.004326 56:0.00721 57:0.002163 58:0.008652 59:0.003605 60:0.002163 61:0.003605 62:0.002884 63:0.002884 64:0.004326 65:0 66:0.015862 67:0.011536 68:0.002163 69:0.009373 70:0.005047 71:0.002884 72:0.001442 73:0.009373 74:0 75:0.003605 76:0.011536 77:0 78:0.011536 79:0.010815 80:0.005047 81:0.000721 82:0.004326 83:0.002163 84:0.003605 85:0.002163 86:0.006489 87:0.002163 88:0 89:0.008652 90:0.007931 91:0.005047 92:0.000721 93:0 94:0.005047 95:0.006489 96:0.002884 97:0.000721 98:0.002163 99:0 100:0.006489 101:0.002163 102:0.003605 103:0.004326 104:0.003605 105:0.000721 106:0.006489 107:0.000721 108:0.006489 109:0.005047 110:0.002163 111:0.005768 112:0.002163 113:0.003605 114:0.002884 115:0.001442 116:0.005768 117:0.004326 118:0.002884 119:0.002163 120:0.002884 121:0.007931 122:0.001442 123:0.016583 124:0.003605 125:0.002884 126:0.008652 127:0.002884 128:0.002884 129:0 130:0 131:0.004326 132:0.008652 133:0.003605 134:0.000721 135:0.006489 136:0.004326 137:0.003605 138:0.006489 139:0.000721 140:0.001442 141:0.002884 142:0.002884 143:0.001442 144:0.002163 145:0.001442 146:0.010094 147:0.002163 148:0 149:0.002884 150:0.001442 151:0.00721 152:0.004326 153:0.007931 154:0.002884 155:0.005047 156:0.004326 157:0.003605 158:0.001442 159:0.002163 160:0.010094 161:0.002884 162:0.002163 163:0.000721 164:0.017304 165:0.009373 166:0.001442 167:0.001442 168:0.006489 169:0.002884 170:0.002884 171:0.000721 172:0.00721 173:0.004326 174:0.002884 175:0.001442 176:0.005047 177:0.006489 178:0.00721 179:0 180:0.002884 181:0.001442 182:0.000721 183:0.004326 184:0.005047 185:0.000721 186:0.004326 187:0.004326 188:0.001442 189:0.005047 190:0.005047 191:0.000721 192:0.004326 193:0.002884 194:0.003605 195:0 196:0.004326 197:0.006489 198:0.003605 199:0.006489 200:0.010094 201:0.006489 202:0.008652 203:0.003605 204:0.003605 205:0.000721 206:0.002163 207:0.002163 208:0.000721 209:0.002163 210:0.000721 211:0.003605 212:0.006489 213:0.003605 214:0.00721 215:0.002884 216:0.002163 217:0.002884 218:0.003605 219:0.005768 220:0.004326 221:0.002163 222:0.010094 223:0 224:0.001442 225:0.006489 226:0.005768 227:0.000721 228:0.002163 229:0 230:0.003605 231:0.003605 232:0.010094 233:0.002884 234:0.003605 235:0.005047 236:0.006489 237:0.009373 238:0.002163 239:0 240:0.002884 241:0.002884 242:0.005047 243:0.011536 244:0 245:0.006489 246:0.002884 247:0.003605 248:0 249:0.002163 250:0.000721 251:0.003605 252:0.000721 253:0.003605 254:0.003605 255:0.001442 
5 0:0 1:0.023864 2:0.002841 3:0.002273 4:0.005114 5:0.003409 6:0.004545 7:0.003409 8:0.001705 9:0.008523 10:0.005114 11:0.002273 12:0.001136 13:0.002273 14:0.001136 15:0.002273 16:0.004545 17:0.000568 18:0.003409 19:0.000568 20:0.001136 21:0.005114 22:0.0125 23:0.001705 24:0.005114 25:0.003409 26:0.00625 27:0.004545 28:0.017614 29:0.002841 30:0.001705 31:0.003977 32:0.000568 33:0.001136 34:0.001705 35:0.005682 36:0.004545 37:0.006818 38:0.000568 39:0.000568 40:0.003977 41:0.001705 42:0.003977 43:0.006818 44:0.00625 45:0.00625 46:0.000568 47:0.002841 48:0.004545 49:0.001705 50:0.003409 51:0 52:0.002273 53:0.003409 54:0 55:0.003977 56:0.001136 57:0.003409 58:0.007955 59:0.015909 60:0.003977 61:0.000568 62:0.002841 63:0.003409 64:0.001705 65:0.001136 66:0.011364 67:0.009659 68:0.007955 69:0.001705 70:0.003409 71:0.004545 72:0.004545 73:0 74:0.002841 75:0.007386 76:0.001705 77:0 78:0.008523 79:0.001136 80:0.009659 81:0.003977 82:0.001705 83:0 84:0.001705 85:0.002841 86:0 87:0.001136 88:0.002841 89:0.003409 90:0.003409 91:0.002273 92:0.00625 93:0.003409 94:0.014205 95:0.000568 96:0.014205 97:0.001136 98:0.001136 99:0.003409 100:0.005114 101:0.004545 102:0.014205 103:0.005682 104:0 105:0.000568 106:0 107:0.003409 108:0.005682 109:0.001136 110:0.009659 111:0.002841 112:0.003409 113:0.001136 114:0.006818 115:0.004545 116:0.000568 117:0.003977 118:0.006818 119:0.000568 120:0.006818 121:0.003409 122:0.010795 123:0.000568 124:0.003977 125:0.001705 126:0.00625 127:0.002841 128:0.001136 129:0.000568 130:0.000568 131:0.010795 132:0.003409 133:0.005682 134:0.002273 135:0.002841 136:0.000568 137:0.011932 138:0.002273 139:0.000568 140:0.001705 141:0.000568 142:0.007955 143:0.001705 144:0.002841 145:0.002273 146:0 147:0.002273 148:0.001136 149:0.002841 150:0.003409 151:0.023295 152:0.005682 153:0.001705 154:0.005682 155:0.000568 156:0.003409 157:0.013636 158:0.010795 159:0.001136 160:0.001136 161:0.001136 162:0.007386 163:0.001705 164:0.005682 165:0 166:0.002273 167:0.005114 168:0.006818 169:0.000568 170:0.001136 171:0.003977 172:0.003409 173:0.002273 174:0.001705 175:0.001705 176:0.002841 177:0.00625 178:0.001705 179:0 180:0.001705 181:0.010227 182:0.001136 183:0.001136 184:0.002841 185:0.003409 186:0.010227 187:0.005682 188:0.002273 189:0.000568 190:0.005114 191:0.001136 192:0.001136 193:0.005682 194:0.001705 195:0.003977 196:0.004545 197:0.003409 198:0.003977 199:0.007386 200:0.005114 201:0.001136 202:0.009091 203:0.001705 204:0.005682 205:0.006818 206:0.00625 207:0 208:0.003977 209:0.001705 210:0.002273 211:0.006818 212:0.003409 213:0.002841 214:0.009659 215:0.007955 216:0.001705 217:0.000568 218:0.001705 219:0.000568 220:0.005114 221:0.005114 222:0.005682 223:0.002841 224:0.002273 225:0.004545 226:0.0125 227:0.000568 228:0.000568 229:0.002841 230:0.000568 231:0.006818 232:0.008523 233:0.005114 234:0.00625 235:0.001136 236:0.002841 237:0.00625 238:0.000568 239:0.005114 240:0.003409 241:0.001705 242:0.009091 243:0.005114 244:0.005114 245:0.009091 246:0.000568 247:0.000568 248:0.004545 249:0 250:0.000568 251:0.002273 252:0.002841 253:0.001136 254:0.000568 255:0.000568 
5 0:0.012755 1:0.001276 2:0.00574 3:0.010842 4:0.001276 5:0.006378 6:0.003189 7:0.00574 8:0.004464 9:0 10:0.010204 11:0 12:0.000638 13:0.001276 14:0.001913 15:0.006378 16:0 17:0.000638 18:0.001276 19:0.002551 20:0.007653 21:0.001913 22:0.001276 23:0.001913 24:0.019133 25:0.003189 26:0.000638 27:0.002551 28:0 29:0.001276 30:0.002551 31:0.003189 32:0.002551 33:0.000638 34:0.003827 35:0 36:0.001913 37:0.001276 38:0.001913 39:0.001276 40:0.003827 41:0.000638 42:0.00574 43:0.001276 44:0.00574 45:0 46:0.004464 47:0.005102 48:0 49:0.000638 50:0.002551 51:0.01977 52:0.00574 53:0.003827 54:0.007015 55:0.003189 56:0 57:0.004464 58:0 59:0.002551 60:0.008291 61:0.003189 62:0.001913 63:0.000638 64:0.000638 65:0.021684 66:0 67:0.000638 68:0.018495 69:0.003189 70:0 71:0.001276 72:0.008291 73:0.001913 74:0.001913 75:0 76:0 77:0.006378 78:0.002551 79:0.000638 80:0.003827 81:0.001913 82:0.000638 83:0.005102 84:0 85:0.004464 86:0.000638 87:0.001913 88:0.005102 89:0.002551 90:0.000638 91:0.001276 92:0 93:0.001276 94:0.015944 95:0 96:0.009566 97:0.002551 98:0.004464 99:0.002551 100:0.001913 101:0.007015 102:0.003189 103:0.001913 104:0.003827 105:0.005102 106:0.066327 107:0.003189 108:0.002551 109:0.000638 110:0.000638 111:0.005102 112:0.000638 113:0.010204 114:0.004464 115:0.002551 116:0.000638 117:0.001276 118:0.008291 119:0 120:0.002551 121:0.001276 122:0.000638 123:0 124:0.002551 125:0.000638 126:0.000638 127:0.000638 128:0.015944 129:0.012755 130:0.00574 131:0 132:0.001913 133:0.003189 134:0.001913 135:0.000638 136:0.000638 137:0.000638 138:0.001276 139:0.012117 140:0.001276 141:0.001276 142:0.002551 143:0.010204 144:0.009566 145:0.021046 146:0.001276 147:0.003189 148:0.001276 149:0.010842 150:0.006378 151:0.001276 152:0.002551 153:0.001276 154:0.000638 155:0.001276 156:0.003189 157:0 158:0 159:0.009566 160:0 161:0.000638 162:0 163:0.014668 164:0 165:0.004464 166:0.007653 167:0.002551 168:0 169:0.000638 170:0.003827 171:0.012755 172:0.003189 173:0 174:0.001276 175:0.004464 176:0.007653 177:0 178:0 179:0.003827 180:0.003189 181:0.008929 182:0.001913 183:0.000638 184:0 185:0.000638 186:0 187:0 188:0.003189 189:0.001276 190:0.003189 191:0.001913 192:0.003189 193:0.000638 194:0 195:0 196:0.00574 197:0 198:0.001913 199:0.000638 200:0.001276 201:0 202:0.006378 203:0.002551 204:0.002551 205:0.001276 206:0.004464 207:0.001276 208:0 209:0.024872 210:0.001276 211:0 212:0.003189 213:0.003189 214:0.001276 215:0.010842 216:0.016582 217:0.000638 218:0.001276 219:0.000638 220:0.021684 221:0.017857 222:0.001276 223:0.003827 224:0.001276 225:0 226:0.001276 227:0.009566 228:0.002551 229:0.002551 230:0.003189 231:0 232:0.003189 233:0.000638 234:0.000638 235:0 236:0 237:0.000638 238:0.005102 239:0.002551 240:0 241:0.002551 242:0.005102 243:0.000638 244:0.020408 245:0.002551 246:0.007015 247:0.003827 248:0.002551 249:0 250:0.022959 251:0.005102 252:0.014031 253:0.000638 254:0.002551 255:0.002551 
5 0:0.000851 1:0.004255 2:0.00766 3:0.002553 4:0.001702 5:0 6:0.005106 7:0.001702 8:0.003404 9:0.028085 10:0.003404 11:0.002553 12:0.008511 13:0.003404 14:0.002553 15:0.002553 16:0.011915 17:0.009362 18:0 19:0.001702 20:0.004255 21:0.004255 22:0.001702 23:0.00766 24:0.001702 25:0.003404 26:0.008511 27:0.003404 28:0.000851 29:0.000851 30:0.006809 31:0.005957 32:0.000851 33:0.000851 34:0 35:0.010213 36:0.011915 37:0.011915 38:0 39:0.00766 40:0 41:0.002553 42:0.006809 43:0.004255 44:0.000851 45:0.008511 46:0 47:0.001702 48:0.003404 49:0.000851 50:0 51:0.002553 52:0.001702 53:0.004255 54:0.000851 55:0 56:0.002553 57:0.003404 58:0.008511 59:0.000851 60:0.011915 61:0.004255 62:0.000851 63:0.006809 64:0 65:0.002553 66:0.001702 67:0.008511 68:0.006809 69:0.005106 70:0.001702 71:0.010213 72:0.004255 73:0.004255 74:0.006809 75:0.006809 76:0.001702 77:0.000851 78:0.006809 79:0.002553 80:0.009362 81:0.00766 82:0 83:0.005106 84:0.000851 85:0.000851 86:0.003404 87:0.003404 88:0.000851 89:0.001702 90:0.002553 91:0.002553 92:0.005957 93:0.00766 94:0.01617 95:0.006809 96:0.014468 97:0.003404 98:0.004255 99:0.002553 100:0.001702 101:0 102:0.008511 103:0.003404 104:0 105:0 106:0.004255 107:0.000851 108:0.005106 109:0.011064 110:0.009362 111:0.005957 112:0.005957 113:0.00766 114:0.002553 115:0.000851 116:0.003404 117:0.003404 118:0.005957 119:0.008511 120:0.005106 121:0.003404 122:0.00766 123:0.015319 124:0.000851 125:0.001702 126:0.003404 127:0.003404 128:0.003404 129:0.002553 130:0 131:0.009362 132:0.003404 133:0 134:0.002553 135:0.002553 136:0.001702 137:0.003404 138:0.003404 139:0.001702 140:0.000851 141:0 142:0.000851 143:0.001702 144:0.005106 145:0.004255 146:0.006809 147:0.003404 148:0.000851 149:0.004255 150:0.003404 151:0.000851 152:0.005106 153:0 154:0.002553 155:0 156:0 157:0.012766 158:0.003404 159:0 160:0.005957 161:0.002553 162:0.011915 163:0.002553 164:0.012766 165:0.000851 166:0.002553 167:0.002553 168:0.001702 169:0.000851 170:0.004255 171:0.010213 172:0.001702 173:0.000851 174:0 175:0.001702 176:0.003404 177:0.001702 178:0 179:0.002553 180:0 181:0.014468 182:0.004255 183:0.001702 184:0.002553 185:0.001702 186:0.006809 187:0.005106 188:0.001702 189:0.000851 190:0.005106 191:0.004255 192:0 193:0.010213 194:0.002553 195:0.001702 196:0.000851 197:0.003404 198:0.003404 199:0.00766 200:0.003404 201:0.001702 202:0.005106 203:0.001702 204:0.002553 205:0.006809 206:0.005106 207:0.002553 208:0.00766 209:0.005957 210:0.002553 211:0.001702 212:0 213:0 214:0.00766 215:0.002553 216:0.004255 217:0 218:0.000851 219:0.005106 220:0.00766 221:0.003404 222:0.001702 223:0 224:0.003404 225:0.001702 226:0.002553 227:0.001702 228:0.002553 229:0.002553 230:0.000851 231:0.002553 232:0.003404 233:0.003404 234:0.009362 235:0.004255 236:0.005106 237:0.002553 238:0.006809 239:0 240:0.003404 241:0 242:0.003404 243:0.004255 244:0 245:0.001702 246:0.005106 247:0.001702 248:0 249:0.027234 250:0.001702 251:0.003404 252:0.001702 253:0.001702 254:0.000851 255:0.000851 
