svm_type c_svc
kernel_type rbf
gamma 0.00392157
nr_class 2
total_sv 1216
rho 1.00031
label 1 -1
probA -3390.65
probB -3387.79
nr_sv 152 1064
SV
7 0:0.000497 1:0.000497 2:0.007944 3:0.005958 4:0.000993 5:0.003972 6:0.002483 7:0.00149 8:0.004469 9:0 10:0.000993 11:0.009434 12:0.002483 13:0.003476 14:0.005958 15:0.003972 16:0.00149 17:0.00149 18:0.002979 19:0.000993 20:0.003972 21:0.000497 22:0.00149 23:0.007944 24:0.000993 25:0.001986 26:0.005958 27:0.004469 28:0.000497 29:0.007448 30:0.007448 31:0.005462 32:0.003476 33:0.00149 34:0.000993 35:0.002483 36:0.004965 37:0.003476 38:0.004469 39:0.000497 40:0.00149 41:0.008937 42:0.003972 43:0.002979 44:0.002483 45:0.000497 46:0.001986 47:0.005462 48:0.00993 49:0.005462 50:0.004469 51:0.00149 52:0.00149 53:0.006951 54:0.002483 55:0.000993 56:0.001986 57:0.014399 58:0.002483 59:0.000993 60:0.001986 61:0.007944 62:0.002483 63:0.001986 64:0.005958 65:0.003476 66:0.000993 67:0.00149 68:0.002979 69:0.004965 70:0.003476 71:0.00149 72:0.013903 73:0.002979 74:0.004965 75:0.000993 76:0.003476 77:0.001986 78:0.003972 79:0.000993 80:0.000993 81:0.005958 82:0.001986 83:0.004469 84:0.00993 85:0.001986 86:0.004469 87:0.008441 88:0.002483 89:0.002483 90:0.001986 91:0.002483 92:0.004469 93:0.004469 94:0.000497 95:0.007944 96:0.004469 97:0.002483 98:0.012413 99:0.000497 100:0.005462 101:0.002483 102:0.002979 103:0.006951 104:0.002979 105:0.001986 106:0.005462 107:0.002979 108:0.001986 109:0.000497 110:0.004469 111:0.002979 112:0.004965 113:0.008441 114:0.002979 115:0.001986 116:0 117:0.007944 118:0.009434 119:0.005462 120:0.002979 121:0.006455 122:0.007944 123:0.000497 124:0.003476 125:0.000497 126:0.001986 127:0.00149 128:0.002483 129:0.004965 130:0.00149 131:0.008441 132:0.007448 133:0.000497 134:0.003972 135:0.002483 136:0.000497 137:0.001986 138:0.000497 139:0.002483 140:0.002979 141:0.001986 142:0.003476 143:0.003476 144:0.012413 145:0.02284 146:0.000497 147:0.005958 148:0.004965 149:0.008937 150:0.006455 151:0.000497 152:0.000497 153:0.007448 154:0.006455 155:0.004469 156:0.006455 157:0.005958 158:0.000993 159:0.01142 160:0.005462 161:0.002483 162:0.000497 163:0.003972 164:0.000993 165:0.007448 166:0.010427 167:0.006951 168:0.001986 169:0.004469 170:0.007944 171:0.005958 172:0.004469 173:0.006951 174:0.000993 175:0.001986 176:0.002979 177:0.000497 178:0.00149 179:0.004469 180:0.002483 181:0.016385 182:0.002483 183:0.00149 184:0.003476 185:0.005462 186:0.001986 187:0.00149 188:0.002483 189:0.002483 190:0.000993 191:0.002979 192:0.000993 193:0.002483 194:0.004469 195:0.004469 196:0.00149 197:0.003972 198:0.001986 199:0.003972 200:0.000993 201:0.002483 202:0.008937 203:0.000993 204:0.00149 205:0.003972 206:0.000497 207:0.005462 208:0.002483 209:0.008441 210:0.003972 211:0.00149 212:0.000993 213:0.001986 214:0.001986 215:0.000497 216:0.002979 217:0.000993 218:0.00993 219:0.002483 220:0.010427 221:0.003476 222:0.002483 223:0 224:0.004965 225:0.000993 226:0.000497 227:0.002483 228:0.002979 229:0.005958 230:0.003476 231:0.001986 232:0.008937 233:0.003972 234:0.000497 235:0.007944 236:0.000497 237:0.002979 238:0.004965 239:0.006455 240:0.005462 241:0.00149 242:0.005462 243:0.003476 244:0.000993 245:0.002979 246:0.008937 247:0.003972 248:0.003476 249:0 250:0.015889 251:0.006951 252:0.008441 253:0.005462 254:0.003972 255:0.000497 
7 0:0.006434 1:0.001355 2:0.001355 3:0.003048 4:0.003386 5:0.003725 6:0.001016 7:0.003386 8:0.008466 9:0 10:0.00237 11:0.006773 12:0.006095 13:0.002709 14:0.00237 15:0.006095 16:0.000339 17:0.001693 18:0.004741 19:0.00508 20:0.004064 21:0.001693 22:0.006095 23:0.006773 24:0.005757 25:0.006773 26:0.000339 27:0.003725 28:0.003725 29:0.002032 30:0.005418 31:0.001355 32:0.003048 33:0.006773 34:0.003725 35:0 36:0.001355 37:0 38:0.008127 39:0.001693 40:0.001693 41:0.006095 42:0.004064 43:0.000677 44:0.00745 45:0.006095 46:0.01253 47:0.017609 48:0.006095 49:0.002032 50:0.006095 51:0.001355 52:0.002032 53:0.006434 54:0.009143 55:0.003725 56:0.001355 57:0.009143 58:0 59:0.000339 60:0.001016 61:0.002709 62:0.002032 63:0.003725 64:0.002709 65:0.001355 66:0.000339 67:0.001693 68:0.003048 69:0.007789 70:0.006773 71:0 72:0.007111 73:0.000339 74:0.004741 75:0.001355 76:0.005418 77:0.011852 78:0.000677 79:0.000677 80:0.005757 81:0.007111 82:0.001355 83:0.004402 84:0.008805 85:0.00508 86:0.003048 87:0.007111 88:0.002709 89:0.001355 90:0.008805 91:0.00237 92:0.005418 93:0.005418 94:0 95:0 96:0.001355 97:0.004741 98:0.009143 99:0.001016 100:0.003386 101:0.00508 102:0.003048 103:0.007789 104:0.004064 105:0.004064 106:0.003048 107:0.000339 108:0.001016 109:0.000339 110:0.001355 111:0.002709 112:0.005757 113:0.005757 114:0.004741 115:0.003048 116:0.003725 117:0.00508 118:0.003386 119:0.003725 120:0.001355 121:0.006773 122:0 123:0.000339 124:0.009482 125:0.000339 126:0.006095 127:0.003386 128:0.006095 129:0.000677 130:0.003725 131:0.002032 132:0.006095 133:0.004402 134:0.00237 135:0.001693 136:0.001355 137:0.003048 138:0.00237 139:0.004402 140:0.002709 141:0.00237 142:0.001016 143:0.002032 144:0.000677 145:0.002032 146:0.000677 147:0.004402 148:0.015239 149:0.001355 150:0.00237 151:0.00237 152:0.000339 153:0.003725 154:0.000677 155:0.00745 156:0.008805 157:0.001355 158:0.002032 159:0.013207 160:0.001016 161:0.005757 162:0.004402 163:0.009143 164:0.001693 165:0.005418 166:0.004064 167:0.003725 168:0.002032 169:0.005757 170:0.004064 171:0.003048 172:0.001693 173:0.005757 174:0.001693 175:0.004064 176:0.006434 177:0.001355 178:0.000339 179:0.00237 180:0.011852 181:0 182:0.003386 183:0.001355 184:0.005418 185:0.004064 186:0.002032 187:0.001355 188:0.006095 189:0.004402 190:0.004402 191:0.002709 192:0.00237 193:0 194:0.003048 195:0.002032 196:0.003725 197:0.003048 198:0.003386 199:0.00237 200:0.001016 201:0.005757 202:0.003386 203:0.00237 204:0.006434 205:0.001355 206:0.004402 207:0.009482 208:0.001355 209:0.004402 210:0.004741 211:0.003048 212:0.00237 213:0.00745 214:0.004064 215:0.003725 216:0.00745 217:0.005418 218:0.004064 219:0.004741 220:0.00237 221:0.006095 222:0.001016 223:0.003386 224:0.000677 225:0.002032 226:0.003048 227:0.006773 228:0.00237 229:0.00237 230:0.005418 231:0.001016 232:0.00508 233:0.007111 234:0.001016 235:0.00745 236:0.000677 237:0.001355 238:0.001693 239:0.003386 240:0.001016 241:0.007111 242:0.004741 243:0.004064 244:0.004064 245:0.000677 246:0.013884 247:0.006095 248:0.002032 249:0.003386 250:0.011175 251:0.00508 252:0.013884 253:0.006095 254:0.009482 255:0.005418 
7 0:0 1:0.001848 2:0.011091 3:0.000924 4:0.001848 5:0.004621 6:0.002773 7:0.005545 8:0.004621 9:0.005545 10:0 11:0.005545 12:0.004621 13:0.001848 14:0.002773 15:0.000924 16:0.00647 17:0.010166 18:0 19:0.000924 20:0.007394 21:0.001848 22:0 23:0.001848 24:0.000924 25:0.010166 26:0.00647 27:0.002773 28:0 29:0 30:0.012015 31:0.003697 32:0.002773 33:0.002773 34:0.003697 35:0.013863 36:0.009242 37:0.005545 38:0.002773 39:0 40:0.000924 41:0 42:0.000924 43:0.002773 44:0.001848 45:0.004621 46:0.003697 47:0.008318 48:0.00647 49:0.003697 50:0.002773 51:0.000924 52:0.001848 53:0.001848 54:0 55:0 56:0.001848 57:0.013863 58:0.015712 59:0.001848 60:0.005545 61:0.002773 62:0.001848 63:0.005545 64:0 65:0.000924 66:0.00647 67:0.003697 68:0.003697 69:0.003697 70:0.008318 71:0.005545 72:0.016636 73:0.00647 74:0.009242 75:0.009242 76:0 77:0.002773 78:0.002773 79:0.001848 80:0.003697 81:0.001848 82:0 83:0 84:0.001848 85:0.001848 86:0.001848 87:0.001848 88:0 89:0 90:0 91:0.000924 92:0.010166 93:0 94:0.002773 95:0.009242 96:0.005545 97:0 98:0.011091 99:0.000924 100:0 101:0.003697 102:0.004621 103:0 104:0 105:0 106:0 107:0.004621 108:0.007394 109:0.002773 110:0.002773 111:0.003697 112:0.00647 113:0.001848 114:0.003697 115:0.000924 116:0.004621 117:0.001848 118:0.011091 119:0.001848 120:0.009242 121:0.004621 122:0.011091 123:0.007394 124:0.003697 125:0 126:0.000924 127:0.002773 128:0.004621 129:0.005545 130:0 131:0.008318 132:0.000924 133:0 134:0.005545 135:0.003697 136:0 137:0.003697 138:0 139:0.000924 140:0 141:0 142:0.001848 143:0.00647 144:0.001848 145:0.002773 146:0.011091 147:0.007394 148:0.004621 149:0.010166 150:0.00647 151:0.003697 152:0.00647 153:0.001848 154:0.010166 155:0 156:0.001848 157:0.011091 158:0.000924 159:0.020333 160:0.001848 161:0.003697 162:0 163:0.000924 164:0.007394 165:0.00647 166:0.022181 167:0.000924 168:0.008318 169:0.005545 170:0.000924 171:0.01756 172:0.001848 173:0.002773 174:0 175:0 176:0.011091 177:0.004621 178:0.000924 179:0.003697 180:0.001848 181:0.014787 182:0 183:0.003697 184:0.002773 185:0.004621 186:0.009242 187:0.00647 188:0.003697 189:0.000924 190:0.002773 191:0.004621 192:0 193:0.021257 194:0.001848 195:0.005545 196:0.000924 197:0 198:0.002773 199:0.002773 200:0.002773 201:0.002773 202:0.012939 203:0 204:0 205:0.004621 206:0.001848 207:0.003697 208:0.003697 209:0 210:0.004621 211:0.002773 212:0.002773 213:0.002773 214:0.001848 215:0 216:0.001848 217:0 218:0.000924 219:0.001848 220:0.008318 221:0.004621 222:0.005545 223:0 224:0.008318 225:0.001848 226:0 227:0.000924 228:0.000924 229:0.002773 230:0.001848 231:0.009242 232:0.000924 233:0.002773 234:0.005545 235:0 236:0.004621 237:0.003697 238:0 239:0 240:0.007394 241:0.001848 242:0.010166 243:0 244:0.000924 245:0.012939 246:0.004621 247:0.001848 248:0 249:0.004621 250:0.008318 251:0.002773 252:0.009242 253:0.001848 254:0 255:0 
7 0:0.001396 1:0.000931 2:0.002327 3:0.001396 4:0.000931 5:0.001396 6:0 7:0 8:0.001861 9:0 10:0 11:0.006515 12:0.005119 13:0.005584 14:0.004653 15:0.002327 16:0.004188 17:0.001396 18:0.008376 19:0.000931 20:0.001396 21:0.001396 22:0.002792 23:0.005119 24:0.009307 25:0.002792 26:0.001861 27:0.001396 28:0.001396 29:0.004653 30:0.006049 31:0.001861 32:0.004653 33:0.00698 34:0.002327 35:0.001861 36:0.000931 37:0.004653 38:0.003257 39:0.002792 40:0.001396 41:0.010237 42:0.000931 43:0.000465 44:0.009772 45:0.001861 46:0.003723 47:0.013029 48:0.000931 49:0.004653 50:0.003257 51:0.000931 52:0.001861 53:0.007911 54:0.002327 55:0.002792 56:0.004188 57:0.007911 58:0 59:0.005584 60:0.000465 61:0.001861 62:0 63:0.006515 64:0.007445 65:0 66:0 67:0.001861 68:0.023267 69:0.01396 70:0.005119 71:0.000465 72:0.002327 73:0.000465 74:0.001396 75:0.001396 76:0.00698 77:0.008376 78:0.003723 79:0.000465 80:0.00698 81:0.008841 82:0.005584 83:0.000931 84:0.010703 85:0.00698 86:0.002327 87:0.009772 88:0.014891 89:0.001861 90:0.002792 91:0.007911 92:0.000931 93:0.001396 94:0.005119 95:0 96:0.003257 97:0.000931 98:0.010703 99:0.000931 100:0.003723 101:0.000931 102:0.006049 103:0.002792 104:0.006515 105:0.012099 106:0.003257 107:0.002327 108:0.000465 109:0.001861 110:0.000465 111:0.000465 112:0.003723 113:0.002327 114:0.003723 115:0 116:0.000465 117:0.008841 118:0.00698 119:0.004188 120:0.003723 121:0.004653 122:0.000931 123:0.001396 124:0.004188 125:0.001861 126:0.006049 127:0.001861 128:0.01396 129:0.002327 130:0.008841 131:0.001396 132:0.006515 133:0.001396 134:0.000465 135:0.001861 136:0.001861 137:0.003723 138:0 139:0.002327 140:0.000465 141:0.004653 142:0 143:0.006049 144:0.001861 145:0.003257 146:0.000931 147:0.004653 148:0.003723 149:0 150:0.003257 151:0.007445 152:0.005584 153:0.005119 154:0.004653 155:0.004188 156:0.012099 157:0.001861 158:0.000931 159:0.015356 160:0.003257 161:0.003257 162:0.002327 163:0.015356 164:0.002327 165:0.014891 166:0.000931 167:0.004188 168:0.000465 169:0.007445 170:0.000465 171:0.001396 172:0.000465 173:0.010237 174:0.002792 175:0.003257 176:0.008841 177:0.002327 178:0.001396 179:0.002327 180:0.004188 181:0 182:0.001396 183:0.000931 184:0.004188 185:0.005119 186:0.001396 187:0 188:0.013029 189:0.002327 190:0.001396 191:0.001396 192:0.005584 193:0.000931 194:0.004188 195:0.001861 196:0.006515 197:0.003257 198:0.003257 199:0.000465 200:0.003257 201:0.004653 202:0.001861 203:0.001861 204:0.00698 205:0.002327 206:0.001396 207:0.004188 208:0 209:0.003723 210:0.008841 211:0.002327 212:0.000931 213:0.005584 214:0.004653 215:0.002792 216:0.006049 217:0.002327 218:0.006515 219:0.002327 220:0.001396 221:0.007445 222:0.001396 223:0.001861 224:0.000931 225:0.001861 226:0 227:0.009772 228:0.000931 229:0.000465 230:0.003723 231:0 232:0.00698 233:0.006049 234:0.000465 235:0.015356 236:0 237:0.006049 238:0.004188 239:0.015356 240:0 241:0.003257 242:0.001396 243:0.000931 244:0.005584 245:0.00698 246:0.015356 247:0.003257 248:0.001396 249:0.004653 250:0.005584 251:0.006049 252:0.005119 253:0.002327 254:0.009307 255:0.006515 
7 0:0.00213 1:0.005113 2:0.003835 3:0.004261 4:0.00213 5:0.003835 6:0.000852 7:0.000852 8:0.002556 9:0.004261 10:0.000426 11:0.005113 12:0.004687 13:0.003835 14:0.005539 15:0.001704 16:0.002983 17:0.004261 18:0.00213 19:0.002983 20:0.003409 21:0.00213 22:0.004687 23:0.005965 24:0.005965 25:0.003835 26:0.001704 27:0.005113 28:0.005113 29:0.002983 30:0.004687 31:0.000426 32:0.002983 33:0.002983 34:0.005539 35:0.012356 36:0.007669 37:0.00213 38:0.002556 39:0.00213 40:0.002983 41:0.003835 42:0.002556 43:0.005965 44:0.005113 45:0.002556 46:0.004261 47:0.008522 48:0.005113 49:0.003409 50:0.002556 51:0.0098 52:0.003835 53:0.004687 54:0.00213 55:0.003835 56:0.00213 57:0.003835 58:0.005113 59:0.007243 60:0.000852 61:0.005965 62:0.00213 63:0.002983 64:0.002983 65:0.006817 66:0 67:0.002983 68:0.007243 69:0.003835 70:0.005539 71:0.002983 72:0.004261 73:0.003835 74:0.00213 75:0.007669 76:0.001704 77:0.003835 78:0.005113 79:0.001704 80:0.001704 81:0.002556 82:0.003409 83:0.000852 84:0.006391 85:0.004687 86:0.002556 87:0.003835 88:0.005539 89:0.004261 90:0.001704 91:0.001704 92:0.006817 93:0.001704 94:0.002983 95:0.001704 96:0.005965 97:0.002556 98:0.004261 99:0.004687 100:0.00213 101:0.002556 102:0.002983 103:0.002556 104:0.005539 105:0.006391 106:0.004687 107:0.004687 108:0.003409 109:0.008522 110:0.004687 111:0.004687 112:0.003835 113:0.003835 114:0.002983 115:0.00213 116:0.00213 117:0.005965 118:0.003409 119:0.008948 120:0.005965 121:0.005539 122:0.005965 123:0.000852 124:0.002983 125:0.004261 126:0.002556 127:0.005539 128:0.004687 129:0.001704 130:0.002556 131:0.004687 132:0.005539 133:0.002983 134:0.005113 135:0.005113 136:0.002556 137:0.003409 138:0.001704 139:0.005113 140:0.004687 141:0.001278 142:0.001278 143:0.005113 144:0.005113 145:0.001278 146:0.002983 147:0.008095 148:0.004261 149:0.002556 150:0.006391 151:0.007243 152:0.002556 153:0.007243 154:0.002983 155:0.003835 156:0.003835 157:0.003835 158:0.005113 159:0.005539 160:0.00213 161:0.005113 162:0.002556 163:0.006817 164:0.004687 165:0.006391 166:0.004687 167:0.008522 168:0.004687 169:0.006391 170:0.002556 171:0.006817 172:0.004687 173:0.006391 174:0.001704 175:0.005965 176:0.002556 177:0.002556 178:0.002983 179:0.004687 180:0.000852 181:0.003409 182:0.001704 183:0.00213 184:0.002556 185:0.001704 186:0.005539 187:0.004261 188:0.001278 189:0.001278 190:0.001704 191:0.001278 192:0.003409 193:0.001704 194:0.001278 195:0.005113 196:0.002556 197:0.005965 198:0.006391 199:0.003409 200:0.001278 201:0.002556 202:0.005113 203:0.001704 204:0.006391 205:0.001704 206:0.004687 207:0.004261 208:0.003835 209:0.003409 210:0.003835 211:0.003835 212:0.001278 213:0.001704 214:0.00213 215:0.005539 216:0.002556 217:0.004261 218:0.002556 219:0.002983 220:0.002983 221:0.005539 222:0.005113 223:0.001704 224:0.002556 225:0.00213 226:0.002556 227:0.006817 228:0.002556 229:0.002983 230:0.005965 231:0.001704 232:0.003835 233:0.003409 234:0.006817 235:0.010226 236:0.001278 237:0.011504 238:0.001278 239:0.002556 240:0.004687 241:0.00213 242:0.002983 243:0.00213 244:0.005965 245:0.008522 246:0.003409 247:0.007243 248:0.003409 249:0.00213 250:0.004261 251:0.002556 252:0.005539 253:0.004687 254:0.006391 255:0.002556 
7 0:0.00152 1:0.006079 2:0.00228 3:0.00152 4:0.00228 5:0.00304 6:0.009878 7:0.00152 8:0.00152 9:0 10:0.003799 11:0.005319 12:0.00076 13:0.003799 14:0.00152 15:0.00304 16:0 17:0.00228 18:0.00304 19:0.009119 20:0.00228 21:0.00152 22:0.00076 23:0.00228 24:0.00228 25:0.006839 26:0.004559 27:0.00304 28:0.00228 29:0.006079 30:0.004559 31:0.00076 32:0.006839 33:0.008359 34:0.00076 35:0 36:0.00304 37:0.00228 38:0.00228 39:0.006839 40:0.00076 41:0.00228 42:0.006839 43:0.00228 44:0.004559 45:0.008359 46:0.003799 47:0.006079 48:0.008359 49:0.004559 50:0.006079 51:0.006079 52:0.004559 53:0.009119 54:0.00228 55:0.004559 56:0.00304 57:0.009878 58:0 59:0 60:0.00076 61:0.00152 62:0.00152 63:0.006079 64:0.003799 65:0.00228 66:0 67:0.00076 68:0.00228 69:0.00228 70:0 71:0.00076 72:0.010638 73:0.00152 74:0.00304 75:0 76:0.004559 77:0.006079 78:0.00076 79:0 80:0.005319 81:0.004559 82:0.009119 83:0 84:0.00152 85:0 86:0.005319 87:0.006079 88:0.00152 89:0.00304 90:0.008359 91:0.006079 92:0.007599 93:0.010638 94:0 95:0.00076 96:0 97:0.00152 98:0.004559 99:0.00152 100:0.00076 101:0.00304 102:0.004559 103:0.009878 104:0.00304 105:0.006079 106:0.006079 107:0.00304 108:0.00304 109:0.00076 110:0 111:0.00076 112:0.006079 113:0.005319 114:0.00076 115:0 116:0 117:0.00228 118:0.00304 119:0.004559 120:0.00076 121:0 122:0.00152 123:0.00228 124:0.004559 125:0.00228 126:0.005319 127:0.00228 128:0.005319 129:0.00228 130:0.00152 131:0.00076 132:0.00076 133:0.00076 134:0.004559 135:0.00228 136:0.008359 137:0.006079 138:0.00152 139:0.013678 140:0.005319 141:0.006839 142:0.00152 143:0.00228 144:0.00076 145:0.004559 146:0.006839 147:0.00304 148:0.004559 149:0.005319 150:0.006079 151:0 152:0.00152 153:0.006079 154:0.00076 155:0.004559 156:0.003799 157:0.005319 158:0.00304 159:0.00304 160:0.00228 161:0.004559 162:0.015198 163:0.005319 164:0.00076 165:0.005319 166:0.007599 167:0.016717 168:0.003799 169:0.006079 170:0.004559 171:0.00304 172:0.00228 173:0.006839 174:0.005319 175:0.009119 176:0.007599 177:0.009119 178:0.00076 179:0.00076 180:0.005319 181:0.003799 182:0.011398 183:0.00228 184:0.00152 185:0.00228 186:0.007599 187:0.00152 188:0.009878 189:0.003799 190:0.00228 191:0.004559 192:0.00076 193:0.00076 194:0.007599 195:0 196:0.007599 197:0.004559 198:0.004559 199:0.00304 200:0.00304 201:0.00228 202:0.004559 203:0.00152 204:0 205:0 206:0.012918 207:0.005319 208:0.00076 209:0.00228 210:0.009119 211:0.004559 212:0.00076 213:0.006079 214:0.006839 215:0.00304 216:0.005319 217:0.007599 218:0.006079 219:0.003799 220:0.006079 221:0.003799 222:0.00228 223:0.004559 224:0.003799 225:0.009878 226:0.004559 227:0.006079 228:0 229:0.010638 230:0.00304 231:0.00076 232:0.00228 233:0.00304 234:0.003799 235:0.006839 236:0 237:0 238:0.007599 239:0.00076 240:0.00152 241:0.003799 242:0.00228 243:0.006079 244:0.013678 245:0 246:0.006839 247:0.00152 248:0.007599 249:0.009878 250:0.00228 251:0.005319 252:0.007599 253:0.00228 254:0.00304 255:0.003799 
7 0:0.002223 1:0.001112 2:0.001668 3:0.003335 4:0.002779 5:0.003891 6:0.000556 7:0.002223 8:0.003891 9:0 10:0.005003 11:0.006115 12:0.003891 13:0.005003 14:0.00667 15:0.005559 16:0 17:0.000556 18:0.003891 19:0.003891 20:0.003335 21:0.003891 22:0.000556 23:0.013897 24:0.003891 25:0.003891 26:0.001112 27:0.003335 28:0.001112 29:0.003335 30:0.008338 31:0.005003 32:0.005003 33:0.008338 34:0.001112 35:0 36:0.000556 37:0 38:0.003335 39:0.001668 40:0.001112 41:0.003891 42:0.001668 43:0.002223 44:0.005003 45:0.002223 46:0.007782 47:0.013897 48:0.001668 49:0.003335 50:0.004447 51:0.002779 52:0 53:0.011117 54:0.003891 55:0.004447 56:0.004447 57:0.003335 58:0.000556 59:0.002779 60:0.001112 61:0.004447 62:0.003335 63:0.003891 64:0.002223 65:0.005003 66:0 67:0.005559 68:0.00945 69:0.006115 70:0.001668 71:0.001112 72:0.007226 73:0.001112 74:0.002779 75:0 76:0.00945 77:0.008894 78:0 79:0.001112 80:0.003335 81:0.012229 82:0.012785 83:0.005559 84:0.00667 85:0.004447 86:0.004447 87:0.00667 88:0.004447 89:0.002223 90:0.00945 91:0.00667 92:0 93:0.005003 94:0.005003 95:0 96:0.003335 97:0.004447 98:0.004447 99:0.001112 100:0.012229 101:0.001112 102:0.002779 103:0.008338 104:0.006115 105:0.010561 106:0.000556 107:0.003335 108:0 109:0 110:0 111:0.001112 112:0.00667 113:0.011673 114:0.005559 115:0.002223 116:0 117:0.012229 118:0.000556 119:0.003335 120:0.002223 121:0.000556 122:0 123:0 124:0.006115 125:0.001112 126:0.011673 127:0.004447 128:0.010561 129:0.003335 130:0.004447 131:0.000556 132:0.003891 133:0.002779 134:0.003891 135:0.002223 136:0.000556 137:0.002223 138:0 139:0.008894 140:0.000556 141:0.003335 142:0.000556 143:0.003891 144:0.000556 145:0.006115 146:0.002223 147:0.003335 148:0.003891 149:0.002779 150:0.002779 151:0.002223 152:0.002779 153:0.007226 154:0.002223 155:0.00945 156:0.013341 157:0.000556 158:0.001112 159:0.007226 160:0.001112 161:0.005559 162:0.005003 163:0.010561 164:0.000556 165:0.006115 166:0.001112 167:0.007226 168:0.000556 169:0.006115 170:0.002779 171:0 172:0.006115 173:0.007782 174:0.001112 175:0.005003 176:0.004447 177:0.002779 178:0 179:0.004447 180:0.001668 181:0 182:0.003335 183:0.001668 184:0.005003 185:0.004447 186:0 187:0 188:0.011117 189:0.003335 190:0.006115 191:0.003335 192:0.001668 193:0 194:0.001112 195:0 196:0.005003 197:0.007226 198:0.001668 199:0.002779 200:0.002779 201:0.002779 202:0 203:0.005559 204:0.003335 205:0 206:0.000556 207:0.005003 208:0 209:0.005559 210:0.004447 211:0.001668 212:0.001112 213:0.008894 214:0.001668 215:0.007226 216:0.007782 217:0.003891 218:0.005003 219:0.003891 220:0.003335 221:0.003891 222:0.001668 223:0.003335 224:0 225:0.004447 226:0.004447 227:0.010006 228:0.002223 229:0.005003 230:0.008338 231:0 232:0.004447 233:0.00945 234:0.002223 235:0.007782 236:0.002779 237:0.003335 238:0.006115 239:0.005003 240:0.000556 241:0.002779 242:0 243:0.002779 244:0.001112 245:0.007226 246:0.015564 247:0.005559 248:0.000556 249:0.002223 250:0.011117 251:0.007226 252:0.00945 253:0.005003 254:0.002223 255:0.004447 
7 0:0.000503 1:0.003523 2:0.027177 3:0.001007 4:0.003523 5:0.003523 6:0 7:0.005033 8:0.011575 9:0.002013 10:0.001007 11:0.00302 12:0.002516 13:0 14:0.00151 15:0.012582 16:0.00151 17:0.002516 18:0.00151 19:0.001007 20:0.011072 21:0.00151 22:0.009562 23:0.007046 24:0.003523 25:0.010569 26:0.00151 27:0.004529 28:0.007046 29:0.000503 30:0.006543 31:0.000503 32:0 33:0.004529 34:0.00151 35:0.002013 36:0.004026 37:0.00151 38:0.002013 39:0 40:0.002516 41:0.001007 42:0.004529 43:0.000503 44:0.001007 45:0.00302 46:0.000503 47:0.010065 48:0.004529 49:0.00302 50:0.007046 51:0 52:0.000503 53:0.013085 54:0.002013 55:0.00151 56:0.003523 57:0.025667 58:0 59:0.00302 60:0.00151 61:0.000503 62:0.004026 63:0.002516 64:0.00151 65:0.00151 66:0.000503 67:0.002013 68:0.001007 69:0.002516 70:0.002516 71:0.003523 72:0.025164 73:0.000503 74:0.012582 75:0.00151 76:0 77:0.004529 78:0.004529 79:0.00151 80:0.006039 81:0.009059 82:0.000503 83:0.001007 84:0.002516 85:0.002013 86:0.004026 87:0.009059 88:0.00151 89:0.000503 90:0 91:0 92:0.010065 93:0.00151 94:0.003523 95:0.00302 96:0.004026 97:0.002516 98:0.003523 99:0.000503 100:0.000503 101:0 102:0.003523 103:0.00302 104:0.00302 105:0.00302 106:0.000503 107:0.002013 108:0.00151 109:0.002013 110:0.007046 111:0.001007 112:0.00302 113:0.000503 114:0.002013 115:0.002013 116:0 117:0.00151 118:0.008556 119:0.004026 120:0.002013 121:0.002516 122:0.00302 123:0 124:0.007046 125:0.000503 126:0.00151 127:0.002516 128:0.004529 129:0.013085 130:0.000503 131:0.002013 132:0.002013 133:0.00151 134:0.002516 135:0.000503 136:0.000503 137:0.00302 138:0.001007 139:0 140:0.00151 141:0.001007 142:0.00302 143:0.005033 144:0.005033 145:0.014595 146:0.005033 147:0.013588 148:0.007046 149:0.010569 150:0.00302 151:0.008556 152:0.002013 153:0.000503 154:0.002516 155:0.001007 156:0.003523 157:0.004026 158:0.00151 159:0.015601 160:0.001007 161:0.006543 162:0.005033 163:0.00151 164:0 165:0.000503 166:0.033216 167:0.001007 168:0.002013 169:0.004529 170:0.005536 171:0.016105 172:0.00151 173:0.000503 174:0.00151 175:0.002013 176:0.004026 177:0.002516 178:0.001007 179:0.001007 180:0.001007 181:0.007046 182:0.001007 183:0.00151 184:0.001007 185:0.00302 186:0.003523 187:0.002516 188:0.00151 189:0.000503 190:0.001007 191:0.008052 192:0.001007 193:0.000503 194:0 195:0.006039 196:0.001007 197:0.00151 198:0.00151 199:0.000503 200:0.001007 201:0.002013 202:0.016608 203:0.00151 204:0.010569 205:0.005033 206:0.006039 207:0.005536 208:0.003523 209:0.002516 210:0.007549 211:0 212:0 213:0.00151 214:0.00151 215:0.001007 216:0.00151 217:0.002013 218:0.00302 219:0.009059 220:0.012582 221:0.000503 222:0.005033 223:0 224:0.012079 225:0 226:0.000503 227:0.005033 228:0.002516 229:0 230:0.000503 231:0.002013 232:0.006039 233:0.006543 234:0.003523 235:0.00151 236:0.00302 237:0.002013 238:0.002013 239:0.00151 240:0.003523 241:0.001007 242:0.013588 243:0.002013 244:0.00151 245:0.006543 246:0.006039 247:0.00302 248:0.000503 249:0 250:0.0307 251:0.016105 252:0.030196 253:0 254:0.002516 255:0.001007 
7 0:0 1:0.002301 2:0.006904 3:0.002301 4:0.01611 5:0.001151 6:0.004603 7:0.001151 8:0.001151 9:0 10:0.002301 11:0.004603 12:0.003452 13:0.009206 14:0 15:0 16:0.003452 17:0.023015 18:0 19:0.002301 20:0.005754 21:0.009206 22:0.003452 23:0 24:0.001151 25:0.003452 26:0.003452 27:0 28:0 29:0.003452 30:0.003452 31:0.003452 32:0 33:0.010357 34:0.009206 35:0.001151 36:0 37:0 38:0.002301 39:0 40:0.003452 41:0 42:0.001151 43:0.005754 44:0.004603 45:0.002301 46:0.006904 47:0.002301 48:0.002301 49:0.003452 50:0.002301 51:0 52:0.002301 53:0.001151 54:0.001151 55:0.001151 56:0.003452 57:0.001151 58:0.03107 59:0.005754 60:0.011507 61:0.009206 62:0.001151 63:0.001151 64:0 65:0 66:0.034522 67:0.01611 68:0.001151 69:0.004603 70:0.001151 71:0.004603 72:0.001151 73:0.005754 74:0 75:0.012658 76:0.001151 77:0.003452 78:0.013809 79:0.013809 80:0.002301 81:0 82:0.002301 83:0 84:0.002301 85:0.001151 86:0 87:0.001151 88:0.002301 89:0.002301 90:0.001151 91:0.003452 92:0 93:0.002301 94:0.012658 95:0.004603 96:0.025316 97:0.001151 98:0.002301 99:0.004603 100:0 101:0.006904 102:0 103:0 104:0.002301 105:0 106:0.001151 107:0.003452 108:0.008055 109:0.002301 110:0.001151 111:0.010357 112:0 113:0.003452 114:0.004603 115:0.003452 116:0.002301 117:0.008055 118:0.006904 119:0.003452 120:0.017261 121:0.006904 122:0 123:0.018412 124:0 125:0 126:0.009206 127:0 128:0.003452 129:0.001151 130:0 131:0 132:0.008055 133:0.001151 134:0.001151 135:0.006904 136:0.001151 137:0 138:0 139:0.004603 140:0.002301 141:0.010357 142:0.020713 143:0.001151 144:0.013809 145:0 146:0.011507 147:0.002301 148:0.001151 149:0.001151 150:0.005754 151:0.004603 152:0.018412 153:0.001151 154:0.002301 155:0.001151 156:0.002301 157:0 158:0 159:0.001151 160:0.008055 161:0.003452 162:0.001151 163:0 164:0.006904 165:0.010357 166:0.001151 167:0.006904 168:0.004603 169:0.001151 170:0.001151 171:0.002301 172:0.003452 173:0 174:0.01611 175:0.002301 176:0.001151 177:0.003452 178:0.003452 179:0 180:0 181:0 182:0.003452 183:0.004603 184:0.009206 185:0.002301 186:0.009206 187:0 188:0 189:0.001151 190:0.002301 191:0 192:0 193:0.004603 194:0 195:0 196:0.001151 197:0 198:0.001151 199:0.005754 200:0.018412 201:0 202:0.009206 203:0.006904 204:0.004603 205:0.002301 206:0 207:0 208:0.001151 209:0.001151 210:0.001151 211:0 212:0.005754 213:0.002301 214:0 215:0.011507 216:0.001151 217:0.001151 218:0 219:0.002301 220:0.005754 221:0.003452 222:0.011507 223:0 224:0.003452 225:0.002301 226:0 227:0.001151 228:0.004603 229:0.002301 230:0.008055 231:0.005754 232:0.01496 233:0 234:0.001151 235:0.005754 236:0.001151 237:0.008055 238:0 239:0 240:0.002301 241:0.002301 242:0.001151 243:0.001151 244:0.003452 245:0.01496 246:0 247:0.004603 248:0 249:0.001151 250:0 251:0.003452 252:0.002301 253:0.001151 254:0.006904 255:0.002301 
7 0:0.003587 1:0.005381 2:0 3:0.004036 4:0.000897 5:0.000448 6:0.006726 7:0.004484 8:0.000448 9:0 10:0.000897 11:0.001345 12:0.002691 13:0.002242 14:0.002691 15:0.003587 16:0 17:0.000448 18:0.004036 19:0.001345 20:0.004933 21:0.007623 22:0.013901 23:0.002242 24:0.009865 25:0.001794 26:0.001794 27:0.001345 28:0.012556 29:0.005381 30:0.003587 31:0.002242 32:0.00583 33:0.005381 34:0.006726 35:0 36:0.001345 37:0 38:0.002691 39:0.006726 40:0.004036 41:0.001794 42:0.003139 43:0.000448 44:0.006726 45:0.006278 46:0.004484 47:0.00583 48:0.003139 49:0.001345 50:0.003587 51:0.001345 52:0.002242 53:0.004036 54:0.001345 55:0.007175 56:0.001794 57:0.003139 58:0 59:0.012108 60:0.004933 61:0.003139 62:0.003587 63:0.001345 64:0.005381 65:0.001345 66:0.000448 67:0.003139 68:0.006278 69:0.004036 70:0.002691 71:0 72:0.001794 73:0.001794 74:0.003587 75:0.001794 76:0.005381 77:0.002242 78:0.000897 79:0.000897 80:0.000448 81:0.002242 82:0.010762 83:0.003587 84:0.005381 85:0.007175 86:0.000897 87:0.003139 88:0.006726 89:0.003139 90:0.003587 91:0.004484 92:0.002242 93:0.000897 94:0.003139 95:0 96:0.013004 97:0.00852 98:0.007175 99:0.002691 100:0.006726 101:0.003139 102:0.006278 103:0.002242 104:0.004036 105:0.008072 106:0.002691 107:0.001794 108:0.001794 109:0 110:0.000448 111:0.01435 112:0.001794 113:0.003587 114:0.011659 115:0.002691 116:0.004036 117:0.004484 118:0.001794 119:0.003139 120:0.007623 121:0.004036 122:0.000448 123:0 124:0.004036 125:0.020628 126:0.004484 127:0.001345 128:0.003587 129:0.000897 130:0.006278 131:0 132:0.003139 133:0.008072 134:0.001345 135:0.003587 136:0.000897 137:0.013453 138:0.00583 139:0.004484 140:0.000897 141:0.000897 142:0.004484 143:0.008969 144:0 145:0.001794 146:0.001345 147:0.003587 148:0.001794 149:0.000897 150:0.00583 151:0.006726 152:0.007623 153:0.007623 154:0 155:0.003139 156:0.006726 157:0 158:0.006726 159:0.004036 160:0 161:0.000897 162:0.009865 163:0.006726 164:0.001794 165:0.006726 166:0.001345 167:0.000897 168:0.001345 169:0.002691 170:0.003139 171:0.003139 172:0.002242 173:0.004484 174:0.000897 175:0.004933 176:0.004933 177:0.011211 178:0.006726 179:0.004484 180:0.002242 181:0 182:0.000448 183:0.001345 184:0.002691 185:0.002242 186:0.001794 187:0 188:0.007175 189:0.000897 190:0.002691 191:0.000897 192:0.001345 193:0 194:0.003139 195:0.000897 196:0.006278 197:0.000897 198:0.001345 199:0.003139 200:0 201:0.008969 202:0.000897 203:0.001794 204:0.004484 205:0 206:0.008072 207:0.004036 208:0.001794 209:0.00583 210:0.004484 211:0.008072 212:0.004933 213:0.001794 214:0.003587 215:0.022422 216:0.006278 217:0.003139 218:0.004484 219:0.002691 220:0.002691 221:0.004036 222:0.004036 223:0.007175 224:0.000897 225:0.005381 226:0.005381 227:0.007175 228:0.004036 229:0.010314 230:0.007175 231:0.001794 232:0.013901 233:0.003139 234:0.001345 235:0.007623 236:0.003139 237:0.008072 238:0.000448 239:0.004484 240:0.002691 241:0.003587 242:0 243:0.006278 244:0.003587 245:0.000897 246:0.003139 247:0.002691 248:0.006726 249:0.019731 250:0.002242 251:0.004036 252:0.002242 253:0.004484 254:0.00583 255:0.002691 
7 0:0.000877 1:0 2:0.007018 3:0.000877 4:0.002632 5:0.005263 6:0.001754 7:0.00614 8:0.005263 9:0 10:0.003509 11:0.005263 12:0.010526 13:0.002632 14:0 15:0.004386 16:0.000877 17:0.000877 18:0 19:0.004386 20:0.007018 21:0 22:0 23:0.00614 24:0.001754 25:0.00614 26:0.002632 27:0.011404 28:0.000877 29:0.000877 30:0.00614 31:0.000877 32:0.007018 33:0.003509 34:0.003509 35:0 36:0.004386 37:0.002632 38:0 39:0.000877 40:0 41:0.002632 42:0.013158 43:0.004386 44:0.004386 45:0 46:0.004386 47:0.009649 48:0.005263 49:0.00614 50:0 51:0.004386 52:0.007895 53:0.011404 54:0.001754 55:0.008772 56:0 57:0.016667 58:0 59:0 60:0 61:0.001754 62:0.000877 63:0.002632 64:0 65:0.002632 66:0.001754 67:0.003509 68:0.002632 69:0.000877 70:0.004386 71:0.001754 72:0.012281 73:0.002632 74:0.013158 75:0.004386 76:0 77:0.013158 78:0.004386 79:0 80:0.00614 81:0.005263 82:0 83:0.000877 84:0.007895 85:0.002632 86:0.005263 87:0.007895 88:0 89:0.005263 90:0 91:0 92:0.015789 93:0.003509 94:0 95:0.002632 96:0 97:0.002632 98:0.012281 99:0.000877 100:0 101:0.007895 102:0.007895 103:0 104:0 105:0.002632 106:0.000877 107:0.003509 108:0.000877 109:0.000877 110:0.000877 111:0 112:0.009649 113:0.005263 114:0.001754 115:0 116:0.004386 117:0.001754 118:0.007895 119:0.001754 120:0.007018 121:0.005263 122:0.004386 123:0 124:0.004386 125:0 126:0.001754 127:0.004386 128:0.004386 129:0.018421 130:0.000877 131:0.000877 132:0.000877 133:0 134:0.00614 135:0.003509 136:0.003509 137:0.000877 138:0 139:0 140:0.00614 141:0.004386 142:0.005263 143:0.010526 144:0.004386 145:0.011404 146:0.003509 147:0.00614 148:0.007018 149:0.003509 150:0.015789 151:0 152:0.004386 153:0.001754 154:0.00614 155:0.003509 156:0.004386 157:0.011404 158:0.001754 159:0.017544 160:0 161:0.005263 162:0.000877 163:0.004386 164:0 165:0.005263 166:0.001754 167:0.004386 168:0.000877 169:0.010526 170:0.010526 171:0.002632 172:0.001754 173:0.000877 174:0.003509 175:0.000877 176:0.003509 177:0.002632 178:0 179:0.001754 180:0.000877 181:0.011404 182:0.00614 183:0.004386 184:0 185:0.005263 186:0.002632 187:0.000877 188:0.00614 189:0.001754 190:0.001754 191:0.007895 192:0.001754 193:0.005263 194:0.000877 195:0.008772 196:0 197:0.002632 198:0.002632 199:0 200:0.000877 201:0.002632 202:0.004386 203:0.002632 204:0.001754 205:0.014912 206:0.002632 207:0.003509 208:0.001754 209:0.002632 210:0.004386 211:0 212:0.001754 213:0.001754 214:0.001754 215:0 216:0.007895 217:0.000877 218:0.001754 219:0.002632 220:0.011404 221:0.002632 222:0.004386 223:0 224:0.010526 225:0.001754 226:0.001754 227:0.000877 228:0.000877 229:0 230:0.003509 231:0.002632 232:0.001754 233:0.001754 234:0.000877 235:0.00614 236:0.000877 237:0.000877 238:0.003509 239:0 240:0.000877 241:0.004386 242:0.003509 243:0.002632 244:0.029825 245:0.000877 246:0.022807 247:0.005263 248:0 249:0.000877 250:0.020175 251:0.010526 252:0.005263 253:0.00614 254:0.002632 255:0.000877 
7 0:0.001517 1:0.001517 2:0.00493 3:0.003792 4:0.004551 5:0.007964 6:0.002275 7:0.003792 8:0.009101 9:0.000379 10:0.002275 11:0.003413 12:0.003034 13:0.002655 14:0.008722 15:0.002655 16:0 17:0.000379 18:0.001517 19:0.005309 20:0.00986 21:0.001517 22:0.000758 23:0.007205 24:0.003792 25:0.011756 26:0.001138 27:0.00493 28:0.000379 29:0.002275 30:0.008722 31:0.001896 32:0.003034 33:0.006447 34:0.005309 35:0 36:0.002275 37:0 38:0.002275 39:0.001896 40:0.000758 41:0.004551 42:0.003413 43:0.001896 44:0.004551 45:0.003034 46:0.007964 47:0.013273 48:0.004171 49:0.003034 50:0.006447 51:0.002655 52:0.003413 53:0.013273 54:0.001517 55:0.005688 56:0 57:0.00986 58:0.000379 59:0.001138 60:0.000758 61:0.002655 62:0.001517 63:0.005688 64:0.001517 65:0.002275 66:0.000758 67:0.000758 68:0.005688 69:0.016306 70:0.003034 71:0.000758 72:0.008722 73:0 74:0.010997 75:0.000758 76:0.00948 77:0.008722 78:0.004171 79:0.003413 80:0.001138 81:0.004551 82:0.004551 83:0.007964 84:0.004171 85:0.002275 86:0.001138 87:0.007964 88:0.002275 89:0.003792 90:0.004171 91:0.004171 92:0.001517 93:0.00493 94:0.001138 95:0.000758 96:0.000758 97:0.005309 98:0.010239 99:0.001138 100:0.002275 101:0.002655 102:0.005688 103:0.007205 104:0.007205 105:0.00493 106:0.001896 107:0.00493 108:0.002275 109:0.000379 110:0.000379 111:0.001517 112:0.002275 113:0.006826 114:0.005688 115:0.003413 116:0.001138 117:0.003034 118:0.001896 119:0.004171 120:0.003034 121:0.001138 122:0.000379 123:0 124:0.008343 125:0.000758 126:0.002655 127:0.001896 128:0.007205 129:0.009101 130:0.002275 131:0.000758 132:0.004551 133:0.001517 134:0.002275 135:0.000758 136:0.001138 137:0.003413 138:0.001517 139:0.006826 140:0.002655 141:0.00493 142:0.001896 143:0.003413 144:0 145:0.004551 146:0.000758 147:0.007205 148:0.009101 149:0.003413 150:0.001138 151:0 152:0.001896 153:0.002655 154:0.001896 155:0.001896 156:0.00986 157:0 158:0.001896 159:0.01441 160:0 161:0.008343 162:0.015169 163:0.009101 164:0.001138 165:0.005688 166:0.009101 167:0.006068 168:0.004551 169:0.00948 170:0.003034 171:0.001517 172:0.001896 173:0.007205 174:0.001138 175:0.006826 176:0.006068 177:0.001896 178:0.003413 179:0.002655 180:0.003034 181:0.001896 182:0.005688 183:0.000758 184:0.001517 185:0.007584 186:0.000379 187:0.000379 188:0.004551 189:0.001517 190:0.001517 191:0.002275 192:0.004551 193:0 194:0.001517 195:0.002275 196:0.003792 197:0.004551 198:0.003034 199:0.001517 200:0.001138 201:0.004551 202:0.004551 203:0.006447 204:0.000758 205:0 206:0.00493 207:0.010997 208:0 209:0.005309 210:0.006068 211:0.003413 212:0.000379 213:0.006068 214:0.004171 215:0.001138 216:0.006068 217:0.001896 218:0.002655 219:0.006068 220:0.007584 221:0.00493 222:0.001517 223:0.004171 224:0.002655 225:0.002275 226:0.003792 227:0.006826 228:0.00493 229:0.007584 230:0.005309 231:0.001896 232:0.003034 233:0.005309 234:0.003034 235:0.005309 236:0.001896 237:0.002655 238:0.004551 239:0.003034 240:0 241:0.003413 242:0.004171 243:0.003034 244:0.007964 245:0.001138 246:0.012893 247:0.003034 248:0.002275 249:0.002655 250:0.014031 251:0.004171 252:0.015927 253:0.003034 254:0.003413 255:0.002275 
7 0:0.00885 1:0.000737 2:0.002212 3:0.000369 4:0.00295 5:0.004056 6:0.000369 7:0.001106 8:0.015118 9:0 10:0 11:0.00295 12:0.004425 13:0.001106 14:0.015487 15:0.002212 16:0.001844 17:0.00295 18:0.004794 19:0.001844 20:0.007006 21:0.002212 22:0.001106 23:0.0059 24:0.000737 25:0.002581 26:0.00295 27:0.004425 28:0 29:0.003319 30:0.036136 31:0.001106 32:0.003319 33:0.006637 34:0.003319 35:0 36:0.001106 37:0.000369 38:0.000369 39:0.008481 40:0.000369 41:0.007006 42:0.00295 43:0.001475 44:0.00295 45:0.005531 46:0.010324 47:0.009218 48:0.003319 49:0.005531 50:0.000369 51:0.003319 52:0.002212 53:0.005162 54:0.008112 55:0.004056 56:0.002212 57:0.005531 58:0 59:0.000737 60:0.000737 61:0.006268 62:0.000369 63:0.009218 64:0.000737 65:0.002581 66:0 67:0.001106 68:0.001106 69:0.004056 70:0.005531 71:0.000737 72:0.005531 73:0 74:0.004794 75:0.001475 76:0.001106 77:0.015487 78:0.003319 79:0.001106 80:0.001475 81:0.001475 82:0.000737 83:0.000369 84:0.011431 85:0.001844 86:0.009587 87:0.003687 88:0.001475 89:0.003319 90:0.001844 91:0.000369 92:0.00295 93:0.001844 94:0.001106 95:0.000369 96:0.000737 97:0.004056 98:0.026917 99:0.000737 100:0.000369 101:0.006637 102:0.001106 103:0 104:0.001475 105:0.003319 106:0.002212 107:0.005531 108:0.002212 109:0.000737 110:0.000737 111:0.00295 112:0.000737 113:0.002581 114:0.00295 115:0.000737 116:0.003687 117:0.00295 118:0.002212 119:0.007743 120:0.005162 121:0.005162 122:0.000369 123:0.000737 124:0.007006 125:0.000737 126:0.004794 127:0.011062 128:0.001475 129:0.022124 130:0.006268 131:0 132:0.005162 133:0 134:0.009218 135:0.0059 136:0.001475 137:0.005162 138:0.000369 139:0.001106 140:0.007375 141:0.012537 142:0.000737 143:0.007743 144:0.001475 145:0.001475 146:0.00295 147:0.0059 148:0.014012 149:0.001106 150:0.003319 151:0 152:0.00295 153:0.006268 154:0.006268 155:0.0059 156:0.004425 157:0 158:0.002212 159:0.026549 160:0.003319 161:0.011062 162:0.003687 163:0.003319 164:0.002212 165:0.007375 166:0.003687 167:0.004056 168:0.001106 169:0.030605 170:0.000737 171:0.00295 172:0.001106 173:0.006637 174:0.005531 175:0.000369 176:0.002581 177:0.00295 178:0 179:0.001475 180:0.001475 181:0.001106 182:0 183:0.002581 184:0.00295 185:0.014381 186:0.002581 187:0.001475 188:0.001844 189:0.001106 190:0.000737 191:0.001106 192:0.002212 193:0 194:0 195:0.003687 196:0.002581 197:0.001844 198:0.002581 199:0.001106 200:0.002212 201:0.006268 202:0.004794 203:0.0059 204:0.002212 205:0.000369 206:0.000737 207:0.012168 208:0.001106 209:0.001106 210:0.010324 211:0.001475 212:0.001106 213:0 214:0 215:0.001475 216:0.0059 217:0.000369 218:0.009218 219:0.013274 220:0.004056 221:0.002581 222:0.000737 223:0 224:0.0059 225:0.003319 226:0.00295 227:0.002581 228:0.003319 229:0.000369 230:0.001844 231:0.003687 232:0.00295 233:0.002212 234:0.001844 235:0.009218 236:0 237:0.000737 238:0.004056 239:0.001106 240:0.001475 241:0.00295 242:0.002212 243:0.000369 244:0.001844 245:0.000737 246:0.004794 247:0.011799 248:0.001106 249:0.009956 250:0.009956 251:0.001844 252:0.009956 253:0.012168 254:0.004056 255:0.007375 
7 0:0.003101 1:0.005685 2:0.002584 3:0.002584 4:0.000517 5:0.005168 6:0 7:0 8:0.00155 9:0 10:0.00155 11:0.007235 12:0.003618 13:0.001034 14:0.009819 15:0.003618 16:0.000517 17:0.003101 18:0.003101 19:0.000517 20:0.003101 21:0.000517 22:0.002584 23:0.002067 24:0.00155 25:0.006718 26:0.001034 27:0.007752 28:0 29:0.003101 30:0.012403 31:0.003618 32:0.004134 33:0.005168 34:0.003101 35:0 36:0.000517 37:0.000517 38:0.000517 39:0.00155 40:0 41:0.006718 42:0.000517 43:0.001034 44:0.007752 45:0.011886 46:0.013953 47:0.023773 48:0.004134 49:0.003618 50:0 51:0.000517 52:0.001034 53:0.005168 54:0.002067 55:0.002067 56:0.003618 57:0.010336 58:0 59:0.001034 60:0 61:0.004134 62:0 63:0.009819 64:0.003101 65:0.003101 66:0 67:0.002067 68:0.00155 69:0.007235 70:0.006202 71:0.00155 72:0.009302 73:0 74:0.007235 75:0 76:0.001034 77:0.006718 78:0.000517 79:0 80:0.002584 81:0.005168 82:0.00155 83:0.000517 84:0.01137 85:0.003618 86:0.001034 87:0.006718 88:0.002067 89:0.003101 90:0.002584 91:0.002067 92:0.002067 93:0.005685 94:0 95:0 96:0 97:0.003101 98:0.031525 99:0 100:0 101:0.002067 102:0.002584 103:0.00155 104:0 105:0.003618 106:0.002067 107:0.007752 108:0.000517 109:0.001034 110:0.000517 111:0 112:0.003618 113:0.004651 114:0.00155 115:0 116:0 117:0.005685 118:0.002584 119:0.011886 120:0.003618 121:0.004651 122:0 123:0.001034 124:0.019121 125:0.000517 126:0.003101 127:0.008269 128:0.007235 129:0.003618 130:0.010853 131:0.000517 132:0.009819 133:0 134:0.008786 135:0.003101 136:0.002067 137:0.004651 138:0.000517 139:0.00155 140:0.00155 141:0.003618 142:0.001034 143:0.005685 144:0.002584 145:0.005168 146:0.001034 147:0.011886 148:0.01292 149:0.002067 150:0.005685 151:0.00155 152:0.002067 153:0.008269 154:0.00155 155:0.003101 156:0.006718 157:0.003101 158:0.003101 159:0.020155 160:0.006202 161:0.008786 162:0.006718 163:0.007752 164:0.00155 165:0.017571 166:0.009302 167:0.005168 168:0.000517 169:0.010336 170:0.003101 171:0.003618 172:0.003101 173:0.01137 174:0.002067 175:0 176:0.006718 177:0.004651 178:0 179:0.000517 180:0 181:0.001034 182:0.000517 183:0.00155 184:0.001034 185:0.004651 186:0.000517 187:0.001034 188:0.006718 189:0 190:0 191:0.002584 192:0.002067 193:0 194:0.000517 195:0.002584 196:0.006202 197:0.002584 198:0.00155 199:0 200:0 201:0.003618 202:0.002067 203:0.002584 204:0.004651 205:0 206:0.005168 207:0.012403 208:0 209:0.002584 210:0.023773 211:0.001034 212:0.001034 213:0.005168 214:0 215:0 216:0.002067 217:0.000517 218:0.01292 219:0.006202 220:0.003101 221:0.003618 222:0 223:0.003618 224:0.000517 225:0.006202 226:0.005685 227:0.005685 228:0 229:0.002067 230:0.006202 231:0.00155 232:0.00155 233:0.004651 234:0.003618 235:0.010853 236:0.000517 237:0.005685 238:0.00155 239:0.00155 240:0.001034 241:0.005685 242:0.003101 243:0.004651 244:0.002584 245:0.00155 246:0.017571 247:0.010853 248:0.000517 249:0.003618 250:0.009302 251:0.00155 252:0.013953 253:0.005168 254:0.004134 255:0.006202 
7 0:0.002937 1:0.004772 2:0.002203 3:0.005874 4:0.001101 5:0.001468 6:0.00257 7:0.002937 8:0.00257 9:0 10:0.001836 11:0.004405 12:0.003671 13:0.001468 14:0.006608 15:0.00257 16:0.000734 17:0.001101 18:0.002203 19:0.004405 20:0.001468 21:0.003671 22:0.012482 23:0.005874 24:0.005507 25:0.005874 26:0 27:0.010646 28:0.008076 29:0.002937 30:0.011747 31:0.000734 32:0.002937 33:0.00257 34:0.004405 35:0 36:0.000367 37:0.000367 38:0.006608 39:0.003304 40:0.004038 41:0.006975 42:0.001468 43:0.001101 44:0.009178 45:0.00257 46:0.012115 47:0.016153 48:0.004405 49:0.004772 50:0.010279 51:0.001101 52:0.001468 53:0.005874 54:0.009912 55:0.001836 56:0.002203 57:0.00514 58:0 59:0.002203 60:0.001468 61:0.001836 62:0.008443 63:0.004038 64:0.001836 65:0.00257 66:0 67:0.003671 68:0.004405 69:0.009545 70:0.00257 71:0.000367 72:0.005507 73:0.000734 74:0.00514 75:0.000367 76:0.00257 77:0.006608 78:0.003304 79:0.001101 80:0.00257 81:0.006608 82:0.001468 83:0.002203 84:0.005507 85:0.002203 86:0.003304 87:0.00514 88:0.004405 89:0.000367 90:0.002937 91:0.004038 92:0.001101 93:0.00514 94:0.004038 95:0.000367 96:0.005874 97:0.004405 98:0.018355 99:0.003304 100:0.001468 101:0.000734 102:0.003304 103:0.002937 104:0.004405 105:0.005874 106:0.004405 107:0.00514 108:0.001101 109:0.001101 110:0 111:0.003671 112:0.001836 113:0.004772 114:0.003304 115:0.001101 116:0.002203 117:0.002937 118:0.001468 119:0.006241 120:0.002937 121:0.00257 122:0 123:0.000367 124:0.01652 125:0.001836 126:0.001468 127:0.00257 128:0.006975 129:0.001101 130:0.003671 131:0.001101 132:0.005507 133:0.003304 134:0.002937 135:0.000734 136:0.000734 137:0.00514 138:0.00514 139:0.004772 140:0.002937 141:0.001101 142:0.003304 143:0.005874 144:0.000367 145:0.004405 146:0.001468 147:0.006975 148:0.007342 149:0.001836 150:0.002203 151:0.00257 152:0.004405 153:0.003671 154:0.002937 155:0.004038 156:0.009545 157:0.001836 158:0.00257 159:0.013216 160:0.002937 161:0.008443 162:0.00257 163:0.009178 164:0.00257 165:0.010279 166:0.004405 167:0.002937 168:0.000734 169:0.007342 170:0.002937 171:0.002937 172:0.003304 173:0.011013 174:0.000367 175:0.002937 176:0.005874 177:0.001836 178:0.007342 179:0.008076 180:0.004772 181:0.001101 182:0.001468 183:0.001101 184:0.003671 185:0.003304 186:0.001836 187:0.000734 188:0.004772 189:0.006241 190:0.000367 191:0.004405 192:0.002203 193:0.001836 194:0.001101 195:0 196:0.001836 197:0.001101 198:0.002203 199:0.000734 200:0.000734 201:0.003304 202:0.004405 203:0.001836 204:0.005507 205:0.004405 206:0.004772 207:0.01138 208:0.000367 209:0.004405 210:0.00514 211:0.001101 212:0.006608 213:0.004038 214:0.002203 215:0.004038 216:0.006241 217:0.012482 218:0.004038 219:0.006608 220:0.003671 221:0.007709 222:0.000367 223:0.004038 224:0.001836 225:0.00257 226:0.002937 227:0.008811 228:0.003304 229:0.003304 230:0.004405 231:0.000367 232:0.007709 233:0.003671 234:0.002203 235:0.006241 236:0.001836 237:0.004772 238:0.004038 239:0.005874 240:0.001836 241:0.005507 242:0.00257 243:0.000367 244:0.001101 245:0.002203 246:0.012482 247:0.00514 248:0.004772 249:0.001836 250:0.005507 251:0.00257 252:0.011747 253:0.001836 254:0.01138 255:0.005874 
7 0:0 1:0.007582 2:0.012637 3:0.000421 4:0.002106 5:0.003791 6:0.002106 7:0.00337 8:0.008425 9:0.003791 10:0.001264 11:0.002949 12:0.002527 13:0.001685 14:0.005897 15:0.001685 16:0.001685 17:0.000842 18:0.003791 19:0.000842 20:0.00337 21:0.002106 22:0 23:0.001685 24:0 25:0.004212 26:0.003791 27:0.002949 28:0.000842 29:0.004212 30:0.019798 31:0.000842 32:0.003791 33:0.006318 34:0.005476 35:0.005897 36:0.010952 37:0.002527 38:0.000842 39:0.002949 40:0 41:0.00337 42:0.000842 43:0.004212 44:0.002527 45:0.007161 46:0.00337 47:0.008003 48:0.006318 49:0.002527 50:0.001264 51:0.000421 52:0.001264 53:0.007582 54:0 55:0.002106 56:0.005476 57:0.016849 58:0.008846 59:0.000842 60:0.000421 61:0.00337 62:0 63:0.010531 64:0.004634 65:0 66:0.007582 67:0.002949 68:0.002106 69:0.001685 70:0.007161 71:0.002527 72:0.017692 73:0.000421 74:0.015164 75:0.008846 76:0 77:0.004212 78:0.004212 79:0.001264 80:0.00337 81:0.001264 82:0.002949 83:0.000421 84:0.003791 85:0.004212 86:0.000421 87:0.002106 88:0.005055 89:0.00337 90:0.002527 91:0.001685 92:0.004212 93:0.002527 94:0.001264 95:0.00337 96:0.002527 97:0.001685 98:0.010952 99:0 100:0.002106 101:0.000842 102:0.002106 103:0.002949 104:0.002527 105:0.002106 106:0 107:0.005476 108:0.008003 109:0.004212 110:0.00337 111:0.002527 112:0.000842 113:0.001264 114:0.000842 115:0 116:0.000842 117:0.00337 118:0.003791 119:0.00337 120:0.002949 121:0.001264 122:0.008846 123:0.002106 124:0.009267 125:0.002527 126:0.000842 127:0.00674 128:0.003791 129:0.005897 130:0.001685 131:0.002527 132:0.00337 133:0 134:0.002527 135:0.002949 136:0.001264 137:0.007582 138:0.001685 139:0.002527 140:0.002106 141:0.000421 142:0.002106 143:0.008846 144:0.005897 145:0.009688 146:0.005476 147:0.010952 148:0.011794 149:0.01011 150:0.001685 151:0.001685 152:0.002527 153:0.002106 154:0.002949 155:0.000842 156:0.001264 157:0.001685 158:0.004634 159:0.020219 160:0.00674 161:0.014743 162:0.003791 163:0.001264 164:0.00337 165:0.002527 166:0.027801 167:0.000421 168:0.001685 169:0.012216 170:0.001685 171:0.012216 172:0.000842 173:0.008425 174:0.000421 175:0.000842 176:0.007161 177:0.012216 178:0.000421 179:0.002949 180:0 181:0.014322 182:0.000421 183:0.000421 184:0.002527 185:0.004634 186:0.002106 187:0.004212 188:0.000842 189:0.000842 190:0 191:0.001264 192:0.002106 193:0.001264 194:0.000842 195:0.00337 196:0.005897 197:0.000421 198:0 199:0.000421 200:0.000842 201:0.004212 202:0.015586 203:0.002106 204:0.001685 205:0 206:0.006318 207:0.004212 208:0.001685 209:0 210:0.023168 211:0 212:0.00337 213:0.001685 214:0.000842 215:0.000421 216:0.002949 217:0 218:0.004634 219:0.013901 220:0.009688 221:0.002527 222:0.001264 223:0.001264 224:0.002106 225:0.003791 226:0.002949 227:0.002106 228:0.000842 229:0.001685 230:0.000421 231:0.00674 232:0.000421 233:0.005055 234:0.008846 235:0.003791 236:0.000842 237:0.002106 238:0 239:0.001685 240:0.00337 241:0.001264 242:0.008003 243:0 244:0.001264 245:0.001685 246:0.003791 247:0.00674 248:0.002527 249:0.002949 250:0.016849 251:0.000842 252:0.02064 253:0.001264 254:0.000842 255:0.001264 
7 0:0.004175 1:0.001898 2:0.001139 3:0.005313 4:0.003795 5:0.011006 6:0.000759 7:0.004554 8:0.006452 9:0.00038 10:0.003416 11:0.001518 12:0.003416 13:0.004175 14:0.001518 15:0.00038 16:0.001139 17:0.001898 18:0.006452 19:0.005693 20:0.003416 21:0.004175 22:0.003795 23:0.004554 24:0.009867 25:0.003416 26:0.001139 27:0.005313 28:0.005693 29:0.005313 30:0.003795 31:0.001518 32:0.003416 33:0.005693 34:0.008729 35:0.002277 36:0.000759 37:0.001518 38:0.004934 39:0.000759 40:0.004554 41:0.001898 42:0.004175 43:0.003795 44:0.009867 45:0.004554 46:0.011385 47:0.005693 48:0.006831 49:0.004554 50:0.005313 51:0.002277 52:0.004934 53:0.002277 54:0.006072 55:0.002657 56:0.004175 57:0.010247 58:0.00038 59:0.005693 60:0.000759 61:0.000759 62:0.003416 63:0.003036 64:0.000759 65:0.001139 66:0 67:0.001898 68:0.00797 69:0.008349 70:0.001518 71:0 72:0.004175 73:0.000759 74:0.006072 75:0.001518 76:0.001139 77:0.004175 78:0.002277 79:0.004554 80:0.002657 81:0.003036 82:0.005693 83:0.004175 84:0.002657 85:0.004934 86:0.001898 87:0.003036 88:0.00797 89:0 90:0.006831 91:0.000759 92:0.004554 93:0.002657 94:0.000759 95:0 96:0.001518 97:0.003416 98:0.003416 99:0.005313 100:0.006072 101:0.002277 102:0.002277 103:0.001518 104:0.00797 105:0.00759 106:0.003795 107:0.004175 108:0.001139 109:0.002277 110:0.001139 111:0.001518 112:0.004554 113:0.005313 114:0.002277 115:0.002657 116:0.004554 117:0.006072 118:0.001518 119:0.003795 120:0.002277 121:0.00797 122:0.00038 123:0.003416 124:0.011006 125:0.00038 126:0.005313 127:0.003036 128:0.003036 129:0.006072 130:0.006831 131:0.001518 132:0.002657 133:0.003036 134:0.006072 135:0.005693 136:0.002657 137:0.001898 138:0.001518 139:0.003036 140:0.003795 141:0.012524 142:0.003036 143:0.003416 144:0.00038 145:0.001898 146:0.002277 147:0.005693 148:0.005313 149:0.001139 150:0.006452 151:0.009488 152:0.003036 153:0.003795 154:0.006831 155:0.005313 156:0.008349 157:0 158:0.003416 159:0.006831 160:0.00038 161:0.003416 162:0.003036 163:0.006072 164:0.00038 165:0.003795 166:0.004934 167:0.00797 168:0.001139 169:0.00797 170:0.006452 171:0.001518 172:0.003795 173:0.004934 174:0.008729 175:0.010247 176:0.002657 177:0.006452 178:0.004934 179:0.012903 180:0.006452 181:0.000759 182:0.006452 183:0.004175 184:0.00759 185:0.002657 186:0.002657 187:0.001898 188:0.006452 189:0.005693 190:0.006452 191:0.003036 192:0.004175 193:0.003416 194:0.001139 195:0.001518 196:0.008349 197:0.001518 198:0.004934 199:0.002277 200:0.002657 201:0.003416 202:0.001898 203:0.004934 204:0.005313 205:0.002277 206:0.002277 207:0.006831 208:0.001518 209:0.002657 210:0.004175 211:0.004175 212:0.005313 213:0.008729 214:0.00038 215:0.008349 216:0.002277 217:0.001898 218:0.001518 219:0.003416 220:0.001898 221:0.006072 222:0.001898 223:0.001518 224:0.002657 225:0.001898 226:0.003036 227:0.006452 228:0.004934 229:0.011006 230:0.004554 231:0.001139 232:0.004554 233:0.005313 234:0.000759 235:0.004175 236:0 237:0.003795 238:0.001139 239:0.004175 240:0.001139 241:0.007211 242:0.002277 243:0 244:0.003416 245:0.002657 246:0.006831 247:0.001898 248:0.004554 249:0.003795 250:0.005313 251:0.004554 252:0.004934 253:0.003416 254:0.004175 255:0.002277 
7 0:0.009681 1:0.006834 2:0.000569 3:0.002847 4:0.006264 5:0.002278 6:0.002847 7:0.003986 8:0.001708 9:0 10:0 11:0.003417 12:0.001708 13:0.003417 14:0.003417 15:0.002278 16:0 17:0.002278 18:0.002847 19:0.003417 20:0.001139 21:0.004556 22:0.009681 23:0.003986 24:0.001139 25:0.003417 26:0.001708 27:0.001708 28:0.005125 29:0.003986 30:0.005125 31:0.003986 32:0.005695 33:0.001139 34:0.009681 35:0 36:0.001708 37:0.000569 38:0.009681 39:0.002278 40:0.002847 41:0.006834 42:0.003986 43:0.002278 44:0.008542 45:0.006264 46:0.003417 47:0.007973 48:0.010251 49:0.000569 50:0.002847 51:0.000569 52:0.002847 53:0.001708 54:0.006264 55:0.002278 56:0.003417 57:0.002278 58:0 59:0.003417 60:0.003986 61:0.006834 62:0.002278 63:0.006264 64:0.003986 65:0.001708 66:0.001139 67:0.007973 68:0.005695 69:0.008542 70:0.002278 71:0.000569 72:0.002847 73:0.007973 74:0.002278 75:0.002847 76:0.003986 77:0.006834 78:0.001708 79:0.000569 80:0.002847 81:0.006834 82:0.007403 83:0.002847 84:0.005125 85:0.003986 86:0 87:0.002278 88:0.002847 89:0.003417 90:0 91:0.001708 92:0.015376 93:0.005695 94:0.001139 95:0.002278 96:0.003417 97:0.003417 98:0.005125 99:0.001708 100:0.002847 101:0.001139 102:0.002847 103:0.006264 104:0.007403 105:0.001139 106:0.003986 107:0.003986 108:0.001139 109:0.000569 110:0.003417 111:0.003417 112:0.000569 113:0.004556 114:0.004556 115:0.001708 116:0.003417 117:0.010251 118:0.002847 119:0.002278 120:0.001708 121:0.007403 122:0.006264 123:0.000569 124:0.003986 125:0 126:0.003986 127:0.002278 128:0.002847 129:0.000569 130:0.002847 131:0 132:0.001708 133:0.004556 134:0.002278 135:0.000569 136:0.001139 137:0.000569 138:0.007403 139:0.005695 140:0.002278 141:0.002278 142:0.003986 143:0.002847 144:0.002847 145:0.002278 146:0.001708 147:0.008542 148:0.004556 149:0.001708 150:0.006264 151:0.001708 152:0.004556 153:0.002847 154:0.002278 155:0.018223 156:0.01082 157:0 158:0.008542 159:0.001708 160:0.014806 161:0.001708 162:0.016515 163:0.01082 164:0.007973 165:0.011959 166:0.001708 167:0.004556 168:0.002847 169:0.005695 170:0 171:0.001139 172:0.008542 173:0.009681 174:0.000569 175:0.006264 176:0.001139 177:0.004556 178:0.006834 179:0.009681 180:0.003417 181:0.003417 182:0.000569 183:0.002278 184:0.006834 185:0.001708 186:0.002847 187:0 188:0.007403 189:0.004556 190:0.004556 191:0.001139 192:0.001139 193:0 194:0.005695 195:0 196:0.002278 197:0.004556 198:0.004556 199:0.007403 200:0.001708 201:0.003986 202:0.002278 203:0.001139 204:0.001708 205:0.002278 206:0 207:0.000569 208:0.003417 209:0.003986 210:0.003417 211:0.003986 212:0.003417 213:0.003986 214:0.002278 215:0.003986 216:0.004556 217:0.000569 218:0.004556 219:0.008542 220:0.004556 221:0.006264 222:0.001139 223:0.002278 224:0 225:0.003417 226:0.007403 227:0.003417 228:0.000569 229:0.01082 230:0.005125 231:0.001708 232:0.007973 233:0.003986 234:0.002278 235:0.011959 236:0.005695 237:0.008542 238:0.001708 239:0.001139 240:0.001139 241:0.004556 242:0.001139 243:0.004556 244:0.000569 245:0.004556 246:0.01082 247:0.002847 248:0.005125 249:0.000569 250:0.006264 251:0.003986 252:0.006834 253:0.009112 254:0.004556 255:0.004556 
7 0:0 1:0.001325 2:0.014579 3:0 4:0.00729 5:0.011928 6:0 7:0.00729 8:0.010603 9:0.000663 10:0.001325 11:0.005964 12:0.009278 13:0.001988 14:0.00994 15:0.011266 16:0.001988 17:0.003313 18:0.000663 19:0.000663 20:0.00729 21:0 22:0 23:0.005964 24:0 25:0.005964 26:0.003313 27:0.005964 28:0 29:0.003313 30:0.011266 31:0 32:0.001325 33:0.003313 34:0.003313 35:0.00729 36:0.002651 37:0.001988 38:0 39:0.001325 40:0 41:0.006627 42:0.003313 43:0.001325 44:0 45:0.005302 46:0.001988 47:0.012591 48:0.003313 49:0.001988 50:0 51:0 52:0.003313 53:0.008615 54:0 55:0.006627 56:0.011266 57:0.021869 58:0.002651 59:0 60:0 61:0.001988 62:0 63:0.00729 64:0.001988 65:0.001325 66:0 67:0 68:0 69:0.001988 70:0.009278 71:0.005964 72:0.019218 73:0 74:0.007952 75:0.003313 76:0.001325 77:0.00729 78:0.001988 79:0 80:0.004639 81:0.006627 82:0 83:0.001325 84:0.003313 85:0 86:0.007952 87:0.007952 88:0.000663 89:0.003976 90:0 91:0 92:0.009278 93:0.001325 94:0 95:0.001988 96:0 97:0.009278 98:0.009278 99:0.000663 100:0.000663 101:0.001325 102:0.003976 103:0.005302 104:0.000663 105:0 106:0 107:0.001988 108:0.005964 109:0.003313 110:0.005302 111:0.000663 112:0.005302 113:0.000663 114:0.006627 115:0 116:0 117:0 118:0.006627 119:0.009278 120:0 121:0.001988 122:0.006627 123:0.003313 124:0.002651 125:0 126:0.000663 127:0.013254 128:0.002651 129:0.016567 130:0.003976 131:0.000663 132:0.006627 133:0 134:0.004639 135:0.002651 136:0.005964 137:0.001988 138:0 139:0 140:0.000663 141:0.005302 142:0.001325 143:0.005964 144:0.006627 145:0.010603 146:0.00994 147:0.003976 148:0.010603 149:0.011928 150:0.008615 151:0 152:0.000663 153:0.001325 154:0.006627 155:0.000663 156:0.000663 157:0 158:0.004639 159:0.008615 160:0.002651 161:0.011928 162:0.002651 163:0.002651 164:0.003976 165:0.005302 166:0.022531 167:0.001988 168:0.000663 169:0.00994 170:0.005302 171:0.005964 172:0.000663 173:0.005302 174:0.001325 175:0.000663 176:0.009278 177:0.005302 178:0 179:0.000663 180:0.001325 181:0.012591 182:0.008615 183:0.001325 184:0.000663 185:0.001325 186:0.005302 187:0.001988 188:0.002651 189:0 190:0.001988 191:0.000663 192:0.002651 193:0.001988 194:0.001988 195:0.003313 196:0.004639 197:0.003976 198:0.000663 199:0.000663 200:0.002651 201:0.004639 202:0.015905 203:0.001988 204:0 205:0.003976 206:0.003313 207:0.009278 208:0.001325 209:0.001988 210:0.011928 211:0 212:0.000663 213:0.000663 214:0.001325 215:0 216:0.001325 217:0.000663 218:0.003976 219:0.015242 220:0.010603 221:0.001325 222:0 223:0 224:0.005964 225:0.001988 226:0.001325 227:0 228:0.001988 229:0 230:0.001988 231:0.005964 232:0 233:0.000663 234:0.002651 235:0.00729 236:0 237:0 238:0.004639 239:0 240:0.005964 241:0.000663 242:0.00729 243:0.003976 244:0.005302 245:0 246:0.004639 247:0.005302 248:0 249:0.003313 250:0.02717 251:0.003976 252:0.019881 253:0.001988 254:0.000663 255:0.000663 
7 0:0 1:0.000981 2:0.015702 3:0 4:0.004907 5:0.006869 6:0.002944 7:0.002944 8:0.006869 9:0.000981 10:0 11:0.003925 12:0.001963 13:0.004907 14:0.004907 15:0.003925 16:0.002944 17:0.012758 18:0.004907 19:0 20:0.003925 21:0.002944 22:0.000981 23:0.003925 24:0 25:0.006869 26:0.003925 27:0.000981 28:0.000981 29:0.004907 30:0.016683 31:0.001963 32:0 33:0.000981 34:0.001963 35:0.004907 36:0.003925 37:0.003925 38:0 39:0.001963 40:0 41:0.001963 42:0.001963 43:0.000981 44:0 45:0.011776 46:0.001963 47:0.003925 48:0.000981 49:0.000981 50:0 51:0 52:0.001963 53:0.004907 54:0 55:0.002944 56:0.017664 57:0.019627 58:0.001963 59:0 60:0.003925 61:0.003925 62:0 63:0.007851 64:0.000981 65:0 66:0.000981 67:0.003925 68:0 69:0.005888 70:0.003925 71:0 72:0.015702 73:0.000981 74:0.003925 75:0 76:0.000981 77:0.005888 78:0 79:0 80:0.003925 81:0.006869 82:0.000981 83:0.000981 84:0.001963 85:0.001963 86:0.000981 87:0.002944 88:0 89:0.018646 90:0.000981 91:0 92:0 93:0 94:0 95:0.001963 96:0 97:0.005888 98:0.01472 99:0.000981 100:0.003925 101:0.002944 102:0.001963 103:0.000981 104:0.000981 105:0.005888 106:0.001963 107:0.003925 108:0.004907 109:0.002944 110:0 111:0.003925 112:0.002944 113:0.001963 114:0.004907 115:0 116:0.001963 117:0.000981 118:0.007851 119:0.005888 120:0 121:0.004907 122:0.008832 123:0.002944 124:0.009814 125:0 126:0.003925 127:0.011776 128:0.003925 129:0.004907 130:0 131:0.005888 132:0.002944 133:0 134:0.001963 135:0.009814 136:0.007851 137:0.003925 138:0 139:0.000981 140:0.000981 141:0 142:0 143:0.003925 144:0.004907 145:0.010795 146:0.004907 147:0.004907 148:0.010795 149:0.012758 150:0.006869 151:0 152:0 153:0.011776 154:0.003925 155:0.001963 156:0.006869 157:0.000981 158:0.001963 159:0.022571 160:0.016683 161:0.006869 162:0 163:0.000981 164:0.030422 165:0.008832 166:0.018646 167:0 168:0 169:0.006869 170:0 171:0.008832 172:0.005888 173:0.002944 174:0.000981 175:0.001963 176:0.011776 177:0.005888 178:0.001963 179:0.002944 180:0 181:0.01472 182:0.000981 183:0 184:0.002944 185:0.002944 186:0.000981 187:0.002944 188:0 189:0 190:0 191:0 192:0 193:0.000981 194:0.000981 195:0.002944 196:0.001963 197:0.003925 198:0.001963 199:0.001963 200:0.001963 201:0.002944 202:0.004907 203:0 204:0 205:0.002944 206:0.005888 207:0.006869 208:0.001963 209:0.000981 210:0.013739 211:0.008832 212:0.002944 213:0.001963 214:0.001963 215:0 216:0 217:0 218:0.015702 219:0.01472 220:0.010795 221:0.004907 222:0 223:0 224:0.005888 225:0.006869 226:0.002944 227:0.002944 228:0 229:0.001963 230:0.000981 231:0.000981 232:0.002944 233:0.001963 234:0.003925 235:0.006869 236:0 237:0.001963 238:0.003925 239:0.002944 240:0.002944 241:0 242:0.007851 243:0.001963 244:0 245:0 246:0.004907 247:0.007851 248:0 249:0.002944 250:0.017664 251:0.000981 252:0.025515 253:0.000981 254:0 255:0.001963 
7 0:0.005365 1:0.000536 2:0.000536 3:0.000536 4:0.001609 5:0.002682 6:0.002146 7:0.005901 8:0.005365 9:0 10:0.004292 11:0.005901 12:0.004828 13:0.002146 14:0.007511 15:0.002146 16:0 17:0 18:0.000536 19:0.002146 20:0.006974 21:0.005365 22:0.002146 23:0.006974 24:0.003755 25:0.002682 26:0.002146 27:0.003219 28:0 29:0.002682 30:0.008047 31:0.002146 32:0.007511 33:0.007511 34:0.003219 35:0 36:0.000536 37:0 38:0.002146 39:0.002146 40:0.001609 41:0.004828 42:0.004828 43:0.003219 44:0.002146 45:0.001073 46:0.017704 47:0.012876 48:0.001609 49:0.003755 50:0.001073 51:0.005365 52:0.001609 53:0.006974 54:0.005901 55:0.007511 56:0.001609 57:0.005365 58:0 59:0.000536 60:0.001073 61:0.002682 62:0.002146 63:0.004828 64:0.000536 65:0.003219 66:0 67:0.003219 68:0.003755 69:0.011803 70:0.002146 71:0 72:0.003755 73:0.000536 74:0.006974 75:0 76:0.000536 77:0.013948 78:0.002682 79:0.001073 80:0.001073 81:0.007511 82:0.001073 83:0.003219 84:0.015021 85:0.006438 86:0.003219 87:0.003755 88:0.001609 89:0.001609 90:0.002146 91:0.002146 92:0 93:0.002146 94:0 95:0.000536 96:0.000536 97:0.00912 98:0.008584 99:0.000536 100:0.001073 101:0.002682 102:0.000536 103:0.000536 104:0.004292 105:0.002146 106:0.003755 107:0.001609 108:0.000536 109:0.001073 110:0 111:0 112:0.005901 113:0.006974 114:0.002682 115:0.001609 116:0.001073 117:0.007511 118:0.002146 119:0.005901 120:0.003755 121:0.006974 122:0 123:0 124:0.007511 125:0.001073 126:0.003755 127:0.002682 128:0.007511 129:0.012339 130:0.003755 131:0.000536 132:0.009657 133:0.000536 134:0.003755 135:0.004292 136:0.001609 137:0.000536 138:0.002146 139:0.003219 140:0.007511 141:0.012876 142:0.003755 143:0.002682 144:0 145:0.003219 146:0.001073 147:0.005365 148:0.01073 149:0.002682 150:0.007511 151:0.000536 152:0.001609 153:0.012876 154:0.000536 155:0.00912 156:0.015558 157:0.000536 158:0.000536 159:0.007511 160:0.001073 161:0.006974 162:0.001073 163:0.012876 164:0.001073 165:0.006438 166:0.002682 167:0.008584 168:0 169:0.021459 170:0.012876 171:0 172:0.002682 173:0.005365 174:0.001609 175:0.005365 176:0.004828 177:0 178:0 179:0.001609 180:0.003219 181:0.001073 182:0.017167 183:0.010193 184:0.004828 185:0.006974 186:0.000536 187:0.001073 188:0.008047 189:0.003755 190:0.003755 191:0.012339 192:0.003755 193:0.001609 194:0.003755 195:0.004292 196:0.003755 197:0.006438 198:0.004828 199:0.001609 200:0.001073 201:0.002146 202:0.002146 203:0.000536 204:0.003219 205:0.005365 206:0.001609 207:0.005901 208:0 209:0.001609 210:0.005365 211:0.004292 212:0.005365 213:0.004828 214:0 215:0.000536 216:0.015021 217:0 218:0.003755 219:0.004292 220:0.001073 221:0.010193 222:0.002682 223:0.004828 224:0.005365 225:0.000536 226:0.001073 227:0.005365 228:0.003755 229:0.002682 230:0.002146 231:0.000536 232:0.002146 233:0.005365 234:0.001073 235:0.006438 236:0.001073 237:0.002146 238:0.005365 239:0.003755 240:0.000536 241:0.006438 242:0 243:0 244:0.002146 245:0.003219 246:0.01073 247:0.006974 248:0.001609 249:0.002146 250:0.015558 251:0.005901 252:0.007511 253:0.008047 254:0.005901 255:0.006974 
7 0:0.00207 1:0.003725 2:0.004139 3:0.004139 4:0.000414 5:0.002897 6:0.001656 7:0.005795 8:0.004139 9:0 10:0.006209 11:0.001242 12:0.002483 13:0.001656 14:0.001242 15:0.004553 16:0.000414 17:0 18:0.008278 19:0.000828 20:0.006209 21:0.001656 22:0.000828 23:0.004139 24:0.004553 25:0.003311 26:0.003725 27:0.005381 28:0.001656 29:0.008278 30:0.004967 31:0.001656 32:0.005795 33:0.005381 34:0.006623 35:0.000828 36:0.002897 37:0 38:0.005381 39:0.008692 40:0.001242 41:0.003311 42:0.00207 43:0.003725 44:0.004139 45:0.005795 46:0.006209 47:0.006623 48:0 49:0.005381 50:0.003725 51:0.001242 52:0.00207 53:0.006209 54:0.003311 55:0.008278 56:0.006623 57:0.005381 58:0 59:0.001656 60:0.002897 61:0.005795 62:0.002897 63:0.003725 64:0.007036 65:0.002483 66:0 67:0.000414 68:0.003725 69:0.00207 70:0.002483 71:0.001242 72:0.005795 73:0.000828 74:0.000414 75:0.000828 76:0.00952 77:0.002897 78:0.004553 79:0.001656 80:0.00207 81:0.006623 82:0.008692 83:0.007036 84:0.007036 85:0.005381 86:0.002483 87:0.004139 88:0.003725 89:0.003311 90:0.010348 91:0.005795 92:0.000828 93:0.004967 94:0.002483 95:0.000414 96:0.000828 97:0.005381 98:0.004967 99:0.001656 100:0.012831 101:0.00207 102:0.004553 103:0.006209 104:0.00745 105:0.015315 106:0.002897 107:0.003725 108:0.001242 109:0.000828 110:0.00207 111:0.004553 112:0.004553 113:0.00745 114:0.003725 115:0.001656 116:0.000414 117:0.002483 118:0.002897 119:0.002897 120:0.004553 121:0.00207 122:0.001656 123:0.001242 124:0.014073 125:0.001656 126:0.00207 127:0.004553 128:0.00207 129:0.005795 130:0.007036 131:0.001656 132:0.002897 133:0.002897 134:0.004967 135:0.000828 136:0.004139 137:0.004553 138:0.004553 139:0.009934 140:0.004967 141:0.001656 142:0.004553 143:0.005795 144:0.001242 145:0.001242 146:0.001242 147:0.005795 148:0.006209 149:0.001242 150:0.004139 151:0.000828 152:0.00745 153:0.003311 154:0.001242 155:0.002897 156:0.004139 157:0 158:0.003311 159:0.006209 160:0 161:0.005795 162:0.003725 163:0.004553 164:0.001242 165:0.004967 166:0.004553 167:0.005795 168:0.003311 169:0.004553 170:0.005381 171:0.001242 172:0.003725 173:0.004553 174:0.00207 175:0.005381 176:0.00952 177:0.003311 178:0.002483 179:0.006623 180:0.002897 181:0.001242 182:0.00207 183:0.00207 184:0.001656 185:0.002897 186:0.000828 187:0.000828 188:0.003725 189:0.003725 190:0.002897 191:0.001242 192:0.003311 193:0 194:0.002483 195:0.003725 196:0.005795 197:0.004967 198:0.004553 199:0.001242 200:0.001656 201:0.004967 202:0.006209 203:0.011175 204:0.004139 205:0.000414 206:0.007864 207:0.005381 208:0.001242 209:0.00207 210:0.00207 211:0.000828 212:0.002483 213:0.010762 214:0.00207 215:0.004967 216:0.004967 217:0.001656 218:0.007036 219:0.004967 220:0.003311 221:0.006623 222:0.00207 223:0.007864 224:0.004553 225:0.006623 226:0.001656 227:0.005381 228:0.003311 229:0.00745 230:0.004139 231:0.004139 232:0.001656 233:0.004139 234:0.004553 235:0.00745 236:0.004139 237:0.003311 238:0.007036 239:0.010348 240:0.004553 241:0.004967 242:0.004139 243:0.001656 244:0.001242 245:0.000414 246:0.007036 247:0.000828 248:0.011589 249:0.006623 250:0.004139 251:0.002897 252:0.004553 253:0.002483 254:0.006209 255:0.010348 
7 0:0.007473 1:0 2:0.008874 3:0.003737 4:0.004671 5:0.009809 6:0.000934 7:0.010276 8:0.020084 9:0.001868 10:0.002335 11:0.001868 12:0.006539 13:0.004671 14:0.004204 15:0.000934 16:0.000934 17:0.000934 18:0.001868 19:0.006539 20:0.018216 21:0.004671 22:0.001868 23:0.006072 24:0.000934 25:0.004671 26:0.00327 27:0.004204 28:0.004204 29:0.002335 30:0.01121 31:0.000467 32:0.002335 33:0.005605 34:0.006539 35:0 36:0.001868 37:0.000934 38:0.004204 39:0.001868 40:0.000934 41:0.000467 42:0.001401 43:0.002802 44:0.002335 45:0.004204 46:0.005605 47:0.008407 48:0.002802 49:0.003737 50:0.002802 51:0.001868 52:0.00327 53:0.004671 54:0.004204 55:0.007473 56:0.001868 57:0.016348 58:0 59:0.000934 60:0.000934 61:0.001868 62:0 63:0.001401 64:0 65:0.003737 66:0 67:0.001868 68:0.00327 69:0.004671 70:0.003737 71:0.000467 72:0.008874 73:0.000467 74:0.008407 75:0 76:0.000467 77:0.01121 78:0.006072 79:0.001401 80:0 81:0.005605 82:0 83:0.009341 84:0.005138 85:0.001868 86:0.008874 87:0.005138 88:0.001868 89:0.002802 90:0.001868 91:0.001401 92:0.001401 93:0.000934 94:0.000467 95:0.001401 96:0 97:0.004671 98:0.007473 99:0.001401 100:0.002335 101:0.007473 102:0.000934 103:0.000934 104:0.003737 105:0.000934 106:0.001401 107:0.00327 108:0.003737 109:0.001868 110:0.000467 111:0.002802 112:0.003737 113:0.005605 114:0.001401 115:0.001401 116:0.002802 117:0.001868 118:0.005138 119:0.004671 120:0.001401 121:0.001401 122:0.002335 123:0.000934 124:0.008407 125:0 126:0.002335 127:0.00794 128:0.007006 129:0.016815 130:0.005138 131:0 132:0.00327 133:0.000934 134:0.001401 135:0.003737 136:0.005605 137:0.000467 138:0.000934 139:0.003737 140:0.004671 141:0.01121 142:0.002335 143:0.003737 144:0.002802 145:0.00794 146:0.001401 147:0.006539 148:0.010276 149:0.002802 150:0.006072 151:0 152:0.002335 153:0.001401 154:0.005605 155:0.004671 156:0.006539 157:0.002335 158:0.000934 159:0.014479 160:0.000934 161:0.007006 162:0.002802 163:0.003737 164:0.001868 165:0.000934 166:0.003737 167:0.007473 168:0.000934 169:0.015413 170:0.002335 171:0.002335 172:0.000467 173:0.003737 174:0.012144 175:0.004671 176:0.001401 177:0.003737 178:0.001401 179:0.004671 180:0.002802 181:0.002802 182:0.006072 183:0.002802 184:0.000934 185:0.004671 186:0.008407 187:0.001868 188:0.004671 189:0.004204 190:0.00327 191:0.004204 192:0.002335 193:0.000467 194:0.002802 195:0.010276 196:0.002802 197:0.00327 198:0.001868 199:0.000934 200:0.002335 201:0.002802 202:0.008874 203:0.001868 204:0 205:0 206:0.001401 207:0.004671 208:0.000467 209:0.002335 210:0.004204 211:0.00327 212:0.00327 213:0.002802 214:0.001401 215:0.002802 216:0.008407 217:0.002335 218:0.000467 219:0.007473 220:0.007006 221:0.00327 222:0.000934 223:0 224:0.014946 225:0.000467 226:0.002335 227:0.004204 228:0.002335 229:0.006539 230:0.000467 231:0.002335 232:0.002335 233:0.00327 234:0 235:0.003737 236:0.001401 237:0.001868 238:0.008874 239:0.001401 240:0.002335 241:0.006539 242:0.002802 243:0.000467 244:0.014012 245:0 246:0.007473 247:0.001868 248:0.000934 249:0.00327 250:0.026156 251:0.005605 252:0.020084 253:0.00794 254:0.006072 255:0.00327 
7 0:0 1:0.0062 2:0.004872 3:0.001771 4:0.004872 5:0.003543 6:0.003986 7:0.000886 8:0.005314 9:0.003986 10:0 11:0.001771 12:0.002214 13:0.001771 14:0.003543 15:0.0031 16:0.000886 17:0.002214 18:0.001771 19:0.000886 20:0.002657 21:0.011072 22:0.002214 23:0.001771 24:0.001771 25:0.003986 26:0.002214 27:0.0031 28:0.004872 29:0.002657 30:0.014615 31:0.005314 32:0.008857 33:0.0062 34:0.004429 35:0.001771 36:0.0031 37:0.005757 38:0.001329 39:0.010629 40:0.0031 41:0.002657 42:0 43:0.003543 44:0.010629 45:0.007972 46:0.004872 47:0.010629 48:0.000443 49:0.001771 50:0.004429 51:0.000886 52:0.002657 53:0.004429 54:0.003543 55:0.003543 56:0.001771 57:0.005314 58:0.005757 59:0.003543 60:0.0093 61:0.0031 62:0.004872 63:0.002657 64:0.002657 65:0.000886 66:0.003543 67:0.003543 68:0.005314 69:0.007086 70:0.002657 71:0.004872 72:0.006643 73:0.0031 74:0.005757 75:0.002657 76:0.000886 77:0.003543 78:0.008857 79:0.007086 80:0.000443 81:0.001329 82:0 83:0.000886 84:0.002657 85:0.008857 86:0.000886 87:0.001329 88:0.002214 89:0.000443 90:0.003986 91:0.001771 92:0.001329 93:0.001329 94:0.001771 95:0.0062 96:0.002214 97:0.0031 98:0.009743 99:0.006643 100:0.000886 101:0.000886 102:0.002657 103:0.001771 104:0.004429 105:0.002657 106:0.000886 107:0.002657 108:0.0031 109:0.000886 110:0.000443 111:0.0031 112:0.005314 113:0.001329 114:0.002657 115:0.000443 116:0.007529 117:0.000443 118:0.007529 119:0.001329 120:0.008857 121:0.001771 122:0.004429 123:0.001329 124:0.007086 125:0.0031 126:0.005757 127:0.004429 128:0.009743 129:0.007972 130:0.013729 131:0.002657 132:0.002214 133:0.001771 134:0.001771 135:0.001329 136:0 137:0.008415 138:0.002657 139:0.003543 140:0.002214 141:0.0031 142:0.003986 143:0.000886 144:0.005757 145:0.003986 146:0.003543 147:0.0124 148:0.005314 149:0.009743 150:0.002214 151:0.000443 152:0.0093 153:0.0031 154:0.0031 155:0.002214 156:0.005314 157:0.002657 158:0.004872 159:0.008857 160:0.002657 161:0.003543 162:0.004429 163:0.005757 164:0.003986 165:0.004872 166:0.011515 167:0.009743 168:0.004872 169:0.008415 170:0.003543 171:0.003543 172:0.002214 173:0.001771 174:0.000886 175:0.001771 176:0.0031 177:0.016829 178:0.003986 179:0.001771 180:0 181:0.006643 182:0.001771 183:0.003986 184:0.001771 185:0.001329 186:0.000886 187:0.0031 188:0.004429 189:0.001771 190:0.000443 191:0.001329 192:0.002214 193:0.001329 194:0.0031 195:0.000443 196:0.002657 197:0.003543 198:0.001329 199:0.0031 200:0.0062 201:0.001771 202:0.004429 203:0.001771 204:0.004429 205:0.002214 206:0.004872 207:0.006643 208:0.000443 209:0.001771 210:0.005314 211:0.002657 212:0.002657 213:0.004429 214:0.002214 215:0.0031 216:0.002214 217:0.000443 218:0.002214 219:0.003543 220:0.004429 221:0.005757 222:0.005314 223:0.013286 224:0.005314 225:0.0031 226:0.008857 227:0.012843 228:0.003986 229:0.004872 230:0.001329 231:0.001771 232:0.002214 233:0.003986 234:0.002214 235:0.006643 236:0.002657 237:0.001771 238:0.002657 239:0.001771 240:0.003543 241:0.001329 242:0.003986 243:0.004872 244:0.001771 245:0.007086 246:0.007529 247:0.0062 248:0.002657 249:0.013286 250:0.010186 251:0.002214 252:0.009743 253:0.002657 254:0.0031 255:0.001329 
7 0:0.003436 1:0.003436 2:0.002946 3:0.002946 4:0.002455 5:0.0054 6:0.000491 7:0.000491 8:0.006873 9:0.001473 10:0 11:0.006382 12:0.007855 13:0.000982 14:0.003927 15:0.005891 16:0.001964 17:0.001964 18:0 19:0.003927 20:0.002946 21:0 22:0.000491 23:0.008346 24:0.000982 25:0.003927 26:0.000491 27:0.002455 28:0.000491 29:0.001473 30:0.013255 31:0.003436 32:0.002946 33:0.002946 34:0.001473 35:0.000491 36:0.001473 37:0.001964 38:0.001473 39:0.002946 40:0.000491 41:0.008346 42:0.002946 43:0.000982 44:0.003436 45:0.006873 46:0.004909 47:0.011291 48:0.002946 49:0.003436 50:0.002455 51:0 52:0.003927 53:0.009327 54:0.004418 55:0.005891 56:0.006382 57:0.007364 58:0.000982 59:0.000491 60:0.001964 61:0.003927 62:0.003927 63:0.006873 64:0.003436 65:0.000982 66:0.000982 67:0.001473 68:0.001964 69:0.004418 70:0.006382 71:0.000982 72:0.013746 73:0.001964 74:0.0054 75:0.003436 76:0.002455 77:0.011291 78:0.002455 79:0.001964 80:0.004909 81:0.007855 82:0.009327 83:0.000982 84:0.003927 85:0.001964 86:0.002455 87:0.007855 88:0.002946 89:0.003436 90:0.002946 91:0.002946 92:0.003927 93:0.003436 94:0.002946 95:0.002455 96:0.002946 97:0.005891 98:0.019637 99:0.003927 100:0.0054 101:0.000491 102:0.004418 103:0.003436 104:0.003436 105:0.000491 106:0.001964 107:0.002455 108:0.002946 109:0.002455 110:0.007364 111:0.007364 112:0.005891 113:0.001473 114:0.004418 115:0.000491 116:0.001473 117:0.002946 118:0.003927 119:0.007364 120:0.003436 121:0.002946 122:0.000982 123:0.003927 124:0.009818 125:0.000982 126:0.003436 127:0.0054 128:0.006382 129:0.006382 130:0.002455 131:0.001964 132:0.007855 133:0.001473 134:0.002455 135:0.006382 136:0.003927 137:0.004418 138:0.001964 139:0.000982 140:0.001964 141:0.000982 142:0.004418 143:0.006873 144:0.0054 145:0.0054 146:0.003436 147:0.006873 148:0.011782 149:0.000491 150:0.003927 151:0.002946 152:0.003436 153:0.007364 154:0.001964 155:0.001473 156:0.006873 157:0.009818 158:0.0054 159:0.014237 160:0.009818 161:0.009818 162:0.004418 163:0.0054 164:0.011291 165:0.006873 166:0.011291 167:0.003927 168:0.000491 169:0.019637 170:0.000982 171:0.002455 172:0.002946 173:0.005891 174:0.004418 175:0.000982 176:0.008837 177:0.002455 178:0.002946 179:0.000982 180:0.001473 181:0.003436 182:0.002946 183:0.001964 184:0.002455 185:0.003927 186:0.001964 187:0.000982 188:0.004909 189:0.004418 190:0.003436 191:0.003436 192:0.001473 193:0.001964 194:0.003436 195:0.002455 196:0.0054 197:0.000491 198:0.001473 199:0.005891 200:0.000491 201:0.006382 202:0.004418 203:0.001964 204:0.000491 205:0.000491 206:0.000491 207:0.009818 208:0.002455 209:0.002455 210:0.012273 211:0.003436 212:0.000982 213:0.003927 214:0.004909 215:0.000491 216:0.004418 217:0.000982 218:0.000982 219:0.010309 220:0.001473 221:0.000491 222:0.002455 223:0.003436 224:0.002455 225:0.003927 226:0.001964 227:0.003436 228:0.004909 229:0.000491 230:0.003436 231:0.003436 232:0.001473 233:0.004418 234:0.002946 235:0.0054 236:0.002946 237:0.002455 238:0.000982 239:0.003927 240:0.001473 241:0.002455 242:0.001964 243:0.002946 244:0.002946 245:0.003436 246:0.007855 247:0.003927 248:0.003436 249:0.001473 250:0.008346 251:0.003927 252:0.007855 253:0.006873 254:0.001473 255:0.003927 
7 0:0.000738 1:0.008118 2:0.00738 3:0.011808 4:0.002214 5:0.002214 6:0 7:0.006642 8:0.008118 9:0 10:0.005904 11:0.002214 12:0.00369 13:0.002214 14:0.001476 15:0.01476 16:0 17:0.001476 18:0.006642 19:0.002952 20:0.002952 21:0.000738 22:0.004428 23:0.00369 24:0.004428 25:0.005166 26:0 27:0.006642 28:0.001476 29:0 30:0.000738 31:0.002214 32:0.006642 33:0.004428 34:0.00738 35:0 36:0.001476 37:0.002214 38:0.005166 39:0.002214 40:0.002214 41:0.00369 42:0.002952 43:0.00369 44:0.008118 45:0.005904 46:0.00738 47:0.008856 48:0.00369 49:0.002214 50:0.00738 51:0.000738 52:0.004428 53:0.005166 54:0.005166 55:0.008118 56:0.001476 57:0.009594 58:0 59:0 60:0.002214 61:0.004428 62:0.004428 63:0.001476 64:0.000738 65:0.000738 66:0 67:0 68:0.006642 69:0.004428 70:0.000738 71:0.001476 72:0.005166 73:0.001476 74:0.00738 75:0 76:0.00369 77:0.00738 78:0.004428 79:0.000738 80:0.006642 81:0.00369 82:0.008118 83:0.008118 84:0.005904 85:0.002952 86:0.005166 87:0.010332 88:0.004428 89:0.00369 90:0.005904 91:0.00369 92:0.000738 93:0.00369 94:0.001476 95:0 96:0 97:0.01107 98:0.001476 99:0.002952 100:0.005904 101:0.000738 102:0.002214 103:0.004428 104:0.010332 105:0.004428 106:0.000738 107:0.000738 108:0.001476 109:0.000738 110:0 111:0.001476 112:0.004428 113:0.00369 114:0.01107 115:0.002952 116:0 117:0.008856 118:0.002214 119:0.000738 120:0.001476 121:0 122:0.000738 123:0 124:0.006642 125:0.002214 126:0.002952 127:0 128:0.008856 129:0.008118 130:0.00738 131:0.00369 132:0.002214 133:0.001476 134:0.004428 135:0.001476 136:0.000738 137:0.002214 138:0.002952 139:0.005166 140:0.002952 141:0.002214 142:0.001476 143:0.000738 144:0.000738 145:0.00369 146:0 147:0.00369 148:0.005904 149:0.002952 150:0.00738 151:0.002214 152:0.00369 153:0.005904 154:0 155:0 156:0.015498 157:0.001476 158:0.001476 159:0.008118 160:0 161:0.009594 162:0.001476 163:0.00738 164:0.000738 165:0.00369 166:0.004428 167:0.01107 168:0.002952 169:0.004428 170:0.00369 171:0.005166 172:0.005904 173:0.006642 174:0.001476 175:0.01476 176:0.010332 177:0.000738 178:0.002952 179:0.00369 180:0.004428 181:0 182:0.008118 183:0.002952 184:0.000738 185:0.00369 186:0 187:0.000738 188:0.008118 189:0.002214 190:0.00369 191:0.000738 192:0.001476 193:0 194:0.000738 195:0.005904 196:0.011808 197:0.00369 198:0.000738 199:0.00369 200:0.002214 201:0.008118 202:0.004428 203:0.002952 204:0.001476 205:0.004428 206:0.00369 207:0.008118 208:0 209:0.001476 210:0.00369 211:0.00369 212:0.000738 213:0.010332 214:0.008118 215:0.008118 216:0.00369 217:0.004428 218:0.00369 219:0.005904 220:0.00369 221:0.005904 222:0.00369 223:0.006642 224:0.001476 225:0 226:0.000738 227:0.005166 228:0.000738 229:0.010332 230:0.002952 231:0.001476 232:0.008118 233:0.005166 234:0.001476 235:0.000738 236:0 237:0.000738 238:0.005904 239:0.005166 240:0.002214 241:0.008118 242:0.002214 243:0.002952 244:0.004428 245:0.004428 246:0.008856 247:0.000738 248:0.005166 249:0.006642 250:0.01107 251:0.008118 252:0.004428 253:0.002952 254:0.002952 255:0.011808 
7 0:0.00396 1:0.005279 2:0.00396 3:0.00396 4:0.00044 5:0.00352 6:0.00088 7:0.004839 8:0.009239 9:0 10:0.00352 11:0.004839 12:0.007039 13:0.00352 14:0.00352 15:0.010999 16:0.00088 17:0.00044 18:0.00352 19:0.010559 20:0.006599 21:0.00352 22:0.0022 23:0.011879 24:0.00176 25:0.0022 26:0.00044 27:0.005279 28:0.00132 29:0.00352 30:0.006159 31:0.00132 32:0.00176 33:0.004399 34:0.00396 35:0.00132 36:0.008359 37:0 38:0.00132 39:0.00176 40:0.00088 41:0.006159 42:0.005279 43:0.00132 44:0.00264 45:0.00044 46:0.008359 47:0.0022 48:0.014958 49:0.005279 50:0.00088 51:0.00044 52:0.005279 53:0.006599 54:0.00088 55:0.0022 56:0.00132 57:0.005279 58:0.00176 59:0.00088 60:0.0022 61:0.004399 62:0.00132 63:0.00396 64:0.00308 65:0.00264 66:0 67:0.004399 68:0.00132 69:0.00308 70:0.00176 71:0.00044 72:0.00352 73:0.00088 74:0.007039 75:0.00308 76:0.00088 77:0.005719 78:0.0022 79:0.0022 80:0.005719 81:0.010559 82:0.0022 83:0.004399 84:0.006599 85:0.00176 86:0.005719 87:0.006599 88:0.00308 89:0.00088 90:0.00088 91:0.00044 92:0.017598 93:0.00264 94:0 95:0.00308 96:0.00044 97:0.00264 98:0.004839 99:0.00308 100:0.006599 101:0.010999 102:0.0022 103:0.00176 104:0.0022 105:0.008799 106:0.00396 107:0.00352 108:0.00352 109:0.0022 110:0.005279 111:0.00132 112:0.00396 113:0.00264 114:0.008799 115:0 116:0.00088 117:0.00264 118:0.00176 119:0.010119 120:0.00132 121:0.006159 122:0.00176 123:0.00132 124:0.00176 125:0.00044 126:0.005719 127:0.00176 128:0.010559 129:0.00352 130:0.009239 131:0.00176 132:0.004839 133:0.00132 134:0.008799 135:0.00396 136:0.00352 137:0.00088 138:0.0022 139:0.0022 140:0.00264 141:0.005279 142:0.00044 143:0.004839 144:0.00132 145:0.0022 146:0.00264 147:0.008359 148:0.00308 149:0.00088 150:0.014078 151:0.00088 152:0.00352 153:0.007479 154:0.004839 155:0.009679 156:0.008799 157:0.0022 158:0.00308 159:0.008799 160:0.00264 161:0.00396 162:0.005719 163:0.004399 164:0.00176 165:0.007919 166:0.00264 167:0.00264 168:0.00176 169:0.011879 170:0.012319 171:0.00264 172:0.004839 173:0.00264 174:0.00264 175:0.00264 176:0.008359 177:0.00176 178:0.00044 179:0.006159 180:0.007039 181:0.00308 182:0.00308 183:0.0022 184:0.00396 185:0.005279 186:0.004399 187:0 188:0.010559 189:0.00176 190:0.010559 191:0.008359 192:0.004839 193:0.00044 194:0.00396 195:0.004399 196:0.00264 197:0.00176 198:0.00396 199:0.00044 200:0.00132 201:0.004839 202:0.006599 203:0.004399 204:0.00264 205:0.0022 206:0.00132 207:0.004399 208:0.00308 209:0.00352 210:0.00352 211:0.00088 212:0.00264 213:0.00308 214:0.00308 215:0.0022 216:0.00176 217:0.006159 218:0.007479 219:0.006159 220:0.005279 221:0.00308 222:0.0022 223:0.00132 224:0.00308 225:0.00044 226:0.00264 227:0.004399 228:0.0022 229:0.00132 230:0.006599 231:0.00132 232:0.004399 233:0.004399 234:0.00176 235:0.006159 236:0.0022 237:0.00264 238:0.00176 239:0.004839 240:0.00308 241:0.006599 242:0.00176 243:0.00132 244:0.011439 245:0.00176 246:0.00308 247:0.008799 248:0.004399 249:0.00088 250:0.00396 251:0.005279 252:0.009679 253:0.008799 254:0.00396 255:0.00396 
7 0:0.00506 1:0.0046 2:0.00046 3:0.00138 4:0.00276 5:0.00322 6:0.0023 7:0.00368 8:0.00368 9:0 10:0.00184 11:0.00368 12:0.00322 13:0.00276 14:0.00552 15:0.00276 16:0 17:0.00276 18:0.00644 19:0.00046 20:0.00046 21:0.00184 22:0.00552 23:0.00598 24:0.00368 25:0.0023 26:0.00046 27:0.00782 28:0.00598 29:0.00644 30:0.00736 31:0.00092 32:0.00552 33:0.0069 34:0.00276 35:0.00046 36:0.00138 37:0 38:0.00184 39:0.0069 40:0 41:0.01058 42:0.00322 43:0.00046 44:0.00736 45:0.00736 46:0.00874 47:0.01196 48:0.00782 49:0.0069 50:0.00138 51:0.00046 52:0.00138 53:0.00598 54:0.00828 55:0.00184 56:0.00552 57:0.0046 58:0 59:0.00138 60:0.00092 61:0.00184 62:0 63:0.00552 64:0.00368 65:0.00092 66:0.00092 67:0.0023 68:0.00552 69:0.00506 70:0.00414 71:0.00092 72:0.00782 73:0.00046 74:0.0046 75:0.00506 76:0.00736 77:0.00782 78:0 79:0.00184 80:0.00138 81:0.01058 82:0.00276 83:0.00184 84:0.00736 85:0.00184 86:0.00276 87:0.0092 88:0.00368 89:0.0046 90:0.0023 91:0.00184 92:0.0092 93:0.00552 94:0.00092 95:0 96:0 97:0.00368 98:0.013339 99:0 100:0.00138 101:0.00368 102:0.00322 103:0.00322 104:0.00276 105:0.015639 106:0.0023 107:0.00184 108:0.00138 109:0.00092 110:0.00046 111:0.00184 112:0.00092 113:0.0046 114:0.0046 115:0.00046 116:0.00092 117:0.0069 118:0.00414 119:0.00276 120:0.00184 121:0.0069 122:0 123:0.00184 124:0.0092 125:0.00322 126:0 127:0.00276 128:0.00506 129:0.00184 130:0.0115 131:0 132:0.00506 133:0.00092 134:0.00874 135:0.00828 136:0.00368 137:0.00276 138:0.00184 139:0.00414 140:0.00276 141:0.00782 142:0.00322 143:0.00736 144:0.0023 145:0.0023 146:0.00506 147:0.0046 148:0.0069 149:0.00046 150:0.0046 151:0.00184 152:0.00138 153:0.017019 154:0.00276 155:0.0069 156:0.00874 157:0.00138 158:0.00598 159:0.00552 160:0.00322 161:0.0046 162:0.00598 163:0.0069 164:0.00368 165:0.013339 166:0.00368 167:0.0046 168:0.00092 169:0.0046 170:0.00092 171:0.00092 172:0.00276 173:0.01058 174:0.00368 175:0.00138 176:0.00874 177:0.00598 178:0.00046 179:0.00322 180:0.00414 181:0.0023 182:0.00276 183:0.00092 184:0.00414 185:0.00368 186:0.00322 187:0.00138 188:0.00598 189:0.0023 190:0.00138 191:0.00368 192:0.0023 193:0.00046 194:0.00046 195:0 196:0.00828 197:0.00322 198:0.00276 199:0 200:0.00184 201:0.00322 202:0.00138 203:0.00322 204:0.01012 205:0 206:0.00506 207:0.0092 208:0.00046 209:0.00184 210:0.016559 211:0.00276 212:0.00598 213:0.00506 214:0.0023 215:0.0046 216:0.00092 217:0.00046 218:0.017019 219:0.00506 220:0 221:0.00276 222:0.0023 223:0.00184 224:0.00138 225:0.00552 226:0.00368 227:0.0023 228:0.00138 229:0.00368 230:0.00414 231:0.00184 232:0.00552 233:0.00874 234:0 235:0.017479 236:0 237:0.00322 238:0.0023 239:0.00414 240:0 241:0.00276 242:0.00368 243:0.00138 244:0.0046 245:0.00184 246:0.0115 247:0.00598 248:0.00092 249:0.00782 250:0.00322 251:0.0023 252:0.0069 253:0.00644 254:0.00552 255:0.00414 
7 0:0.005984 1:0.001056 2:0.004576 3:0.002112 4:0.002816 5:0.002816 6:0.001056 7:0 8:0.003872 9:0.000352 10:0.002464 11:0.003872 12:0.004224 13:0.002816 14:0.005632 15:0.001408 16:0.000704 17:0.00176 18:0.008096 19:0.002112 20:0.00352 21:0.002112 22:0.00176 23:0.003168 24:0.003872 25:0.003872 26:0.002112 27:0.008096 28:0.002464 29:0.006336 30:0.010208 31:0.002112 32:0.004928 33:0.003872 34:0.00528 35:0.002464 36:0.00528 37:0.000704 38:0.00176 39:0.002112 40:0.001408 41:0.006688 42:0.001408 43:0.002464 44:0.008448 45:0.003168 46:0.00704 47:0.008096 48:0.00176 49:0.002464 50:0.003168 51:0.002816 52:0.001056 53:0.004576 54:0.00528 55:0.00176 56:0.00352 57:0.005632 58:0 59:0.002816 60:0.000704 61:0.00704 62:0.001408 63:0.004224 64:0.012672 65:0.002816 66:0 67:0.002112 68:0.003872 69:0.006688 70:0.008448 71:0.002112 72:0.008096 73:0.001056 74:0.008448 75:0.00352 76:0.003168 77:0.006688 78:0.00528 79:0.000352 80:0.000704 81:0.003168 82:0.00352 83:0.000704 84:0.004576 85:0.00528 86:0.003872 87:0.005984 88:0.014432 89:0.002816 90:0.00352 91:0.00176 92:0.001408 93:0.003168 94:0.002816 95:0.00176 96:0.003872 97:0.002816 98:0.008096 99:0.001056 100:0.007392 101:0.001408 102:0.002816 103:0.002464 104:0.004224 105:0.006336 106:0.006688 107:0.009504 108:0.001408 109:0.002112 110:0.00176 111:0.003872 112:0.003168 113:0.004576 114:0.003168 115:0.000704 116:0.000352 117:0.006688 118:0.004576 119:0.003168 120:0.004576 121:0.004576 122:0.002816 123:0.00176 124:0.010208 125:0.011968 126:0.004576 127:0.003872 128:0.004928 129:0.003168 130:0.005984 131:0.000352 132:0.003168 133:0.00352 134:0.00352 135:0.00176 136:0.002464 137:0.008448 138:0.001056 139:0.002112 140:0.002816 141:0.001056 142:0.000352 143:0.00352 144:0.001408 145:0.004928 146:0.001408 147:0.00704 148:0.009504 149:0.001408 150:0.000704 151:0.008096 152:0.004576 153:0.005632 154:0.002464 155:0.00176 156:0.005984 157:0.000352 158:0.001056 159:0.003872 160:0.00176 161:0.006688 162:0.003872 163:0.007744 164:0.004928 165:0.009504 166:0.008096 167:0.003168 168:0.004224 169:0.00528 170:0.001056 171:0.004576 172:0.002464 173:0.009856 174:0.001408 175:0.001056 176:0.00176 177:0.00176 178:0 179:0.003872 180:0.001056 181:0.00176 182:0.000704 183:0.000704 184:0.004928 185:0.003872 186:0.00352 187:0 188:0.003872 189:0.003168 190:0.001056 191:0.000352 192:0.006336 193:0 194:0.002464 195:0.003872 196:0.008096 197:0.004576 198:0.006336 199:0.002464 200:0.00352 201:0.003872 202:0.00352 203:0.005632 204:0.006336 205:0.000704 206:0.008096 207:0.007392 208:0.001056 209:0.005984 210:0.003872 211:0.008096 212:0.002112 213:0.002816 214:0.002112 215:0.002464 216:0.003872 217:0.004576 218:0.00352 219:0.006688 220:0.004224 221:0.009856 222:0.002464 223:0.00352 224:0.009504 225:0.00528 226:0.002816 227:0.005632 228:0.001408 229:0.00176 230:0.007392 231:0.006688 232:0.004576 233:0.006336 234:0.008448 235:0.006336 236:0.001056 237:0.006336 238:0.002816 239:0.014784 240:0.004928 241:0.002112 242:0.004928 243:0 244:0.001056 245:0.001408 246:0.006336 247:0.005632 248:0.002816 249:0.003168 250:0.009504 251:0.000352 252:0.007392 253:0.00176 254:0.004576 255:0.003872 
7 0:0 1:0.002911 2:0.001456 3:0 4:0.001456 5:0.001456 6:0.002911 7:0.007278 8:0 9:0 10:0 11:0.016012 12:0.010189 13:0.005822 14:0.007278 15:0.010189 16:0.001456 17:0.002911 18:0.002911 19:0 20:0 21:0 22:0.001456 23:0.008734 24:0 25:0 26:0.004367 27:0 28:0 29:0.001456 30:0.010189 31:0.008734 32:0.002911 33:0.005822 34:0.001456 35:0 36:0 37:0.005822 38:0.005822 39:0.0131 40:0.001456 41:0.016012 42:0.002911 43:0.001456 44:0.005822 45:0.005822 46:0.001456 47:0 48:0 49:0.011645 50:0 51:0.001456 52:0 53:0.002911 54:0 55:0 56:0.016012 57:0.001456 58:0.001456 59:0 60:0.001456 61:0.005822 62:0 63:0.016012 64:0.004367 65:0 66:0.007278 67:0.010189 68:0.005822 69:0.004367 70:0.011645 71:0 72:0.001456 73:0.005822 74:0.001456 75:0 76:0.007278 77:0 78:0.001456 79:0.002911 80:0.008734 81:0.010189 82:0.001456 83:0 84:0.005822 85:0 86:0.001456 87:0.004367 88:0.005822 89:0.011645 90:0.007278 91:0.010189 92:0 93:0 94:0 95:0.001456 96:0 97:0 98:0.002911 99:0 100:0.001456 101:0 102:0.029112 103:0.011645 104:0.004367 105:0.007278 106:0 107:0.004367 108:0.002911 109:0.004367 110:0.001456 111:0 112:0.004367 113:0 114:0.010189 115:0 116:0 117:0.005822 118:0.001456 119:0.001456 120:0.002911 121:0.001456 122:0 123:0.0131 124:0.008734 125:0.002911 126:0.0131 127:0.0131 128:0 129:0 130:0 131:0 132:0.0131 133:0 134:0.002911 135:0.010189 136:0.007278 137:0.002911 138:0.001456 139:0 140:0 141:0 142:0 143:0 144:0.001456 145:0.001456 146:0.010189 147:0 148:0 149:0.001456 150:0.001456 151:0 152:0 153:0.021834 154:0.004367 155:0.001456 156:0.005822 157:0.004367 158:0.004367 159:0 160:0.011645 161:0.005822 162:0.001456 163:0.002911 164:0.011645 165:0.008734 166:0.001456 167:0.0131 168:0.001456 169:0.010189 170:0.001456 171:0 172:0 173:0.017467 174:0.001456 175:0 176:0 177:0.007278 178:0 179:0 180:0 181:0 182:0.005822 183:0.004367 184:0.002911 185:0.007278 186:0 187:0 188:0.004367 189:0 190:0.005822 191:0.008734 192:0.001456 193:0.004367 194:0.007278 195:0.002911 196:0.002911 197:0.005822 198:0 199:0 200:0.001456 201:0.0131 202:0.001456 203:0 204:0.001456 205:0.020378 206:0 207:0.004367 208:0 209:0.001456 210:0.010189 211:0.004367 212:0 213:0.001456 214:0 215:0.001456 216:0 217:0 218:0.017467 219:0.007278 220:0 221:0 222:0.008734 223:0 224:0.004367 225:0.008734 226:0.001456 227:0 228:0.005822 229:0 230:0.005822 231:0.002911 232:0 233:0.001456 234:0 235:0.008734 236:0.004367 237:0.001456 238:0.002911 239:0.007278 240:0.005822 241:0 242:0.001456 243:0.014556 244:0.001456 245:0.001456 246:0 247:0.010189 248:0 249:0.0131 250:0.001456 251:0.020378 252:0.001456 253:0.002911 254:0.001456 255:0 
7 0:0 1:0.0139 2:0.004633 3:0.002317 4:0.003089 5:0.002317 6:0.006178 7:0.006178 8:0.006178 9:0 10:0.001544 11:0.001544 12:0.003089 13:0.002317 14:0.005405 15:0.007722 16:0.002317 17:0.001544 18:0.001544 19:0 20:0.007722 21:0.001544 22:0.001544 23:0.000772 24:0.002317 25:0.001544 26:0.006178 27:0.001544 28:0.00695 29:0.002317 30:0.016988 31:0.004633 32:0.000772 33:0.003089 34:0.003089 35:0.001544 36:0.004633 37:0.000772 38:0.000772 39:0.002317 40:0.006178 41:0.001544 42:0.002317 43:0.001544 44:0.000772 45:0.012355 46:0.002317 47:0.006178 48:0.005405 49:0.002317 50:0.000772 51:0.000772 52:0.000772 53:0.009266 54:0.000772 55:0.007722 56:0.006178 57:0.005405 58:0.006178 59:0.003089 60:0.001544 61:0.003861 62:0.004633 63:0.003861 64:0.003089 65:0.000772 66:0 67:0.004633 68:0.003861 69:0 70:0.003089 71:0.003861 72:0.004633 73:0.002317 74:0.003861 75:0.003861 76:0.000772 77:0.003861 78:0.001544 79:0 80:0.004633 81:0.001544 82:0 83:0.000772 84:0.000772 85:0.001544 86:0.003861 87:0.003861 88:0.00695 89:0.002317 90:0.001544 91:0.000772 92:0.012355 93:0 94:0.001544 95:0.003861 96:0.001544 97:0.003089 98:0.013127 99:0.000772 100:0.007722 101:0.000772 102:0.005405 103:0.00695 104:0.003089 105:0.002317 106:0 107:0.003089 108:0.003861 109:0.003861 110:0.005405 111:0 112:0.001544 113:0 114:0.002317 115:0 116:0.000772 117:0.005405 118:0.007722 119:0.004633 120:0 121:0.003861 122:0.004633 123:0.000772 124:0.003861 125:0.00695 126:0.004633 127:0.003861 128:0.003089 129:0.007722 130:0.004633 131:0.000772 132:0.001544 133:0 134:0.003089 135:0.005405 136:0.001544 137:0.013127 138:0 139:0 140:0.000772 141:0.002317 142:0.001544 143:0.006178 144:0.013127 145:0.012355 146:0.001544 147:0.005405 148:0.006178 149:0 150:0.005405 151:0.000772 152:0.002317 153:0.005405 154:0.016216 155:0.003089 156:0.000772 157:0.000772 158:0.016216 159:0.033977 160:0.003861 161:0.003861 162:0.040154 163:0.000772 164:0.001544 165:0.006178 166:0.007722 167:0.004633 168:0.001544 169:0.008494 170:0.004633 171:0.00695 172:0.001544 173:0.004633 174:0.001544 175:0.003089 176:0.002317 177:0.008494 178:0.005405 179:0.001544 180:0 181:0.00695 182:0.000772 183:0.003089 184:0.000772 185:0.000772 186:0.008494 187:0.001544 188:0 189:0 190:0.007722 191:0.002317 192:0.001544 193:0.003861 194:0.001544 195:0.000772 196:0.001544 197:0.002317 198:0.000772 199:0.003089 200:0.004633 201:0.001544 202:0.003861 203:0.003089 204:0.005405 205:0.021622 206:0.004633 207:0.005405 208:0.003861 209:0.000772 210:0.009266 211:0.003861 212:0.000772 213:0.000772 214:0.003861 215:0.000772 216:0.000772 217:0 218:0.004633 219:0.005405 220:0.004633 221:0 222:0.003089 223:0 224:0.004633 225:0.002317 226:0.010811 227:0.000772 228:0 229:0.000772 230:0.000772 231:0.003089 232:0.004633 233:0.001544 234:0.004633 235:0.003089 236:0.003861 237:0 238:0.002317 239:0.007722 240:0.001544 241:0 242:0.009266 243:0.003861 244:0.001544 245:0.001544 246:0.003089 247:0.006178 248:0.003089 249:0.001544 250:0.0139 251:0.0139 252:0.015444 253:0.000772 254:0.001544 255:0 
7 0:0.020615 1:0.005834 2:0.008168 3:0.003112 4:0.003112 5:0.005445 6:0.001945 7:0.00389 8:0.008557 9:0.002723 10:0.002723 11:0.00389 12:0.006612 13:0.001556 14:0.002723 15:0.003501 16:0.001945 17:0.000778 18:0.001556 19:0.004278 20:0.007001 21:0.004667 22:0.004278 23:0.005445 24:0.000778 25:0.004667 26:0.002334 27:0.00739 28:0.003501 29:0.004667 30:0.003501 31:0.003112 32:0.003112 33:0.004667 34:0.005834 35:0 36:0.00739 37:0.002723 38:0.001167 39:0 40:0.001556 41:0.001167 42:0.00389 43:0.001556 44:0.002334 45:0.002334 46:0.009335 47:0.008946 48:0.006223 49:0.004278 50:0.001167 51:0.001167 52:0.006223 53:0.00389 54:0.028394 55:0.00389 56:0.002334 57:0.009335 58:0 59:0.000389 60:0 61:0.00389 62:0.001167 63:0.003112 64:0.002723 65:0.001556 66:0 67:0.003501 68:0 69:0.002334 70:0.005056 71:0.001945 72:0.009724 73:0.001556 74:0.01128 75:0.000389 76:0.000778 77:0.005445 78:0.000778 79:0.001556 80:0.008168 81:0.007001 82:0.005834 83:0.007001 84:0.005445 85:0.001945 86:0.002334 87:0.006612 88:0.001167 89:0.000778 90:0.001556 91:0.002334 92:0.002723 93:0.004667 94:0.002723 95:0.004278 96:0.000778 97:0.005445 98:0.00389 99:0.005445 100:0.004278 101:0.002334 102:0.003501 103:0.006612 104:0.003501 105:0.001556 106:0.001556 107:0.002723 108:0.004278 109:0.001167 110:0.002723 111:0.001167 112:0.001556 113:0.00389 114:0.003112 115:0 116:0.000778 117:0.000389 118:0.008168 119:0.002334 120:0.003501 121:0.004278 122:0.00389 123:0.003112 124:0.002723 125:0.001556 126:0.003501 127:0.005056 128:0.002334 129:0.006223 130:0.00389 131:0.001945 132:0.00389 133:0.000389 134:0.005834 135:0.00389 136:0.001945 137:0.008557 138:0.003112 139:0.00389 140:0.003112 141:0.005056 142:0.001945 143:0.007001 144:0.003112 145:0.002334 146:0.001556 147:0.007779 148:0.008168 149:0.005445 150:0.01128 151:0 152:0.000778 153:0.001556 154:0.002334 155:0.004667 156:0.004278 157:0.001556 158:0.006223 159:0.008946 160:0.001167 161:0.007001 162:0.005056 163:0.001945 164:0.000389 165:0.004667 166:0.009724 167:0.006612 168:0.001945 169:0.006612 170:0.007779 171:0.008557 172:0.004667 173:0.001945 174:0.007001 175:0.002723 176:0.00389 177:0.005834 178:0.000389 179:0.003112 180:0.003501 181:0.005834 182:0.004278 183:0.003112 184:0.003112 185:0.005834 186:0.002723 187:0.002723 188:0.005445 189:0.001945 190:0.002723 191:0.007779 192:0.002334 193:0 194:0.00389 195:0.005445 196:0.00389 197:0.003501 198:0.003112 199:0.005056 200:0.001167 201:0.001945 202:0.011669 203:0.003112 204:0.002334 205:0.001556 206:0.005056 207:0.007001 208:0.000778 209:0.002334 210:0.001556 211:0.003112 212:0.00389 213:0.000778 214:0.004278 215:0.001945 216:0.005445 217:0.003501 218:0.002334 219:0.005445 220:0.009724 221:0.004667 222:0.00389 223:0.001167 224:0.005445 225:0.002723 226:0.002723 227:0.001945 228:0.001167 229:0.004667 230:0.003501 231:0.002723 232:0.000778 233:0.001556 234:0.005834 235:0.00389 236:0.001945 237:0.000778 238:0.001945 239:0.000389 240:0.000778 241:0.006223 242:0.010891 243:0.001167 244:0.002723 245:0.001167 246:0.005445 247:0.002334 248:0.002334 249:0.001556 250:0.015947 251:0.005834 252:0.015169 253:0.004278 254:0.005445 255:0 
7 0:0.003315 1:0.003867 2:0.00663 3:0.00221 4:0.003867 5:0.00442 6:0 7:0.001657 8:0.004972 9:0.002762 10:0.00221 11:0.002762 12:0.005525 13:0.00221 14:0.001657 15:0.001657 16:0.00221 17:0.002762 18:0.007735 19:0.001105 20:0.001657 21:0.005525 22:0.002762 23:0.00221 24:0.00221 25:0.006077 26:0.003315 27:0.002762 28:0.00884 29:0 30:0.00442 31:0.003867 32:0.004972 33:0.008287 34:0 35:0.009392 36:0.005525 37:0.003315 38:0.00221 39:0.003315 40:0.001657 41:0.00442 42:0 43:0.00442 44:0.001105 45:0.00884 46:0.002762 47:0.01989 48:0.001657 49:0.002762 50:0.00884 51:0.001105 52:0.001105 53:0.006077 54:0.001657 55:0.006077 56:0.001657 57:0.009392 58:0.00442 59:0 60:0.003867 61:0.005525 62:0.001657 63:0.002762 64:0.00221 65:0.001105 66:0.008287 67:0.001105 68:0.025414 69:0.003867 70:0.00221 71:0.006077 72:0.009392 73:0.00221 74:0.006077 75:0.001105 76:0.003315 77:0.007735 78:0.004972 79:0.001657 80:0.008287 81:0.00442 82:0.003867 83:0.001657 84:0.000552 85:0.00442 86:0 87:0.003867 88:0.003315 89:0.00221 90:0.001657 91:0.001657 92:0.002762 93:0.001105 94:0.016022 95:0.009945 96:0.020442 97:0.003867 98:0.004972 99:0.001105 100:0.009392 101:0.000552 102:0.005525 103:0.002762 104:0.002762 105:0.00663 106:0.002762 107:0.002762 108:0.003867 109:0.004972 110:0.006077 111:0.003315 112:0.003315 113:0.002762 114:0.001657 115:0.003315 116:0.000552 117:0.001657 118:0.008287 119:0.00221 120:0.003867 121:0 122:0.007735 123:0.006077 124:0.00442 125:0.00663 126:0.001657 127:0 128:0.005525 129:0.003315 130:0.005525 131:0.003315 132:0.002762 133:0.002762 134:0.003867 135:0.001657 136:0.002762 137:0.003315 138:0.00221 139:0.000552 140:0.000552 141:0 142:0.002762 143:0.004972 144:0.014917 145:0.00884 146:0.001657 147:0.008287 148:0.00442 149:0.004972 150:0.000552 151:0.000552 152:0.003867 153:0.003315 154:0.00442 155:0.001657 156:0.004972 157:0.002762 158:0.004972 159:0.005525 160:0.000552 161:0.003315 162:0.003315 163:0.003867 164:0.004972 165:0.000552 166:0.010497 167:0.000552 168:0.004972 169:0.001657 170:0.00442 171:0.012155 172:0.001657 173:0.002762 174:0.003315 175:0.003315 176:0.006077 177:0.003867 178:0.003315 179:0.00663 180:0.000552 181:0.012707 182:0.00221 183:0.001105 184:0 185:0.001657 186:0.00221 187:0.005525 188:0.005525 189:0.001657 190:0 191:0.001105 192:0.001105 193:0.002762 194:0.001105 195:0.002762 196:0.009945 197:0.002762 198:0.000552 199:0 200:0.00442 201:0.00221 202:0.007735 203:0 204:0 205:0.00221 206:0.00663 207:0.00663 208:0.001657 209:0.000552 210:0.007735 211:0.00442 212:0.00221 213:0.001657 214:0.006077 215:0.000552 216:0.00442 217:0 218:0.00221 219:0.006077 220:0.00663 221:0.008287 222:0.011602 223:0.001105 224:0.001657 225:0.00442 226:0.001105 227:0.002762 228:0.001105 229:0.00221 230:0.002762 231:0.001657 232:0.001657 233:0.002762 234:0.003867 235:0.002762 236:0.002762 237:0.00221 238:0.003867 239:0.004972 240:0.003315 241:0.000552 242:0.012707 243:0.003315 244:0.000552 245:0.00884 246:0.009392 247:0.000552 248:0.001657 249:0.00442 250:0.004972 251:0.003867 252:0.008287 253:0.001105 254:0.003315 255:0.002762 
