svm_type c_svc
kernel_type rbf
gamma 0.00392157
nr_class 2
total_sv 1110
rho 1.00412
label 1 -1
probA -3392
probB -3389.44
nr_sv 185 925
SV
5 0:0 1:0 2:0.002315 3:0 4:0.018519 5:0.001157 6:0.018519 7:0.00463 8:0 9:0.001157 10:0 11:0 12:0.003472 13:0.002315 14:0 15:0.015046 16:0.008102 17:0.001157 18:0 19:0.001157 20:0 21:0.018519 22:0.006944 23:0.009259 24:0.001157 25:0 26:0.00463 27:0 28:0.005787 29:0.002315 30:0.002315 31:0.001157 32:0.001157 33:0.005787 34:0.005787 35:0.008102 36:0.003472 37:0.011574 38:0.002315 39:0.001157 40:0.001157 41:0 42:0 43:0.009259 44:0.003472 45:0 46:0.003472 47:0 48:0.001157 49:0.002315 50:0.003472 51:0 52:0.001157 53:0 54:0 55:0.001157 56:0.001157 57:0.003472 58:0.053241 59:0.003472 60:0.030093 61:0 62:0.00463 63:0.001157 64:0.001157 65:0 66:0.030093 67:0.020833 68:0.00463 69:0.002315 70:0.003472 71:0 72:0.012731 73:0.005787 74:0.009259 75:0.008102 76:0.001157 77:0 78:0.012731 79:0.027778 80:0 81:0.006944 82:0.001157 83:0 84:0.003472 85:0.009259 86:0 87:0.005787 88:0.002315 89:0.003472 90:0.002315 91:0.003472 92:0.005787 93:0.001157 94:0.001157 95:0.010417 96:0.002315 97:0 98:0.002315 99:0.015046 100:0 101:0.001157 102:0 103:0.002315 104:0.001157 105:0.001157 106:0 107:0.00463 108:0 109:0.001157 110:0.001157 111:0.017361 112:0.003472 113:0.001157 114:0.015046 115:0.005787 116:0.010417 117:0 118:0.003472 119:0.001157 120:0.009259 121:0.00463 122:0.006944 123:0 124:0.003472 125:0.002315 126:0.002315 127:0 128:0.006944 129:0 130:0.002315 131:0.008102 132:0.011574 133:0.001157 134:0.003472 135:0 136:0.001157 137:0.001157 138:0.005787 139:0.003472 140:0 141:0.001157 142:0.019676 143:0.020833 144:0.009259 145:0.002315 146:0 147:0 148:0.001157 149:0.001157 150:0.001157 151:0 152:0.010417 153:0 154:0.012731 155:0 156:0 157:0.006944 158:0 159:0.001157 160:0 161:0.002315 162:0 163:0.002315 164:0 165:0.001157 166:0.001157 167:0.003472 168:0.005787 169:0 170:0 171:0 172:0.00463 173:0.003472 174:0 175:0.002315 176:0.00463 177:0.002315 178:0.003472 179:0.001157 180:0 181:0.003472 182:0 183:0 184:0.005787 185:0.001157 186:0.005787 187:0.00463 188:0.00463 189:0.001157 190:0.001157 191:0.002315 192:0 193:0.020833 194:0.005787 195:0.002315 196:0.00463 197:0.002315 198:0.001157 199:0.013889 200:0.023148 201:0 202:0.003472 203:0 204:0.00463 205:0.009259 206:0 207:0 208:0.001157 209:0 210:0 211:0.002315 212:0.013889 213:0.001157 214:0 215:0 216:0 217:0.001157 218:0 219:0.006944 220:0.006944 221:0.00463 222:0.001157 223:0.001157 224:0 225:0 226:0 227:0.006944 228:0 229:0.002315 230:0 231:0.001157 232:0 233:0.003472 234:0 235:0 236:0.003472 237:0 238:0 239:0.003472 240:0.002315 241:0 242:0.002315 243:0 244:0.002315 245:0.002315 246:0.009259 247:0.001157 248:0 249:0.001157 250:0.002315 251:0.005787 252:0.003472 253:0 254:0.001157 255:0.003472 
5 0:0 1:0 2:0.00487 3:0.001623 4:0.025974 5:0.008117 6:0.016234 7:0.00487 8:0.003247 9:0.017857 10:0 11:0.001623 12:0.001623 13:0.003247 14:0 15:0.006494 16:0.016234 17:0.003247 18:0 19:0 20:0.001623 21:0.045455 22:0.016234 23:0 24:0.001623 25:0.008117 26:0.003247 27:0 28:0.006494 29:0 30:0 31:0.006494 32:0 33:0.00487 34:0 35:0.008117 36:0.012987 37:0.016234 38:0 39:0.001623 40:0 41:0 42:0 43:0.012987 44:0 45:0.00487 46:0 47:0 48:0 49:0 50:0.001623 51:0 52:0 53:0.003247 54:0.003247 55:0 56:0 57:0.003247 58:0.008117 59:0 60:0.032468 61:0.001623 62:0 63:0.001623 64:0 65:0 66:0.001623 67:0.00487 68:0.001623 69:0.029221 70:0.00487 71:0.003247 72:0.003247 73:0.006494 74:0.008117 75:0.003247 76:0.001623 77:0.00487 78:0.00487 79:0.019481 80:0.001623 81:0.003247 82:0 83:0 84:0 85:0.003247 86:0.001623 87:0.00487 88:0 89:0 90:0 91:0 92:0.001623 93:0.001623 94:0 95:0.019481 96:0 97:0.001623 98:0 99:0.00487 100:0 101:0 102:0.001623 103:0.012987 104:0.00487 105:0 106:0 107:0 108:0.006494 109:0.001623 110:0.001623 111:0 112:0.01461 113:0 114:0.001623 115:0 116:0.001623 117:0.001623 118:0.008117 119:0.001623 120:0.008117 121:0 122:0.032468 123:0.00487 124:0 125:0 126:0 127:0.001623 128:0.00487 129:0 130:0.003247 131:0 132:0 133:0.003247 134:0.001623 135:0 136:0 137:0 138:0.001623 139:0.001623 140:0.012987 141:0.008117 142:0 143:0 144:0.038961 145:0 146:0 147:0.006494 148:0.003247 149:0.006494 150:0 151:0 152:0 153:0 154:0.006494 155:0.008117 156:0.001623 157:0.008117 158:0.003247 159:0 160:0.021104 161:0.001623 162:0.008117 163:0.008117 164:0 165:0.001623 166:0.001623 167:0 168:0.01461 169:0.003247 170:0.008117 171:0.001623 172:0.001623 173:0 174:0.001623 175:0.001623 176:0.003247 177:0.001623 178:0.003247 179:0 180:0 181:0.00974 182:0 183:0 184:0.001623 185:0.00487 186:0.003247 187:0.00487 188:0 189:0.001623 190:0 191:0.001623 192:0.011364 193:0.006494 194:0.003247 195:0.001623 196:0.001623 197:0.001623 198:0 199:0 200:0.019481 201:0.001623 202:0.001623 203:0 204:0.001623 205:0.00974 206:0 207:0.003247 208:0.001623 209:0 210:0 211:0 212:0.008117 213:0 214:0 215:0.001623 216:0 217:0 218:0 219:0.012987 220:0.011364 221:0 222:0.003247 223:0 224:0.001623 225:0.001623 226:0.001623 227:0 228:0.001623 229:0.003247 230:0 231:0.003247 232:0.001623 233:0.001623 234:0 235:0.001623 236:0.003247 237:0.001623 238:0 239:0 240:0.034091 241:0 242:0.00487 243:0.001623 244:0 245:0.008117 246:0.001623 247:0.001623 248:0.00487 249:0.001623 250:0.001623 251:0.001623 252:0.001623 253:0.011364 254:0 255:0.001623 
5 0:0.000507 1:0.008118 2:0.012177 3:0.002029 4:0.004059 5:0.005581 6:0 7:0.002029 8:0.003551 9:0.004566 10:0.001522 11:0.003044 12:0.003044 13:0.002537 14:0.002029 15:0.004566 16:0.002029 17:0.007103 18:0.000507 19:0.003551 20:0.004566 21:0.000507 22:0.001522 23:0.001015 24:0.002029 25:0.003551 26:0.007103 27:0.004059 28:0.001015 29:0.005581 30:0.001522 31:0.000507 32:0.003551 33:0.003551 34:0.005581 35:0.002029 36:0.008625 37:0.004059 38:0.008118 39:0.000507 40:0.005581 41:0.003551 42:0.001015 43:0.003044 44:0.003044 45:0.001015 46:0.006088 47:0.003044 48:0.001522 49:0.002537 50:0.006596 51:0.002537 52:0.002537 53:0.003551 54:0.001015 55:0.006088 56:0.002029 57:0.003044 58:0.008118 59:0.001015 60:0.004059 61:0.007103 62:0.007103 63:0.001522 64:0.001015 65:0.002537 66:0.000507 67:0.005074 68:0 69:0.003044 70:0.002537 71:0.005581 72:0.004059 73:0.000507 74:0.001015 75:0.007103 76:0.003551 77:0.002029 78:0.004566 79:0.008625 80:0.012177 81:0.001522 82:0.002537 83:0.000507 84:0.001015 85:0.002537 86:0.000507 87:0.004059 88:0.001522 89:0.003044 90:0.002537 91:0.001522 92:0.004566 93:0.004059 94:0 95:0.003551 96:0.001015 97:0.001522 98:0.002537 99:0.007103 100:0.003551 101:0.002537 102:0.005581 103:0.002029 104:0.003044 105:0.001015 106:0.003551 107:0.003551 108:0.004566 109:0.002029 110:0.010147 111:0.010654 112:0.002029 113:0.003551 114:0.005581 115:0.006596 116:0.001015 117:0.002537 118:0.011162 119:0.000507 120:0.008118 121:0.010147 122:0.00761 123:0.002537 124:0.002029 125:0.001015 126:0.006088 127:0.002029 128:0.002537 129:0.005581 130:0.000507 131:0.006596 132:0.004059 133:0.001522 134:0.003551 135:0.002029 136:0.003044 137:0.001015 138:0.006596 139:0.002537 140:0.003044 141:0 142:0.004059 143:0.003551 144:0.010147 145:0.007103 146:0.003044 147:0.002029 148:0.001015 149:0.011162 150:0.003551 151:0.003551 152:0.008118 153:0.005074 154:0 155:0.002537 156:0.002537 157:0.004059 158:0.002537 159:0.003551 160:0.002029 161:0.002029 162:0.006596 163:0.001522 164:0.003044 165:0.010147 166:0.005581 167:0.002537 168:0.002029 169:0.002537 170:0.001522 171:0.011162 172:0.00761 173:0.005074 174:0.000507 175:0.004059 176:0.004566 177:0.001522 178:0.009132 179:0.003551 180:0.006088 181:0.010654 182:0.001522 183:0.002537 184:0.004566 185:0.004059 186:0.003044 187:0.004566 188:0.001522 189:0.004566 190:0.002537 191:0.001015 192:0.005074 193:0.003551 194:0.000507 195:0.004566 196:0.009132 197:0.002029 198:0.005074 199:0.010147 200:0.003044 201:0.005074 202:0.012177 203:0.004059 204:0.005581 205:0.005074 206:0.003551 207:0.001015 208:0.006596 209:0.007103 210:0.003551 211:0.013699 212:0.006088 213:0.007103 214:0.004566 215:0.001522 216:0.002029 217:0.004059 218:0.003044 219:0.004059 220:0.010147 221:0.004566 222:0.001522 223:0.004566 224:0.004566 225:0.002537 226:0.003551 227:0.001015 228:0.001522 229:0.001015 230:0.006088 231:0.00964 232:0.003551 233:0.003044 234:0.00761 235:0.004566 236:0.000507 237:0.004566 238:0.004566 239:0.001522 240:0.004566 241:0.009132 242:0.009132 243:0.002029 244:0.005581 245:0.002537 246:0.003044 247:0.002537 248:0.003044 249:0 250:0.005581 251:0.003044 252:0.004566 253:0.001015 254:0.001522 255:0.002537 
5 0:0.001901 1:0.001901 2:0.000951 3:0 4:0.004753 5:0.000951 6:0.002852 7:0.003802 8:0.004753 9:0.012357 10:0.001901 11:0.004753 12:0.003802 13:0 14:0.004753 15:0.019962 16:0.010456 17:0.006654 18:0.000951 19:0.001901 20:0.001901 21:0.006654 22:0.000951 23:0.005703 24:0 25:0.001901 26:0.007605 27:0.004753 28:0.000951 29:0.003802 30:0.000951 31:0.001901 32:0.000951 33:0.001901 34:0.003802 35:0.015209 36:0.004753 37:0.010456 38:0 39:0 40:0 41:0 42:0.000951 43:0.001901 44:0 45:0.000951 46:0 47:0.005703 48:0.003802 49:0.009506 50:0.001901 51:0 52:0.003802 53:0.003802 54:0.001901 55:0.003802 56:0.003802 57:0.008555 58:0.023764 59:0.000951 60:0.000951 61:0 62:0.001901 63:0.008555 64:0 65:0 66:0.007605 67:0.000951 68:0.000951 69:0.002852 70:0.010456 71:0.015209 72:0.004753 73:0 74:0.003802 75:0.018061 76:0 77:0.001901 78:0.002852 79:0.003802 80:0.006654 81:0.005703 82:0 83:0.001901 84:0.006654 85:0.000951 86:0.004753 87:0.004753 88:0.002852 89:0.003802 90:0 91:0 92:0.005703 93:0.000951 94:0.001901 95:0.004753 96:0 97:0.001901 98:0.000951 99:0.001901 100:0 101:0.002852 102:0.002852 103:0.000951 104:0.002852 105:0 106:0.001901 107:0 108:0.013308 109:0.007605 110:0.005703 111:0.000951 112:0.004753 113:0 114:0.001901 115:0 116:0.000951 117:0.001901 118:0.004753 119:0.007605 120:0.000951 121:0.007605 122:0.01616 123:0.012357 124:0.000951 125:0 126:0.009506 127:0.006654 128:0.003802 129:0 130:0.000951 131:0.010456 132:0.005703 133:0.000951 134:0.015209 135:0.006654 136:0.007605 137:0.000951 138:0 139:0.001901 140:0.000951 141:0 142:0.001901 143:0.006654 144:0.003802 145:0.002852 146:0.000951 147:0.002852 148:0.005703 149:0.000951 150:0.005703 151:0 152:0.004753 153:0.001901 154:0.012357 155:0.000951 156:0.010456 157:0.029468 158:0.003802 159:0.000951 160:0.003802 161:0.005703 162:0.001901 163:0.002852 164:0.006654 165:0.003802 166:0.001901 167:0.003802 168:0.005703 169:0.006654 170:0.024715 171:0.004753 172:0.003802 173:0.004753 174:0.000951 175:0.000951 176:0.001901 177:0.005703 178:0 179:0.003802 180:0.000951 181:0.024715 182:0.001901 183:0.007605 184:0.003802 185:0.001901 186:0.012357 187:0.005703 188:0.001901 189:0.000951 190:0.004753 191:0.013308 192:0.002852 193:0.001901 194:0.002852 195:0.001901 196:0 197:0.002852 198:0 199:0.000951 200:0.004753 201:0.001901 202:0.008555 203:0.002852 204:0.000951 205:0.019011 206:0 207:0.000951 208:0.005703 209:0 210:0.002852 211:0.000951 212:0.000951 213:0.003802 214:0.001901 215:0 216:0 217:0.002852 218:0 219:0.007605 220:0.001901 221:0.000951 222:0.002852 223:0.000951 224:0.006654 225:0 226:0 227:0.001901 228:0.002852 229:0 230:0.001901 231:0.008555 232:0.003802 233:0.002852 234:0 235:0.004753 236:0.003802 237:0.000951 238:0 239:0.000951 240:0.003802 241:0 242:0.004753 243:0.003802 244:0.004753 245:0.000951 246:0.001901 247:0.003802 248:0 249:0 250:0.001901 251:0.025665 252:0.000951 253:0.001901 254:0.001901 255:0 
5 0:0 1:0.007552 2:0.001888 3:0.001888 4:0.012587 5:0.002517 6:0.006293 7:0.001259 8:0.000629 9:0.004405 10:0.001259 11:0.001259 12:0.002517 13:0.004405 14:0.002517 15:0.003776 16:0.003147 17:0.005035 18:0 19:0 20:0 21:0.006923 22:0.006293 23:0.001888 24:0.001888 25:0.003147 26:0.007552 27:0.001888 28:0.004405 29:0.005664 30:0.004405 31:0.001888 32:0.004405 33:0.002517 34:0.003147 35:0.017621 36:0.015104 37:0.00944 38:0.000629 39:0 40:0.006293 41:0.001888 42:0.001888 43:0.00944 44:0.001888 45:0.010069 46:0.002517 47:0.000629 48:0.001259 49:0.003776 50:0.002517 51:0.002517 52:0.003776 53:0.001888 54:0.000629 55:0.003776 56:0.006293 57:0.003147 58:0.008181 59:0.003147 60:0.005664 61:0.007552 62:0.005035 63:0.001259 64:0.004405 65:0.001888 66:0.012587 67:0.008181 68:0.004405 69:0.005035 70:0.002517 71:0.010069 72:0.001259 73:0.012587 74:0.001259 75:0.008181 76:0.003147 77:0.001888 78:0.010699 79:0.008181 80:0.007552 81:0.000629 82:0 83:0.000629 84:0.005664 85:0.003776 86:0.001259 87:0.003776 88:0 89:0.003147 90:0 91:0.000629 92:0.004405 93:0 94:0.006293 95:0.003147 96:0.006293 97:0 98:0.003147 99:0.006293 100:0.001259 101:0.007552 102:0.000629 103:0.000629 104:0.001888 105:0.000629 106:0.003776 107:0 108:0.006923 109:0.005664 110:0.005035 111:0.010699 112:0.001259 113:0.001259 114:0.005035 115:0.001259 116:0.002517 117:0.003776 118:0.004405 119:0.003776 120:0.006293 121:0.006923 122:0.012587 123:0.005664 124:0.001259 125:0 126:0.006293 127:0.005035 128:0.003776 129:0.001259 130:0.001259 131:0.005035 132:0.004405 133:0.003776 134:0.001888 135:0.003147 136:0.002517 137:0.005035 138:0.003776 139:0.001259 140:0 141:0.000629 142:0.008181 143:0.001259 144:0.002517 145:0.001888 146:0.011328 147:0.003776 148:0.001888 149:0.001259 150:0.001259 151:0.002517 152:0.006923 153:0.004405 154:0.004405 155:0.001888 156:0.001888 157:0.004405 158:0.00944 159:0.001259 160:0.005035 161:0.004405 162:0.001259 163:0 164:0.010069 165:0.003776 166:0.000629 167:0.002517 168:0.011957 169:0.000629 170:0.004405 171:0.001888 172:0.001888 173:0.000629 174:0 175:0.001888 176:0.000629 177:0.011957 178:0.003776 179:0.007552 180:0.001888 181:0.003147 182:0.005664 183:0.00944 184:0.001259 185:0.001259 186:0.004405 187:0.003776 188:0.012587 189:0.001259 190:0.003776 191:0.002517 192:0.003147 193:0.015104 194:0.00944 195:0.003776 196:0.008181 197:0.004405 198:0.001259 199:0.005035 200:0.003147 201:0.002517 202:0.003776 203:0.002517 204:0.005664 205:0.008181 206:0 207:0.000629 208:0.002517 209:0.006923 210:0.005664 211:0.006293 212:0.008181 213:0.001888 214:0.002517 215:0.001259 216:0.001259 217:0 218:0.001259 219:0.005664 220:0.001888 221:0.004405 222:0.012587 223:0 224:0.007552 225:0.001888 226:0.001888 227:0.001888 228:0.004405 229:0.000629 230:0.000629 231:0.005664 232:0.005664 233:0.005664 234:0.000629 235:0.000629 236:0.007552 237:0.003147 238:0.001888 239:0.000629 240:0.006923 241:0.000629 242:0.003147 243:0.006923 244:0.005035 245:0.013216 246:0.002517 247:0.005035 248:0.000629 249:0.002517 250:0.001259 251:0.001888 252:0.000629 253:0.002517 254:0.000629 255:0.001259 
5 0:0.001318 1:0.003953 2:0.001318 3:0.008564 4:0.000659 5:0.000659 6:0.002635 7:0.001318 8:0.001976 9:0.006588 10:0.004611 11:0.006588 12:0.003294 13:0.005929 14:0.002635 15:0.00527 16:0.009223 17:0.008564 18:0.001318 19:0.004611 20:0 21:0.009223 22:0.003953 23:0.005929 24:0.001976 25:0.003294 26:0.008564 27:0.001976 28:0.006588 29:0.007905 30:0.007246 31:0.007246 32:0.001318 33:0.003953 34:0.003953 35:0.003953 36:0.004611 37:0.001976 38:0.003953 39:0.001318 40:0.004611 41:0.00527 42:0.001318 43:0.006588 44:0.000659 45:0.00527 46:0.004611 47:0.001976 48:0.001976 49:0.003953 50:0.005929 51:0.001318 52:0.001318 53:0.005929 54:0.003953 55:0.001318 56:0.002635 57:0.003294 58:0 59:0.000659 60:0.000659 61:0.002635 62:0.004611 63:0.001976 64:0.002635 65:0.000659 66:0.003953 67:0.004611 68:0.009223 69:0.006588 70:0.005929 71:0.007905 72:0.001976 73:0.002635 74:0.000659 75:0.007905 76:0.001318 77:0.002635 78:0.00527 79:0.008564 80:0.011199 81:0.007905 82:0.001976 83:0.007905 84:0.004611 85:0.001318 86:0.003294 87:0.005929 88:0.001976 89:0.002635 90:0.004611 91:0.005929 92:0.00527 93:0.000659 94:0.004611 95:0.002635 96:0.007246 97:0.000659 98:0.001318 99:0.001976 100:0.001318 101:0.003953 102:0.005929 103:0.002635 104:0.004611 105:0.001318 106:0.008564 107:0.000659 108:0.009223 109:0.003953 110:0.003953 111:0.004611 112:0.005929 113:0.004611 114:0.006588 115:0.003294 116:0.003294 117:0.005929 118:0.004611 119:0.003953 120:0.007246 121:0.009881 122:0.004611 123:0.006588 124:0.001318 125:0.001318 126:0.007905 127:0.002635 128:0.002635 129:0.001318 130:0.003953 131:0.003294 132:0.003294 133:0.001318 134:0.003953 135:0.001318 136:0.003294 137:0.000659 138:0.001976 139:0.001318 140:0.000659 141:0.001976 142:0.004611 143:0 144:0.002635 145:0.002635 146:0.001318 147:0.001976 148:0.001318 149:0.001318 150:0.002635 151:0.004611 152:0.006588 153:0.001318 154:0.007246 155:0.003294 156:0.003953 157:0.023715 158:0.000659 159:0.001318 160:0.001976 161:0.007905 162:0.001976 163:0.000659 164:0.007246 165:0.001318 166:0 167:0.002635 168:0.002635 169:0.002635 170:0.002635 171:0.000659 172:0.00527 173:0.002635 174:0.008564 175:0.001318 176:0.003294 177:0.004611 178:0.001976 179:0.002635 180:0.001318 181:0.001976 182:0.000659 183:0.00527 184:0.006588 185:0.002635 186:0.000659 187:0.011199 188:0.008564 189:0.005929 190:0.00527 191:0.003294 192:0.001318 193:0.005929 194:0.006588 195:0.001976 196:0 197:0.007246 198:0.002635 199:0.01054 200:0.000659 201:0.00527 202:0.001318 203:0.001976 204:0.002635 205:0.007905 206:0.000659 207:0.002635 208:0.007246 209:0.006588 210:0.002635 211:0.002635 212:0.007905 213:0.001318 214:0.005929 215:0.006588 216:0.007905 217:0.005929 218:0.001318 219:0.004611 220:0.000659 221:0.002635 222:0.009223 223:0 224:0.001318 225:0.001318 226:0.000659 227:0.003294 228:0.001976 229:0.004611 230:0.00527 231:0.005929 232:0.00527 233:0.006588 234:0.000659 235:0.004611 236:0.005929 237:0.011858 238:0.000659 239:0.001318 240:0.005929 241:0.001976 242:0.003953 243:0.003953 244:0.001976 245:0.009223 246:0.003953 247:0.00527 248:0.000659 249:0.001976 250:0.001976 251:0.00527 252:0.000659 253:0.001976 254:0.008564 255:0.001976 
5 0:0 1:0.001754 2:0.007018 3:0 4:0.000877 5:0 6:0 7:0.003509 8:0.00614 9:0.002632 10:0.001754 11:0.005263 12:0.002632 13:0.002632 14:0.002632 15:0.011404 16:0.00614 17:0.002632 18:0.000877 19:0.001754 20:0 21:0.004386 22:0.003509 23:0.017544 24:0 25:0.001754 26:0.007018 27:0.007018 28:0.003509 29:0.002632 30:0.007018 31:0.002632 32:0.003509 33:0.008772 34:0.004386 35:0.007018 36:0.004386 37:0.004386 38:0.001754 39:0.001754 40:0.000877 41:0.001754 42:0.000877 43:0.002632 44:0.002632 45:0.005263 46:0.00614 47:0.007895 48:0.004386 49:0.004386 50:0 51:0 52:0.000877 53:0.002632 54:0 55:0.005263 56:0.000877 57:0.011404 58:0.000877 59:0.000877 60:0.000877 61:0.002632 62:0 63:0.002632 64:0 65:0.000877 66:0.005263 67:0.00614 68:0.011404 69:0.004386 70:0.004386 71:0.003509 72:0.00614 73:0 74:0.00614 75:0.003509 76:0.005263 77:0.004386 78:0.000877 79:0.003509 80:0.00614 81:0.017544 82:0.00614 83:0.000877 84:0.002632 85:0.000877 86:0.001754 87:0.007018 88:0.005263 89:0.000877 90:0.003509 91:0.000877 92:0.003509 93:0 94:0 95:0.009649 96:0.000877 97:0.001754 98:0.001754 99:0.003509 100:0.007018 101:0 102:0.002632 103:0.003509 104:0.003509 105:0.002632 106:0.000877 107:0.000877 108:0.010526 109:0.007018 110:0.002632 111:0.002632 112:0.000877 113:0.002632 114:0.011404 115:0 116:0.001754 117:0.007018 118:0.013158 119:0.001754 120:0.004386 121:0.000877 122:0.001754 123:0.00614 124:0.00614 125:0 126:0.008772 127:0.002632 128:0.007018 129:0.007018 130:0.001754 131:0.003509 132:0.002632 133:0.002632 134:0.001754 135:0 136:0.002632 137:0.002632 138:0.000877 139:0 140:0.003509 141:0.005263 142:0.002632 143:0 144:0.012281 145:0.005263 146:0.004386 147:0.00614 148:0.008772 149:0.000877 150:0.003509 151:0.001754 152:0 153:0 154:0.005263 155:0.001754 156:0.007018 157:0 158:0.004386 159:0.003509 160:0.002632 161:0.007018 162:0.005263 163:0.007018 164:0.002632 165:0.005263 166:0.010526 167:0.002632 168:0.000877 169:0.00614 170:0.002632 171:0.00614 172:0.004386 173:0.001754 174:0.00614 175:0.003509 176:0.001754 177:0.007018 178:0 179:0.009649 180:0.000877 181:0.008772 182:0.007895 183:0 184:0.001754 185:0 186:0.004386 187:0.010526 188:0.028947 189:0.000877 190:0.002632 191:0.017544 192:0.001754 193:0.000877 194:0 195:0.002632 196:0.004386 197:0.000877 198:0.002632 199:0 200:0.000877 201:0.003509 202:0.007895 203:0.001754 204:0.004386 205:0.000877 206:0.00614 207:0.001754 208:0.008772 209:0.003509 210:0.005263 211:0 212:0.002632 213:0.002632 214:0.001754 215:0.000877 216:0.001754 217:0.004386 218:0 219:0.00614 220:0.001754 221:0.008772 222:0.005263 223:0 224:0.001754 225:0.003509 226:0 227:0.004386 228:0.001754 229:0.003509 230:0.001754 231:0.008772 232:0.007895 233:0.001754 234:0.004386 235:0.005263 236:0.005263 237:0.009649 238:0.004386 239:0.00614 240:0.004386 241:0.001754 242:0.012281 243:0 244:0.001754 245:0.007895 246:0.007895 247:0.003509 248:0 249:0.001754 250:0.004386 251:0.014035 252:0.009649 253:0.003509 254:0.004386 255:0.000877 
5 0:0.001931 1:0.001931 2:0.002897 3:0.002897 4:0.011589 5:0.004346 6:0.007726 7:0.003863 8:0.001931 9:0.001931 10:0.001931 11:0.004829 12:0.003863 13:0.00338 14:0.002414 15:0.001449 16:0.001931 17:0.003863 18:0.001449 19:0.001449 20:0.00338 21:0.012554 22:0.014003 23:0.001449 24:0.008209 25:0.005311 26:0.005794 27:0.006277 28:0.006277 29:0.000966 30:0.00338 31:0.00338 32:0.006277 33:0.004829 34:0.005794 35:0.001931 36:0.00676 37:0.00338 38:0.003863 39:0 40:0.005311 41:0.002414 42:0.002414 43:0.012554 44:0.011106 45:0.00676 46:0.002414 47:0.007726 48:0.000483 49:0.00338 50:0.002897 51:0.003863 52:0.003863 53:0.003863 54:0.000966 55:0.004346 56:0.001449 57:0.003863 58:0.002897 59:0.004346 60:0.013037 61:0.00338 62:0.003863 63:0.001449 64:0.000483 65:0.00338 66:0.005794 67:0.00338 68:0.008691 69:0.008691 70:0.001931 71:0.00338 72:0.00338 73:0.004346 74:0.008209 75:0.008209 76:0.002897 77:0.000966 78:0.014003 79:0.01014 80:0.011589 81:0.000966 82:0.000483 83:0.000966 84:0.001449 85:0.00676 86:0.001449 87:0.004346 88:0.00338 89:0.001449 90:0.001931 91:0.001449 92:0.005794 93:0.002897 94:0.008691 95:0.002414 96:0.01352 97:0.002897 98:0.002414 99:0.010623 100:0.000483 101:0.000966 102:0.001449 103:0.000483 104:0.003863 105:0.000966 106:0.002897 107:0 108:0.00338 109:0.002414 110:0.004829 111:0.005311 112:0.00676 113:0.004829 114:0.000966 115:0.00338 116:0.014003 117:0.004829 118:0.010623 119:0.005311 120:0.006277 121:0.00338 122:0.002897 123:0.000483 124:0.000966 125:0.000966 126:0.000483 127:0.000483 128:0.00676 129:0.002414 130:0.004346 131:0.00338 132:0.001449 133:0.002897 134:0.001931 135:0.001449 136:0.001931 137:0.000966 138:0.005311 139:0.000483 140:0.000483 141:0.002414 142:0.01352 143:0.007726 144:0.001931 145:0.001449 146:0.005794 147:0.006277 148:0.004829 149:0.005311 150:0.002897 151:0.005794 152:0.006277 153:0.000483 154:0.002414 155:0.000966 156:0.004829 157:0.003863 158:0.001449 159:0.006277 160:0 161:0.004829 162:0.000966 163:0.004829 164:0.001931 165:0.001931 166:0.008209 167:0.004829 168:0.008691 169:0 170:0.000483 171:0.001449 172:0.005311 173:0.000483 174:0.000966 175:0.002414 176:0.002414 177:0.005311 178:0.00338 179:0.001931 180:0.001449 181:0.00338 182:0.000483 183:0 184:0.004346 185:0.001449 186:0.003863 187:0.002897 188:0.008691 189:0.001931 190:0.001449 191:0.002414 192:0.002414 193:0.007726 194:0.001449 195:0.001449 196:0.000966 197:0.002414 198:0.000966 199:0.005794 200:0.007726 201:0.002897 202:0.004346 203:0.005794 204:0.005794 205:0.006277 206:0.000483 207:0.000966 208:0.001449 209:0.001931 210:0.000483 211:0.001931 212:0.01014 213:0.002897 214:0.005311 215:0.008209 216:0.001931 217:0 218:0 219:0.004829 220:0.006277 221:0.006277 222:0.008691 223:0.000483 224:0.002897 225:0 226:0.000966 227:0.002897 228:0.006277 229:0.001931 230:0.00338 231:0.003863 232:0.007243 233:0.009174 234:0.002414 235:0.001449 236:0.005311 237:0.002897 238:0.002414 239:0.000483 240:0.007726 241:0.00338 242:0.007243 243:0.001449 244:0.00338 245:0.009174 246:0.007726 247:0.002414 248:0.001449 249:0.004346 250:0.004346 251:0.00338 252:0.004346 253:0.005311 254:0.002414 255:0.001931 
5 0:0.000672 1:0.000672 2:0.002016 3:0.000672 4:0.004704 5:0.002016 6:0.00672 7:0.012769 8:0.000672 9:0.002016 10:0.002016 11:0.005376 12:0.000672 13:0.004032 14:0.00336 15:0.010753 16:0.001344 17:0.008737 18:0 19:0 20:0 21:0.008737 22:0.014785 23:0.00336 24:0.000672 25:0.005376 26:0.00336 27:0.005376 28:0.010081 29:0.004704 30:0.000672 31:0.00672 32:0.00336 33:0.00336 34:0.001344 35:0.001344 36:0.00336 37:0.001344 38:0.000672 39:0 40:0.00336 41:0.004704 42:0.000672 43:0.010081 44:0.00672 45:0.00336 46:0.004032 47:0.002688 48:0.004032 49:0.005376 50:0.004032 51:0 52:0.001344 53:0.00336 54:0 55:0.002016 56:0.005376 57:0.00672 58:0.022177 59:0.000672 60:0.002688 61:0.004704 62:0.000672 63:0.00672 64:0.002016 65:0.000672 66:0.009409 67:0.008737 68:0.002688 69:0.012097 70:0.004704 71:0.004704 72:0.004032 73:0.00672 74:0.005376 75:0.009409 76:0.002016 77:0.000672 78:0.00672 79:0.00336 80:0.002016 81:0.002688 82:0.000672 83:0.004704 84:0.007392 85:0.002688 86:0.002688 87:0.00672 88:0.002016 89:0.004704 90:0 91:0.00336 92:0.005376 93:0 94:0.001344 95:0.005376 96:0.012097 97:0.008737 98:0.002688 99:0.008737 100:0.002016 101:0.002688 102:0.004032 103:0.008737 104:0.006048 105:0 106:0.000672 107:0.002016 108:0.004032 109:0.002016 110:0.013441 111:0.007392 112:0.002016 113:0.002688 114:0.00672 115:0.002688 116:0.010081 117:0.004032 118:0.001344 119:0.002016 120:0.004704 121:0.002688 122:0.005376 123:0.005376 124:0.002016 125:0 126:0.004704 127:0.005376 128:0.002016 129:0.001344 130:0.004032 131:0.001344 132:0.010081 133:0.002688 134:0.005376 135:0.002688 136:0.004704 137:0.00336 138:0.002688 139:0.001344 140:0.002016 141:0 142:0.002016 143:0.002688 144:0.002688 145:0.000672 146:0.00336 147:0.006048 148:0.002688 149:0.002688 150:0.002688 151:0.00336 152:0.004704 153:0.004032 154:0.004704 155:0.002688 156:0.002688 157:0.002016 158:0.002688 159:0.002016 160:0.004704 161:0.009409 162:0.005376 163:0.004704 164:0.007392 165:0.004032 166:0.002016 167:0.00672 168:0.006048 169:0.004704 170:0.00336 171:0.007392 172:0.005376 173:0.00672 174:0.000672 175:0.00336 176:0.004704 177:0.00672 178:0 179:0.007392 180:0.002688 181:0.004032 182:0.001344 183:0.002688 184:0.001344 185:0.004032 186:0.00336 187:0.000672 188:0.004032 189:0.002016 190:0.007392 191:0.001344 192:0.004032 193:0.00672 194:0.002688 195:0.001344 196:0.002016 197:0.00336 198:0.00336 199:0.007392 200:0.002016 201:0.001344 202:0.008065 203:0.011425 204:0.00672 205:0.001344 206:0.00336 207:0.002688 208:0.004032 209:0.004032 210:0.001344 211:0.005376 212:0.008065 213:0.009409 214:0.001344 215:0.004704 216:0.001344 217:0 218:0.002016 219:0.004704 220:0.000672 221:0.002016 222:0.010081 223:0 224:0.000672 225:0.00336 226:0.002016 227:0.000672 228:0.004704 229:0.002688 230:0.00336 231:0.004704 232:0.005376 233:0.000672 234:0.00336 235:0.00336 236:0.008737 237:0.001344 238:0 239:0 240:0.006048 241:0.001344 242:0.010081 243:0.004704 244:0.00336 245:0.010081 246:0.004704 247:0.00672 248:0.000672 249:0 250:0.001344 251:0.004704 252:0.001344 253:0.001344 254:0.000672 255:0.001344 
5 0:0.00064 1:0.00128 2:0.001921 3:0.00064 4:0.008323 5:0.004481 6:0.003201 7:0.010883 8:0.001921 9:0.005122 10:0.00064 11:0.007042 12:0.00128 13:0.003201 14:0.003841 15:0.003841 16:0.004481 17:0.010243 18:0.00064 19:0.003201 20:0.001921 21:0.012164 22:0.004481 23:0.00064 24:0.00064 25:0.003841 26:0.001921 27:0.00064 28:0.011524 29:0.005762 30:0.005122 31:0.001921 32:0.007682 33:0.002561 34:0.00128 35:0.015365 36:0.00064 37:0.012804 38:0.005762 39:0.00128 40:0.003841 41:0.00128 42:0.00064 43:0.005762 44:0.002561 45:0.007042 46:0.00064 47:0.00064 48:0.003201 49:0.002561 50:0.008963 51:0.00128 52:0.002561 53:0.002561 54:0.00064 55:0.002561 56:0.005122 57:0.002561 58:0.005122 59:0.001921 60:0.003841 61:0.006402 62:0.006402 63:0.007042 64:0.00128 65:0.00128 66:0.013444 67:0.008963 68:0 69:0.005762 70:0.003201 71:0.006402 72:0.005762 73:0.004481 74:0.006402 75:0.007042 76:0.001921 77:0 78:0.007682 79:0.013444 80:0.008323 81:0.002561 82:0.00064 83:0.00128 84:0.00064 85:0.00064 86:0.007042 87:0.00128 88:0 89:0.001921 90:0.00064 91:0.00064 92:0.00128 93:0.003201 94:0.003201 95:0.003841 96:0.004481 97:0.001921 98:0.001921 99:0.008323 100:0 101:0.003841 102:0.005122 103:0.002561 104:0.002561 105:0.00064 106:0.001921 107:0.003201 108:0.005122 109:0.001921 110:0.010243 111:0.008323 112:0.003201 113:0.002561 114:0.009603 115:0.005122 116:0.007682 117:0.001921 118:0.003841 119:0.004481 120:0.00128 121:0.006402 122:0.014085 123:0.002561 124:0.001921 125:0.00128 126:0.004481 127:0.007042 128:0.00128 129:0.00128 130:0.008323 131:0.003841 132:0.003841 133:0 134:0.005122 135:0.004481 136:0.00128 137:0.003201 138:0.010243 139:0.021767 140:0.002561 141:0.007042 142:0.008323 143:0.005122 144:0.004481 145:0 146:0.008323 147:0.003841 148:0.004481 149:0 150:0.003841 151:0.004481 152:0.005122 153:0.00128 154:0.00064 155:0.00128 156:0.004481 157:0.00128 158:0.00064 159:0.00064 160:0.012164 161:0.005122 162:0.005122 163:0.00064 164:0.005122 165:0.004481 166:0.001921 167:0.001921 168:0.005122 169:0.003841 170:0.006402 171:0.003201 172:0.003841 173:0 174:0.003201 175:0.002561 176:0.00128 177:0.003841 178:0.002561 179:0.002561 180:0.001921 181:0.003841 182:0.004481 183:0.002561 184:0.004481 185:0.004481 186:0.003841 187:0.006402 188:0 189:0.005122 190:0.007042 191:0 192:0.002561 193:0.007042 194:0.004481 195:0.00064 196:0.00064 197:0.004481 198:0.00064 199:0.008963 200:0.008963 201:0.004481 202:0.00128 203:0.00128 204:0.003201 205:0.00064 206:0.00064 207:0.00064 208:0.003201 209:0.006402 210:0.005762 211:0.00128 212:0.008963 213:0.001921 214:0.002561 215:0.003201 216:0.002561 217:0.003201 218:0.007682 219:0.001921 220:0.002561 221:0 222:0.007682 223:0.00064 224:0.001921 225:0.003201 226:0.002561 227:0.00064 228:0.006402 229:0.001921 230:0.003841 231:0.005122 232:0.00128 233:0.00128 234:0.002561 235:0.002561 236:0.008323 237:0.007682 238:0 239:0 240:0.008963 241:0.00064 242:0.003201 243:0.004481 244:0.004481 245:0.003201 246:0.00128 247:0.006402 248:0.014085 249:0.004481 250:0.00064 251:0.00064 252:0.003201 253:0.00128 254:0.004481 255:0.003841 
5 0:0 1:0.004831 2:0.002899 3:0 4:0.015459 5:0.000966 6:0.016425 7:0.005797 8:0 9:0.003865 10:0.001932 11:0.002899 12:0.001932 13:0.008696 14:0.000966 15:0.004831 16:0.002899 17:0.009662 18:0.000966 19:0.001932 20:0 21:0.006763 22:0.007729 23:0 24:0 25:0.004831 26:0.011594 27:0.000966 28:0.002899 29:0.000966 30:0.004831 31:0.008696 32:0.004831 33:0.000966 34:0.010628 35:0.003865 36:0.005797 37:0.005797 38:0.003865 39:0 40:0.000966 41:0 42:0.000966 43:0.005797 44:0.004831 45:0.000966 46:0.000966 47:0.001932 48:0.003865 49:0.005797 50:0 51:0 52:0 53:0.000966 54:0.000966 55:0.005797 56:0.006763 57:0.000966 58:0 59:0.004831 60:0.015459 61:0.002899 62:0.003865 63:0.003865 64:0.000966 65:0 66:0.002899 67:0.014493 68:0.000966 69:0.01256 70:0.004831 71:0.008696 72:0.001932 73:0.024155 74:0.001932 75:0.006763 76:0.000966 77:0.001932 78:0.002899 79:0.004831 80:0.005797 81:0.002899 82:0 83:0 84:0.000966 85:0.004831 86:0 87:0.001932 88:0 89:0.005797 90:0.001932 91:0.001932 92:0.002899 93:0.007729 94:0 95:0.001932 96:0 97:0.006763 98:0.000966 99:0.006763 100:0.002899 101:0.000966 102:0.004831 103:0.004831 104:0.003865 105:0.001932 106:0 107:0.001932 108:0.002899 109:0.009662 110:0 111:0.014493 112:0.000966 113:0 114:0.003865 115:0.002899 116:0.003865 117:0.002899 118:0.011594 119:0.002899 120:0.007729 121:0.008696 122:0.010628 123:0.009662 124:0 125:0 126:0.002899 127:0.001932 128:0.003865 129:0.000966 130:0 131:0.003865 132:0.004831 133:0.002899 134:0.003865 135:0.002899 136:0.002899 137:0.000966 138:0.003865 139:0.001932 140:0.000966 141:0.001932 142:0.02029 143:0.000966 144:0.010628 145:0.001932 146:0.003865 147:0.001932 148:0.002899 149:0.007729 150:0.001932 151:0 152:0.006763 153:0 154:0.001932 155:0.002899 156:0.002899 157:0.008696 158:0.000966 159:0.000966 160:0.005797 161:0.002899 162:0 163:0.000966 164:0.010628 165:0.002899 166:0.000966 167:0.008696 168:0.004831 169:0.003865 170:0.007729 171:0.001932 172:0.003865 173:0.003865 174:0 175:0.002899 176:0.000966 177:0 178:0.009662 179:0.000966 180:0.001932 181:0.006763 182:0.000966 183:0.000966 184:0.007729 185:0.004831 186:0 187:0.010628 188:0.003865 189:0.005797 190:0.006763 191:0.007729 192:0.003865 193:0.001932 194:0.013527 195:0.003865 196:0.002899 197:0.000966 198:0.003865 199:0.024155 200:0.006763 201:0 202:0.001932 203:0.002899 204:0.001932 205:0.009662 206:0 207:0.000966 208:0.001932 209:0 210:0.000966 211:0.011594 212:0.008696 213:0.000966 214:0.006763 215:0.001932 216:0.000966 217:0.001932 218:0.000966 219:0.002899 220:0.010628 221:0.001932 222:0.014493 223:0 224:0.003865 225:0.002899 226:0.003865 227:0.002899 228:0.006763 229:0.000966 230:0.004831 231:0.001932 232:0.001932 233:0.004831 234:0 235:0.003865 236:0.014493 237:0.004831 238:0 239:0 240:0.006763 241:0.000966 242:0.000966 243:0.001932 244:0.004831 245:0.003865 246:0.001932 247:0.004831 248:0.001932 249:0.000966 250:0 251:0.005797 252:0.003865 253:0 254:0.002899 255:0.002899 
5 0:0 1:0.002095 2:0.001397 3:0.002095 4:0.003492 5:0.005587 6:0.001397 7:0.000698 8:0.005587 9:0.005587 10:0.002095 11:0.006983 12:0.001397 13:0.005587 14:0.005587 15:0.003492 16:0.005587 17:0.010475 18:0.002095 19:0.002095 20:0 21:0.001397 22:0 23:0.005587 24:0 25:0.003492 26:0.002793 27:0.006983 28:0 29:0.002793 30:0.003492 31:0.00838 32:0.001397 33:0.003492 34:0.003492 35:0.006285 36:0.002793 37:0.004888 38:0.000698 39:0 40:0.001397 41:0.00838 42:0.002095 43:0.00419 44:0 45:0.005587 46:0.004888 47:0.00419 48:0.007682 49:0.004888 50:0.001397 51:0.001397 52:0.000698 53:0.00838 54:0.000698 55:0.00419 56:0.004888 57:0.003492 58:0.034218 59:0 60:0.002095 61:0.006285 62:0 63:0.011872 64:0.001397 65:0.002095 66:0.00838 67:0.003492 68:0.001397 69:0.004888 70:0.010475 71:0.009078 72:0.003492 73:0.00838 74:0.004888 75:0.010475 76:0.001397 77:0.002095 78:0.006983 79:0.00838 80:0.002095 81:0.006983 82:0.004888 83:0.002095 84:0.002793 85:0.000698 86:0.002793 87:0.00838 88:0.000698 89:0.004888 90:0.000698 91:0.003492 92:0.009078 93:0.00419 94:0.000698 95:0.014665 96:0.002095 97:0.004888 98:0.00419 99:0 100:0.002095 101:0.002793 102:0.003492 103:0.002793 104:0.003492 105:0.003492 106:0.002793 107:0.006285 108:0.002793 109:0.00419 110:0.001397 111:0.009078 112:0.000698 113:0.003492 114:0.002095 115:0 116:0.002793 117:0.002095 118:0.004888 119:0.006983 120:0.00419 121:0.000698 122:0.00838 123:0.006983 124:0.002095 125:0.002095 126:0.003492 127:0.005587 128:0.002095 129:0.003492 130:0.003492 131:0.004888 132:0.004888 133:0 134:0.00838 135:0.005587 136:0.006285 137:0.004888 138:0.000698 139:0.001397 140:0.003492 141:0.003492 142:0.002095 143:0.002095 144:0.005587 145:0.00419 146:0.006285 147:0.002095 148:0.006285 149:0.000698 150:0.00419 151:0 152:0.002095 153:0.000698 154:0.016061 155:0.002095 156:0.002793 157:0.004888 158:0 159:0.002793 160:0.000698 161:0.003492 162:0.000698 163:0.00419 164:0.004888 165:0.011872 166:0.003492 167:0.004888 168:0.011173 169:0.004888 170:0.005587 171:0.001397 172:0.005587 173:0.00838 174:0.005587 175:0.002095 176:0.003492 177:0.00419 178:0.000698 179:0.002793 180:0.001397 181:0.006983 182:0.002793 183:0.007682 184:0.002095 185:0.007682 186:0.00838 187:0.007682 188:0.00419 189:0.000698 190:0.005587 191:0.002095 192:0.007682 193:0.009078 194:0.005587 195:0.002793 196:0.002095 197:0.006983 198:0.006285 199:0.010475 200:0.006285 201:0.005587 202:0.002095 203:0.005587 204:0 205:0.002793 206:0.002793 207:0.005587 208:0.00419 209:0.002095 210:0.006983 211:0.004888 212:0 213:0.006285 214:0.00419 215:0 216:0.001397 217:0 218:0.001397 219:0.00838 220:0.002793 221:0.001397 222:0.002095 223:0 224:0.001397 225:0.003492 226:0.001397 227:0 228:0.003492 229:0 230:0.006285 231:0.00838 232:0.005587 233:0.00419 234:0.00419 235:0.003492 236:0.002793 237:0.000698 238:0.000698 239:0.002793 240:0.004888 241:0.002095 242:0.001397 243:0.001397 244:0.001397 245:0.003492 246:0.00419 247:0.00419 248:0.000698 249:0 250:0.001397 251:0.003492 252:0.000698 253:0.003492 254:0.001397 255:0.000698 
5 0:0.000823 1:0.000823 2:0.004115 3:0 4:0.011523 5:0 6:0.007407 7:0.009053 8:0.000823 9:0.001646 10:0 11:0.0107 12:0.002469 13:0 14:0.003292 15:0.009877 16:0.004115 17:0.000823 18:0.001646 19:0 20:0.001646 21:0.00823 22:0.016461 23:0.009877 24:0.006584 25:0.003292 26:0.003292 27:0.002469 28:0.013169 29:0.003292 30:0.007407 31:0.005761 32:0.003292 33:0.001646 34:0.000823 35:0.006584 36:0.000823 37:0.005761 38:0.001646 39:0 40:0.003292 41:0.001646 42:0.000823 43:0.000823 44:0.001646 45:0.004115 46:0 47:0.00823 48:0.003292 49:0.0107 50:0.003292 51:0 52:0 53:0.000823 54:0.000823 55:0.002469 56:0.006584 57:0.004115 58:0.020576 59:0.000823 60:0.007407 61:0.003292 62:0.007407 63:0.005761 64:0.000823 65:0 66:0.035391 67:0.005761 68:0.004115 69:0.005761 70:0.004115 71:0.004115 72:0.004938 73:0.005761 74:0.005761 75:0.011523 76:0 77:0.000823 78:0.004115 79:0.004938 80:0.002469 81:0.001646 82:0.003292 83:0.002469 84:0.004115 85:0 86:0 87:0.001646 88:0.000823 89:0.000823 90:0.004115 91:0.004115 92:0.003292 93:0.001646 94:0.004938 95:0.00823 96:0.002469 97:0.003292 98:0.001646 99:0.005761 100:0.004115 101:0 102:0.002469 103:0.009053 104:0.003292 105:0.000823 106:0.004938 107:0.000823 108:0.004938 109:0.004938 110:0.006584 111:0.006584 112:0.00823 113:0 114:0.007407 115:0.012346 116:0.003292 117:0.004115 118:0.004938 119:0.009053 120:0.004938 121:0.003292 122:0.006584 123:0.001646 124:0.001646 125:0 126:0.002469 127:0.005761 128:0.004938 129:0 130:0 131:0.009053 132:0.0107 133:0.001646 134:0.006584 135:0.001646 136:0.001646 137:0.004938 138:0.002469 139:0.001646 140:0.001646 141:0 142:0.009053 143:0.003292 144:0.001646 145:0.005761 146:0.007407 147:0.002469 148:0.003292 149:0.001646 150:0 151:0.002469 152:0.003292 153:0 154:0.013169 155:0.000823 156:0.00823 157:0.001646 158:0.001646 159:0.001646 160:0.004938 161:0.003292 162:0 163:0.004938 164:0.003292 165:0.006584 166:0.005761 167:0.007407 168:0.006584 169:0.005761 170:0.009053 171:0.005761 172:0.002469 173:0.002469 174:0 175:0.006584 176:0 177:0.001646 178:0.000823 179:0 180:0.000823 181:0.007407 182:0.000823 183:0.002469 184:0.001646 185:0.003292 186:0 187:0.002469 188:0.007407 189:0 190:0.005761 191:0.00823 192:0.003292 193:0.00823 194:0.003292 195:0.000823 196:0.000823 197:0.003292 198:0.003292 199:0.005761 200:0.00823 201:0.004115 202:0.004938 203:0.001646 204:0.002469 205:0.015638 206:0 207:0.004115 208:0.001646 209:0.000823 210:0.000823 211:0.000823 212:0.005761 213:0.004115 214:0.002469 215:0.003292 216:0.000823 217:0 218:0.004938 219:0.006584 220:0.004115 221:0.001646 222:0.004115 223:0 224:0.000823 225:0.000823 226:0.000823 227:0.003292 228:0.002469 229:0.001646 230:0.004938 231:0.012346 232:0.000823 233:0.002469 234:0.000823 235:0.004938 236:0.004938 237:0.003292 238:0.001646 239:0.001646 240:0.0107 241:0 242:0.003292 243:0.003292 244:0.000823 245:0.002469 246:0.005761 247:0.003292 248:0.002469 249:0 250:0.002469 251:0.014815 252:0.004115 253:0.002469 254:0.002469 255:0.001646 
5 0:0.00099 1:0 2:0 3:0.00198 4:0.007921 5:0 6:0.00099 7:0.00198 8:0.00297 9:0.00198 10:0.00099 11:0.00297 12:0.00396 13:0.009901 14:0.00495 15:0.00495 16:0 17:0.005941 18:0.00198 19:0.00297 20:0 21:0.00495 22:0.005941 23:0.00198 24:0.009901 25:0.00099 26:0.00297 27:0 28:0.006931 29:0.00495 30:0.00297 31:0.00297 32:0.00297 33:0.006931 34:0.00297 35:0.00198 36:0.00099 37:0 38:0.00495 39:0 40:0.00495 41:0.00297 42:0.00099 43:0.009901 44:0.012871 45:0.00099 46:0.00297 47:0.00198 48:0 49:0.00495 50:0.00297 51:0 52:0 53:0.00198 54:0.00198 55:0 56:0.00297 57:0.00099 58:0 59:0.007921 60:0.006931 61:0.008911 62:0.009901 63:0.00198 64:0.005941 65:0 66:0.00297 67:0.008911 68:0.019802 69:0 70:0.00198 71:0.00198 72:0.00099 73:0.011881 74:0.00198 75:0.00198 76:0.018812 77:0.00099 78:0.018812 79:0.006931 80:0.005941 81:0.00396 82:0.00198 83:0.00297 84:0.00099 85:0 86:0.00297 87:0.00396 88:0.00198 89:0 90:0.017822 91:0.00099 92:0.00198 93:0 94:0.007921 95:0.00297 96:0.008911 97:0.00198 98:0.008911 99:0 100:0.00099 101:0.00099 102:0.00198 103:0.00099 104:0.00198 105:0.00099 106:0.00099 107:0 108:0.00396 109:0 110:0.00099 111:0.006931 112:0.00099 113:0 114:0.00297 115:0.007921 116:0.00396 117:0.005941 118:0.00396 119:0.015842 120:0.008911 121:0.00495 122:0.00099 123:0.00396 124:0.00099 125:0.00198 126:0.005941 127:0.005941 128:0.00099 129:0.00099 130:0 131:0 132:0.006931 133:0.010891 134:0.00198 135:0.00396 136:0 137:0.00495 138:0.00396 139:0.00396 140:0 141:0.00297 142:0.00495 143:0.00198 144:0 145:0 146:0.00198 147:0.00099 148:0 149:0.00297 150:0.00198 151:0.028713 152:0.00396 153:0.00099 154:0.005941 155:0.00198 156:0.00495 157:0 158:0 159:0.00099 160:0.00198 161:0.00099 162:0 163:0.00198 164:0.00396 165:0.00495 166:0.00495 167:0.00198 168:0.010891 169:0 170:0.010891 171:0.00099 172:0.00198 173:0.018812 174:0.00099 175:0.008911 176:0 177:0.00198 178:0.009901 179:0.00099 180:0.00099 181:0.00099 182:0.011881 183:0.00297 184:0.018812 185:0.00297 186:0.00198 187:0.00099 188:0.010891 189:0.00396 190:0.00495 191:0 192:0 193:0.00198 194:0.00396 195:0.006931 196:0 197:0.00099 198:0.00495 199:0.00495 200:0.00396 201:0 202:0.00099 203:0.00099 204:0.023762 205:0.00099 206:0.00099 207:0.00198 208:0 209:0 210:0 211:0.00198 212:0.00396 213:0.00495 214:0.00099 215:0.015842 216:0 217:0 218:0 219:0.00099 220:0.00297 221:0 222:0.010891 223:0.00099 224:0 225:0 226:0 227:0.00495 228:0.00495 229:0.006931 230:0.00297 231:0 232:0.010891 233:0.00198 234:0.00495 235:0.00396 236:0.011881 237:0.015842 238:0 239:0.00396 240:0.010891 241:0.006931 242:0.00198 243:0.005941 244:0.00297 245:0.024752 246:0.00396 247:0.006931 248:0.00198 249:0 250:0.00396 251:0.00396 252:0.00396 253:0 254:0.005941 255:0.00099 
5 0:0 1:0.001856 2:0.007426 3:0.000619 4:0.012995 5:0.001856 6:0.004332 7:0.001856 8:0.002475 9:0.006188 10:0 11:0.001238 12:0.003094 13:0.00495 14:0.003094 15:0.000619 16:0.004332 17:0.006188 18:0.002475 19:0.000619 20:0.002475 21:0.017327 22:0.014233 23:0.001238 24:0.002475 25:0.002475 26:0.011757 27:0.001856 28:0.007426 29:0.002475 30:0.004332 31:0.003094 32:0.001856 33:0.001238 34:0.00495 35:0.011757 36:0.01052 37:0.014233 38:0.000619 39:0 40:0.001856 41:0.000619 42:0.001238 43:0.008663 44:0.003094 45:0.000619 46:0.001856 47:0.004332 48:0.004332 49:0.002475 50:0.003094 51:0 52:0.001238 53:0.006807 54:0.000619 55:0.003094 56:0.002475 57:0.006188 58:0.022277 59:0.008663 60:0.011757 61:0.006188 62:0.001856 63:0.002475 64:0 65:0 66:0.009901 67:0.004332 68:0.003713 69:0.011139 70:0.006188 71:0.01052 72:0.004332 73:0.012376 74:0.003713 75:0.009901 76:0.000619 77:0.001238 78:0.011139 79:0.01547 80:0.001238 81:0.001238 82:0 83:0 84:0 85:0.003713 86:0.001856 87:0.003713 88:0 89:0.000619 90:0 91:0.001238 92:0.006188 93:0.001238 94:0.005569 95:0.011139 96:0.002475 97:0.000619 98:0.001238 99:0.001856 100:0.000619 101:0 102:0.001238 103:0.000619 104:0.002475 105:0.000619 106:0.000619 107:0.000619 108:0.007426 109:0.009282 110:0.00495 111:0.00495 112:0.005569 113:0 114:0.000619 115:0.003713 116:0.019183 117:0.003094 118:0.00495 119:0.006188 120:0.009901 121:0.008663 122:0.02104 123:0.00495 124:0.003094 125:0 126:0.001238 127:0.002475 128:0.003094 129:0 130:0 131:0.006807 132:0.003713 133:0.000619 134:0.004332 135:0.003094 136:0.001856 137:0.001856 138:0.003094 139:0 140:0.000619 141:0 142:0.002475 143:0.008663 144:0.012995 145:0.001238 146:0.004332 147:0.003094 148:0.002475 149:0.008045 150:0.01052 151:0.006188 152:0.009901 153:0.001856 154:0.003713 155:0 156:0.002475 157:0.008663 158:0 159:0.000619 160:0.002475 161:0.007426 162:0 163:0.004332 164:0.00495 165:0.000619 166:0.002475 167:0.003094 168:0.01052 169:0.001856 170:0.000619 171:0.007426 172:0.003713 173:0.000619 174:0 175:0.001238 176:0.001856 177:0.003094 178:0.002475 179:0.001856 180:0.001238 181:0.007426 182:0.000619 183:0 184:0.003713 185:0.000619 186:0.009901 187:0.005569 188:0.004332 189:0.000619 190:0.003094 191:0 192:0.003094 193:0.008663 194:0.003094 195:0.001856 196:0.000619 197:0.001856 198:0.001856 199:0.006807 200:0.012376 201:0.001238 202:0.00495 203:0.000619 204:0.004332 205:0.002475 206:0 207:0 208:0.001856 209:0.000619 210:0.001238 211:0.004332 212:0.011139 213:0.001856 214:0.003713 215:0.003094 216:0 217:0 218:0 219:0.009282 220:0.00495 221:0.008663 222:0.009901 223:0 224:0.007426 225:0.000619 226:0.004332 227:0.002475 228:0.001238 229:0.001238 230:0.005569 231:0.009282 232:0.004332 233:0.008045 234:0.001238 235:0.00495 236:0.005569 237:0.005569 238:0 239:0 240:0.014233 241:0 242:0.005569 243:0.001856 244:0.000619 245:0.005569 246:0.005569 247:0.003094 248:0.000619 249:0 250:0.000619 251:0.001856 252:0.002475 253:0.001238 254:0.000619 255:0.000619 
5 0:0 1:0.00517 2:0.007386 3:0.000739 4:0.003693 5:0.002954 6:0.001477 7:0.002954 8:0.006647 9:0.003693 10:0.002216 11:0.00517 12:0.00517 13:0 14:0.002954 15:0.006647 16:0.001477 17:0.004431 18:0.004431 19:0.002954 20:0.009601 21:0.002216 22:0.000739 23:0.001477 24:0.001477 25:0.006647 26:0.002954 27:0.005908 28:0.002954 29:0 30:0.00517 31:0.011817 32:0.003693 33:0.002954 34:0.003693 35:0.006647 36:0.008863 37:0.002954 38:0 39:0 40:0.003693 41:0.001477 42:0.005908 43:0.00517 44:0.003693 45:0.002216 46:0.002216 47:0.001477 48:0.00517 49:0.008863 50:0.001477 51:0.004431 52:0.003693 53:0.004431 54:0.000739 55:0.008124 56:0.000739 57:0.006647 58:0.012555 59:0 60:0.002216 61:0.002216 62:0.001477 63:0.000739 64:0.002216 65:0.003693 66:0.001477 67:0.002216 68:0.000739 69:0.000739 70:0.001477 71:0.003693 72:0.001477 73:0.007386 74:0.003693 75:0.006647 76:0.002954 77:0.003693 78:0.005908 79:0 80:0.002954 81:0.003693 82:0.001477 83:0.002954 84:0.001477 85:0.000739 86:0.003693 87:0.003693 88:0.002216 89:0.001477 90:0 91:0.002216 92:0.007386 93:0.001477 94:0.006647 95:0.013294 96:0.006647 97:0.011078 98:0.002216 99:0.004431 100:0.01034 101:0.009601 102:0.002954 103:0.002954 104:0.001477 105:0.003693 106:0 107:0.005908 108:0.012555 109:0.008863 110:0.008124 111:0.002216 112:0 113:0.004431 114:0.00517 115:0 116:0.002954 117:0 118:0.011817 119:0.003693 120:0.000739 121:0.002216 122:0.007386 123:0.002954 124:0.00517 125:0.000739 126:0.005908 127:0.000739 128:0.002216 129:0.003693 130:0.000739 131:0.008124 132:0.002954 133:0 134:0.007386 135:0.005908 136:0.005908 137:0 138:0 139:0.002216 140:0.002216 141:0.000739 142:0.001477 143:0.000739 144:0.007386 145:0.000739 146:0.003693 147:0.00517 148:0.005908 149:0.002216 150:0.007386 151:0.000739 152:0.001477 153:0.00517 154:0.003693 155:0.004431 156:0.000739 157:0.003693 158:0.003693 159:0.002216 160:0.003693 161:0.005908 162:0.003693 163:0.000739 164:0.004431 165:0.004431 166:0.002954 167:0.012555 168:0.013294 169:0.002216 170:0.007386 171:0.004431 172:0.006647 173:0.000739 174:0.002954 175:0 176:0.00517 177:0.008863 178:0 179:0.000739 180:0.001477 181:0.006647 182:0.002954 183:0.002216 184:0.002954 185:0.003693 186:0.012555 187:0.011078 188:0.002954 189:0.001477 190:0.005908 191:0.00517 192:0.002954 193:0.006647 194:0 195:0.002216 196:0.003693 197:0.00517 198:0.002216 199:0.003693 200:0.003693 201:0.001477 202:0.012555 203:0.002954 204:0.000739 205:0.005908 206:0 207:0.003693 208:0.005908 209:0 210:0.00517 211:0.009601 212:0.004431 213:0.001477 214:0.003693 215:0 216:0.003693 217:0.001477 218:0.002216 219:0.007386 220:0.01034 221:0 222:0.002216 223:0.000739 224:0.011817 225:0.003693 226:0.002216 227:0.000739 228:0.003693 229:0 230:0.002954 231:0.011817 232:0.000739 233:0.003693 234:0.002216 235:0.003693 236:0.008863 237:0.000739 238:0.007386 239:0.003693 240:0.013294 241:0.004431 242:0.005908 243:0.002216 244:0.017725 245:0.002954 246:0.001477 247:0 248:0.000739 249:0 250:0.008124 251:0.006647 252:0.003693 253:0.004431 254:0.002216 255:0 
5 0:0 1:0.00102 2:0 3:0 4:0.019388 5:0.006122 6:0.005102 7:0.005102 8:0 9:0.004082 10:0 11:0.005102 12:0.004082 13:0.005102 14:0.005102 15:0.007143 16:0.00102 17:0.015306 18:0.00102 19:0.002041 20:0 21:0.005102 22:0.009184 23:0.00102 24:0 25:0.00102 26:0.003061 27:0 28:0.010204 29:0.003061 30:0.007143 31:0.007143 32:0 33:0.003061 34:0 35:0.002041 36:0.002041 37:0.00102 38:0.003061 39:0 40:0.002041 41:0 42:0.00102 43:0.008163 44:0.003061 45:0.006122 46:0.00102 47:0.003061 48:0.00102 49:0.006122 50:0 51:0 52:0 53:0.008163 54:0 55:0.002041 56:0.005102 57:0.006122 58:0.021429 59:0 60:0.005102 61:0.006122 62:0 63:0.003061 64:0 65:0 66:0.019388 67:0.004082 68:0 69:0.005102 70:0.003061 71:0.005102 72:0.007143 73:0.006122 74:0.003061 75:0.012245 76:0.003061 77:0.002041 78:0.015306 79:0.008163 80:0.008163 81:0.002041 82:0 83:0.002041 84:0.00102 85:0.00102 86:0.00102 87:0.009184 88:0 89:0.005102 90:0.002041 91:0.003061 92:0.011224 93:0.003061 94:0 95:0.00102 96:0 97:0.00102 98:0.00102 99:0.009184 100:0 101:0.003061 102:0.016327 103:0.010204 104:0.002041 105:0 106:0 107:0.003061 108:0.012245 109:0.00102 110:0.009184 111:0.008163 112:0.002041 113:0 114:0.003061 115:0.00102 116:0.002041 117:0.00102 118:0.006122 119:0.017347 120:0.005102 121:0.003061 122:0.004082 123:0.015306 124:0.002041 125:0.00102 126:0.004082 127:0.006122 128:0.004082 129:0.00102 130:0 131:0.004082 132:0.008163 133:0 134:0.005102 135:0.010204 136:0.004082 137:0.002041 138:0.003061 139:0.00102 140:0 141:0 142:0.009184 143:0.002041 144:0.004082 145:0.002041 146:0.009184 147:0.004082 148:0.00102 149:0.00102 150:0.00102 151:0 152:0.006122 153:0.00102 154:0.006122 155:0.002041 156:0 157:0.011224 158:0.002041 159:0.003061 160:0.016327 161:0.008163 162:0.003061 163:0.003061 164:0.008163 165:0.003061 166:0.00102 167:0.002041 168:0.011224 169:0.002041 170:0.002041 171:0.005102 172:0.005102 173:0.00102 174:0 175:0.005102 176:0.002041 177:0.00102 178:0 179:0.002041 180:0.007143 181:0.002041 182:0.003061 183:0.005102 184:0.009184 185:0.00102 186:0.003061 187:0.009184 188:0.011224 189:0 190:0.003061 191:0.011224 192:0.003061 193:0.017347 194:0.008163 195:0 196:0 197:0 198:0 199:0.009184 200:0.007143 201:0.002041 202:0.00102 203:0.003061 204:0.00102 205:0.012245 206:0 207:0.003061 208:0.00102 209:0 210:0.004082 211:0.002041 212:0.006122 213:0.002041 214:0.00102 215:0.00102 216:0 217:0.00102 218:0 219:0.005102 220:0.004082 221:0.002041 222:0.004082 223:0 224:0.005102 225:0 226:0 227:0.00102 228:0.004082 229:0.002041 230:0.005102 231:0.008163 232:0.003061 233:0.003061 234:0.00102 235:0.005102 236:0.003061 237:0.00102 238:0.00102 239:0.00102 240:0.004082 241:0.005102 242:0.008163 243:0.005102 244:0.00102 245:0.003061 246:0.004082 247:0.010204 248:0.00102 249:0 250:0.002041 251:0.020408 252:0.002041 253:0.003061 254:0.002041 255:0.00102 
5 0:0.00059 1:0.003246 2:0.00059 3:0.00118 4:0.004426 5:0.002066 6:0.00177 7:0.000885 8:0.002066 9:0.000295 10:0.000295 11:0.002066 12:0.002656 13:0.005311 14:0.008557 15:0.002361 16:0.002951 17:0.007967 18:0 19:0.002361 20:0.001475 21:0.002951 22:0.000295 23:0.002951 24:0 25:0.002656 26:0.003541 27:0.007967 28:0.002656 29:0.010032 30:0.010328 31:0.003246 32:0.007672 33:0.001475 34:0.004721 35:0.000295 36:0.002361 37:0.000295 38:0.002361 39:0.002361 40:0 41:0.005311 42:0.002656 43:0.002361 44:0.003246 45:0.003246 46:0.008262 47:0.002066 48:0.010918 49:0.005901 50:0.00118 51:0.00059 52:0.002066 53:0.004721 54:0.003246 55:0.003246 56:0.009737 57:0.00118 58:0.00059 59:0.00118 60:0.000885 61:0.004426 62:0.002066 63:0.015934 64:0.00177 65:0.00177 66:0.003541 67:0.007672 68:0.001475 69:0.003246 70:0.005606 71:0.000885 72:0.00118 73:0.00177 74:0.004426 75:0.002951 76:0.002361 77:0.002361 78:0.002951 79:0.003246 80:0.00177 81:0.004721 82:0.003246 83:0.000885 84:0.008852 85:0.001475 86:0.005901 87:0.002656 88:0.003246 89:0.006787 90:0.002656 91:0.003541 92:0.005606 93:0.003246 94:0 95:0.00118 96:0.000295 97:0.006787 98:0.011213 99:0.000295 100:0.004721 101:0.00177 102:0.00118 103:0.00177 104:0.007967 105:0.000295 106:0.00118 107:0.005016 108:0.007967 109:0.003836 110:0.004426 111:0.004721 112:0.001475 113:0.004426 114:0.008262 115:0.00059 116:0.004721 117:0.012098 118:0.002951 119:0.00118 120:0.005901 121:0.010918 122:0.000295 123:0.003836 124:0.002951 125:0.00059 126:0.007377 127:0.008262 128:0.001475 129:0.00177 130:0.003246 131:0.00118 132:0.007082 133:0.00059 134:0.014163 135:0.006197 136:0.004426 137:0.002656 138:0.000885 139:0.002066 140:0.005901 141:0.002066 142:0.00118 143:0.004131 144:0.002951 145:0.00118 146:0.004426 147:0.003836 148:0.004721 149:0.002066 150:0.008262 151:0.001475 152:0.002656 153:0.013573 154:0.002951 155:0.010328 156:0.002656 157:0.001475 158:0.002656 159:0.002951 160:0.031573 161:0.005901 162:0.005311 163:0.002066 164:0.005311 165:0.01918 166:0.000885 167:0.002066 168:0.00177 169:0.013868 170:0.002066 171:0.004131 172:0.006197 173:0.010623 174:0.000885 175:0.001475 176:0.004426 177:0.003246 178:0.001475 179:0.00059 180:0.002656 181:0.00059 182:0.00118 183:0.000885 184:0.010328 185:0.005016 186:0.004721 187:0.002656 188:0.000295 189:0.00177 190:0.002656 191:0.00059 192:0.000885 193:0.000885 194:0.005901 195:0.00177 196:0.005311 197:0.005901 198:0.005901 199:0.00118 200:0.005606 201:0.005901 202:0.004426 203:0.005606 204:0.011508 205:0.00177 206:0.00059 207:0.005016 208:0.005606 209:0.002361 210:0.007967 211:0.008557 212:0.002361 213:0.005311 214:0.00059 215:0 216:0.002656 217:0.00118 218:0.012098 219:0.007967 220:0.00177 221:0.002656 222:0.00177 223:0.002066 224:0.002066 225:0.003246 226:0.002951 227:0.00177 228:0.00177 229:0 230:0.004721 231:0.003836 232:0.005901 233:0.004131 234:0.002656 235:0.013278 236:0.002361 237:0.003836 238:0.000295 239:0.003836 240:0.002066 241:0.004721 242:0.00118 243:0.002066 244:0.003246 245:0.000885 246:0.002066 247:0.02036 248:0.00059 249:0.00177 250:0.002951 251:0.000885 252:0.00118 253:0.013868 254:0.007082 255:0.003246 
5 0:0.002367 1:0 2:0.00142 3:0.002841 4:0.009943 5:0.001894 6:0.004261 7:0.005208 8:0.000473 9:0.004735 10:0.00142 11:0.004261 12:0.002367 13:0.007102 14:0.008049 15:0.00142 16:0.001894 17:0.008996 18:0.000473 19:0.002841 20:0.00142 21:0.010417 22:0.007576 23:0.001894 24:0.004735 25:0.003788 26:0.007576 27:0.004261 28:0.003788 29:0.005682 30:0.006155 31:0.003314 32:0.001894 33:0.002841 34:0 35:0.008996 36:0.002367 37:0.004261 38:0.003788 39:0.000947 40:0.004735 41:0.00142 42:0.002841 43:0.005208 44:0.002367 45:0.001894 46:0.004735 47:0 48:0.006155 49:0.00142 50:0.004735 51:0.000473 52:0.001894 53:0.002367 54:0.001894 55:0.001894 56:0.002367 57:0.004261 58:0.008523 59:0.003788 60:0.001894 61:0.007102 62:0.004735 63:0.004261 64:0.000947 65:0.002367 66:0.004261 67:0.008049 68:0.000947 69:0.005208 70:0.004261 71:0.003314 72:0.002367 73:0.002841 74:0.002841 75:0.005682 76:0 77:0.00142 78:0.007102 79:0.006155 80:0.004261 81:0.002841 82:0.002841 83:0.000947 84:0.007576 85:0.005682 86:0 87:0.002367 88:0.000947 89:0.005208 90:0.001894 91:0.001894 92:0.006155 93:0.000947 94:0.003788 95:0.004261 96:0.007576 97:0.002841 98:0.004261 99:0.006629 100:0.000473 101:0.002841 102:0.001894 103:0.001894 104:0.005208 105:0.000947 106:0.00142 107:0.003314 108:0.007102 109:0.003314 110:0.00142 111:0.008996 112:0.003788 113:0 114:0.002841 115:0.007576 116:0.006155 117:0.002367 118:0.007102 119:0.003788 120:0.013731 121:0.008996 122:0.006155 123:0.004261 124:0.003314 125:0.00142 126:0.005682 127:0.006629 128:0.002367 129:0.000473 130:0.001894 131:0.006155 132:0.002367 133:0.004261 134:0.007102 135:0.00947 136:0.005208 137:0.005208 138:0.007102 139:0.003788 140:0.004735 141:0.001894 142:0.002367 143:0.004735 144:0.00142 145:0.001894 146:0.004261 147:0.002841 148:0.002367 149:0.01089 150:0.001894 151:0.013258 152:0.007576 153:0.002841 154:0.003314 155:0.002367 156:0.003788 157:0.00142 158:0.004261 159:0.000947 160:0.004261 161:0.004261 162:0.000947 163:0.005208 164:0.002841 165:0.006629 166:0.000947 167:0.004735 168:0.006629 169:0.002367 170:0.006155 171:0.003788 172:0.008996 173:0.007102 174:0.000947 175:0.007102 176:0.002841 177:0.003314 178:0.005682 179:0.003314 180:0.002841 181:0.003314 182:0.001894 183:0.002367 184:0.002841 185:0.004735 186:0.002841 187:0.004261 188:0 189:0.006629 190:0.00142 191:0.000947 192:0.001894 193:0.008049 194:0.002367 195:0.000473 196:0.002841 197:0.006629 198:0.00142 199:0.006155 200:0.001894 201:0.003314 202:0.008523 203:0.003314 204:0.006155 205:0.003314 206:0.000473 207:0.004261 208:0.001894 209:0.000473 210:0.003314 211:0.005208 212:0.006629 213:0.005682 214:0.003788 215:0.003788 216:0.001894 217:0.000473 218:0.00142 219:0.003788 220:0.023674 221:0.001894 222:0.006629 223:0 224:0.00142 225:0.002841 226:0.000947 227:0.000473 228:0.003314 229:0.005208 230:0.002841 231:0.007576 232:0.010417 233:0.002841 234:0.00142 235:0.006155 236:0.002841 237:0.009943 238:0 239:0.002367 240:0.011364 241:0.004261 242:0.003788 243:0.00142 244:0.000947 245:0.010417 246:0.000947 247:0.006155 248:0 249:0 250:0.002367 251:0.003314 252:0.004735 253:0.004735 254:0.004261 255:0.000473 
5 0:0 1:0 2:0.004049 3:0.008097 4:0.009447 5:0 6:0.021592 7:0.00135 8:0 9:0.004049 10:0 11:0.006748 12:0.002699 13:0.00135 14:0.00135 15:0 16:0.014845 17:0.005398 18:0 19:0 20:0.00135 21:0.012146 22:0.00135 23:0.00135 24:0.005398 25:0.008097 26:0.013495 27:0 28:0.009447 29:0 30:0 31:0.002699 32:0.004049 33:0.004049 34:0.004049 35:0.037787 36:0.00135 37:0 38:0.004049 39:0 40:0.004049 41:0 42:0 43:0.010796 44:0 45:0 46:0.00135 47:0.00135 48:0 49:0 50:0.005398 51:0 52:0 53:0.00135 54:0 55:0 56:0 57:0 58:0.032389 59:0.00135 60:0.020243 61:0.006748 62:0.013495 63:0.002699 64:0.00135 65:0 66:0.006748 67:0.006748 68:0.018893 69:0.004049 70:0.00135 71:0.010796 72:0.002699 73:0.00135 74:0.008097 75:0.006748 76:0.00135 77:0 78:0.010796 79:0.020243 80:0 81:0 82:0 83:0 84:0.00135 85:0.008097 86:0 87:0.006748 88:0.00135 89:0 90:0 91:0.00135 92:0.009447 93:0 94:0.041835 95:0.002699 96:0.013495 97:0 98:0 99:0.008097 100:0 101:0 102:0 103:0 104:0.004049 105:0 106:0 107:0 108:0.002699 109:0.00135 110:0.014845 111:0.008097 112:0 113:0 114:0 115:0.008097 116:0.005398 117:0.002699 118:0.006748 119:0 120:0.008097 121:0.002699 122:0.02969 123:0.002699 124:0 125:0 126:0.002699 127:0 128:0.004049 129:0 130:0.00135 131:0.02969 132:0.00135 133:0.006748 134:0.00135 135:0 136:0.002699 137:0 138:0.006748 139:0 140:0 141:0 142:0.012146 143:0 144:0.004049 145:0.002699 146:0 147:0.009447 148:0 149:0.012146 150:0 151:0.008097 152:0.009447 153:0 154:0.00135 155:0 156:0 157:0.005398 158:0.00135 159:0.008097 160:0.00135 161:0 162:0 163:0.012146 164:0.00135 165:0.00135 166:0.004049 167:0 168:0.016194 169:0 170:0 171:0.004049 172:0 173:0 174:0 175:0.002699 176:0.00135 177:0 178:0.00135 179:0.00135 180:0 181:0.012146 182:0 183:0.00135 184:0 185:0 186:0 187:0.006748 188:0.00135 189:0 190:0.009447 191:0.002699 192:0 193:0.012146 194:0.004049 195:0 196:0.00135 197:0 198:0 199:0.008097 200:0.024291 201:0 202:0 203:0.002699 204:0 205:0.006748 206:0.002699 207:0.00135 208:0 209:0 210:0.00135 211:0 212:0.004049 213:0.004049 214:0 215:0.005398 216:0 217:0 218:0.00135 219:0.00135 220:0.004049 221:0.004049 222:0.024291 223:0 224:0 225:0 226:0 227:0.005398 228:0.00135 229:0.005398 230:0 231:0 232:0.004049 233:0.002699 234:0.00135 235:0 236:0.013495 237:0.004049 238:0 239:0 240:0.020243 241:0 242:0.004049 243:0.002699 244:0 245:0.017544 246:0 247:0.00135 248:0 249:0 250:0.002699 251:0.00135 252:0.00135 253:0 254:0 255:0 
5 0:0 1:0 2:0.00172 3:0 4:0.013758 5:0.003439 6:0.009458 7:0.009458 8:0.00172 9:0 10:0.00258 11:0.008598 12:0.004299 13:0.004299 14:0.006019 15:0.011178 16:0.005159 17:0.012898 18:0.00086 19:0.00086 20:0.00086 21:0.008598 22:0.003439 23:0.00258 24:0.006879 25:0.004299 26:0.006879 27:0 28:0.00086 29:0.00172 30:0.003439 31:0.004299 32:0.00258 33:0.006879 34:0.00258 35:0.00172 36:0.00086 37:0.003439 38:0 39:0 40:0.00172 41:0.00086 42:0 43:0.009458 44:0.006879 45:0.00172 46:0 47:0.005159 48:0.00258 49:0.006019 50:0.006019 51:0 52:0 53:0.00172 54:0 55:0.00172 56:0.00086 57:0.00172 58:0.023216 59:0 60:0.003439 61:0.00258 62:0.008598 63:0.009458 64:0 65:0 66:0.00172 67:0.005159 68:0.004299 69:0.003439 70:0.005159 71:0.003439 72:0.00086 73:0.006019 74:0.006019 75:0.005159 76:0.00172 77:0 78:0.003439 79:0.00086 80:0.00258 81:0.009458 82:0.004299 83:0.003439 84:0.00172 85:0.009458 86:0 87:0.006019 88:0 89:0.00086 90:0.00086 91:0.003439 92:0 93:0 94:0.008598 95:0.005159 96:0.016337 97:0 98:0.006019 99:0.003439 100:0.003439 101:0.00258 102:0.004299 103:0.008598 104:0.004299 105:0 106:0.00086 107:0 108:0.00258 109:0.006879 110:0.00172 111:0.005159 112:0.004299 113:0.00172 114:0.004299 115:0.00086 116:0.005159 117:0.003439 118:0.00172 119:0.006019 120:0.012898 121:0.012038 122:0.006879 123:0.008598 124:0 125:0 126:0.007739 127:0.005159 128:0.007739 129:0.00086 130:0.00086 131:0.003439 132:0.005159 133:0.00086 134:0.007739 135:0.00258 136:0.00172 137:0.00086 138:0.00086 139:0 140:0 141:0.00086 142:0.005159 143:0.00172 144:0.009458 145:0 146:0.006019 147:0.00172 148:0.00172 149:0.006879 150:0 151:0.003439 152:0.009458 153:0.00172 154:0.012898 155:0.003439 156:0.003439 157:0 158:0 159:0.006019 160:0.008598 161:0.006879 162:0.00258 163:0.006019 164:0.006019 165:0.00258 166:0.003439 167:0.00086 168:0.008598 169:0.005159 170:0.005159 171:0.00258 172:0.005159 173:0.00258 174:0.00086 175:0 176:0.00086 177:0.00172 178:0.00086 179:0.003439 180:0 181:0.005159 182:0.003439 183:0.00258 184:0.004299 185:0.004299 186:0.012898 187:0.007739 188:0.006019 189:0.00258 190:0.011178 191:0.003439 192:0.00086 193:0.008598 194:0.011178 195:0 196:0.00172 197:0.005159 198:0.00086 199:0.00086 200:0.009458 201:0.00172 202:0.006879 203:0.00258 204:0.008598 205:0.007739 206:0 207:0.00086 208:0.004299 209:0.00172 210:0.003439 211:0 212:0.005159 213:0.003439 214:0.00086 215:0.005159 216:0 217:0 218:0 219:0.003439 220:0.00172 221:0.003439 222:0.014617 223:0 224:0 225:0 226:0.00086 227:0.012038 228:0.013758 229:0.00086 230:0.00258 231:0.00258 232:0.006879 233:0.010318 234:0.00086 235:0.006879 236:0.006019 237:0.00258 238:0 239:0.00172 240:0.011178 241:0.00172 242:0.00258 243:0.004299 244:0.00258 245:0.018057 246:0.004299 247:0.009458 248:0.00086 249:0 250:0.00172 251:0.007739 252:0.004299 253:0.00086 254:0.00086 255:0.00086 
5 0:0.000591 1:0.003546 2:0.001182 3:0.000591 4:0.007092 5:0.002955 6:0.001182 7:0.001182 8:0.002955 9:0.004137 10:0 11:0.002364 12:0.001773 13:0.006501 14:0.005319 15:0.001773 16:0.007683 17:0.009456 18:0.000591 19:0.001773 20:0.002364 21:0.007092 22:0.004137 23:0.001182 24:0.008274 25:0.001773 26:0.004137 27:0.003546 28:0.011229 29:0.002364 30:0.001773 31:0.004137 32:0.001773 33:0.001773 34:0.000591 35:0.002364 36:0.005319 37:0.002955 38:0.004137 39:0.004137 40:0.002955 41:0.001182 42:0 43:0.008274 44:0.002955 45:0.000591 46:0.004137 47:0.003546 48:0.002955 49:0.004728 50:0.007683 51:0 52:0.001773 53:0.002955 54:0.001773 55:0.000591 56:0.004137 57:0.004728 58:0.01182 59:0.007683 60:0.002955 61:0.006501 62:0.004137 63:0.004728 64:0.001182 65:0.000591 66:0.00591 67:0.006501 68:0.004137 69:0.008274 70:0.003546 71:0.002955 72:0.002364 73:0.007092 74:0.004728 75:0.00591 76:0.001182 77:0.001773 78:0.011229 79:0.004728 80:0.002955 81:0.002364 82:0 83:0.000591 84:0.004137 85:0.001182 86:0.006501 87:0.002364 88:0.001182 89:0.002955 90:0.002364 91:0.001182 92:0.000591 93:0.000591 94:0.014775 95:0.009456 96:0.009456 97:0.002364 98:0.004728 99:0.004137 100:0.002955 101:0.001182 102:0.002955 103:0.002364 104:0.002364 105:0.001773 106:0.001773 107:0.002955 108:0.003546 109:0.006501 110:0.001773 111:0.005319 112:0.001773 113:0 114:0.004137 115:0.013593 116:0.010047 117:0.004728 118:0.002955 119:0.006501 120:0.007683 121:0.001182 122:0.007683 123:0.006501 124:0.001773 125:0.002955 126:0.001773 127:0.005319 128:0.005319 129:0.000591 130:0.004728 131:0.005319 132:0.005319 133:0.004137 134:0.001182 135:0.00591 136:0.000591 137:0.001182 138:0.001182 139:0.003546 140:0.002364 141:0.002955 142:0.007683 143:0.008274 144:0.010638 145:0.002955 146:0.002955 147:0.003546 148:0.002955 149:0.001773 150:0.002364 151:0.01773 152:0.002955 153:0.001182 154:0.007683 155:0.005319 156:0.006501 157:0.008274 158:0.003546 159:0.001773 160:0.004137 161:0.003546 162:0.011229 163:0.005319 164:0.010638 165:0.004137 166:0.003546 167:0.001773 168:0.00591 169:0.004137 170:0.002955 171:0.007092 172:0.00591 173:0.001182 174:0.005319 175:0.000591 176:0.003546 177:0.008274 178:0.000591 179:0.001773 180:0.002364 181:0.001182 182:0.002364 183:0.002364 184:0.007683 185:0.003546 186:0.006501 187:0.006501 188:0.002955 189:0.002364 190:0.005319 191:0.001182 192:0.004728 193:0.003546 194:0.00591 195:0 196:0.000591 197:0.001182 198:0.001182 199:0.016548 200:0.009456 201:0 202:0.002955 203:0.001773 204:0.008274 205:0.002364 206:0.002364 207:0.002955 208:0.001773 209:0.001182 210:0.001182 211:0.002955 212:0.007092 213:0.001182 214:0.001182 215:0.01182 216:0.001182 217:0.005319 218:0.002364 219:0.004728 220:0.001182 221:0.001773 222:0.009456 223:0.004137 224:0.000591 225:0.000591 226:0.003546 227:0.002364 228:0.004728 229:0.001773 230:0.004728 231:0.004137 232:0.007092 233:0.007092 234:0.001773 235:0.008274 236:0.007683 237:0.008865 238:0.001773 239:0.001773 240:0.004137 241:0.001773 242:0.002364 243:0.002955 244:0.001182 245:0.00591 246:0.006501 247:0.001773 248:0.000591 249:0.001773 250:0.001182 251:0.001773 252:0.002364 253:0.002364 254:0.003546 255:0.001773 
5 0:0.001742 1:0.010453 2:0 3:0.001742 4:0.003484 5:0.005226 6:0.003484 7:0.006969 8:0.003484 9:0.005226 10:0 11:0.012195 12:0.001742 13:0.003484 14:0 15:0.006969 16:0.001742 17:0.010453 18:0 19:0 20:0 21:0.003484 22:0.005226 23:0.001742 24:0.003484 25:0.003484 26:0.003484 27:0.005226 28:0.005226 29:0 30:0.005226 31:0.017422 32:0 33:0.003484 34:0 35:0.006969 36:0.003484 37:0.017422 38:0 39:0.003484 40:0.008711 41:0.005226 42:0.003484 43:0 44:0.001742 45:0.006969 46:0.001742 47:0 48:0.008711 49:0.001742 50:0.005226 51:0 52:0.001742 53:0.006969 54:0.003484 55:0.005226 56:0.012195 57:0 58:0.041812 59:0.001742 60:0.003484 61:0.005226 62:0.015679 63:0.001742 64:0 65:0 66:0.017422 67:0.001742 68:0.001742 69:0.005226 70:0.005226 71:0.003484 72:0 73:0.013937 74:0 75:0.012195 76:0.010453 77:0.003484 78:0 79:0.001742 80:0.003484 81:0 82:0.003484 83:0.001742 84:0.003484 85:0.001742 86:0.001742 87:0.001742 88:0.005226 89:0 90:0.006969 91:0.003484 92:0.013937 93:0 94:0.001742 95:0.008711 96:0.001742 97:0 98:0 99:0.001742 100:0.005226 101:0.001742 102:0 103:0.006969 104:0.006969 105:0.001742 106:0 107:0.001742 108:0.003484 109:0.003484 110:0.005226 111:0.010453 112:0.001742 113:0 114:0 115:0 116:0.003484 117:0.003484 118:0.003484 119:0.003484 120:0 121:0.001742 122:0.017422 123:0.017422 124:0 125:0 126:0.001742 127:0.001742 128:0.001742 129:0.001742 130:0 131:0.015679 132:0 133:0.003484 134:0.001742 135:0.001742 136:0.001742 137:0.001742 138:0.005226 139:0.003484 140:0 141:0 142:0.003484 143:0.001742 144:0.013937 145:0 146:0.008711 147:0 148:0.001742 149:0 150:0 151:0 152:0.001742 153:0 154:0.010453 155:0.003484 156:0 157:0.022648 158:0.003484 159:0 160:0.003484 161:0 162:0.001742 163:0 164:0.013937 165:0.003484 166:0 167:0.001742 168:0.005226 169:0 170:0.003484 171:0 172:0.001742 173:0.001742 174:0.003484 175:0.001742 176:0.001742 177:0.005226 178:0.001742 179:0.001742 180:0 181:0.003484 182:0.001742 183:0.005226 184:0.001742 185:0 186:0.017422 187:0.010453 188:0.001742 189:0.001742 190:0.005226 191:0.003484 192:0.005226 193:0.012195 194:0 195:0.005226 196:0 197:0.001742 198:0 199:0.017422 200:0.006969 201:0.001742 202:0.003484 203:0.001742 204:0.006969 205:0.010453 206:0 207:0 208:0.006969 209:0 210:0.003484 211:0.006969 212:0.008711 213:0.001742 214:0.012195 215:0.001742 216:0 217:0 218:0 219:0 220:0 221:0 222:0.006969 223:0.003484 224:0 225:0.013937 226:0.001742 227:0 228:0.006969 229:0.001742 230:0 231:0.001742 232:0.001742 233:0.005226 234:0 235:0.001742 236:0 237:0.003484 238:0 239:0.001742 240:0.003484 241:0.005226 242:0.005226 243:0 244:0.005226 245:0.008711 246:0 247:0.005226 248:0.003484 249:0 250:0 251:0.015679 252:0 253:0.005226 254:0.003484 255:0.008711 
5 0:0.001449 1:0.001449 2:0.002415 3:0.001449 4:0.011594 5:0.004831 6:0.009179 7:0.002899 8:0.004831 9:0.004348 10:0 11:0.000966 12:0.003865 13:0.010145 14:0.003382 15:0.001449 16:0.001932 17:0.004348 18:0.001932 19:0.003865 20:0.003865 21:0.014493 22:0.011594 23:0.001449 24:0.019324 25:0.002415 26:0.003382 27:0.001932 28:0.005314 29:0.006763 30:0.004348 31:0.000966 32:0.005797 33:0.002415 34:0.003865 35:0.000966 36:0.00628 37:0.002899 38:0.003382 39:0 40:0.003382 41:0.001932 42:0.005797 43:0.005797 44:0.006763 45:0.003382 46:0.004831 47:0.005314 48:0.000483 49:0.004348 50:0.006763 51:0.002415 52:0.004831 53:0.005314 54:0.000966 55:0.002899 56:0.003865 57:0.003382 58:0.004348 59:0.005797 60:0.001449 61:0.002415 62:0.011111 63:0.001449 64:0.003865 65:0.001932 66:0.001932 67:0.003382 68:0.005314 69:0.005797 70:0.001932 71:0.000483 72:0.003382 73:0.003865 74:0.001932 75:0.003382 76:0.001932 77:0.001449 78:0.003865 79:0.00628 80:0.000966 81:0.002415 82:0.000483 83:0.000966 84:0.001932 85:0.007729 86:0.002899 87:0.001449 88:0.003382 89:0.001932 90:0.001932 91:0.003382 92:0.001449 93:0.003865 94:0.015459 95:0.000966 96:0.005314 97:0.002899 98:0.003382 99:0.005797 100:0.002899 101:0.002899 102:0.000483 103:0 104:0.005314 105:0.000966 106:0.003865 107:0.002899 108:0.001932 109:0.002415 110:0.003382 111:0.005314 112:0 113:0.007246 114:0.001932 115:0.006763 116:0.003382 117:0.005797 118:0.002899 119:0.005797 120:0.003865 121:0.005314 122:0.003865 123:0.003382 124:0.002415 125:0.001449 126:0.002415 127:0.000966 128:0.015942 129:0.004831 130:0.000483 131:0.000483 132:0.004831 133:0.001932 134:0.001932 135:0.001449 136:0.000483 137:0.007729 138:0.001449 139:0.001932 140:0.004831 141:0.003382 142:0.007246 143:0.001932 144:0.004831 145:0.001449 146:0.003382 147:0.001932 148:0.002415 149:0.004348 150:0.002415 151:0.005797 152:0.00628 153:0.002899 154:0.002899 155:0.001932 156:0.000966 157:0.000966 158:0.001449 159:0.001932 160:0.003865 161:0.001932 162:0.001932 163:0.012077 164:0.001449 165:0.00628 166:0.004348 167:0.007729 168:0.008213 169:0.001449 170:0.001932 171:0.003382 172:0.003382 173:0.002899 174:0.004348 175:0.008696 176:0.008696 177:0.001932 178:0.002899 179:0.005314 180:0.001449 181:0.006763 182:0.002415 183:0.001449 184:0.005314 185:0.003382 186:0.005314 187:0.003382 188:0.003382 189:0.003382 190:0.000483 191:0.000483 192:0.003865 193:0.000483 194:0.003382 195:0.003382 196:0.002415 197:0.002415 198:0.006763 199:0.007729 200:0.008213 201:0.002415 202:0.005314 203:0.002415 204:0.00628 205:0.002899 206:0.003382 207:0.000966 208:0.004348 209:0.002899 210:0.004348 211:0.002899 212:0.003382 213:0.005314 214:0.001932 215:0.009662 216:0.005314 217:0.001932 218:0.001449 219:0.005797 220:0.004831 221:0.007729 222:0.004348 223:0.002415 224:0.005797 225:0.003865 226:0 227:0.011111 228:0.001449 229:0.001449 230:0.005797 231:0.00628 232:0.01256 233:0.00628 234:0.005314 235:0.008696 236:0.004831 237:0.00628 238:0.005314 239:0.001932 240:0.004831 241:0.002415 242:0.005797 243:0.000483 244:0.002415 245:0.003865 246:0.013527 247:0.004348 248:0.003865 249:0.002415 250:0.002415 251:0.001449 252:0.003382 253:0.000966 254:0.006763 255:0.000483 
5 0:0 1:0.001397 2:0 3:0.001397 4:0.009777 5:0 6:0.002793 7:0.002793 8:0.001397 9:0.00419 10:0 11:0.005587 12:0.00419 13:0.011173 14:0 15:0 16:0.002793 17:0.036313 18:0.001397 19:0.002793 20:0 21:0.001397 22:0.001397 23:0.002793 24:0 25:0 26:0.005587 27:0.001397 28:0.005587 29:0.00838 30:0 31:0.01257 32:0 33:0 34:0.002793 35:0 36:0.001397 37:0.00838 38:0 39:0 40:0.001397 41:0.002793 42:0 43:0.011173 44:0.001397 45:0.005587 46:0.002793 47:0 48:0.005587 49:0.002793 50:0.00419 51:0 52:0.001397 53:0.001397 54:0 55:0.001397 56:0.011173 57:0 58:0.026536 59:0.006983 60:0 61:0.00419 62:0.001397 63:0.01676 64:0 65:0 66:0.009777 67:0.022346 68:0 69:0.00419 70:0.00838 71:0 72:0.001397 73:0.009777 74:0.00419 75:0.00419 76:0.001397 77:0 78:0.00419 79:0.009777 80:0 81:0 82:0.001397 83:0 84:0.001397 85:0.001397 86:0 87:0.00419 88:0 89:0.005587 90:0.001397 91:0 92:0.002793 93:0.001397 94:0 95:0.002793 96:0 97:0 98:0 99:0.005587 100:0.005587 101:0.001397 102:0 103:0.006983 104:0.001397 105:0 106:0 107:0.015363 108:0.006983 109:0.013966 110:0.009777 111:0.00419 112:0 113:0.002793 114:0.005587 115:0.001397 116:0.006983 117:0.00419 118:0.001397 119:0.006983 120:0.00419 121:0.009777 122:0.001397 123:0.015363 124:0 125:0 126:0.00838 127:0.009777 128:0.00419 129:0 130:0 131:0.001397 132:0.005587 133:0.001397 134:0.006983 135:0.009777 136:0.009777 137:0.00838 138:0 139:0.001397 140:0.00419 141:0 142:0.00419 143:0.00838 144:0 145:0 146:0.019553 147:0.00419 148:0 149:0.001397 150:0.002793 151:0.005587 152:0.005587 153:0.009777 154:0 155:0.002793 156:0.002793 157:0.001397 158:0 159:0 160:0.015363 161:0.009777 162:0 163:0 164:0.027933 165:0.006983 166:0 167:0.001397 168:0.005587 169:0.002793 170:0.002793 171:0.001397 172:0.011173 173:0 174:0 175:0 176:0.001397 177:0.006983 178:0 179:0 180:0 181:0 182:0.001397 183:0.001397 184:0.01257 185:0.002793 186:0.006983 187:0.013966 188:0.002793 189:0 190:0.00419 191:0.002793 192:0 193:0.009777 194:0.005587 195:0 196:0 197:0.006983 198:0.00419 199:0.01257 200:0.006983 201:0 202:0 203:0 204:0.006983 205:0 206:0.001397 207:0.001397 208:0.00419 209:0.005587 210:0 211:0.013966 212:0.00419 213:0 214:0 215:0.001397 216:0 217:0 218:0.009777 219:0.002793 220:0 221:0 222:0.006983 223:0.001397 224:0.006983 225:0.00838 226:0.00419 227:0.001397 228:0.005587 229:0.001397 230:0.005587 231:0.02095 232:0.005587 233:0.005587 234:0.001397 235:0.00419 236:0.006983 237:0 238:0 239:0 240:0.002793 241:0.00419 242:0 243:0.002793 244:0 245:0.01257 246:0.00419 247:0.015363 248:0.001397 249:0 250:0.001397 251:0.002793 252:0.001397 253:0.002793 254:0 255:0 
5 0:0 1:0.007716 2:0.003086 3:0 4:0.001543 5:0 6:0.003086 7:0.016975 8:0.001543 9:0 10:0.007716 11:0.001543 12:0.010802 13:0.003086 14:0.001543 15:0.020062 16:0.007716 17:0.00463 18:0 19:0.001543 20:0 21:0.006173 22:0.003086 23:0 24:0.001543 25:0.001543 26:0.007716 27:0.001543 28:0.001543 29:0.003086 30:0.00463 31:0.003086 32:0.003086 33:0.00463 34:0 35:0 36:0.006173 37:0.00463 38:0 39:0 40:0.003086 41:0.001543 42:0.003086 43:0.001543 44:0.003086 45:0 46:0 47:0.00463 48:0.007716 49:0.00463 50:0 51:0 52:0 53:0.003086 54:0 55:0.003086 56:0.001543 57:0.010802 58:0.009259 59:0 60:0.009259 61:0.003086 62:0 63:0.00463 64:0 65:0 66:0.003086 67:0.001543 68:0.001543 69:0.001543 70:0.007716 71:0.013889 72:0.00463 73:0 74:0.003086 75:0.015432 76:0 77:0.001543 78:0.003086 79:0.010802 80:0.012346 81:0.012346 82:0.007716 83:0.001543 84:0 85:0 86:0.001543 87:0.009259 88:0 89:0.006173 90:0.001543 91:0.007716 92:0.010802 93:0.003086 94:0 95:0 96:0 97:0 98:0 99:0.009259 100:0 101:0 102:0.013889 103:0.013889 104:0 105:0.003086 106:0 107:0.001543 108:0.003086 109:0 110:0.00463 111:0.003086 112:0.009259 113:0.001543 114:0.006173 115:0 116:0.010802 117:0 118:0.012346 119:0.001543 120:0.007716 121:0.007716 122:0.001543 123:0.003086 124:0 125:0 126:0.003086 127:0.001543 128:0.006173 129:0 130:0.003086 131:0.018519 132:0.001543 133:0 134:0.007716 135:0.00463 136:0.00463 137:0.00463 138:0.001543 139:0 140:0.001543 141:0 142:0.007716 143:0.012346 144:0.001543 145:0.016975 146:0.007716 147:0.009259 148:0.003086 149:0.00463 150:0.00463 151:0 152:0.001543 153:0.006173 154:0.003086 155:0 156:0.00463 157:0.001543 158:0.00463 159:0.001543 160:0.003086 161:0.001543 162:0.00463 163:0.001543 164:0.009259 165:0 166:0.001543 167:0 168:0.00463 169:0 170:0.023148 171:0.00463 172:0.001543 173:0 174:0 175:0 176:0.001543 177:0.00463 178:0.00463 179:0.003086 180:0 181:0.003086 182:0.020062 183:0.007716 184:0 185:0.001543 186:0.007716 187:0.00463 188:0.016975 189:0.001543 190:0.026235 191:0.021605 192:0 193:0 194:0.003086 195:0.001543 196:0.006173 197:0.001543 198:0.006173 199:0.003086 200:0 201:0.003086 202:0.00463 203:0.003086 204:0 205:0.013889 206:0.010802 207:0 208:0.003086 209:0 210:0.001543 211:0.010802 212:0.00463 213:0.006173 214:0.003086 215:0.007716 216:0 217:0 218:0.001543 219:0.007716 220:0.003086 221:0.001543 222:0.00463 223:0.001543 224:0 225:0 226:0 227:0.00463 228:0.001543 229:0 230:0 231:0.006173 232:0 233:0.001543 234:0.003086 235:0.001543 236:0.00463 237:0 238:0 239:0 240:0.007716 241:0.001543 242:0.00463 243:0.003086 244:0 245:0.006173 246:0 247:0.001543 248:0 249:0 250:0.001543 251:0.021605 252:0.003086 253:0.00463 254:0.001543 255:0 
5 0:0 1:0.001571 2:0.003928 3:0.000786 4:0.006284 5:0.010998 6:0.003142 7:0.002357 8:0.005499 9:0.006284 10:0.002357 11:0.003142 12:0 13:0.002357 14:0.002357 15:0.011783 16:0.018853 17:0.008641 18:0 19:0.004713 20:0.003928 21:0.004713 22:0.001571 23:0.003928 24:0.000786 25:0.002357 26:0.009427 27:0 28:0.002357 29:0.003142 30:0.003928 31:0.003928 32:0.000786 33:0.005499 34:0.001571 35:0.002357 36:0.010212 37:0.013354 38:0.000786 39:0.000786 40:0.002357 41:0.003142 42:0.005499 43:0.005499 44:0.000786 45:0.001571 46:0.002357 47:0.001571 48:0.005499 49:0.006284 50:0.000786 51:0.001571 52:0.006284 53:0.007855 54:0.000786 55:0.001571 56:0.000786 57:0 58:0.00707 59:0 60:0.005499 61:0.000786 62:0 63:0.003928 64:0 65:0.001571 66:0.003928 67:0.004713 68:0.000786 69:0.001571 70:0.004713 71:0.016496 72:0.001571 73:0.004713 74:0.000786 75:0.013354 76:0.002357 77:0.000786 78:0.001571 79:0.009427 80:0.008641 81:0.005499 82:0.000786 83:0.000786 84:0.001571 85:0.000786 86:0.003142 87:0.004713 88:0 89:0.011783 90:0.001571 91:0.004713 92:0.011783 93:0 94:0.000786 95:0.015711 96:0 97:0.005499 98:0.000786 99:0.000786 100:0 101:0.015711 102:0.007855 103:0.003142 104:0.002357 105:0 106:0 107:0.003142 108:0.012569 109:0.01414 110:0.010212 111:0.000786 112:0.004713 113:0.004713 114:0.001571 115:0 116:0.001571 117:0.000786 118:0.003142 119:0.000786 120:0.000786 121:0.001571 122:0.009427 123:0.003928 124:0.000786 125:0 126:0.008641 127:0.002357 128:0.003142 129:0.001571 130:0.003928 131:0.009427 132:0.005499 133:0.000786 134:0.005499 135:0.010998 136:0.011783 137:0.002357 138:0.003928 139:0.001571 140:0 141:0.004713 142:0.003928 143:0.001571 144:0.003142 145:0.002357 146:0.005499 147:0.006284 148:0.003928 149:0 150:0.002357 151:0 152:0.000786 153:0.000786 154:0.010998 155:0.000786 156:0 157:0.003142 158:0.000786 159:0 160:0.001571 161:0.003142 162:0.002357 163:0.000786 164:0.010998 165:0.000786 166:0.002357 167:0.004713 168:0.008641 169:0.001571 170:0.003928 171:0.002357 172:0.002357 173:0.002357 174:0.004713 175:0.004713 176:0 177:0.003928 178:0.009427 179:0.001571 180:0.000786 181:0.002357 182:0.001571 183:0.012569 184:0.001571 185:0.003928 186:0.015711 187:0.013354 188:0.005499 189:0.001571 190:0 191:0.005499 192:0.004713 193:0.009427 194:0.004713 195:0.003928 196:0.002357 197:0.007855 198:0 199:0.003928 200:0.006284 201:0 202:0.003142 203:0.001571 204:0.000786 205:0.017282 206:0 207:0.004713 208:0.010998 209:0.000786 210:0.007855 211:0.007855 212:0.003142 213:0.003928 214:0.001571 215:0.000786 216:0.001571 217:0.000786 218:0.00707 219:0.003928 220:0.00707 221:0.001571 222:0.008641 223:0 224:0.009427 225:0.001571 226:0.003142 227:0 228:0.00707 229:0.003928 230:0.006284 231:0.007855 232:0.002357 233:0.001571 234:0 235:0.003142 236:0.005499 237:0 238:0.003142 239:0.000786 240:0.004713 241:0.002357 242:0.000786 243:0.003928 244:0.011783 245:0.003142 246:0.002357 247:0.003142 248:0 249:0.001571 250:0.004713 251:0.010998 252:0.003142 253:0.000786 254:0 255:0 
5 0:0.002885 1:0.002308 2:0.002885 3:0.00577 4:0.00577 5:0.003462 6:0.008078 7:0.002885 8:0.001154 9:0.001731 10:0.001731 11:0.002885 12:0.002885 13:0.00577 14:0.001731 15:0.001154 16:0.003462 17:0.007501 18:0.005193 19:0.004039 20:0.004616 21:0.005193 22:0.012695 23:0.004616 24:0.001731 25:0.002885 26:0.003462 27:0.003462 28:0.011541 29:0.002885 30:0.002885 31:0.005193 32:0.004616 33:0.002308 34:0.003462 35:0.000577 36:0.006924 37:0.001731 38:0.004616 39:0.001731 40:0.002885 41:0 42:0 43:0.004616 44:0.003462 45:0.002308 46:0.002308 47:0.001154 48:0.004039 49:0.002885 50:0.004616 51:0.005193 52:0.001731 53:0.002308 54:0.001154 55:0.001154 56:0.004616 57:0.002885 58:0.014426 59:0.000577 60:0.002885 61:0.001731 62:0.003462 63:0.006924 64:0.001731 65:0.001731 66:0.003462 67:0.005193 68:0.004616 69:0.009233 70:0.002885 71:0.004616 72:0.001731 73:0.006347 74:0.002308 75:0.002885 76:0.007501 77:0.004039 78:0.005193 79:0.003462 80:0.001154 81:0.001154 82:0.000577 83:0.002885 84:0.002308 85:0.002885 86:0.002885 87:0.002885 88:0.000577 89:0.00577 90:0.002308 91:0.002308 92:0.011541 93:0.003462 94:0.001731 95:0.004616 96:0.002885 97:0.008656 98:0.001154 99:0.002308 100:0.005193 101:0.005193 102:0.001154 103:0.004039 104:0.004039 105:0.002885 106:0.004039 107:0.002308 108:0.004039 109:0.000577 110:0.004039 111:0.009233 112:0.000577 113:0.007501 114:0.006924 115:0.004616 116:0.003462 117:0.004616 118:0.002308 119:0.002885 120:0.002308 121:0.00981 122:0.000577 123:0.004039 124:0.003462 125:0.000577 126:0.000577 127:0.001731 128:0.006924 129:0.001154 130:0.000577 131:0.00577 132:0.002308 133:0.002308 134:0.001731 135:0.007501 136:0.003462 137:0.001154 138:0.005193 139:0.003462 140:0.001154 141:0.00577 142:0.004039 143:0.001731 144:0.005193 145:0 146:0.001731 147:0.004616 148:0.005193 149:0.002308 150:0.000577 151:0.00577 152:0.006347 153:0.00577 154:0.004039 155:0.006924 156:0.003462 157:0.004616 158:0.001731 159:0.003462 160:0.008078 161:0.001731 162:0.003462 163:0.002885 164:0.012118 165:0.004616 166:0.001731 167:0.006924 168:0.009233 169:0.001154 170:0.005193 171:0.002885 172:0.006924 173:0.001731 174:0.003462 175:0.001731 176:0.004039 177:0.010387 178:0.006347 179:0.009233 180:0.003462 181:0.005193 182:0.000577 183:0.001731 184:0.003462 185:0.002885 186:0.006924 187:0.000577 188:0.004616 189:0.004616 190:0.006347 191:0.000577 192:0.004616 193:0.006347 194:0.006924 195:0.002308 196:0.004039 197:0.006347 198:0.005193 199:0.012695 200:0.006924 201:0.004616 202:0.002885 203:0.006924 204:0.00577 205:0.002308 206:0.001154 207:0.002885 208:0.001154 209:0.00577 210:0.000577 211:0.00577 212:0.009233 213:0.004039 214:0.002308 215:0.003462 216:0.002308 217:0.002308 218:0 219:0.006347 220:0.002885 221:0.004616 222:0.006347 223:0.001731 224:0.000577 225:0 226:0.002308 227:0.002885 228:0.006924 229:0.007501 230:0.001731 231:0.011541 232:0.005193 233:0.002308 234:0 235:0.006924 236:0.006347 237:0.005193 238:0.002308 239:0.003462 240:0.006347 241:0.004039 242:0.00577 243:0 244:0.003462 245:0.004616 246:0.003462 247:0.00577 248:0.002885 249:0.004616 250:0.000577 251:0.003462 252:0.000577 253:0.006347 254:0.005193 255:0.004616 
5 0:0.016611 1:0 2:0.002215 3:0.002215 4:0.002215 5:0 6:0.005537 7:0.003322 8:0.00443 9:0.002215 10:0.007752 11:0.002215 12:0.001107 13:0.00443 14:0 15:0.002215 16:0.002215 17:0.008859 18:0.009967 19:0.006645 20:0.001107 21:0.005537 22:0.008859 23:0.00443 24:0.003322 25:0.001107 26:0.00443 27:0 28:0.008859 29:0.013289 30:0.002215 31:0.007752 32:0 33:0.005537 34:0.001107 35:0.001107 36:0.002215 37:0.00443 38:0.002215 39:0 40:0.005537 41:0 42:0.001107 43:0.00443 44:0 45:0 46:0.002215 47:0.00443 48:0.00443 49:0.005537 50:0.00443 51:0.005537 52:0.001107 53:0 54:0.008859 55:0 56:0.003322 57:0.001107 58:0 59:0.006645 60:0.002215 61:0.006645 62:0.001107 63:0.005537 64:0 65:0.001107 66:0 67:0.009967 68:0.007752 69:0.00443 70:0.003322 71:0.005537 72:0.001107 73:0.013289 74:0 75:0 76:0.005537 77:0 78:0.002215 79:0.003322 80:0 81:0.002215 82:0 83:0.035437 84:0.013289 85:0 86:0.006645 87:0 88:0.003322 89:0.005537 90:0.002215 91:0.007752 92:0 93:0 94:0.014396 95:0 96:0.008859 97:0.002215 98:0.001107 99:0 100:0.001107 101:0.001107 102:0 103:0.001107 104:0.008859 105:0.003322 106:0.031008 107:0 108:0.001107 109:0.001107 110:0 111:0.011074 112:0 113:0.011074 114:0.006645 115:0.001107 116:0.001107 117:0 118:0.001107 119:0 120:0.003322 121:0.00443 122:0 123:0 124:0 125:0 126:0.003322 127:0.005537 128:0.002215 129:0 130:0 131:0.002215 132:0.00443 133:0.005537 134:0.001107 135:0.008859 136:0.001107 137:0.003322 138:0.002215 139:0 140:0.001107 141:0.001107 142:0.005537 143:0.001107 144:0 145:0 146:0.005537 147:0.001107 148:0 149:0.001107 150:0 151:0.014396 152:0.005537 153:0.003322 154:0 155:0.019934 156:0.006645 157:0.002215 158:0 159:0 160:0.00443 161:0.001107 162:0 163:0.001107 164:0.008859 165:0.006645 166:0 167:0.006645 168:0.00443 169:0.001107 170:0.005537 171:0 172:0.003322 173:0.002215 174:0.001107 175:0.003322 176:0 177:0 178:0.008859 179:0.002215 180:0.00443 181:0 182:0.015504 183:0.007752 184:0.025471 185:0 186:0.002215 187:0.00443 188:0.012182 189:0.002215 190:0.007752 191:0.005537 192:0 193:0.002215 194:0.00443 195:0.011074 196:0.002215 197:0.006645 198:0.007752 199:0.005537 200:0 201:0 202:0 203:0 204:0.013289 205:0.001107 206:0 207:0 208:0 209:0.002215 210:0.002215 211:0.005537 212:0.001107 213:0.009967 214:0.001107 215:0.001107 216:0.003322 217:0.00443 218:0.003322 219:0 220:0 221:0.001107 222:0.018826 223:0 224:0.003322 225:0.006645 226:0 227:0.002215 228:0.015504 229:0.013289 230:0.002215 231:0 232:0.026578 233:0.002215 234:0 235:0.002215 236:0.011074 237:0.001107 238:0.001107 239:0 240:0.011074 241:0.002215 242:0.001107 243:0 244:0.005537 245:0.006645 246:0.006645 247:0.00443 248:0.00443 249:0 250:0.002215 251:0.002215 252:0 253:0.011074 254:0.001107 255:0.003322 
5 0:0.005271 1:0 2:0.001506 3:0 4:0.009789 5:0.006024 6:0.002259 7:0.001506 8:0.005271 9:0.003765 10:0.003765 11:0.009789 12:0.003765 13:0.003765 14:0.003012 15:0.002259 16:0.003012 17:0.011295 18:0.002259 19:0.001506 20:0.002259 21:0.005271 22:0.000753 23:0.004518 24:0 25:0.001506 26:0.004518 27:0.003012 28:0.001506 29:0.000753 30:0.011295 31:0.006024 32:0.003012 33:0.006777 34:0.002259 35:0 36:0.004518 37:0.003765 38:0 39:0 40:0.000753 41:0.001506 42:0.00753 43:0.003765 44:0.001506 45:0.001506 46:0.002259 47:0.000753 48:0.003012 49:0.006024 50:0.000753 51:0 52:0.006777 53:0.005271 54:0 55:0.003765 56:0.006777 57:0.006777 58:0.011295 59:0.001506 60:0.002259 61:0.004518 62:0 63:0.00753 64:0.001506 65:0.000753 66:0.009036 67:0.001506 68:0.001506 69:0.004518 70:0.010542 71:0.006777 72:0.003765 73:0.003012 74:0.002259 75:0.014307 76:0.003765 77:0.001506 78:0.001506 79:0.009036 80:0.001506 81:0.003012 82:0.001506 83:0.001506 84:0.005271 85:0.004518 86:0.000753 87:0 88:0.000753 89:0.010542 90:0 91:0 92:0.006777 93:0.001506 94:0 95:0.008283 96:0 97:0.002259 98:0.008283 99:0.002259 100:0 101:0.009036 102:0 103:0.001506 104:0.003765 105:0 106:0.002259 107:0.003765 108:0.018825 109:0.006024 110:0.009036 111:0.003012 112:0.000753 113:0 114:0.000753 115:0 116:0.004518 117:0.005271 118:0.009789 119:0.001506 120:0.001506 121:0.008283 122:0.009036 123:0.003012 124:0.003012 125:0.000753 126:0.005271 127:0.006024 128:0.002259 129:0 130:0 131:0.003765 132:0.006777 133:0 134:0.011295 135:0.005271 136:0.004518 137:0.002259 138:0 139:0 140:0 141:0.006777 142:0.001506 143:0.004518 144:0.012801 145:0 146:0.015813 147:0.003765 148:0.008283 149:0.00753 150:0.000753 151:0.002259 152:0.003012 153:0.006024 154:0.016566 155:0.004518 156:0.001506 157:0.003765 158:0.000753 159:0.006777 160:0.01506 161:0.008283 162:0.000753 163:0.003012 164:0.009036 165:0.012048 166:0.000753 167:0 168:0.013554 169:0.010542 170:0.004518 171:0.005271 172:0.003012 173:0.003765 174:0.008283 175:0 176:0.002259 177:0.001506 178:0 179:0 180:0.000753 181:0.002259 182:0.005271 183:0.003012 184:0.002259 185:0.005271 186:0.023343 187:0.000753 188:0.00753 189:0 190:0.003765 191:0.003012 192:0.003765 193:0.021837 194:0.005271 195:0.004518 196:0.003012 197:0.004518 198:0.000753 199:0.005271 200:0.006777 201:0.006024 202:0.006024 203:0.002259 204:0.003012 205:0.000753 206:0 207:0.002259 208:0.00753 209:0.002259 210:0.010542 211:0.002259 212:0.006777 213:0.001506 214:0 215:0 216:0.000753 217:0.002259 218:0.005271 219:0.009789 220:0.004518 221:0.005271 222:0.000753 223:0 224:0.002259 225:0.004518 226:0.000753 227:0 228:0.003765 229:0.000753 230:0.003765 231:0.009789 232:0.001506 233:0.003765 234:0.003765 235:0.009036 236:0 237:0.002259 238:0.000753 239:0.001506 240:0.003012 241:0.003012 242:0.003012 243:0.000753 244:0.002259 245:0.002259 246:0.004518 247:0.006024 248:0 249:0.001506 250:0 251:0.003012 252:0.000753 253:0.003012 254:0.001506 255:0.001506 
5 0:0.001383 1:0.017981 2:0 3:0.001383 4:0.005533 5:0.002766 6:0.002766 7:0.019364 8:0.001383 9:0.001383 10:0.001383 11:0.001383 12:0.001383 13:0.002766 14:0.001383 15:0.011065 16:0 17:0.013831 18:0 19:0 20:0 21:0.001383 22:0 23:0.009682 24:0.002766 25:0.001383 26:0.006916 27:0.009682 28:0.011065 29:0.001383 30:0 31:0.001383 32:0 33:0.006916 34:0 35:0.002766 36:0.006916 37:0 38:0 39:0 40:0.004149 41:0.001383 42:0.005533 43:0.001383 44:0.002766 45:0.004149 46:0 47:0.002766 48:0.002766 49:0 50:0 51:0 52:0 53:0.001383 54:0 55:0.002766 56:0.001383 57:0 58:0.008299 59:0.024896 60:0.012448 61:0.002766 62:0.001383 63:0.001383 64:0 65:0 66:0.006916 67:0.012448 68:0.019364 69:0.002766 70:0.005533 71:0.001383 72:0.001383 73:0.019364 74:0 75:0 76:0 77:0 78:0.004149 79:0.002766 80:0.008299 81:0.002766 82:0.002766 83:0.006916 84:0.004149 85:0.001383 86:0 87:0.001383 88:0 89:0 90:0 91:0 92:0.001383 93:0.001383 94:0.004149 95:0.001383 96:0.004149 97:0.005533 98:0.001383 99:0.006916 100:0 101:0 102:0.002766 103:0.002766 104:0.001383 105:0 106:0.001383 107:0.001383 108:0.005533 109:0.004149 110:0 111:0.005533 112:0 113:0.001383 114:0.005533 115:0 116:0.015214 117:0.008299 118:0.001383 119:0 120:0.002766 121:0.011065 122:0 123:0.017981 124:0.001383 125:0 126:0.004149 127:0.004149 128:0.001383 129:0 130:0 131:0.002766 132:0.004149 133:0.002766 134:0.001383 135:0.004149 136:0.005533 137:0.004149 138:0.012448 139:0.008299 140:0 141:0.001383 142:0 143:0.002766 144:0.005533 145:0.001383 146:0.017981 147:0.004149 148:0.001383 149:0.001383 150:0.001383 151:0.015214 152:0 153:0 154:0.006916 155:0 156:0.001383 157:0.011065 158:0.002766 159:0 160:0.005533 161:0.001383 162:0.005533 163:0.001383 164:0.016598 165:0.009682 166:0.002766 167:0.008299 168:0.001383 169:0.004149 170:0.012448 171:0.001383 172:0 173:0.001383 174:0 175:0.006916 176:0 177:0.006916 178:0.013831 179:0.009682 180:0 181:0.002766 182:0.001383 183:0.004149 184:0.002766 185:0 186:0.006916 187:0.013831 188:0.004149 189:0 190:0.016598 191:0.001383 192:0 193:0.002766 194:0.001383 195:0.001383 196:0.004149 197:0.006916 198:0 199:0.001383 200:0.012448 201:0.001383 202:0.005533 203:0.004149 204:0.006916 205:0.002766 206:0.002766 207:0 208:0.001383 209:0.004149 210:0.001383 211:0 212:0 213:0.004149 214:0.006916 215:0.02213 216:0.001383 217:0 218:0 219:0.005533 220:0.004149 221:0.001383 222:0.008299 223:0 224:0.001383 225:0 226:0.001383 227:0.001383 228:0.013831 229:0.009682 230:0.005533 231:0.002766 232:0.011065 233:0.001383 234:0 235:0.004149 236:0 237:0.033195 238:0 239:0 240:0.001383 241:0.005533 242:0.002766 243:0.001383 244:0 245:0.004149 246:0.005533 247:0.004149 248:0 249:0 250:0 251:0.016598 252:0.005533 253:0.002766 254:0.005533 255:0 
5 0:0 1:0.004651 2:0.015504 3:0 4:0.007752 5:0.003101 6:0.006202 7:0.007752 8:0.003101 9:0.009302 10:0.00155 11:0 12:0.00155 13:0.003101 14:0 15:0.006202 16:0.004651 17:0.004651 18:0.00155 19:0.00155 20:0.013953 21:0.009302 22:0.004651 23:0.004651 24:0.009302 25:0.003101 26:0.004651 27:0.003101 28:0.003101 29:0.003101 30:0.003101 31:0 32:0 33:0.009302 34:0.015504 35:0.007752 36:0.006202 37:0.007752 38:0.003101 39:0 40:0 41:0 42:0.004651 43:0.00155 44:0.004651 45:0 46:0.00155 47:0.00155 48:0.00155 49:0 50:0 51:0.009302 52:0.004651 53:0.003101 54:0 55:0.00155 56:0.00155 57:0.00155 58:0.003101 59:0.00155 60:0.017054 61:0.00155 62:0.004651 63:0.00155 64:0 65:0 66:0.00155 67:0.003101 68:0.015504 69:0.003101 70:0.00155 71:0.007752 72:0.003101 73:0.00155 74:0 75:0.013953 76:0.00155 77:0 78:0.00155 79:0.012403 80:0.003101 81:0.006202 82:0 83:0.003101 84:0.003101 85:0.006202 86:0.004651 87:0.007752 88:0.00155 89:0 90:0.003101 91:0.00155 92:0.018605 93:0.003101 94:0.006202 95:0.006202 96:0.004651 97:0.006202 98:0.00155 99:0.017054 100:0 101:0.006202 102:0.003101 103:0.009302 104:0 105:0 106:0 107:0 108:0.010853 109:0.003101 110:0.003101 111:0.010853 112:0 113:0.00155 114:0 115:0.006202 116:0.007752 117:0.006202 118:0.006202 119:0 120:0.003101 121:0.00155 122:0.009302 123:0.00155 124:0.00155 125:0 126:0.003101 127:0.00155 128:0.006202 129:0.004651 130:0.00155 131:0.003101 132:0.004651 133:0.007752 134:0.006202 135:0 136:0 137:0.00155 138:0.004651 139:0.00155 140:0.003101 141:0.00155 142:0.024806 143:0.010853 144:0.00155 145:0.003101 146:0.00155 147:0.00155 148:0.00155 149:0.015504 150:0.003101 151:0 152:0.007752 153:0 154:0 155:0.00155 156:0.003101 157:0 158:0 159:0 160:0.009302 161:0 162:0 163:0 164:0.004651 165:0.003101 166:0 167:0.004651 168:0.013953 169:0.00155 170:0.007752 171:0 172:0 173:0.003101 174:0.00155 175:0.004651 176:0.006202 177:0 178:0.007752 179:0.004651 180:0 181:0.003101 182:0.015504 183:0.003101 184:0 185:0.00155 186:0.003101 187:0 188:0.010853 189:0 190:0 191:0.013953 192:0.003101 193:0.009302 194:0 195:0.013953 196:0.00155 197:0.00155 198:0.003101 199:0.013953 200:0.012403 201:0 202:0.003101 203:0.003101 204:0 205:0.00155 206:0 207:0 208:0.007752 209:0 210:0.00155 211:0.00155 212:0.004651 213:0.00155 214:0.003101 215:0.007752 216:0 217:0 218:0.006202 219:0.010853 220:0.004651 221:0.007752 222:0.003101 223:0.00155 224:0.004651 225:0 226:0 227:0 228:0.006202 229:0.006202 230:0.00155 231:0.00155 232:0.003101 233:0.003101 234:0 235:0.00155 236:0.003101 237:0 238:0.012403 239:0 240:0.009302 241:0 242:0.004651 243:0.004651 244:0.004651 245:0.004651 246:0 247:0.003101 248:0.004651 249:0 250:0.003101 251:0.007752 252:0 253:0.003101 254:0.003101 255:0.00155 
5 0:0 1:0.002073 2:0.009675 3:0.002073 4:0.006911 5:0.002073 6:0.004147 7:0.002073 8:0.002764 9:0.004838 10:0.001382 11:0.002764 12:0.002764 13:0.001382 14:0.001382 15:0.002764 16:0.002073 17:0.002764 18:0 19:0 20:0.001382 21:0.011748 22:0.005529 23:0.004147 24:0.005529 25:0.003455 26:0.006911 27:0.004147 28:0.003455 29:0.002764 30:0.00622 31:0.002764 32:0.003455 33:0.000691 34:0.006911 35:0.013822 36:0.004838 37:0.008984 38:0.001382 39:0 40:0.001382 41:0.003455 42:0.002073 43:0.008293 44:0.001382 45:0.001382 46:0.004147 47:0.00622 48:0.007602 49:0.005529 50:0.001382 51:0.000691 52:0.000691 53:0.003455 54:0 55:0.002764 56:0.001382 57:0.00622 58:0.005529 59:0.000691 60:0.008293 61:0.003455 62:0 63:0.004838 64:0.000691 65:0 66:0.015204 67:0.004147 68:0.002073 69:0.01244 70:0.004147 71:0.014513 72:0.007602 73:0.002764 74:0.007602 75:0.022806 76:0.000691 77:0.002073 78:0.005529 79:0.002073 80:0.002073 81:0.004838 82:0 83:0.000691 84:0 85:0.002764 86:0.000691 87:0.00622 88:0.002073 89:0 90:0.001382 91:0.000691 92:0.022115 93:0.004147 94:0 95:0.008984 96:0 97:0.004838 98:0.007602 99:0.004147 100:0.000691 101:0.002073 102:0.002764 103:0.001382 104:0.001382 105:0.000691 106:0.000691 107:0.003455 108:0.004838 109:0.004838 110:0.020041 111:0.001382 112:0.003455 113:0 114:0.001382 115:0.002073 116:0.003455 117:0.003455 118:0.00622 119:0.004147 120:0.008984 121:0.000691 122:0.005529 123:0.000691 124:0.005529 125:0 126:0.000691 127:0.003455 128:0.004147 129:0.004838 130:0.002073 131:0.003455 132:0.002764 133:0.000691 134:0.006911 135:0.002073 136:0.000691 137:0.002764 138:0 139:0.001382 140:0.002764 141:0.000691 142:0.000691 143:0.008984 144:0.020733 145:0.004838 146:0.004838 147:0.005529 148:0.00622 149:0.004838 150:0.009675 151:0 152:0.004147 153:0.004147 154:0.005529 155:0 156:0.002764 157:0.004147 158:0.004838 159:0.013822 160:0.002073 161:0.004838 162:0.004147 163:0.004147 164:0.002073 165:0.005529 166:0.006911 167:0.003455 168:0.006911 169:0.004147 170:0.002073 171:0.010366 172:0 173:0.004838 174:0 175:0.002764 176:0.006911 177:0.002073 178:0 179:0.000691 180:0 181:0.015204 182:0.003455 183:0.000691 184:0 185:0.001382 186:0.009675 187:0.005529 188:0.006911 189:0 190:0.000691 191:0.002073 192:0.001382 193:0.016586 194:0.002073 195:0.001382 196:0.003455 197:0.004838 198:0.001382 199:0.000691 200:0.003455 201:0.001382 202:0.01244 203:0.002764 204:0.002764 205:0.011057 206:0.000691 207:0.003455 208:0.014513 209:0.001382 210:0.009675 211:0.003455 212:0.005529 213:0.001382 214:0.001382 215:0 216:0.003455 217:0 218:0.002073 219:0.008293 220:0.008984 221:0 222:0.002073 223:0 224:0.002073 225:0.001382 226:0.001382 227:0.002764 228:0.004838 229:0.002073 230:0 231:0.013131 232:0.001382 233:0.002764 234:0.003455 235:0.001382 236:0.000691 237:0.002073 238:0.000691 239:0.004838 240:0.00622 241:0.000691 242:0.005529 243:0.004147 244:0.005529 245:0.003455 246:0.004147 247:0.002073 248:0.001382 249:0.000691 250:0.009675 251:0.002764 252:0.008984 253:0.001382 254:0.000691 255:0.000691 
5 0:0 1:0.004082 2:0.024943 3:0 4:0.000907 5:0.011338 6:0.000907 7:0.002721 8:0.003175 9:0.027211 10:0 11:0.000907 12:0.004082 13:0 14:0.000907 15:0.000907 16:0.014966 17:0.001361 18:0.000454 19:0.000454 20:0.003175 21:0.000907 22:0.001361 23:0.000907 24:0 25:0.003628 26:0.005896 27:0.002268 28:0 29:0 30:0.001814 31:0.000907 32:0.001814 33:0.003628 34:0.000454 35:0.010431 36:0.024943 37:0.017687 38:0 39:0.000454 40:0.000907 41:0.000454 42:0.003175 43:0.000907 44:0.000907 45:0.004082 46:0.000907 47:0.001814 48:0.003175 49:0.002721 50:0.000454 51:0.000454 52:0.002268 53:0.004989 54:0 55:0.001361 56:0.002721 57:0.006349 58:0.002268 59:0 60:0.000907 61:0.001361 62:0 63:0.001814 64:0.000454 65:0 66:0.003175 67:0 68:0.000454 69:0.001814 70:0.003175 71:0.01678 72:0.005442 73:0.001361 74:0.00771 75:0.004082 76:0 77:0 78:0.000454 79:0.001814 80:0.003628 81:0.001361 82:0 83:0 84:0.000454 85:0 86:0 87:0.003628 88:0.000454 89:0.002268 90:0 91:0 92:0.006803 93:0.001361 94:0.000907 95:0.039002 96:0.000454 97:0.003175 98:0.000454 99:0.003175 100:0.000907 101:0 102:0.002721 103:0 104:0 105:0 106:0.000454 107:0.000454 108:0.011791 109:0.011338 110:0.028571 111:0.000454 112:0.000454 113:0.000454 114:0.002268 115:0.000454 116:0 117:0.000454 118:0.035374 119:0.001814 120:0.000907 121:0.000454 122:0.029932 123:0.008163 124:0.001814 125:0.000454 126:0.000454 127:0.000907 128:0.002721 129:0.003175 130:0 131:0.009977 132:0.000907 133:0 134:0.001361 135:0.001361 136:0.001814 137:0.011791 138:0.001361 139:0 140:0.001361 141:0.001814 142:0.000907 143:0.000454 144:0.057596 145:0.001814 146:0.00771 147:0.004535 148:0.002268 149:0.017687 150:0.000907 151:0.000454 152:0.000454 153:0 154:0.008617 155:0 156:0 157:0.005442 158:0.00771 159:0.002268 160:0.000454 161:0.000454 162:0.000454 163:0.000907 164:0.001361 165:0 166:0.011791 167:0.001361 168:0.004535 169:0 170:0.002268 171:0.029478 172:0 173:0.000454 174:0 175:0 176:0.002721 177:0.006803 178:0 179:0.002268 180:0.000907 181:0.04263 182:0.002268 183:0.000907 184:0.000454 185:0.003175 186:0.002721 187:0.013152 188:0.000454 189:0.002268 190:0 191:0.002721 192:0.003175 193:0.002721 194:0 195:0.005442 196:0.000454 197:0.000454 198:0.000454 199:0.000907 200:0.001814 201:0.000454 202:0.0322 203:0.000907 204:0.000454 205:0.009524 206:0.004082 207:0.003175 208:0.008617 209:0.000454 210:0.003628 211:0.000907 212:0.001814 213:0 214:0.00771 215:0.000454 216:0.003175 217:0 218:0 219:0.000907 220:0.018594 221:0.000454 222:0.001814 223:0 224:0.010884 225:0.001814 226:0.001814 227:0.000454 228:0.000907 229:0 230:0.001814 231:0.00907 232:0.000454 233:0.002721 234:0.021769 235:0.000454 236:0 237:0.001361 238:0.004535 239:0.000454 240:0.003175 241:0 242:0.039456 243:0 244:0.000454 245:0.002721 246:0.000907 247:0 248:0.000907 249:0.000907 250:0.002721 251:0.001361 252:0.001814 253:0 254:0 255:0.000454 
