svm_type c_svc
kernel_type rbf
gamma 0.00392157
nr_class 2
total_sv 678
rho 0.99736
label 1 -1
probA -4082.72
probB -4080.82
nr_sv 226 452
SV
2 0:0.001471 1:0.010294 2:0.004412 3:0.00049 4:0.00098 5:0.003431 6:0.003431 7:0.00098 8:0.003431 9:0.035784 10:0.001471 11:0.003431 12:0.00049 13:0.002941 14:0.002451 15:0.002941 16:0.020588 17:0.005392 18:0.00098 19:0.001471 20:0.00049 21:0.001961 22:0 23:0.00098 24:0.00049 25:0.001961 26:0.006863 27:0.001961 28:0.00049 29:0.002451 30:0.003922 31:0.00098 32:0.003922 33:0.002451 34:0 35:0.008824 36:0.010294 37:0.015196 38:0.004412 39:0.00098 40:0.00049 41:0.001961 42:0.002941 43:0.00049 44:0.002451 45:0.009804 46:0.001961 47:0.002451 48:0.004902 49:0.003431 50:0.001961 51:0.002451 52:0.001961 53:0.003431 54:0.002451 55:0.001471 56:0.008824 57:0.007843 58:0.010784 59:0.00049 60:0.003922 61:0.001961 62:0.00049 63:0.005392 64:0.004412 65:0.00049 66:0.007843 67:0 68:0 69:0.00049 70:0.008333 71:0.017157 72:0.002451 73:0.001471 74:0.003922 75:0.008333 76:0.00098 77:0.001471 78:0.002451 79:0.006373 80:0.007843 81:0.001961 82:0.002451 83:0 84:0.001471 85:0.00098 86:0.001471 87:0.003922 88:0.001471 89:0.00098 90:0.002451 91:0.00098 92:0.011275 93:0.002451 94:0 95:0.029412 96:0 97:0.00098 98:0.00098 99:0.004412 100:0.001471 101:0.00098 102:0.003431 103:0.002451 104:0.002451 105:0 106:0.001471 107:0.007353 108:0.010784 109:0.018137 110:0.025 111:0 112:0.001961 113:0.00049 114:0.001471 115:0.00049 116:0.001471 117:0.001471 118:0.011275 119:0.007353 120:0.00049 121:0.00098 122:0.013235 123:0.016667 124:0.003431 125:0.00049 126:0.00049 127:0.002941 128:0.001471 129:0.00098 130:0.001471 131:0.017647 132:0.002941 133:0.00049 134:0.003431 135:0.003431 136:0.004902 137:0.004902 138:0.001471 139:0.002941 140:0.004902 141:0.002941 142:0.002451 143:0.00098 144:0.02451 145:0 146:0.013235 147:0.001471 148:0.005882 149:0.004902 150:0.002451 151:0.00049 152:0.001471 153:0.002941 154:0.008333 155:0.002451 156:0.001471 157:0.015196 158:0.005882 159:0 160:0.00049 161:0.008333 162:0.008333 163:0.00098 164:0.005392 165:0.00098 166:0.002941 167:0.001961 168:0.00098 169:0.002451 170:0.002451 171:0.005882 172:0.002941 173:0.002451 174:0.005882 175:0.001961 176:0.006373 177:0.013235 178:0.00049 179:0 180:0.002941 181:0.016176 182:0.00049 183:0.00049 184:0 185:0.006373 186:0.008333 187:0.016667 188:0.00098 189:0.00049 190:0 191:0.004412 192:0.001471 193:0.003922 194:0.006863 195:0.001961 196:0.001961 197:0.00049 198:0.007843 199:0 200:0.004902 201:0.005392 202:0.008824 203:0.001471 204:0.00049 205:0.009314 206:0.00098 207:0.003431 208:0.010294 209:0.00098 210:0.007353 211:0.00098 212:0.00098 213:0.002941 214:0.004902 215:0 216:0.002451 217:0.004412 218:0.00098 219:0.006373 220:0.003431 221:0.001961 222:0.00098 223:0.001471 224:0.002941 225:0.004412 226:0.003431 227:0 228:0 229:0.00049 230:0 231:0.010294 232:0 233:0.001471 234:0.003431 235:0.001961 236:0 237:0.00049 238:0.00049 239:0.001961 240:0.002451 241:0.001471 242:0.007843 243:0.003431 244:0.001471 245:0.00098 246:0 247:0.002451 248:0.001471 249:0.002941 250:0.00049 251:0.003431 252:0.001961 253:0.002941 254:0.004412 255:0.001471 
2 0:0.005928 1:0.001186 2:0.003557 3:0.000593 4:0.001186 5:0.001186 6:0.000593 7:0.001778 8:0.002964 9:0.002964 10:0.005335 11:0.002371 12:0.000593 13:0.001186 14:0 15:0.005928 16:0.001778 17:0.004742 18:0.008299 19:0.001778 20:0.004742 21:0.001186 22:0.01067 23:0 24:0.018969 25:0.002371 26:0.002371 27:0.002964 28:0.004742 29:0.00652 30:0.003557 31:0.001186 32:0.002371 33:0 34:0.007113 35:0.002371 36:0.003557 37:0.001778 38:0.002371 39:0.001778 40:0.001186 41:0.003557 42:0.002371 43:0.000593 44:0.017783 45:0.001778 46:0.01067 47:0.002371 48:0.003557 49:0.008299 50:0.001778 51:0.00652 52:0.001186 53:0.000593 54:0.003557 55:0.001186 56:0.002371 57:0.001186 58:0.000593 59:0.01067 60:0.000593 61:0.002371 62:0.000593 63:0.002371 64:0.002371 65:0.004149 66:0.004149 67:0.00652 68:0.004742 69:0.002964 70:0.001186 71:0.002964 72:0 73:0 74:0.001778 75:0.004742 76:0.002371 77:0.001186 78:0 79:0.001778 80:0.004149 81:0.000593 82:0.014226 83:0.003557 84:0.008892 85:0.001778 86:0.004742 87:0.000593 88:0.004149 89:0.002964 90:0.002371 91:0 92:0.001186 93:0.002964 94:0 95:0.002964 96:0.003557 97:0.002964 98:0.001186 99:0 100:0.001778 101:0 102:0.004742 103:0.004742 104:0.001778 105:0.005928 106:0.010077 107:0.002371 108:0.002964 109:0.004149 110:0.002964 111:0 112:0.001186 113:0.00652 114:0.002964 115:0.003557 116:0.001778 117:0.013041 118:0.004742 119:0.002964 120:0.004149 121:0.00652 122:0.007706 123:0.007706 124:0.002371 125:0.002371 126:0.003557 127:0.000593 128:0.000593 129:0.000593 130:0.002371 131:0.007706 132:0.002964 133:0.009484 134:0.005928 135:0.001186 136:0.008892 137:0.004742 138:0.001186 139:0.001778 140:0.005928 141:0.000593 142:0.000593 143:0.007706 144:0.005928 145:0.000593 146:0.002964 147:0.001186 148:0.000593 149:0.002371 150:0.001186 151:0.018969 152:0.000593 153:0.00652 154:0.005335 155:0.00652 156:0.000593 157:0.011855 158:0.001186 159:0.001186 160:0.007706 161:0.002371 162:0.002964 163:0.001778 164:0.005335 165:0.003557 166:0.001778 167:0.001778 168:0 169:0.004742 170:0.009484 171:0.002964 172:0.000593 173:0.007113 174:0.002964 175:0.001778 176:0 177:0.001186 178:0.001186 179:0.007113 180:0.004742 181:0.012448 182:0.008892 183:0.002964 184:0.016598 185:0.00652 186:0.002964 187:0.014819 188:0.002964 189:0.000593 190:0.001778 191:0.010077 192:0.001778 193:0.008299 194:0.001186 195:0.001186 196:0.002964 197:0 198:0.002371 199:0 200:0 201:0.001778 202:0.004149 203:0.005335 204:0.025489 205:0.008892 206:0.00652 207:0.000593 208:0.007113 209:0.010077 210:0.001778 211:0.000593 212:0.00652 213:0 214:0.002964 215:0.00652 216:0.035566 217:0.002964 218:0.00652 219:0 220:0.005335 221:0.008299 222:0.004742 223:0.000593 224:0.002964 225:0 226:0.000593 227:0.004742 228:0.001186 229:0.002371 230:0 231:0.001186 232:0.007706 233:0.003557 234:0.004149 235:0.002964 236:0 237:0.001778 238:0.001186 239:0.007706 240:0.001186 241:0.003557 242:0.016005 243:0.001778 244:0.005928 245:0.002371 246:0.000593 247:0.003557 248:0 249:0.001778 250:0.001778 251:0.004742 252:0.000593 253:0.011263 254:0.001186 255:0.01067 
2 0:0 1:0.002345 2:0.007034 3:0.001172 4:0.007034 5:0.003517 6:0.01993 7:0.004689 8:0.001172 9:0 10:0 11:0.012896 12:0.001172 13:0.002345 14:0 15:0.005862 16:0.009379 17:0.010551 18:0 19:0 20:0.003517 21:0.004689 22:0.003517 23:0 24:0.002345 25:0.008206 26:0.002345 27:0.002345 28:0 29:0 30:0.003517 31:0.014068 32:0.002345 33:0.004689 34:0.002345 35:0.014068 36:0.012896 37:0.008206 38:0.001172 39:0 40:0.001172 41:0 42:0.002345 43:0.012896 44:0.001172 45:0.002345 46:0 47:0.003517 48:0.001172 49:0.008206 50:0.001172 51:0 52:0 53:0.004689 54:0.001172 55:0.003517 56:0.003517 57:0.005862 58:0.007034 59:0.003517 60:0.01993 61:0.002345 62:0.001172 63:0.004689 64:0 65:0 66:0.012896 67:0.001172 68:0.003517 69:0.007034 70:0.004689 71:0.005862 72:0.003517 73:0.01524 74:0.004689 75:0.003517 76:0 77:0 78:0.009379 79:0.01524 80:0.010551 81:0.001172 82:0 83:0.002345 84:0.001172 85:0.002345 86:0.001172 87:0.004689 88:0.001172 89:0.001172 90:0 91:0.003517 92:0.011723 93:0 94:0.007034 95:0.004689 96:0.005862 97:0.003517 98:0 99:0.008206 100:0.001172 101:0 102:0.002345 103:0.001172 104:0.003517 105:0.001172 106:0 107:0.002345 108:0.005862 109:0.009379 110:0.007034 111:0.008206 112:0.002345 113:0.001172 114:0.003517 115:0.002345 116:0.004689 117:0.001172 118:0.014068 119:0.007034 120:0.007034 121:0 122:0.018757 123:0.002345 124:0 125:0.001172 126:0 127:0.004689 128:0.002345 129:0 130:0 131:0.012896 132:0.004689 133:0 134:0.002345 135:0.009379 136:0.001172 137:0.002345 138:0 139:0.002345 140:0.002345 141:0.001172 142:0.003517 143:0.002345 144:0.005862 145:0.002345 146:0.001172 147:0.008206 148:0.001172 149:0.002345 150:0.001172 151:0 152:0.012896 153:0 154:0.014068 155:0.001172 156:0.001172 157:0.022274 158:0.003517 159:0 160:0 161:0.004689 162:0.004689 163:0.004689 164:0.010551 165:0.001172 166:0.002345 167:0.008206 168:0.007034 169:0.003517 170:0.003517 171:0 172:0.003517 173:0 174:0.002345 175:0.001172 176:0.002345 177:0.003517 178:0 179:0.001172 180:0 181:0.004689 182:0 183:0.004689 184:0 185:0.002345 186:0 187:0.010551 188:0.008206 189:0 190:0.008206 191:0.007034 192:0.002345 193:0.009379 194:0 195:0.005862 196:0 197:0 198:0 199:0.001172 200:0.01993 201:0.005862 202:0.004689 203:0 204:0.001172 205:0.016413 206:0.004689 207:0 208:0 209:0.003517 210:0.001172 211:0 212:0.007034 213:0 214:0 215:0.003517 216:0.001172 217:0 218:0 219:0.002345 220:0.001172 221:0.005862 222:0.008206 223:0.002345 224:0.002345 225:0.002345 226:0.001172 227:0.001172 228:0.002345 229:0.001172 230:0 231:0.007034 232:0.001172 233:0.002345 234:0.002345 235:0.002345 236:0.010551 237:0.003517 238:0.002345 239:0 240:0.010551 241:0 242:0.01524 243:0.003517 244:0 245:0.028136 246:0 247:0.003517 248:0.001172 249:0 250:0.001172 251:0.004689 252:0.005862 253:0.001172 254:0 255:0 
2 0:0 1:0.00322 2:0.016098 3:0.002576 4:0.003863 5:0.006439 6:0 7:0.001288 8:0.005795 9:0.027688 10:0 11:0.001932 12:0.003863 13:0.001932 14:0.00322 15:0.00322 16:0.007083 17:0.00322 18:0 19:0.00322 20:0.002576 21:0 22:0 23:0.000644 24:0 25:0.002576 26:0.013522 27:0.001932 28:0 29:0.002576 30:0.009015 31:0.002576 32:0.000644 33:0 34:0.000644 35:0.005151 36:0.010303 37:0.012234 38:0 39:0.001288 40:0.001288 41:0.001288 42:0.006439 43:0.001288 44:0 45:0.009659 46:0.001288 47:0.000644 48:0.001932 49:0.005795 50:0 51:0 52:0.001932 53:0.00322 54:0 55:0.004507 56:0.004507 57:0.006439 58:0.004507 59:0 60:0.001288 61:0.002576 62:0 63:0.00322 64:0 65:0.001288 66:0.004507 67:0.004507 68:0 69:0.000644 70:0.009659 71:0.007083 72:0.009015 73:0.000644 74:0.008371 75:0.009015 76:0.001932 77:0.001932 78:0.00322 79:0.000644 80:0.002576 81:0.002576 82:0 83:0.000644 84:0.000644 85:0.000644 86:0.000644 87:0.002576 88:0 89:0.005151 90:0 91:0.001288 92:0.007083 93:0.000644 94:0 95:0.013522 96:0 97:0.004507 98:0.002576 99:0.001932 100:0.000644 101:0.001288 102:0.003863 103:0.002576 104:0.000644 105:0 106:0.000644 107:0.006439 108:0.016098 109:0.015454 110:0.005151 111:0.002576 112:0.002576 113:0.000644 114:0.001932 115:0.000644 116:0.001288 117:0.001288 118:0.019317 119:0.006439 120:0.004507 121:0.001932 122:0.003863 123:0.014166 124:0.00322 125:0 126:0.00322 127:0.007083 128:0.001288 129:0.002576 130:0.001932 131:0.001932 132:0.00322 133:0.000644 134:0.002576 135:0.005795 136:0.002576 137:0.009015 138:0.001288 139:0.002576 140:0.001288 141:0.001288 142:0.001288 143:0.001288 144:0.019961 145:0.001932 146:0.01803 147:0.001932 148:0.002576 149:0.006439 150:0.001932 151:0.000644 152:0.00322 153:0.001932 154:0.019317 155:0.001932 156:0.001288 157:0.010303 158:0.001932 159:0.007083 160:0.001288 161:0.006439 162:0.009659 163:0.000644 164:0.009015 165:0.001932 166:0.01803 167:0.000644 168:0.00322 169:0.007727 170:0.009015 171:0.010947 172:0.005795 173:0.001288 174:0.001288 175:0 176:0.004507 177:0.010303 178:0 179:0.001288 180:0 181:0.018674 182:0.003863 183:0.002576 184:0 185:0.003863 186:0.012234 187:0.024469 188:0.002576 189:0.000644 190:0.001288 191:0.004507 192:0.000644 193:0.009659 194:0.001932 195:0.003863 196:0.003863 197:0.001932 198:0.002576 199:0 200:0.000644 201:0.009015 202:0.01481 203:0.000644 204:0.000644 205:0.005151 206:0.005151 207:0.002576 208:0.00322 209:0.001288 210:0.009015 211:0.00322 212:0.001932 213:0 214:0.001288 215:0 216:0.000644 217:0 218:0.001932 219:0.00322 220:0.01159 221:0.000644 222:0 223:0.00322 224:0.009659 225:0.007727 226:0.006439 227:0 228:0.004507 229:0 230:0.001288 231:0.010303 232:0 233:0.001288 234:0.010303 235:0.002576 236:0.002576 237:0.002576 238:0.000644 239:0.000644 240:0.002576 241:0 242:0.024469 243:0.013522 244:0.001288 245:0 246:0 247:0 248:0.000644 249:0.001932 250:0.004507 251:0.002576 252:0.004507 253:0.000644 254:0 255:0.000644 
2 0:0 1:0.004163 2:0.00185 3:0 4:0.013876 5:0.006938 6:0.011563 7:0.00185 8:0.00185 9:0.002313 10:0.000463 11:0.004163 12:0.002775 13:0.005088 14:0.002775 15:0.002313 16:0.004163 17:0.017576 18:0.000463 19:0.000463 20:0 21:0.013414 22:0.012488 23:0.000925 24:0.006938 25:0.004625 26:0.004625 27:0.002775 28:0.016189 29:0.002775 30:0.002775 31:0.000925 32:0.000463 33:0.000925 34:0.005088 35:0.004163 36:0.00555 37:0.007401 38:0.002313 39:0.000925 40:0.000925 41:0.001388 42:0.002775 43:0.006013 44:0.002775 45:0.006938 46:0.002313 47:0.003238 48:0.0037 49:0.0037 50:0.0037 51:0.000463 52:0.002775 53:0.000925 54:0.000463 55:0.0037 56:0.006938 57:0.001388 58:0.012951 59:0.000925 60:0.010638 61:0.009251 62:0.006475 63:0.005088 64:0.000463 65:0.000925 66:0.011563 67:0.0037 68:0.006013 69:0.008326 70:0.0037 71:0.004625 72:0.003238 73:0.000463 74:0.002313 75:0.008788 76:0.002313 77:0.002313 78:0.00555 79:0.008788 80:0.000463 81:0.00185 82:0.000463 83:0.001388 84:0.002313 85:0.003238 86:0.000463 87:0.00185 88:0.000463 89:0.002775 90:0.002775 91:0.00185 92:0.005088 93:0.006013 94:0.003238 95:0.008788 96:0.002775 97:0.000925 98:0.005088 99:0.009713 100:0.000463 101:0.003238 102:0.003238 103:0.000463 104:0.000463 105:0.001388 106:0.000925 107:0.00185 108:0.006938 109:0.006938 110:0.006013 111:0.006013 112:0.004163 113:0.000925 114:0.006013 115:0.009251 116:0.010176 117:0.0037 118:0.002313 119:0.004163 120:0.0037 121:0.002313 122:0.006013 123:0.012951 124:0.003238 125:0.000463 126:0.000925 127:0.005088 128:0.002313 129:0.000463 130:0.000925 131:0.00185 132:0.0037 133:0.000925 134:0.0037 135:0.00555 136:0.003238 137:0.006013 138:0.004163 139:0.001388 140:0.001388 141:0.00185 142:0.008326 143:0.006013 144:0.006475 145:0.001388 146:0.009713 147:0.009713 148:0.0037 149:0.005088 150:0.006013 151:0.001388 152:0.002313 153:0.003238 154:0.006475 155:0.0037 156:0.002775 157:0.00185 158:0.002775 159:0.001388 160:0.004163 161:0.008326 162:0.00185 163:0.004163 164:0.013414 165:0.004625 166:0.002775 167:0.000925 168:0.00555 169:0.001388 170:0.001388 171:0.004163 172:0.004163 173:0.002313 174:0.00185 175:0.001388 176:0.004163 177:0.009713 178:0.004625 179:0.000463 180:0.00555 181:0.006013 182:0 183:0.000925 184:0.006475 185:0.000925 186:0.008788 187:0.004625 188:0.000463 189:0.002313 190:0.00185 191:0.000925 192:0.006475 193:0.003238 194:0.002775 195:0.006013 196:0.001388 197:0.0037 198:0.002775 199:0.007863 200:0.005088 201:0.005088 202:0.006013 203:0.000925 204:0.0037 205:0.00185 206:0 207:0.003238 208:0.003238 209:0.00185 210:0.005088 211:0.005088 212:0.015726 213:0.00185 214:0.001388 215:0.002775 216:0.002313 217:0.000925 218:0.00555 219:0.005088 220:0.006013 221:0.004163 222:0.00555 223:0.000463 224:0.006013 225:0.004163 226:0.001388 227:0.002775 228:0.003238 229:0.001388 230:0.0037 231:0.004625 232:0.003238 233:0.005088 234:0.0037 235:0.007401 236:0.002313 237:0.0037 238:0.00185 239:0.001388 240:0.00555 241:0.00185 242:0.004625 243:0.0037 244:0.0037 245:0.005088 246:0.0037 247:0.00555 248:0.001388 249:0 250:0.006475 251:0 252:0.00555 253:0.000463 254:0.000463 255:0.001388 
2 0:0 1:0.002947 2:0.005894 3:0 4:0.000982 5:0 6:0.003929 7:0.001965 8:0 9:0.023576 10:0 11:0.007859 12:0.006876 13:0.008841 14:0.003929 15:0.004912 16:0.013752 17:0.009823 18:0.001965 19:0.000982 20:0.001965 21:0.000982 22:0 23:0.003929 24:0 25:0.003929 26:0.003929 27:0.001965 28:0 29:0.009823 30:0.006876 31:0.000982 32:0 33:0.004912 34:0.005894 35:0.007859 36:0.003929 37:0.005894 38:0.000982 39:0.000982 40:0.000982 41:0.004912 42:0.004912 43:0 44:0.000982 45:0.003929 46:0.003929 47:0 48:0.008841 49:0.009823 50:0 51:0.000982 52:0.003929 53:0.007859 54:0 55:0.000982 56:0.004912 57:0.003929 58:0.034381 59:0 60:0.002947 61:0.001965 62:0 63:0.006876 64:0 65:0 66:0.008841 67:0 68:0 69:0.000982 70:0.010806 71:0.015717 72:0.001965 73:0.000982 74:0.002947 75:0.003929 76:0.001965 77:0.001965 78:0.000982 79:0.008841 80:0.001965 81:0.000982 82:0.000982 83:0 84:0.000982 85:0.000982 86:0.000982 87:0.004912 88:0.001965 89:0.002947 90:0.000982 91:0.002947 92:0.015717 93:0.008841 94:0 95:0.037328 96:0 97:0.001965 98:0.007859 99:0.000982 100:0.000982 101:0.001965 102:0.001965 103:0.004912 104:0.001965 105:0 106:0 107:0.002947 108:0.01277 109:0.009823 110:0.035363 111:0.002947 112:0.01277 113:0 114:0.002947 115:0 116:0 117:0.008841 118:0.002947 119:0.007859 120:0.001965 121:0.002947 122:0.016699 123:0.006876 124:0 125:0 126:0.01277 127:0.003929 128:0.001965 129:0.000982 130:0 131:0.005894 132:0.001965 133:0 134:0.010806 135:0 136:0.002947 137:0.003929 138:0.000982 139:0.000982 140:0 141:0 142:0.000982 143:0.000982 144:0.017682 145:0 146:0.005894 147:0.000982 148:0.001965 149:0.001965 150:0.003929 151:0 152:0.003929 153:0.003929 154:0.004912 155:0.000982 156:0.005894 157:0.006876 158:0 159:0 160:0.005894 161:0.005894 162:0.002947 163:0.000982 164:0.005894 165:0.005894 166:0.002947 167:0.001965 168:0.003929 169:0.008841 170:0.001965 171:0.005894 172:0 173:0.006876 174:0 175:0.001965 176:0.000982 177:0.005894 178:0 179:0 180:0 181:0.005894 182:0.000982 183:0.001965 184:0.000982 185:0.002947 186:0.018664 187:0.011788 188:0.001965 189:0 190:0.008841 191:0.002947 192:0.003929 193:0.017682 194:0.007859 195:0.004912 196:0.000982 197:0.001965 198:0.01277 199:0.004912 200:0.000982 201:0.003929 202:0.003929 203:0.000982 204:0.000982 205:0.013752 206:0.000982 207:0.007859 208:0.01277 209:0 210:0.007859 211:0.005894 212:0 213:0.000982 214:0.002947 215:0 216:0.000982 217:0.000982 218:0.000982 219:0.006876 220:0 221:0 222:0.002947 223:0.001965 224:0.002947 225:0.005894 226:0.000982 227:0 228:0.005894 229:0 230:0.005894 231:0.008841 232:0.000982 233:0.000982 234:0.000982 235:0.001965 236:0.003929 237:0.000982 238:0.000982 239:0.000982 240:0.005894 241:0.001965 242:0.004912 243:0 244:0.001965 245:0.001965 246:0 247:0.006876 248:0.000982 249:0 250:0.000982 251:0.000982 252:0 253:0 254:0.000982 255:0 
2 0:0.001612 1:0 2:0.011281 3:0 4:0.004029 5:0.012893 6:0.002417 7:0.004029 8:0.008864 9:0.013699 10:0.003223 11:0.012087 12:0.002417 13:0.000806 14:0.001612 15:0.004029 16:0.008058 17:0.004835 18:0 19:0 20:0.004029 21:0.001612 22:0 23:0.002417 24:0 25:0.004029 26:0.012087 27:0.001612 28:0 29:0.000806 30:0.005641 31:0 32:0 33:0.004029 34:0.001612 35:0.001612 36:0.003223 37:0.006446 38:0 39:0 40:0 41:0.005641 42:0.004029 43:0.000806 44:0 45:0.000806 46:0.003223 47:0.007252 48:0.012087 49:0.016116 50:0 51:0.000806 52:0.002417 53:0.016922 54:0.001612 55:0.004029 56:0.001612 57:0.004029 58:0.002417 59:0 60:0.000806 61:0.003223 62:0 63:0.006446 64:0 65:0.001612 66:0.000806 67:0.001612 68:0.001612 69:0.003223 70:0.007252 71:0.01531 72:0.012087 73:0.001612 74:0.012087 75:0.032232 76:0 77:0.008058 78:0.000806 79:0 80:0.006446 81:0.004029 82:0 83:0.003223 84:0.002417 85:0.001612 86:0.011281 87:0.002417 88:0.000806 89:0.007252 90:0 91:0 92:0.018533 93:0.002417 94:0 95:0.005641 96:0 97:0.001612 98:0.000806 99:0 100:0.001612 101:0.004835 102:0.001612 103:0.000806 104:0 105:0 106:0 107:0.000806 108:0.010475 109:0.007252 110:0.010475 111:0 112:0.005641 113:0.004029 114:0.002417 115:0 116:0 117:0 118:0.008058 119:0.00967 120:0.000806 121:0 122:0.003223 123:0.004029 124:0.003223 125:0 126:0 127:0.008864 128:0.002417 129:0.004029 130:0.001612 131:0.002417 132:0.012087 133:0 134:0.004029 135:0.004835 136:0.005641 137:0.002417 138:0 139:0 140:0.004029 141:0.004029 142:0 143:0.001612 144:0.008058 145:0.004835 146:0.008058 147:0.007252 148:0.007252 149:0.00967 150:0.004835 151:0 152:0.000806 153:0.001612 154:0.011281 155:0.001612 156:0.001612 157:0.007252 158:0.002417 159:0.005641 160:0.005641 161:0.008864 162:0.001612 163:0.002417 164:0.004835 165:0.003223 166:0.003223 167:0.004029 168:0.001612 169:0.010475 170:0.008864 171:0.008058 172:0.000806 173:0.000806 174:0.002417 175:0.000806 176:0.000806 177:0.004029 178:0 179:0.000806 180:0 181:0.005641 182:0.014504 183:0.011281 184:0 185:0.003223 186:0.010475 187:0.012087 188:0.003223 189:0.000806 190:0.002417 191:0.014504 192:0.001612 193:0.011281 194:0.002417 195:0.014504 196:0.000806 197:0.001612 198:0 199:0.002417 200:0.001612 201:0.004029 202:0.006446 203:0 204:0 205:0.012087 206:0.000806 207:0.003223 208:0.016922 209:0 210:0.00967 211:0.001612 212:0.000806 213:0.001612 214:0.003223 215:0 216:0.000806 217:0.000806 218:0 219:0.002417 220:0.020951 221:0.000806 222:0 223:0 224:0.016116 225:0.001612 226:0.000806 227:0.002417 228:0.001612 229:0.000806 230:0.000806 231:0.005641 232:0.002417 233:0.003223 234:0.002417 235:0.003223 236:0 237:0.000806 238:0.002417 239:0 240:0.001612 241:0.002417 242:0.011281 243:0.004029 244:0.005641 245:0 246:0.001612 247:0.001612 248:0 249:0 250:0.008058 251:0.004029 252:0.012087 253:0.002417 254:0.001612 255:0 
2 0:0.003185 1:0.001062 2:0.005308 3:0 4:0.001062 5:0 6:0 7:0 8:0 9:0.002123 10:0 11:0.002123 12:0.001062 13:0.010616 14:0.006369 15:0.003185 16:0.002123 17:0.016985 18:0.007431 19:0.005308 20:0.001062 21:0.001062 22:0 23:0.001062 24:0 25:0.001062 26:0.008493 27:0.004246 28:0.001062 29:0.008493 30:0.031847 31:0.001062 32:0.006369 33:0 34:0.003185 35:0.002123 36:0.002123 37:0.002123 38:0 39:0 40:0 41:0.006369 42:0.002123 43:0.005308 44:0.001062 45:0.007431 46:0.002123 47:0.001062 48:0.012739 49:0.007431 50:0.001062 51:0 52:0.001062 53:0 54:0.004246 55:0 56:0.008493 57:0.003185 58:0.009554 59:0 60:0 61:0.004246 62:0 63:0.009554 64:0.001062 65:0 66:0.009554 67:0.001062 68:0.001062 69:0.001062 70:0.005308 71:0.001062 72:0 73:0.003185 74:0 75:0.008493 76:0 77:0 78:0.002123 79:0 80:0 81:0 82:0.001062 83:0 84:0.003185 85:0.001062 86:0.003185 87:0.001062 88:0.005308 89:0.001062 90:0 91:0.001062 92:0.029724 93:0.009554 94:0.010616 95:0.001062 96:0.003185 97:0 98:0.022293 99:0.004246 100:0.003185 101:0.002123 102:0 103:0 104:0.001062 105:0 106:0.003185 107:0.001062 108:0.009554 109:0.002123 110:0.005308 111:0.008493 112:0 113:0 114:0 115:0 116:0.002123 117:0.006369 118:0.002123 119:0.006369 120:0.002123 121:0.010616 122:0.010616 123:0.042463 124:0.003185 125:0 126:0.003185 127:0.0138 128:0 129:0.003185 130:0 131:0 132:0.011677 133:0 134:0.010616 135:0.0138 136:0.008493 137:0.003185 138:0.003185 139:0.001062 140:0.002123 141:0 142:0.003185 143:0.001062 144:0.003185 145:0.002123 146:0.043524 147:0 148:0.002123 149:0.005308 150:0.001062 151:0.001062 152:0.001062 153:0.011677 154:0.002123 155:0.004246 156:0.001062 157:0 158:0.001062 159:0.003185 160:0.032909 161:0.008493 162:0.001062 163:0 164:0.024416 165:0.022293 166:0.001062 167:0 168:0.001062 169:0.005308 170:0 171:0.003185 172:0.002123 173:0.006369 174:0.005308 175:0.002123 176:0 177:0.001062 178:0.001062 179:0 180:0.001062 181:0.001062 182:0 183:0.001062 184:0.003185 185:0.005308 186:0.007431 187:0.010616 188:0 189:0 190:0.001062 191:0.001062 192:0 193:0.002123 194:0.010616 195:0.004246 196:0.001062 197:0.003185 198:0.003185 199:0 200:0.002123 201:0.003185 202:0.004246 203:0 204:0.004246 205:0 206:0 207:0.001062 208:0.003185 209:0.002123 210:0.022293 211:0.001062 212:0 213:0 214:0 215:0 216:0.001062 217:0 218:0.007431 219:0.010616 220:0.003185 221:0.002123 222:0.003185 223:0 224:0.006369 225:0.006369 226:0.001062 227:0.001062 228:0.002123 229:0.002123 230:0.004246 231:0.012739 232:0.002123 233:0.003185 234:0.006369 235:0.008493 236:0 237:0.005308 238:0 239:0.001062 240:0.002123 241:0 242:0.002123 243:0.001062 244:0.001062 245:0.002123 246:0.002123 247:0.0138 248:0.002123 249:0.002123 250:0.008493 251:0.001062 252:0.001062 253:0 254:0.004246 255:0.003185 
2 0:0 1:0 2:0.008222 3:0.002055 4:0.014388 5:0.001028 6:0.008222 7:0.006166 8:0.005139 9:0.015416 10:0.002055 11:0.003083 12:0.002055 13:0.003083 14:0.001028 15:0 16:0.002055 17:0.006166 18:0.004111 19:0.003083 20:0.001028 21:0.016444 22:0.006166 23:0.008222 24:0.005139 25:0.004111 26:0.004111 27:0.003083 28:0.003083 29:0.001028 30:0.003083 31:0.001028 32:0 33:0.005139 34:0.013361 35:0.003083 36:0.004111 37:0.007194 38:0 39:0.002055 40:0 41:0.002055 42:0.001028 43:0.002055 44:0.013361 45:0 46:0.001028 47:0.002055 48:0.001028 49:0.002055 50:0 51:0.002055 52:0 53:0.003083 54:0.003083 55:0.002055 56:0.003083 57:0.001028 58:0.023638 59:0.005139 60:0.014388 61:0.002055 62:0 63:0.002055 64:0 65:0.001028 66:0.001028 67:0.007194 68:0.004111 69:0.007194 70:0 71:0.00925 72:0.012333 73:0.006166 74:0.007194 75:0.005139 76:0 77:0.003083 78:0.001028 79:0.00925 80:0.006166 81:0.006166 82:0.001028 83:0.003083 84:0.003083 85:0.004111 86:0.002055 87:0.005139 88:0 89:0.001028 90:0.001028 91:0.001028 92:0.006166 93:0.003083 94:0 95:0.002055 96:0.001028 97:0.003083 98:0 99:0.005139 100:0.001028 101:0 102:0.002055 103:0.002055 104:0.004111 105:0.001028 106:0.001028 107:0 108:0.004111 109:0.006166 110:0.015416 111:0.006166 112:0.002055 113:0.001028 114:0.008222 115:0.001028 116:0.00925 117:0.002055 118:0.003083 119:0.005139 120:0.005139 121:0.003083 122:0.006166 123:0.004111 124:0.001028 125:0 126:0.007194 127:0.002055 128:0 129:0 130:0 131:0.005139 132:0.003083 133:0.001028 134:0.001028 135:0.001028 136:0.002055 137:0 138:0.002055 139:0.011305 140:0 141:0.004111 142:0.00925 143:0.002055 144:0.02261 145:0.008222 146:0.012333 147:0.003083 148:0.003083 149:0.013361 150:0.003083 151:0.00925 152:0.001028 153:0.024666 154:0.004111 155:0.005139 156:0.006166 157:0.001028 158:0 159:0 160:0.002055 161:0.001028 162:0.001028 163:0.002055 164:0.003083 165:0 166:0.003083 167:0.007194 168:0 169:0 170:0.004111 171:0.014388 172:0.005139 173:0 174:0.003083 175:0.012333 176:0.001028 177:0.001028 178:0.003083 179:0.001028 180:0 181:0.002055 182:0.008222 183:0.004111 184:0.004111 185:0.002055 186:0.007194 187:0.003083 188:0.004111 189:0 190:0.004111 191:0.005139 192:0.001028 193:0.006166 194:0.010277 195:0.006166 196:0.006166 197:0.002055 198:0.002055 199:0.004111 200:0 201:0 202:0.00925 203:0.001028 204:0.011305 205:0.00925 206:0.001028 207:0 208:0.004111 209:0 210:0.001028 211:0 212:0.003083 213:0 214:0 215:0.005139 216:0.002055 217:0.001028 218:0 219:0.001028 220:0.00925 221:0.003083 222:0.005139 223:0.001028 224:0.004111 225:0 226:0.001028 227:0.001028 228:0.00925 229:0.007194 230:0.002055 231:0.008222 232:0.014388 233:0.001028 234:0.001028 235:0.001028 236:0.004111 237:0.010277 238:0.001028 239:0.004111 240:0.001028 241:0.003083 242:0.005139 243:0 244:0.007194 245:0 246:0.001028 247:0.005139 248:0.001028 249:0 250:0.008222 251:0.004111 252:0.013361 253:0.001028 254:0.004111 255:0.004111 
2 0:0.00278 1:0.001854 2:0.013902 3:0 4:0.008341 5:0.006487 6:0 7:0.004634 8:0.007414 9:0.007414 10:0.001854 11:0.001854 12:0.00278 13:0.000927 14:0.001854 15:0.003707 16:0.009268 17:0.006487 18:0.000927 19:0 20:0.001854 21:0.000927 22:0.00278 23:0.000927 24:0.000927 25:0.00278 26:0.008341 27:0.00278 28:0.00278 29:0.00278 30:0.001854 31:0.000927 32:0 33:0 34:0.000927 35:0.024096 36:0.005561 37:0.015755 38:0 39:0.001854 40:0 41:0.00278 42:0.004634 43:0.000927 44:0 45:0.00278 46:0.000927 47:0.001854 48:0.001854 49:0.005561 50:0.001854 51:0 52:0.00278 53:0 54:0.004634 55:0.001854 56:0 57:0.007414 58:0.02317 59:0.001854 60:0 61:0 62:0 63:0.000927 64:0 65:0 66:0.018536 67:0.001854 68:0.000927 69:0 70:0.005561 71:0.009268 72:0.007414 73:0.000927 74:0.003707 75:0.005561 76:0 77:0.003707 78:0.007414 79:0.00278 80:0.005561 81:0.001854 82:0.000927 83:0 84:0 85:0 86:0.000927 87:0.00278 88:0 89:0.001854 90:0.000927 91:0 92:0.005561 93:0.00278 94:0 95:0.012975 96:0.00278 97:0.00278 98:0.001854 99:0.00278 100:0.000927 101:0.00278 102:0.009268 103:0 104:0 105:0 106:0 107:0.000927 108:0.014829 109:0.006487 110:0.003707 111:0.00278 112:0.003707 113:0 114:0 115:0.000927 116:0.006487 117:0.000927 118:0.011121 119:0.00278 120:0.001854 121:0.00278 122:0.011121 123:0.015755 124:0.000927 125:0 126:0.001854 127:0.000927 128:0.000927 129:0.008341 130:0 131:0.004634 132:0.005561 133:0.000927 134:0.00278 135:0.001854 136:0.010195 137:0.001854 138:0.000927 139:0 140:0.000927 141:0.003707 142:0.001854 143:0.00278 144:0.013902 145:0.000927 146:0.015755 147:0.003707 148:0.004634 149:0.007414 150:0.00278 151:0.001854 152:0.001854 153:0.000927 154:0.016682 155:0 156:0 157:0.009268 158:0 159:0.005561 160:0.000927 161:0.005561 162:0.003707 163:0.000927 164:0.004634 165:0.000927 166:0.013902 167:0 168:0.000927 169:0.003707 170:0.010195 171:0.012048 172:0.006487 173:0 174:0.009268 175:0 176:0.000927 177:0.009268 178:0 179:0 180:0 181:0.031511 182:0.004634 183:0.006487 184:0 185:0.000927 186:0.012975 187:0.025023 188:0 189:0 190:0.000927 191:0.013902 192:0.001854 193:0.02595 194:0.00278 195:0.003707 196:0 197:0.004634 198:0.00278 199:0.009268 200:0.005561 201:0.000927 202:0.013902 203:0 204:0 205:0.040778 206:0 207:0 208:0.003707 209:0.000927 210:0.001854 211:0.00278 212:0.007414 213:0 214:0.001854 215:0.001854 216:0 217:0 218:0.00278 219:0.005561 220:0.003707 221:0.001854 222:0 223:0.000927 224:0.004634 225:0.00278 226:0.007414 227:0.000927 228:0.00278 229:0 230:0.000927 231:0.012975 232:0 233:0.001854 234:0.001854 235:0.001854 236:0.001854 237:0.000927 238:0.004634 239:0 240:0.000927 241:0.00278 242:0.010195 243:0.004634 244:0.00278 245:0 246:0.001854 247:0 248:0 249:0.001854 250:0.007414 251:0.007414 252:0.008341 253:0.001854 254:0 255:0.001854 
2 0:0 1:0.001139 2:0.005695 3:0.002278 4:0.002278 5:0.005695 6:0.018223 7:0.009112 8:0.001139 9:0.005695 10:0.002278 11:0.002278 12:0.001139 13:0.004556 14:0.003417 15:0.004556 16:0.004556 17:0.001139 18:0 19:0 20:0.003417 21:0.004556 22:0.002278 23:0.003417 24:0.004556 25:0 26:0.003417 27:0.005695 28:0.005695 29:0.009112 30:0.001139 31:0.003417 32:0.009112 33:0.003417 34:0.002278 35:0.001139 36:0.007973 37:0.003417 38:0.002278 39:0.005695 40:0.002278 41:0.001139 42:0 43:0.001139 44:0.006834 45:0 46:0.001139 47:0.001139 48:0.003417 49:0 50:0 51:0 52:0.003417 53:0.001139 54:0.005695 55:0.004556 56:0.001139 57:0.004556 58:0.005695 59:0.002278 60:0.019362 61:0.003417 62:0.007973 63:0.001139 64:0 65:0 66:0 67:0.005695 68:0.006834 69:0.01139 70:0.001139 71:0.002278 72:0.005695 73:0.01139 74:0.004556 75:0.012528 76:0 77:0 78:0.003417 79:0.002278 80:0.010251 81:0.007973 82:0.001139 83:0.002278 84:0 85:0.009112 86:0.010251 87:0.005695 88:0.003417 89:0.002278 90:0.002278 91:0.001139 92:0.012528 93:0.002278 94:0.001139 95:0.005695 96:0.001139 97:0.009112 98:0 99:0.005695 100:0 101:0.001139 102:0.026196 103:0.006834 104:0.005695 105:0.001139 106:0 107:0 108:0.006834 109:0 110:0.006834 111:0.002278 112:0.006834 113:0.002278 114:0.001139 115:0.003417 116:0.003417 117:0.002278 118:0.006834 119:0 120:0.002278 121:0.009112 122:0.006834 123:0.001139 124:0 125:0 126:0.007973 127:0.001139 128:0.012528 129:0.004556 130:0.001139 131:0.007973 132:0.002278 133:0.001139 134:0.010251 135:0.005695 136:0.002278 137:0.001139 138:0.002278 139:0.002278 140:0.001139 141:0.013667 142:0.013667 143:0.005695 144:0.005695 145:0.003417 146:0.006834 147:0 148:0 149:0.004556 150:0.012528 151:0 152:0 153:0.003417 154:0 155:0.01139 156:0.002278 157:0.004556 158:0.003417 159:0.001139 160:0.004556 161:0.003417 162:0 163:0.002278 164:0.001139 165:0.004556 166:0.005695 167:0.007973 168:0.004556 169:0.001139 170:0.004556 171:0.002278 172:0 173:0.002278 174:0.002278 175:0.013667 176:0.005695 177:0 178:0.001139 179:0.002278 180:0 181:0.009112 182:0.001139 183:0.002278 184:0.005695 185:0.002278 186:0.001139 187:0 188:0.009112 189:0.002278 190:0.006834 191:0.003417 192:0.001139 193:0.006834 194:0.007973 195:0.004556 196:0.001139 197:0.005695 198:0.002278 199:0.001139 200:0.001139 201:0.001139 202:0.003417 203:0.002278 204:0.003417 205:0.014806 206:0.003417 207:0 208:0 209:0 210:0 211:0 212:0 213:0.005695 214:0.004556 215:0 216:0 217:0.002278 218:0.003417 219:0.003417 220:0.005695 221:0.004556 222:0.007973 223:0.001139 224:0.002278 225:0.001139 226:0 227:0.006834 228:0.001139 229:0.001139 230:0.004556 231:0.004556 232:0.007973 233:0.001139 234:0 235:0.005695 236:0.009112 237:0.003417 238:0 239:0.002278 240:0.006834 241:0 242:0.005695 243:0.003417 244:0.004556 245:0.012528 246:0.005695 247:0.005695 248:0.005695 249:0.001139 250:0.004556 251:0.01139 252:0.001139 253:0.002278 254:0.006834 255:0.005695 
2 0:0.001488 1:0.00744 2:0.001488 3:0.002976 4:0.002976 5:0.004464 6:0.002976 7:0.004464 8:0.002976 9:0 10:0 11:0.005952 12:0 13:0.005952 14:0 15:0.004464 16:0.005952 17:0.005952 18:0.001488 19:0.00744 20:0.002976 21:0.013393 22:0.017857 23:0.011905 24:0.004464 25:0.016369 26:0.011905 27:0.008929 28:0.005952 29:0.010417 30:0.001488 31:0.00744 32:0 33:0.010417 34:0.004464 35:0 36:0 37:0.002976 38:0.001488 39:0 40:0 41:0.001488 42:0.00744 43:0.00744 44:0.001488 45:0.004464 46:0.001488 47:0.002976 48:0.008929 49:0.008929 50:0.001488 51:0 52:0.002976 53:0.004464 54:0 55:0.002976 56:0.001488 57:0.00744 58:0.004464 59:0.001488 60:0 61:0.008929 62:0 63:0.008929 64:0 65:0 66:0.002976 67:0.014881 68:0.004464 69:0.005952 70:0.001488 71:0 72:0.002976 73:0.001488 74:0.00744 75:0.004464 76:0 77:0.001488 78:0.004464 79:0.019345 80:0.001488 81:0.001488 82:0 83:0 84:0 85:0.001488 86:0 87:0.005952 88:0 89:0.001488 90:0 91:0.001488 92:0.002976 93:0.001488 94:0.002976 95:0.001488 96:0 97:0.001488 98:0 99:0 100:0.001488 101:0.004464 102:0 103:0.001488 104:0.002976 105:0 106:0.001488 107:0.001488 108:0.00744 109:0.008929 110:0 111:0.011905 112:0.002976 113:0 114:0.001488 115:0.001488 116:0.010417 117:0.002976 118:0.001488 119:0.001488 120:0.002976 121:0.017857 122:0.001488 123:0.008929 124:0.004464 125:0 126:0.005952 127:0.00744 128:0.00744 129:0 130:0 131:0.013393 132:0.004464 133:0.001488 134:0 135:0.020833 136:0.008929 137:0 138:0.005952 139:0.002976 140:0 141:0 142:0.005952 143:0.005952 144:0.004464 145:0.005952 146:0.008929 147:0 148:0 149:0.005952 150:0.00744 151:0 152:0.005952 153:0.001488 154:0.008929 155:0 156:0.002976 157:0.005952 158:0 159:0 160:0.005952 161:0.005952 162:0.001488 163:0.001488 164:0 165:0.004464 166:0.001488 167:0.001488 168:0.004464 169:0 170:0.00744 171:0.010417 172:0.002976 173:0 174:0 175:0.001488 176:0 177:0 178:0.001488 179:0.001488 180:0.004464 181:0.004464 182:0.004464 183:0.005952 184:0.001488 185:0.001488 186:0.010417 187:0 188:0.004464 189:0.001488 190:0.008929 191:0.001488 192:0.004464 193:0.00744 194:0.010417 195:0.001488 196:0.001488 197:0.00744 198:0.002976 199:0.004464 200:0.013393 201:0.001488 202:0.008929 203:0.005952 204:0.005952 205:0.008929 206:0 207:0.001488 208:0.002976 209:0 210:0.002976 211:0.004464 212:0.011905 213:0 214:0 215:0.001488 216:0.001488 217:0 218:0.001488 219:0.002976 220:0.005952 221:0.001488 222:0.001488 223:0 224:0.00744 225:0 226:0 227:0 228:0.011905 229:0.002976 230:0.008929 231:0.004464 232:0 233:0.005952 234:0 235:0.001488 236:0.001488 237:0.011905 238:0.005952 239:0 240:0.005952 241:0.001488 242:0.00744 243:0 244:0.00744 245:0.005952 246:0.005952 247:0.008929 248:0.002976 249:0 250:0.002976 251:0.00744 252:0.013393 253:0.002976 254:0.002976 255:0.001488 
2 0:0 1:0 2:0 3:0 4:0.001122 5:0.007856 6:0.001122 7:0 8:0.001122 9:0.023569 10:0 11:0.001122 12:0.002245 13:0.001122 14:0 15:0 16:0.008979 17:0.003367 18:0.017957 19:0.005612 20:0 21:0.001122 22:0.002245 23:0.001122 24:0.01459 25:0 26:0.006734 27:0.001122 28:0.001122 29:0.005612 30:0.003367 31:0.012346 32:0.004489 33:0.002245 34:0.001122 35:0.002245 36:0.002245 37:0.007856 38:0.002245 39:0.001122 40:0 41:0.011223 42:0.002245 43:0.005612 44:0.004489 45:0 46:0.003367 47:0.002245 48:0 49:0 50:0.003367 51:0.002245 52:0 53:0.001122 54:0 55:0.008979 56:0.001122 57:0 58:0.001122 59:0.006734 60:0.001122 61:0 62:0.004489 63:0.004489 64:0.002245 65:0.003367 66:0.004489 67:0.012346 68:0.004489 69:0.005612 70:0.002245 71:0.004489 72:0.005612 73:0.004489 74:0.001122 75:0 76:0.006734 77:0.002245 78:0.008979 79:0.001122 80:0.001122 81:0.003367 82:0.005612 83:0 84:0.003367 85:0.001122 86:0.003367 87:0.002245 88:0.016835 89:0.004489 90:0.003367 91:0.015713 92:0.001122 93:0.001122 94:0.006734 95:0.003367 96:0.010101 97:0.001122 98:0 99:0.004489 100:0.012346 101:0.002245 102:0.007856 103:0.001122 104:0.001122 105:0.007856 106:0.002245 107:0 108:0.005612 109:0.004489 110:0.002245 111:0.002245 112:0.006734 113:0.003367 114:0 115:0 116:0.001122 117:0.012346 118:0.003367 119:0.002245 120:0.007856 121:0.025814 122:0.005612 123:0.001122 124:0 125:0.007856 126:0.006734 127:0.006734 128:0.001122 129:0 130:0 131:0.003367 132:0.002245 133:0.003367 134:0.002245 135:0.004489 136:0.001122 137:0.001122 138:0.003367 139:0.001122 140:0.002245 141:0.002245 142:0 143:0.002245 144:0.010101 145:0 146:0.008979 147:0 148:0.001122 149:0.003367 150:0.004489 151:0.013468 152:0.015713 153:0.012346 154:0.004489 155:0.008979 156:0.001122 157:0.008979 158:0.002245 159:0 160:0.011223 161:0 162:0.002245 163:0.001122 164:0.002245 165:0.005612 166:0.001122 167:0.001122 168:0.006734 169:0 170:0 171:0.003367 172:0.001122 173:0.005612 174:0 175:0.001122 176:0 177:0 178:0.001122 179:0.002245 180:0.003367 181:0.001122 182:0.005612 183:0 184:0.007856 185:0.002245 186:0.006734 187:0.012346 188:0.001122 189:0.011223 190:0 191:0.001122 192:0 193:0 194:0.006734 195:0 196:0.002245 197:0 198:0.005612 199:0.007856 200:0.001122 201:0.001122 202:0.005612 203:0.001122 204:0.025814 205:0.002245 206:0 207:0 208:0 209:0.001122 210:0.002245 211:0.006734 212:0 213:0.003367 214:0.001122 215:0.001122 216:0.001122 217:0.002245 218:0.013468 219:0.004489 220:0.004489 221:0.017957 222:0.020202 223:0 224:0.001122 225:0.003367 226:0 227:0.002245 228:0.002245 229:0 230:0.003367 231:0.005612 232:0.004489 233:0.001122 234:0 235:0.005612 236:0.004489 237:0.002245 238:0.004489 239:0.013468 240:0.004489 241:0.001122 242:0.008979 243:0.001122 244:0.002245 245:0.015713 246:0.001122 247:0.008979 248:0.004489 249:0.002245 250:0.002245 251:0 252:0.001122 253:0 254:0.002245 255:0.015713 
2 0:0 1:0.001966 2:0.004914 3:0.000491 4:0.011302 5:0.006388 6:0.000491 7:0.001474 8:0.004914 9:0.009337 10:0.000983 11:0.008845 12:0.00344 13:0.002948 14:0.001966 15:0.002457 16:0.010811 17:0.015725 18:0 19:0 20:0.000983 21:0.00344 22:0.001966 23:0.001966 24:0.000983 25:0.001966 26:0.016708 27:0.001966 28:0 29:0.000491 30:0.010811 31:0.002457 32:0.002457 33:0.000983 34:0.000491 35:0.00344 36:0.008354 37:0.013268 38:0 39:0 40:0.001966 41:0.00344 42:0.001474 43:0.004423 44:0.000983 45:0.00344 46:0.000983 47:0.001966 48:0.00344 49:0.00688 50:0.002457 51:0 52:0.005405 53:0.004914 54:0 55:0.000983 56:0.004914 57:0.005405 58:0.006388 59:0 60:0.001474 61:0.004914 62:0.000983 63:0.004423 64:0.000983 65:0.000491 66:0.008354 67:0.004914 68:0.000491 69:0.000983 70:0.009337 71:0.012776 72:0.002948 73:0.000983 74:0 75:0.008354 76:0 77:0.001966 78:0.004914 79:0.004914 80:0.001966 81:0.000491 82:0 83:0.000491 84:0.000983 85:0.000983 86:0.001474 87:0.000983 88:0 89:0.000491 90:0 91:0.000491 92:0.002457 93:0.000491 94:0 95:0.021622 96:0 97:0.001474 98:0.001966 99:0.002457 100:0 101:0.001474 102:0.01769 103:0.000983 104:0.000491 105:0.000491 106:0 107:0.005405 108:0.01769 109:0.019656 110:0.006388 111:0.00344 112:0.005405 113:0.000491 114:0.000983 115:0.001966 116:0.003931 117:0.001474 118:0.010811 119:0.002948 120:0.001474 121:0.001474 122:0.003931 123:0.009828 124:0.000491 125:0.000491 126:0.000491 127:0.008354 128:0.000983 129:0.005405 130:0.000983 131:0.004423 132:0.005405 133:0.000983 134:0.009337 135:0.010811 136:0.009828 137:0.013268 138:0 139:0 140:0.002948 141:0.001966 142:0.000983 143:0.00344 144:0.041769 145:0.000491 146:0.01769 147:0.008354 148:0.006388 149:0.004914 150:0.001966 151:0.000983 152:0.003931 153:0.001474 154:0.015725 155:0.000491 156:0.001474 157:0.006388 158:0.000983 159:0.003931 160:0.004914 161:0.007862 162:0.008845 163:0.008845 164:0.010811 165:0.008354 166:0.003931 167:0.000983 168:0.007371 169:0.004423 170:0.00344 171:0.008845 172:0.002948 173:0.001474 174:0.001474 175:0 176:0.003931 177:0.014251 178:0 179:0 180:0 181:0.005897 182:0.004423 183:0.003931 184:0.000491 185:0.001966 186:0.02113 187:0.015725 188:0.000983 189:0.000491 190:0.000983 191:0.001966 192:0.000983 193:0.00688 194:0.001474 195:0.002457 196:0.000491 197:0.002948 198:0.000491 199:0.001966 200:0.004423 201:0.007371 202:0.005405 203:0.001474 204:0.000491 205:0.00344 206:0.000491 207:0.001966 208:0.004423 209:0 210:0.00688 211:0.007371 212:0.001474 213:0.000491 214:0.008845 215:0.001966 216:0 217:0.000491 218:0.000491 219:0.005897 220:0.001474 221:0.000983 222:0 223:0.000491 224:0.00688 225:0.00344 226:0.004914 227:0.005405 228:0.000983 229:0 230:0.001474 231:0.013268 232:0.002457 233:0.002948 234:0.011302 235:0.00344 236:0.000491 237:0.000983 238:0.001966 239:0.000491 240:0.001474 241:0.001474 242:0.014251 243:0.006388 244:0.001966 245:0.002948 246:0.001966 247:0.00344 248:0.000491 249:0 250:0.000983 251:0.003931 252:0.002948 253:0.001966 254:0.000983 255:0 
2 0:0.000879 1:0.002636 2:0.003515 3:0.005272 4:0.00703 5:0.004394 6:0.003515 7:0.005272 8:0.001757 9:0.006151 10:0.001757 11:0.003515 12:0.000879 13:0.00703 14:0.001757 15:0.004394 16:0.009666 17:0.00703 18:0.000879 19:0.005272 20:0.002636 21:0.002636 22:0.000879 23:0.003515 24:0 25:0.006151 26:0.00703 27:0.001757 28:0 29:0.001757 30:0.003515 31:0.006151 32:0.004394 33:0.002636 34:0.001757 35:0.008787 36:0.004394 37:0.00703 38:0.001757 39:0.001757 40:0.005272 41:0.002636 42:0.003515 43:0.005272 44:0.000879 45:0.001757 46:0.003515 47:0 48:0.008787 49:0.002636 50:0.000879 51:0 52:0 53:0.001757 54:0.001757 55:0.002636 56:0.001757 57:0.004394 58:0.001757 59:0 60:0.001757 61:0.004394 62:0.002636 63:0.003515 64:0.001757 65:0.001757 66:0.004394 67:0.002636 68:0.002636 69:0.003515 70:0.002636 71:0.006151 72:0.005272 73:0.004394 74:0.002636 75:0.004394 76:0.007909 77:0.002636 78:0.006151 79:0 80:0.004394 81:0.002636 82:0.004394 83:0.000879 84:0.005272 85:0.002636 86:0.003515 87:0.004394 88:0.001757 89:0.00703 90:0.003515 91:0.002636 92:0.003515 93:0.005272 94:0.006151 95:0.01406 96:0.006151 97:0.005272 98:0.000879 99:0.001757 100:0.003515 101:0.003515 102:0.001757 103:0.005272 104:0.000879 105:0.000879 106:0.001757 107:0.001757 108:0.009666 109:0.002636 110:0.00703 111:0.008787 112:0.003515 113:0.005272 114:0.007909 115:0.002636 116:0.001757 117:0.003515 118:0.011424 119:0 120:0.011424 121:0.003515 122:0.006151 123:0.005272 124:0.002636 125:0 126:0.002636 127:0.006151 128:0.005272 129:0.002636 130:0.001757 131:0.00703 132:0.001757 133:0.002636 134:0.004394 135:0.006151 136:0.008787 137:0.000879 138:0.000879 139:0 140:0.000879 141:0.003515 142:0.009666 143:0.004394 144:0.002636 145:0.000879 146:0.005272 147:0.006151 148:0.004394 149:0.007909 150:0.006151 151:0.004394 152:0.014938 153:0.001757 154:0.006151 155:0.005272 156:0.000879 157:0.005272 158:0 159:0.001757 160:0.000879 161:0.003515 162:0.002636 163:0.001757 164:0.002636 165:0.002636 166:0 167:0.006151 168:0.007909 169:0.003515 170:0.004394 171:0.006151 172:0.009666 173:0.001757 174:0.002636 175:0.00703 176:0 177:0.004394 178:0.001757 179:0.006151 180:0.000879 181:0.003515 182:0.000879 183:0.001757 184:0.00703 185:0.002636 186:0.005272 187:0.005272 188:0.00703 189:0.001757 190:0.006151 191:0 192:0.004394 193:0.005272 194:0.00703 195:0.002636 196:0.003515 197:0.00703 198:0.004394 199:0.010545 200:0.005272 201:0.000879 202:0.010545 203:0.001757 204:0 205:0.007909 206:0 207:0.004394 208:0.003515 209:0.002636 210:0.001757 211:0.012302 212:0.002636 213:0.005272 214:0.001757 215:0.001757 216:0.005272 217:0.001757 218:0.003515 219:0.002636 220:0.01406 221:0.002636 222:0.014938 223:0.001757 224:0.001757 225:0 226:0.000879 227:0.000879 228:0.003515 229:0 230:0 231:0.00703 232:0.001757 233:0.000879 234:0.000879 235:0.002636 236:0.008787 237:0.000879 238:0.003515 239:0.001757 240:0.008787 241:0.003515 242:0.017575 243:0.000879 244:0.00703 245:0.014938 246:0.000879 247:0.001757 248:0 249:0.002636 250:0.000879 251:0.006151 252:0.002636 253:0.007909 254:0.002636 255:0.001757 
2 0:0 1:0.005242 2:0.005242 3:0 4:0 5:0 6:0.005242 7:0.005242 8:0.005242 9:0.006553 10:0 11:0.003932 12:0.006553 13:0 14:0.005242 15:0 16:0.018349 17:0.007864 18:0.001311 19:0 20:0.001311 21:0.005242 22:0.02228 23:0 24:0.007864 25:0.001311 26:0.009174 27:0 28:0.027523 29:0.003932 30:0.005242 31:0.001311 32:0 33:0.011796 34:0 35:0.014417 36:0.014417 37:0.002621 38:0 39:0 40:0.001311 41:0.002621 42:0.001311 43:0.003932 44:0 45:0.002621 46:0.001311 47:0 48:0.001311 49:0.005242 50:0.001311 51:0.002621 52:0 53:0.003932 54:0 55:0.002621 56:0.002621 57:0.003932 58:0.010485 59:0 60:0.003932 61:0.005242 62:0 63:0.009174 64:0 65:0.002621 66:0.006553 67:0.001311 68:0.003932 69:0 70:0.014417 71:0.009174 72:0.002621 73:0.003932 74:0.002621 75:0.003932 76:0.014417 77:0.002621 78:0.005242 79:0.010485 80:0.002621 81:0.001311 82:0.002621 83:0 84:0.005242 85:0 86:0 87:0.003932 88:0 89:0.002621 90:0.014417 91:0 92:0 93:0.002621 94:0.003932 95:0.007864 96:0.005242 97:0.001311 98:0.006553 99:0.002621 100:0.003932 101:0 102:0.001311 103:0.001311 104:0.002621 105:0 106:0.001311 107:0.002621 108:0.013106 109:0.009174 110:0.019659 111:0.001311 112:0.001311 113:0 114:0.001311 115:0.019659 116:0.001311 117:0.003932 118:0.007864 119:0 120:0.003932 121:0.003932 122:0.02097 123:0.02228 124:0.003932 125:0 126:0.001311 127:0.002621 128:0.005242 129:0 130:0 131:0.017038 132:0.005242 133:0.002621 134:0.002621 135:0.001311 136:0 137:0.003932 138:0.014417 139:0 140:0 141:0 142:0.005242 143:0.002621 144:0.003932 145:0 146:0.003932 147:0.003932 148:0.001311 149:0.010485 150:0 151:0.007864 152:0.007864 153:0 154:0.007864 155:0 156:0.002621 157:0.009174 158:0.001311 159:0.006553 160:0.001311 161:0.011796 162:0 163:0.001311 164:0.005242 165:0.003932 166:0.001311 167:0 168:0.005242 169:0.002621 170:0 171:0.003932 172:0.003932 173:0.002621 174:0 175:0.009174 176:0.001311 177:0.003932 178:0.017038 179:0 180:0.003932 181:0.005242 182:0 183:0 184:0 185:0.002621 186:0.003932 187:0.011796 188:0.001311 189:0 190:0.003932 191:0 192:0.005242 193:0.003932 194:0 195:0 196:0 197:0.001311 198:0.001311 199:0.001311 200:0 201:0.003932 202:0.007864 203:0.006553 204:0.009174 205:0.007864 206:0 207:0 208:0.002621 209:0.001311 210:0.009174 211:0.003932 212:0.001311 213:0.002621 214:0.007864 215:0.001311 216:0 217:0 218:0 219:0.001311 220:0.013106 221:0.001311 222:0.002621 223:0 224:0.003932 225:0.001311 226:0 227:0.002621 228:0.001311 229:0.018349 230:0 231:0.009174 232:0.010485 233:0.006553 234:0.006553 235:0.003932 236:0.005242 237:0 238:0 239:0.001311 240:0.007864 241:0 242:0.005242 243:0 244:0 245:0.001311 246:0.001311 247:0.009174 248:0 249:0 250:0 251:0.003932 252:0 253:0 254:0 255:0.001311 
2 0:0.001139 1:0.000759 2:0.003797 3:0.000759 4:0.003417 5:0.003797 6:0.000759 7:0.001519 8:0.008352 9:0.000759 10:0.00038 11:0.003417 12:0.001519 13:0.002658 14:0.005695 15:0.002658 16:0.001139 17:0.001898 18:0.00038 19:0.00038 20:0.007213 21:0.001898 22:0.002658 23:0.001519 24:0.001898 25:0.003797 26:0.002658 27:0.002658 28:0.004176 29:0 30:0.019362 31:0.001519 32:0.002658 33:0.001519 34:0.000759 35:0.004556 36:0.005315 37:0.000759 38:0.003037 39:0 40:0.000759 41:0.002658 42:0.003037 43:0.003037 44:0.004556 45:0.002278 46:0.007593 47:0.017464 48:0.002278 49:0.002278 50:0.001898 51:0.00038 52:0.004176 53:0.009491 54:0.001139 55:0.001898 56:0.006074 57:0.012528 58:0.00038 59:0.002658 60:0.001519 61:0.005315 62:0.003417 63:0.003797 64:0 65:0.000759 66:0.001898 67:0.006834 68:0.004556 69:0.001519 70:0.004176 71:0.001898 72:0.011769 73:0.001898 74:0.003797 75:0.005695 76:0.00038 77:0.004556 78:0.004935 79:0.00038 80:0.000759 81:0.004556 82:0 83:0 84:0.005315 85:0.003417 86:0.002278 87:0.003037 88:0.001898 89:0 90:0.000759 91:0.000759 92:0.005315 93:0.00038 94:0.027715 95:0.003037 96:0.029233 97:0.003037 98:0.02126 99:0.000759 100:0.003037 101:0.003037 102:0.000759 103:0.00038 104:0.000759 105:0.001139 106:0.005695 107:0.003417 108:0.003037 109:0.00038 110:0.005695 111:0.000759 112:0.002658 113:0.004556 114:0.001139 115:0.00038 116:0.003037 117:0.003797 118:0.006074 119:0.007213 120:0.007213 121:0.003417 122:0.006454 123:0.003797 124:0.010251 125:0.00038 126:0.001519 127:0.004556 128:0.002658 129:0.011769 130:0.001519 131:0.004935 132:0.005315 133:0 134:0.005315 135:0.000759 136:0.001519 137:0.004935 138:0.00038 139:0 140:0.002658 141:0.002658 142:0.003417 143:0.004556 144:0.001519 145:0.005695 146:0.003037 147:0.014047 148:0.013288 149:0.003417 150:0.004176 151:0.003417 152:0.007973 153:0.001898 154:0.001519 155:0.000759 156:0.005695 157:0.000759 158:0.00038 159:0.042521 160:0.001898 161:0.007213 162:0.00038 163:0.003797 164:0.001139 165:0.003797 166:0.014047 167:0.002278 168:0.006834 169:0.018603 170:0.001139 171:0.009112 172:0.001519 173:0.005695 174:0.000759 175:0.001139 176:0.002658 177:0.001139 178:0.00038 179:0.001139 180:0.00038 181:0.004176 182:0.00038 183:0.000759 184:0.003037 185:0.007973 186:0.003417 187:0.002278 188:0.004176 189:0.001139 190:0 191:0 192:0.004935 193:0.001519 194:0.001139 195:0.003797 196:0.000759 197:0.001139 198:0.001519 199:0.001519 200:0.001898 201:0.002658 202:0.006074 203:0.001519 204:0.003417 205:0.005315 206:0.001139 207:0.009491 208:0.002658 209:0.003417 210:0.015566 211:0.001519 212:0.002658 213:0.001139 214:0.001519 215:0.003037 216:0.003417 217:0.00038 218:0 219:0.009491 220:0.006454 221:0.006074 222:0.007973 223:0.000759 224:0.007973 225:0.003417 226:0.000759 227:0.003797 228:0 229:0.000759 230:0.001139 231:0.001898 232:0.003797 233:0.002658 234:0.001519 235:0.007213 236:0.002278 237:0.001139 238:0.001898 239:0.004556 240:0.003417 241:0.004556 242:0.004176 243:0 244:0.003417 245:0.01139 246:0.009112 247:0.004556 248:0 249:0 250:0.02164 251:0.001898 252:0.019362 253:0.002658 254:0.001898 255:0.001519 
2 0:0 1:0.01168 2:0.005391 3:0.006289 4:0.003594 5:0 6:0.006289 7:0.000898 8:0.000898 9:0.013477 10:0 11:0.006289 12:0.004492 13:0.000898 14:0.000898 15:0.009883 16:0.005391 17:0.009883 18:0.001797 19:0.000898 20:0.000898 21:0.001797 22:0.001797 23:0.000898 24:0.001797 25:0.000898 26:0.008985 27:0.002695 28:0 29:0.000898 30:0.008086 31:0.007188 32:0 33:0.001797 34:0.000898 35:0.008985 36:0.022462 37:0.009883 38:0.005391 39:0 40:0 41:0.000898 42:0.009883 43:0.007188 44:0.000898 45:0.004492 46:0.002695 47:0.001797 48:0.004492 49:0.002695 50:0.002695 51:0 52:0.005391 53:0.001797 54:0 55:0.003594 56:0.007188 57:0.004492 58:0.004492 59:0 60:0 61:0.001797 62:0.008985 63:0.005391 64:0.000898 65:0 66:0.008086 67:0.002695 68:0.004492 69:0.000898 70:0.005391 71:0.005391 72:0.002695 73:0.006289 74:0.004492 75:0.008086 76:0.002695 77:0.004492 78:0.002695 79:0.003594 80:0.001797 81:0.002695 82:0.002695 83:0.000898 84:0.000898 85:0.000898 86:0.001797 87:0 88:0 89:0.001797 90:0.007188 91:0.001797 92:0.006289 93:0.005391 94:0.000898 95:0.007188 96:0 97:0.002695 98:0.001797 99:0.001797 100:0.007188 101:0.000898 102:0.000898 103:0.000898 104:0 105:0.000898 106:0.002695 107:0.002695 108:0.010782 109:0.009883 110:0.016173 111:0.005391 112:0.004492 113:0.000898 114:0.000898 115:0.001797 116:0 117:0 118:0.008086 119:0.003594 120:0.008985 121:0.000898 122:0.016173 123:0.012579 124:0 125:0 126:0.007188 127:0.008086 128:0.002695 129:0.002695 130:0 131:0.003594 132:0.004492 133:0 134:0.003594 135:0.008985 136:0.001797 137:0.008985 138:0.000898 139:0.001797 140:0 141:0 142:0.002695 143:0.001797 144:0.008985 145:0.000898 146:0.017071 147:0.007188 148:0.001797 149:0.010782 150:0.008985 151:0 152:0.000898 153:0.003594 154:0.004492 155:0 156:0.001797 157:0.000898 158:0.006289 159:0.001797 160:0.009883 161:0.003594 162:0.006289 163:0.002695 164:0.012579 165:0.000898 166:0.004492 167:0.002695 168:0.008985 169:0.000898 170:0.008985 171:0.008086 172:0.003594 173:0.002695 174:0 175:0 176:0.002695 177:0.002695 178:0 179:0 180:0.000898 181:0.022462 182:0.000898 183:0.000898 184:0.003594 185:0.002695 186:0.004492 187:0.017969 188:0.003594 189:0 190:0.010782 191:0.000898 192:0.004492 193:0.004492 194:0.001797 195:0.002695 196:0.000898 197:0.002695 198:0.001797 199:0.002695 200:0.006289 201:0.005391 202:0.014376 203:0.001797 204:0 205:0.003594 206:0.008086 207:0 208:0.010782 209:0.002695 210:0.006289 211:0.000898 212:0.002695 213:0.003594 214:0.003594 215:0 216:0.004492 217:0 218:0.003594 219:0.006289 220:0.010782 221:0.000898 222:0.006289 223:0 224:0.002695 225:0.008985 226:0.001797 227:0.001797 228:0.000898 229:0.005391 230:0.000898 231:0.02336 232:0 233:0.005391 234:0.007188 235:0.001797 236:0.001797 237:0.000898 238:0 239:0 240:0.002695 241:0.000898 242:0.010782 243:0 244:0.000898 245:0.001797 246:0.002695 247:0.004492 248:0 249:0.000898 250:0.000898 251:0.012579 252:0.004492 253:0 254:0.000898 255:0 
2 0:0.003431 1:0.003431 2:0.008576 3:0.004288 4:0.001715 5:0.003431 6:0.002573 7:0.003431 8:0.001715 9:0.016295 10:0.001715 11:0.002573 12:0.006003 13:0.000858 14:0.001715 15:0.002573 16:0.008576 17:0.005146 18:0 19:0.002573 20:0.002573 21:0.003431 22:0.003431 23:0.004288 24:0.002573 25:0.004288 26:0.010292 27:0.001715 28:0.001715 29:0.006003 30:0.003431 31:0.001715 32:0.001715 33:0.000858 34:0 35:0.005146 36:0.008576 37:0.015437 38:0.001715 39:0 40:0.005146 41:0.000858 42:0.003431 43:0.001715 44:0.000858 45:0.002573 46:0.002573 47:0.002573 48:0.012007 49:0.002573 50:0.006861 51:0 52:0.000858 53:0.005146 54:0.001715 55:0 56:0.001715 57:0 58:0.01801 59:0.002573 60:0.002573 61:0.001715 62:0.012864 63:0.004288 64:0 65:0.000858 66:0.000858 67:0.000858 68:0.004288 69:0.003431 70:0.002573 71:0.000858 72:0.005146 73:0.007719 74:0.004288 75:0.004288 76:0 77:0.002573 78:0.005146 79:0.001715 80:0 81:0.004288 82:0 83:0.004288 84:0.000858 85:0.001715 86:0 87:0.003431 88:0.006003 89:0.004288 90:0.001715 91:0.001715 92:0.012007 93:0.002573 94:0.006003 95:0.002573 96:0.001715 97:0.003431 98:0.000858 99:0.001715 100:0.006861 101:0.003431 102:0.003431 103:0.005146 104:0.006003 105:0.000858 106:0.000858 107:0 108:0.010292 109:0.013722 110:0.002573 111:0.004288 112:0.001715 113:0 114:0.001715 115:0.006003 116:0.001715 117:0.000858 118:0.007719 119:0.008576 120:0.005146 121:0.006003 122:0.011149 123:0.013722 124:0.000858 125:0 126:0.006003 127:0.002573 128:0.006861 129:0.001715 130:0 131:0.006861 132:0.007719 133:0.000858 134:0.003431 135:0.012864 136:0.006861 137:0.002573 138:0.002573 139:0.000858 140:0 141:0.002573 142:0.000858 143:0.006003 144:0.006003 145:0.001715 146:0.012864 147:0.001715 148:0.002573 149:0.012864 150:0.013722 151:0 152:0 153:0.005146 154:0.003431 155:0 156:0.000858 157:0.008576 158:0 159:0 160:0.005146 161:0.005146 162:0.002573 163:0.002573 164:0.010292 165:0.003431 166:0.004288 167:0.012007 168:0.008576 169:0 170:0.000858 171:0.002573 172:0.006861 173:0 174:0 175:0.002573 176:0.004288 177:0.003431 178:0.008576 179:0.006861 180:0 181:0.007719 182:0.000858 183:0 184:0.004288 185:0.000858 186:0.011149 187:0.023156 188:0.015437 189:0.006003 190:0.001715 191:0.001715 192:0.006861 193:0.009434 194:0.004288 195:0.002573 196:0.000858 197:0.004288 198:0.002573 199:0.008576 200:0.002573 201:0 202:0.005146 203:0.006003 204:0.004288 205:0.008576 206:0 207:0 208:0.004288 209:0.000858 210:0.001715 211:0.001715 212:0.002573 213:0.004288 214:0 215:0.002573 216:0 217:0.003431 218:0.001715 219:0.002573 220:0.007719 221:0.006861 222:0.003431 223:0 224:0.004288 225:0.000858 226:0.000858 227:0.006003 228:0.001715 229:0.001715 230:0.007719 231:0.010292 232:0.002573 233:0.005146 234:0.000858 235:0.004288 236:0.006003 237:0 238:0.000858 239:0.003431 240:0.002573 241:0.001715 242:0.009434 243:0 244:0.005146 245:0.006003 246:0.003431 247:0.001715 248:0.002573 249:0 250:0.002573 251:0.000858 252:0.000858 253:0.006003 254:0.005146 255:0.003431 
2 0:0.001123 1:0.001123 2:0.003369 3:0.001684 4:0.001684 5:0.005053 6:0 7:0.001684 8:0.001684 9:0.025828 10:0.001123 11:0.001123 12:0.002246 13:0.004492 14:0.005615 15:0.002807 16:0.014599 17:0.003369 18:0.002246 19:0.002246 20:0.002807 21:0.001123 22:0.001123 23:0.002246 24:0.002807 25:0.001123 26:0.019652 27:0.002807 28:0.00393 29:0.00393 30:0.003369 31:0.005615 32:0.003369 33:0.001684 34:0.001123 35:0.001684 36:0.005053 37:0.016844 38:0.002246 39:0.001684 40:0 41:0.002807 42:0.001123 43:0.002807 44:0.001684 45:0.015722 46:0.001123 47:0.002246 48:0.000561 49:0.003369 50:0.000561 51:0.002246 52:0.002246 53:0.001684 54:0.001684 55:0.002807 56:0.015722 57:0.002246 58:0.00393 59:0 60:0 61:0.002807 62:0.000561 63:0.001684 64:0.000561 65:0.002246 66:0.005615 67:0.004492 68:0.004492 69:0.000561 70:0.004492 71:0.014599 72:0.002246 73:0.001123 74:0.002246 75:0.001123 76:0.005053 77:0.001684 78:0.000561 79:0.000561 80:0.004492 81:0.003369 82:0.00393 83:0.005053 84:0.004492 85:0.000561 86:0.003369 87:0.001684 88:0.002807 89:0.003369 90:0.010107 91:0.008422 92:0.002246 93:0.000561 94:0.001684 95:0.016283 96:0 97:0.002246 98:0.00393 99:0.001684 100:0.003369 101:0.002246 102:0.001684 103:0.00393 104:0.007299 105:0.002807 106:0.002246 107:0.004492 108:0.008984 109:0.012914 110:0.001123 111:0.006738 112:0 113:0.000561 114:0.002807 115:0 116:0 117:0.003369 118:0.011791 119:0.001684 120:0.001684 121:0.005053 122:0.002246 123:0.006738 124:0.002246 125:0.00393 126:0.010107 127:0.001684 128:0.001684 129:0 130:0.00393 131:0.001123 132:0.002246 133:0.001123 134:0.000561 135:0.006176 136:0.006176 137:0.010107 138:0.002246 139:0.012353 140:0.001684 141:0.003369 142:0.001123 143:0 144:0.022459 145:0.000561 146:0.011791 147:0.002807 148:0.003369 149:0.002807 150:0.001123 151:0.001684 152:0.002246 153:0.006176 154:0.01516 155:0.002807 156:0.001123 157:0.009545 158:0.001684 159:0.011791 160:0.003369 161:0.002246 162:0.002807 163:0.000561 164:0.002246 165:0.001684 166:0.001684 167:0.007299 168:0.000561 169:0.002807 170:0.005053 171:0.007861 172:0.006738 173:0.001684 174:0.002807 175:0.009545 176:0.001123 177:0.006176 178:0.000561 179:0.005053 180:0.002246 181:0.005615 182:0.003369 183:0.002807 184:0.003369 185:0.006176 186:0.005053 187:0.016283 188:0.000561 189:0.002246 190:0.003369 191:0.00393 192:0.002807 193:0.00393 194:0.005053 195:0.003369 196:0.001684 197:0.007861 198:0.008422 199:0.002807 200:0.001684 201:0.006738 202:0.007299 203:0.002807 204:0.001123 205:0.001684 206:0.002246 207:0.00393 208:0.003369 209:0.001684 210:0.005615 211:0.008422 212:0.000561 213:0.005053 214:0.002246 215:0.001123 216:0.002807 217:0.002807 218:0.003369 219:0.001684 220:0.002246 221:0.004492 222:0.000561 223:0.010668 224:0.003369 225:0.006176 226:0.005615 227:0.001123 228:0.002246 229:0.006738 230:0.001123 231:0.006738 232:0.001123 233:0.00393 234:0.005615 235:0.003369 236:0.00393 237:0.004492 238:0.002807 239:0.002807 240:0.003369 241:0.001123 242:0.01516 243:0.004492 244:0.003369 245:0.002246 246:0.003369 247:0.002807 248:0.001684 249:0.005615 250:0.000561 251:0.000561 252:0.001123 253:0.005053 254:0.00393 255:0.005615 
2 0:0 1:0.00075 2:0.010495 3:0 4:0.004498 5:0.007496 6:0.00075 7:0.001499 8:0.005997 9:0.011244 10:0.002249 11:0.012744 12:0.005247 13:0.004498 14:0 15:0.013493 16:0.007496 17:0.012744 18:0 19:0.003748 20:0 21:0.010495 22:0.027736 23:0.004498 24:0.004498 25:0.002999 26:0.008996 27:0.005997 28:0.014993 29:0.00075 30:0.004498 31:0.004498 32:0.001499 33:0.003748 34:0 35:0.013493 36:0.007496 37:0.005997 38:0.001499 39:0 40:0 41:0.00075 42:0.003748 43:0.002999 44:0.002249 45:0.008246 46:0.002249 47:0.001499 48:0.008246 49:0.008996 50:0 51:0 52:0 53:0.004498 54:0.002249 55:0.00075 56:0.004498 57:0.003748 58:0.004498 59:0.001499 60:0.002999 61:0.003748 62:0.00075 63:0.008246 64:0 65:0.004498 66:0.011994 67:0.003748 68:0.001499 69:0.001499 70:0.009745 71:0.005997 72:0.004498 73:0 74:0.002249 75:0.004498 76:0.003748 77:0.002999 78:0.005247 79:0.00075 80:0.003748 81:0.002999 82:0.003748 83:0.00075 84:0.002249 85:0 86:0.008246 87:0.003748 88:0 89:0.003748 90:0.00075 91:0.003748 92:0.008996 93:0.00075 94:0.00075 95:0.005247 96:0 97:0.001499 98:0.001499 99:0.003748 100:0 101:0.003748 102:0.004498 103:0.002999 104:0.002249 105:0.001499 106:0.001499 107:0.003748 108:0.008246 109:0.011994 110:0.007496 111:0.001499 112:0.004498 113:0.002249 114:0.00075 115:0.004498 116:0.005997 117:0.002249 118:0.006747 119:0.002249 120:0.003748 121:0.006747 122:0.011244 123:0.006747 124:0.00075 125:0 126:0.002999 127:0.005247 128:0.002249 129:0.001499 130:0.001499 131:0.002249 132:0.002999 133:0.001499 134:0.006747 135:0.006747 136:0.008246 137:0.001499 138:0.001499 139:0 140:0 141:0.00075 142:0.00075 143:0.002249 144:0.003748 145:0 146:0.008996 147:0.003748 148:0.003748 149:0 150:0.004498 151:0.00075 152:0.003748 153:0.001499 154:0.009745 155:0.00075 156:0.002249 157:0.008996 158:0.002249 159:0.002249 160:0.001499 161:0.007496 162:0.008246 163:0.002999 164:0.008996 165:0.008246 166:0.003748 167:0.002249 168:0.003748 169:0.009745 170:0.005997 171:0.003748 172:0.005247 173:0.004498 174:0.001499 175:0.00075 176:0 177:0.004498 178:0 179:0.002249 180:0.002249 181:0.009745 182:0.002999 183:0.002999 184:0.005247 185:0.002249 186:0.005247 187:0.017991 188:0.00075 189:0.001499 190:0.00075 191:0.003748 192:0.005247 193:0.011244 194:0.007496 195:0.003748 196:0.00075 197:0.00075 198:0.00075 199:0.003748 200:0.002249 201:0.002249 202:0.002999 203:0.001499 204:0.003748 205:0.009745 206:0.00075 207:0.001499 208:0.017241 209:0.001499 210:0.003748 211:0.001499 212:0.002249 213:0.005997 214:0.002249 215:0.001499 216:0.002249 217:0.002999 218:0.00075 219:0.002249 220:0.002249 221:0 222:0.002999 223:0 224:0.004498 225:0.002999 226:0.005997 227:0.001499 228:0.001499 229:0 230:0.008996 231:0.005997 232:0.005997 233:0.002249 234:0.00075 235:0.006747 236:0.002249 237:0.010495 238:0.003748 239:0.00075 240:0.008996 241:0.002249 242:0.004498 243:0.001499 244:0.002249 245:0.00075 246:0.002249 247:0.010495 248:0 249:0 250:0.002999 251:0.002999 252:0.002249 253:0.002999 254:0.002999 255:0.001499 
2 0:0.000902 1:0.001803 2:0.001353 3:0.000902 4:0.007665 5:0.003607 6:0.011271 7:0.000902 8:0.000451 9:0.010821 10:0.000451 11:0.004058 12:0.004959 13:0.004058 14:0.003607 15:0.002705 16:0.011271 17:0.018936 18:0.001353 19:0.000902 20:0 21:0.008115 22:0.004509 23:0.002254 24:0.006312 25:0.006312 26:0.002254 27:0.004058 28:0.006312 29:0.001353 30:0.008566 31:0.003156 32:0.002705 33:0.003607 34:0.001353 35:0.015329 36:0.00541 37:0.009468 38:0.001353 39:0 40:0.002705 41:0.001803 42:0.000902 43:0.011271 44:0.002705 45:0.003156 46:0.004509 47:0.00541 48:0.002254 49:0.004959 50:0.002705 51:0 52:0.000902 53:0.000902 54:0 55:0.003156 56:0.002705 57:0.004959 58:0.018034 59:0.006763 60:0.00541 61:0.020289 62:0.004058 63:0.004058 64:0 65:0 66:0.006312 67:0.002705 68:0.003156 69:0.007665 70:0.004959 71:0.006312 72:0.00541 73:0.008115 74:0.003156 75:0.002254 76:0.002254 77:0.000902 78:0.009919 79:0.007214 80:0.003607 81:0.001353 82:0 83:0 84:0.001803 85:0.001803 86:0.001353 87:0.000902 88:0.000451 89:0.003156 90:0.001803 91:0.002254 92:0.007665 93:0.000902 94:0.013977 95:0.014878 96:0.022543 97:0.003607 98:0.003607 99:0.002254 100:0.002705 101:0.001353 102:0.001353 103:0.002705 104:0.002254 105:0 106:0.001803 107:0.004058 108:0.008566 109:0.009017 110:0.003607 111:0.004509 112:0.002705 113:0.002254 114:0.002705 115:0.000902 116:0.006312 117:0.002254 118:0.005861 119:0.006312 120:0.018034 121:0.003156 122:0.009468 123:0.003156 124:0.003156 125:0.000451 126:0.002705 127:0.003607 128:0.003607 129:0.000902 130:0.002254 131:0.007665 132:0.006312 133:0.000902 134:0.007214 135:0.004509 136:0.002705 137:0.001353 138:0.000902 139:0.001353 140:0.000451 141:0.002705 142:0.001803 143:0.006312 144:0.008115 145:0.000451 146:0.008566 147:0.004509 148:0.004058 149:0.009468 150:0.001803 151:0.016682 152:0.018485 153:0.000451 154:0.002254 155:0.000902 156:0.001803 157:0.003607 158:0.001353 159:0.004509 160:0.002705 161:0.003607 162:0.000902 163:0.002705 164:0.004509 165:0.00541 166:0.002254 167:0.001353 168:0.007214 169:0.003156 170:0.004058 171:0 172:0.001353 173:0.002705 174:0.003607 175:0.001803 176:0.002254 177:0.003607 178:0.004959 179:0.001353 180:0.003156 181:0.006763 182:0.001353 183:0.000451 184:0.002254 185:0.001803 186:0.006763 187:0.007214 188:0.002705 189:0.000902 190:0.000451 191:0.003607 192:0.003607 193:0.004509 194:0.004058 195:0.001803 196:0.002254 197:0.002705 198:0.002254 199:0.004058 200:0.01037 201:0.003156 202:0.007665 203:0.00541 204:0.001803 205:0.004509 206:0.000451 207:0.001353 208:0.001353 209:0.000902 210:0.001353 211:0.002254 212:0.004058 213:0.001353 214:0.000451 215:0.003156 216:0.000451 217:0.000451 218:0.000902 219:0.004058 220:0.002705 221:0.002705 222:0.013075 223:0.000902 224:0.000902 225:0.000902 226:0.001803 227:0.003156 228:0.001353 229:0.002705 230:0.004959 231:0.007665 232:0.001353 233:0.001803 234:0.001353 235:0.006312 236:0.003607 237:0.009468 238:0 239:0 240:0.005861 241:0.001353 242:0.004959 243:0.001803 244:0.001353 245:0.010821 246:0.002254 247:0.003607 248:0.001353 249:0 250:0.002254 251:0.00541 252:0.001803 253:0.000902 254:0.000902 255:0.001803 
2 0:0 1:0 2:0.005869 3:0 4:0.002935 5:0.002935 6:0.006603 7:0.005869 8:0.000734 9:0.005869 10:0.000734 11:0.005869 12:0.008804 13:0.001467 14:0.000734 15:0.005136 16:0 17:0.003668 18:0.007337 19:0.003668 20:0.005136 21:0.010271 22:0.002201 23:0.002935 24:0.006603 25:0.002201 26:0.003668 27:0.002201 28:0.005136 29:0.005869 30:0.001467 31:0.005136 32:0.008804 33:0.007337 34:0.004402 35:0.011739 36:0.002935 37:0.005869 38:0.005869 39:0.001467 40:0.002201 41:0.001467 42:0.001467 43:0.00807 44:0.006603 45:0.001467 46:0.003668 47:0.002935 48:0.000734 49:0 50:0.013206 51:0.001467 52:0.002201 53:0.002201 54:0.001467 55:0.010271 56:0.000734 57:0.002935 58:0.000734 59:0.002201 60:0.002201 61:0.001467 62:0.002935 63:0.002201 64:0.000734 65:0.000734 66:0.002201 67:0.003668 68:0.003668 69:0.009538 70:0 71:0.000734 72:0.004402 73:0.005136 74:0.008804 75:0 76:0.004402 77:0.005136 78:0.014674 79:0.003668 80:0.000734 81:0.005136 82:0 83:0 84:0.001467 85:0.011005 86:0.003668 87:0.003668 88:0.006603 89:0.002935 90:0.003668 91:0.004402 92:0.001467 93:0.005869 94:0.002201 95:0.004402 96:0.013206 97:0.002935 98:0 99:0.013206 100:0.008804 101:0.002935 102:0.002935 103:0.006603 104:0.007337 105:0.002201 106:0.002201 107:0.001467 108:0.001467 109:0 110:0.003668 111:0.010271 112:0.00807 113:0.001467 114:0.002935 115:0.003668 116:0.003668 117:0.005869 118:0.007337 119:0.002201 120:0.005869 121:0.008804 122:0.006603 123:0.001467 124:0.003668 125:0 126:0.005869 127:0.003668 128:0.005136 129:0.001467 130:0 131:0.002201 132:0.004402 133:0.008804 134:0 135:0.002201 136:0.000734 137:0.003668 138:0.000734 139:0.002935 140:0.000734 141:0.000734 142:0.01394 143:0.001467 144:0.003668 145:0.005136 146:0.001467 147:0.003668 148:0 149:0.009538 150:0.002935 151:0.003668 152:0.001467 153:0.006603 154:0.004402 155:0.001467 156:0.002935 157:0.000734 158:0.002935 159:0 160:0.002201 161:0.002201 162:0.000734 163:0.009538 164:0.002935 165:0.002201 166:0 167:0.00807 168:0.008804 169:0.001467 170:0.001467 171:0.008804 172:0.003668 173:0.003668 174:0.000734 175:0.011005 176:0.004402 177:0.001467 178:0.004402 179:0.006603 180:0.001467 181:0.016875 182:0.002201 183:0.004402 184:0.003668 185:0.001467 186:0.001467 187:0.002201 188:0.007337 189:0.005869 190:0.005136 191:0.000734 192:0.003668 193:0.003668 194:0.002935 195:0.002201 196:0.001467 197:0.001467 198:0.002935 199:0.007337 200:0.003668 201:0.002935 202:0.00807 203:0.002201 204:0.004402 205:0.004402 206:0 207:0.002201 208:0 209:0.001467 210:0 211:0.005869 212:0.005869 213:0.007337 214:0.001467 215:0.000734 216:0.003668 217:0.002201 218:0.004402 219:0.000734 220:0.013206 221:0.005869 222:0.005869 223:0.001467 224:0.002201 225:0.003668 226:0.000734 227:0.00807 228:0.003668 229:0.002935 230:0.008804 231:0.002201 232:0.004402 233:0.002201 234:0.002201 235:0.002935 236:0.002201 237:0.005869 238:0.005136 239:0.007337 240:0.002935 241:0.002935 242:0.007337 243:0.001467 244:0.006603 245:0.004402 246:0.008804 247:0.001467 248:0.00807 249:0.001467 250:0.001467 251:0.005136 252:0.007337 253:0 254:0.003668 255:0.002201 
2 0:0 1:0.001931 2:0.01834 3:0.000965 4:0.001931 5:0.004826 6:0.000965 7:0.003861 8:0.010618 9:0.007722 10:0.001931 11:0.001931 12:0.005792 13:0.001931 14:0.000965 15:0.015444 16:0.005792 17:0.003861 18:0 19:0 20:0 21:0 22:0.001931 23:0.001931 24:0 25:0.003861 26:0.005792 27:0.000965 28:0.000965 29:0 30:0 31:0 32:0.000965 33:0.002896 34:0.000965 35:0.017375 36:0.013514 37:0.004826 38:0 39:0 40:0 41:0.000965 42:0.007722 43:0.002896 44:0.002896 45:0.004826 46:0.001931 47:0.001931 48:0.001931 49:0.003861 50:0 51:0 52:0.004826 53:0.008687 54:0 55:0.001931 56:0 57:0.021236 58:0.000965 59:0.000965 60:0.000965 61:0.000965 62:0 63:0.002896 64:0.000965 65:0 66:0.001931 67:0.001931 68:0.000965 69:0 70:0.001931 71:0.006757 72:0.016409 73:0.005792 74:0.010618 75:0.003861 76:0.000965 77:0.002896 78:0.003861 79:0 80:0.003861 81:0.004826 82:0 83:0 84:0.001931 85:0.001931 86:0 87:0.007722 88:0.000965 89:0.000965 90:0.000965 91:0.000965 92:0.004826 93:0.003861 94:0 95:0.015444 96:0.001931 97:0.005792 98:0.003861 99:0.004826 100:0.000965 101:0.002896 102:0.001931 103:0 104:0.002896 105:0.001931 106:0.000965 107:0.001931 108:0.007722 109:0.005792 110:0.017375 111:0 112:0.002896 113:0.002896 114:0.000965 115:0 116:0.000965 117:0.002896 118:0.024131 119:0.004826 120:0.001931 121:0 122:0.013514 123:0.003861 124:0.002896 125:0 126:0.002896 127:0.001931 128:0.002896 129:0.005792 130:0 131:0.001931 132:0.001931 133:0 134:0.003861 135:0.000965 136:0.001931 137:0.000965 138:0 139:0 140:0.002896 141:0 142:0 143:0.003861 144:0.013514 145:0.015444 146:0.006757 147:0.002896 148:0.009653 149:0.016409 150:0.014479 151:0.000965 152:0 153:0.003861 154:0.006757 155:0.001931 156:0.006757 157:0.002896 158:0.003861 159:0.008687 160:0 161:0.005792 162:0.000965 163:0.002896 164:0.001931 165:0.000965 166:0.027992 167:0.006757 168:0.009653 169:0.003861 170:0.001931 171:0.025097 172:0.001931 173:0.000965 174:0.001931 175:0.001931 176:0.003861 177:0 178:0 179:0.000965 180:0 181:0.030888 182:0.001931 183:0.000965 184:0 185:0.002896 186:0.013514 187:0.005792 188:0.002896 189:0 190:0.000965 191:0.004826 192:0.002896 193:0.002896 194:0 195:0.001931 196:0 197:0.002896 198:0.000965 199:0.001931 200:0.001931 201:0.000965 202:0.014479 203:0.000965 204:0.000965 205:0.015444 206:0.003861 207:0.005792 208:0.015444 209:0 210:0.007722 211:0.000965 212:0 213:0.001931 214:0.002896 215:0 216:0 217:0 218:0 219:0.006757 220:0.009653 221:0.002896 222:0.001931 223:0.001931 224:0.010618 225:0.001931 226:0.000965 227:0.001931 228:0.001931 229:0 230:0.000965 231:0.011583 232:0.001931 233:0.000965 234:0.001931 235:0.005792 236:0 237:0 238:0.000965 239:0 240:0.004826 241:0.002896 242:0.02027 243:0.000965 244:0.006757 245:0.002896 246:0.007722 247:0.000965 248:0 249:0 250:0.009653 251:0.019305 252:0.011583 253:0 254:0.001931 255:0.000965 
2 0:0 1:0.004651 2:0.009302 3:0 4:0.009302 5:0 6:0 7:0 8:0 9:0 10:0 11:0.009302 12:0.004651 13:0 14:0 15:0.018605 16:0 17:0.013953 18:0 19:0 20:0.018605 21:0 22:0 23:0.009302 24:0 25:0 26:0 27:0.004651 28:0 29:0 30:0 31:0 32:0 33:0 34:0 35:0.013953 36:0.018605 37:0 38:0 39:0 40:0 41:0 42:0.004651 43:0.004651 44:0 45:0 46:0 47:0.009302 48:0.013953 49:0.004651 50:0 51:0 52:0 53:0 54:0 55:0.023256 56:0.004651 57:0 58:0.004651 59:0 60:0 61:0 62:0 63:0 64:0 65:0 66:0.027907 67:0 68:0 69:0 70:0.004651 71:0.009302 72:0.009302 73:0 74:0.009302 75:0 76:0 77:0 78:0 79:0.004651 80:0 81:0.004651 82:0 83:0 84:0 85:0.009302 86:0 87:0 88:0 89:0 90:0 91:0 92:0 93:0 94:0 95:0 96:0 97:0.027907 98:0 99:0 100:0 101:0.009302 102:0.009302 103:0 104:0 105:0 106:0 107:0.009302 108:0 109:0.018605 110:0.055814 111:0 112:0.004651 113:0 114:0.004651 115:0 116:0 117:0 118:0 119:0 120:0 121:0 122:0.018605 123:0.004651 124:0 125:0 126:0 127:0 128:0 129:0 130:0 131:0.018605 132:0.004651 133:0 134:0 135:0 136:0 137:0 138:0 139:0 140:0 141:0 142:0 143:0 144:0.009302 145:0.004651 146:0.027907 147:0 148:0 149:0.032558 150:0.004651 151:0 152:0 153:0 154:0 155:0 156:0 157:0 158:0.004651 159:0 160:0 161:0 162:0.009302 163:0.004651 164:0 165:0 166:0 167:0 168:0 169:0 170:0.004651 171:0.027907 172:0 173:0 174:0 175:0 176:0 177:0 178:0 179:0 180:0 181:0.037209 182:0.004651 183:0 184:0 185:0 186:0.004651 187:0 188:0.013953 189:0 190:0.009302 191:0.009302 192:0 193:0.018605 194:0 195:0 196:0 197:0 198:0 199:0 200:0 201:0.009302 202:0.009302 203:0.004651 204:0 205:0.106977 206:0 207:0 208:0.018605 209:0 210:0 211:0.009302 212:0 213:0 214:0 215:0 216:0 217:0 218:0 219:0 220:0.009302 221:0 222:0 223:0 224:0.004651 225:0 226:0 227:0 228:0 229:0.004651 230:0.009302 231:0 232:0 233:0 234:0 235:0 236:0 237:0 238:0.004651 239:0 240:0 241:0 242:0.004651 243:0 244:0.009302 245:0 246:0 247:0 248:0 249:0 250:0.004651 251:0.093023 252:0 253:0 254:0 255:0 
2 0:0.001982 1:0.001982 2:0.005284 3:0 4:0.004624 5:0.006605 6:0.005284 7:0.003963 8:0.010568 9:0.010568 10:0.001982 11:0.011229 12:0.003963 13:0.001982 14:0.002642 15:0.005284 16:0.009908 17:0.002642 18:0.001321 19:0.001321 20:0.004624 21:0.005945 22:0.001982 23:0.003963 24:0 25:0.005945 26:0.017173 27:0.001982 28:0 29:0.002642 30:0.002642 31:0.003303 32:0.001982 33:0.007926 34:0.003963 35:0.005945 36:0.005284 37:0.015852 38:0.000661 39:0.000661 40:0 41:0.003963 42:0.001321 43:0.005284 44:0.001982 45:0.002642 46:0.002642 47:0.007266 48:0.004624 49:0.006605 50:0.000661 51:0 52:0.000661 53:0.006605 54:0.000661 55:0.004624 56:0.003963 57:0.011229 58:0.002642 59:0 60:0.001982 61:0.000661 62:0 63:0.002642 64:0 65:0.000661 66:0.01321 67:0 68:0.001321 69:0.007266 70:0.007926 71:0.006605 72:0.004624 73:0.001321 74:0.005284 75:0.003303 76:0.005945 77:0.003963 78:0.007926 79:0.004624 80:0.005284 81:0.004624 82:0.003303 83:0.000661 84:0.001982 85:0.007926 86:0.003303 87:0.006605 88:0.002642 89:0.002642 90:0.001321 91:0.005945 92:0.002642 93:0.002642 94:0 95:0.017173 96:0 97:0.003963 98:0.001982 99:0.001321 100:0.001982 101:0.000661 102:0.005284 103:0.004624 104:0.001321 105:0.002642 106:0.000661 107:0.001982 108:0.005284 109:0.01321 110:0.009247 111:0.001982 112:0.002642 113:0.002642 114:0.001982 115:0 116:0.002642 117:0.001982 118:0.007926 119:0.000661 120:0.001982 121:0.001982 122:0.008587 123:0.009908 124:0.008587 125:0.000661 126:0.001982 127:0.007266 128:0.007266 129:0.001982 130:0.001982 131:0.003963 132:0.005284 133:0 134:0.001982 135:0.003303 136:0.003303 137:0.005945 138:0.000661 139:0.000661 140:0.001982 141:0.000661 142:0 143:0.007926 144:0.015852 145:0.002642 146:0.007266 147:0.019155 148:0.001982 149:0.008587 150:0.003963 151:0 152:0.001982 153:0.001982 154:0.013871 155:0.002642 156:0.003963 157:0.007266 158:0.001982 159:0.003963 160:0.001982 161:0.007266 162:0 163:0.003963 164:0.009247 165:0.006605 166:0.003303 167:0.000661 168:0.005284 169:0.003303 170:0.001321 171:0.004624 172:0.001321 173:0.003963 174:0.001321 175:0.001321 176:0.005284 177:0.007926 178:0 179:0.000661 180:0.001321 181:0.015192 182:0.000661 183:0.001982 184:0.000661 185:0.001982 186:0.006605 187:0.015852 188:0.007266 189:0 190:0.001982 191:0 192:0.003303 193:0.003963 194:0 195:0.001982 196:0.005945 197:0.001321 198:0.001982 199:0.003303 200:0.009908 201:0.001982 202:0.010568 203:0.004624 204:0.001321 205:0.011229 206:0.001321 207:0.002642 208:0.004624 209:0.000661 210:0.005945 211:0 212:0.001321 213:0.006605 214:0.002642 215:0 216:0.006605 217:0 218:0.000661 219:0.005945 220:0.009247 221:0.000661 222:0.001321 223:0 224:0.009908 225:0.001982 226:0.000661 227:0.001982 228:0.001321 229:0 230:0.004624 231:0.008587 232:0 233:0.009247 234:0.005284 235:0.001982 236:0 237:0.000661 238:0.001321 239:0.000661 240:0.001321 241:0.000661 242:0.008587 243:0.005945 244:0.001321 245:0.004624 246:0.007926 247:0.001321 248:0 249:0.000661 250:0.007926 251:0.006605 252:0.003963 253:0.001321 254:0.002642 255:0 
2 0:0.001647 1:0.000549 2:0.001647 3:0.001098 4:0.004942 5:0.003295 6:0.00659 7:0.004393 8:0.000549 9:0.006041 10:0.000549 11:0.002746 12:0.006041 13:0.003295 14:0.005491 15:0.001098 16:0.000549 17:0.002746 18:0.003295 19:0.000549 20:0.003295 21:0.004393 22:0.003844 23:0.002197 24:0.00659 25:0.004942 26:0.003295 27:0.003844 28:0.002746 29:0.004942 30:0.006041 31:0.003295 32:0.002746 33:0.008237 34:0.006041 35:0.001098 36:0.002746 37:0.004393 38:0.004942 39:0.001098 40:0.007688 41:0.005491 42:0.002197 43:0.003295 44:0.010983 45:0.000549 46:0.003844 47:0.010434 48:0.003844 49:0.002197 50:0.006041 51:0.000549 52:0.001098 53:0.001647 54:0.000549 55:0.004393 56:0 57:0.003844 58:0 59:0.011532 60:0.006041 61:0.006041 62:0.002746 63:0.00659 64:0.003844 65:0 66:0.000549 67:0.006041 68:0.002197 69:0.007139 70:0.007139 71:0.002197 72:0.002746 73:0.003295 74:0.002746 75:0.001647 76:0.004942 77:0.004942 78:0.010983 79:0.001647 80:0.002197 81:0.002197 82:0.007139 83:0.001098 84:0.001098 85:0.003844 86:0.001098 87:0.003844 88:0.002746 89:0.000549 90:0.002746 91:0.004393 92:0.000549 93:0.003844 94:0.003295 95:0.003844 96:0.005491 97:0.003844 98:0.003844 99:0.002197 100:0.013729 101:0 102:0.003295 103:0.003844 104:0.003844 105:0.008237 106:0.001647 107:0.003295 108:0.004393 109:0.002197 110:0 111:0.003844 112:0.007688 113:0.005491 114:0.003844 115:0.003844 116:0 117:0.002746 118:0.002746 119:0.00659 120:0.006041 121:0.002746 122:0 123:0.001098 124:0.007688 125:0.005491 126:0.007139 127:0.003844 128:0.00659 129:0.001098 130:0.003295 131:0.002746 132:0.002746 133:0.001098 134:0.000549 135:0.002746 136:0.000549 137:0.001098 138:0.008237 139:0.008237 140:0.001098 141:0.004393 142:0.002746 143:0 144:0.025261 145:0.004393 146:0.001647 147:0.007688 148:0.005491 149:0.000549 150:0 151:0.010434 152:0.006041 153:0.004393 154:0.007688 155:0 156:0.002197 157:0.000549 158:0 159:0.006041 160:0.000549 161:0.00659 162:0.001098 163:0.007139 164:0.003844 165:0.007139 166:0.010434 167:0.003844 168:0.009336 169:0.004393 170:0.001098 171:0.001098 172:0.002746 173:0.002197 174:0.004942 175:0.001647 176:0.012081 177:0.002197 178:0.003295 179:0.001647 180:0.002197 181:0.005491 182:0.000549 183:0.004942 184:0.004942 185:0.002197 186:0.000549 187:0.002746 188:0.008786 189:0.004393 190:0.002746 191:0 192:0.001647 193:0.003295 194:0.00659 195:0.001647 196:0.004393 197:0.008786 198:0.004942 199:0.003844 200:0.002197 201:0.005491 202:0.001098 203:0.002197 204:0.010434 205:0.004393 206:0.001647 207:0.008786 208:0.000549 209:0.003295 210:0.009885 211:0.004942 212:0.003295 213:0.003295 214:0.001098 215:0.005491 216:0.002197 217:0.004393 218:0.008237 219:0.003295 220:0.005491 221:0.00659 222:0.009336 223:0.001647 224:0.002746 225:0.003295 226:0.002197 227:0.008237 228:0.002746 229:0.002746 230:0.006041 231:0.002197 232:0.004942 233:0.006041 234:0.003295 235:0.003844 236:0.006041 237:0.002197 238:0.001647 239:0.004393 240:0.005491 241:0.001647 242:0.002746 243:0.003844 244:0.004393 245:0.010434 246:0.005491 247:0.003295 248:0.003295 249:0.001098 250:0.001647 251:0.004942 252:0.002746 253:0.001647 254:0.001098 255:0.006041 
2 0:0 1:0.004997 2:0.001874 3:0.002498 4:0.003123 5:0.005621 6:0.000625 7:0.006871 8:0.004372 9:0.005621 10:0.004997 11:0.003748 12:0.009994 13:0.009994 14:0.003123 15:0.009369 16:0.003123 17:0.003748 18:0.001874 19:0.001249 20:0.000625 21:0.003123 22:0.001249 23:0.018738 24:0.000625 25:0.004372 26:0.005621 27:0.003748 28:0.001249 29:0.001874 30:0.005621 31:0.002498 32:0.006246 33:0.008745 34:0.002498 35:0.000625 36:0.003748 37:0.003748 38:0.001874 39:0.001249 40:0.000625 41:0.003748 42:0.001249 43:0.000625 44:0.002498 45:0.000625 46:0.005621 47:0.010618 48:0.003123 49:0.007495 50:0.001874 51:0 52:0.001874 53:0.003748 54:0.000625 55:0.001249 56:0.003123 57:0.003123 58:0.007495 59:0.000625 60:0 61:0.006246 62:0.001874 63:0.000625 64:0.001874 65:0.000625 66:0.013117 67:0.004372 68:0.000625 69:0.005621 70:0.004372 71:0.001874 72:0.003748 73:0.001249 74:0.00812 75:0.001874 76:0.003123 77:0.003748 78:0 79:0.001249 80:0 81:0.009994 82:0.002498 83:0.006871 84:0.005621 85:0.006246 86:0.001249 87:0.008745 88:0.002498 89:0.001874 90:0.003748 91:0.005621 92:0.000625 93:0.003123 94:0 95:0.007495 96:0.001249 97:0.009994 98:0.003748 99:0.003748 100:0.004372 101:0.001249 102:0.001249 103:0.000625 104:0.012492 105:0.003748 106:0.001249 107:0.003123 108:0.002498 109:0.003748 110:0.004372 111:0.004997 112:0.004372 113:0.001874 114:0.006246 115:0 116:0.001249 117:0.002498 118:0.003123 119:0.00812 120:0.001249 121:0.003123 122:0 123:0.01624 124:0.008745 125:0.001249 126:0.00812 127:0.001874 128:0.006246 129:0.002498 130:0.008745 131:0.000625 132:0.009994 133:0 134:0.003123 135:0.001874 136:0.003748 137:0.004997 138:0.001874 139:0.000625 140:0 141:0 142:0 143:0.001874 144:0.005621 145:0 146:0.010618 147:0.003123 148:0.006246 149:0.003123 150:0.001874 151:0 152:0.001249 153:0.001874 154:0.004997 155:0.001249 156:0.011243 157:0.000625 158:0.005621 159:0.001249 160:0.001249 161:0.004372 162:0.001249 163:0.008745 164:0.002498 165:0.004997 166:0.004372 167:0.009994 168:0.002498 169:0.006246 170:0.026234 171:0.004372 172:0.001249 173:0.004372 174:0.001249 175:0.006871 176:0.005621 177:0.004997 178:0.001249 179:0.003748 180:0 181:0.001249 182:0.018738 183:0.008745 184:0.001874 185:0.002498 186:0.001874 187:0.006246 188:0.012492 189:0.006246 190:0.010618 191:0.010618 192:0.000625 193:0.001874 194:0.000625 195:0.002498 196:0.004997 197:0.004372 198:0.003748 199:0 200:0.001249 201:0.004372 202:0.013117 203:0.002498 204:0.001249 205:0.004372 206:0.001249 207:0.003748 208:0.00812 209:0.002498 210:0.001874 211:0.004997 212:0 213:0.006246 214:0.000625 215:0.006246 216:0.001874 217:0.000625 218:0.006246 219:0.006871 220:0 221:0.003748 222:0.000625 223:0.001874 224:0.003123 225:0.001249 226:0.000625 227:0.004372 228:0.006246 229:0.005621 230:0.00812 231:0.007495 232:0.004997 233:0.002498 234:0.003748 235:0.004997 236:0 237:0.001874 238:0 239:0.003123 240:0 241:0 242:0.004372 243:0.001249 244:0.000625 245:0.004997 246:0.004372 247:0.001249 248:0.007495 249:0.001249 250:0.001874 251:0.017489 252:0.005621 253:0.003123 254:0.005621 255:0.001249 
2 0:0.002684 1:0.001074 2:0.004831 3:0.001074 4:0.002684 5:0.006978 6:0 7:0.00161 8:0.009662 9:0.007515 10:0 11:0.005368 12:0.004294 13:0.006978 14:0.006441 15:0.001074 16:0.003757 17:0.002147 18:0.005368 19:0.002684 20:0 21:0.003757 22:0.008588 23:0.002147 24:0.005368 25:0.004831 26:0.003757 27:0.003757 28:0.005368 29:0.010735 30:0.005904 31:0.001074 32:0.005368 33:0.002684 34:0.003757 35:0.012346 36:0.002147 37:0.00161 38:0.002147 39:0.002684 40:0.003757 41:0.005368 42:0.001074 43:0.000537 44:0.008588 45:0.002147 46:0.008588 47:0.005368 48:0.002684 49:0.003757 50:0.002147 51:0.000537 52:0.001074 53:0.006441 54:0.007515 55:0.002147 56:0.004831 57:0.007515 58:0.004294 59:0.004294 60:0.002147 61:0.004294 62:0.00161 63:0.008588 64:0 65:0 66:0.005368 67:0.010199 68:0.000537 69:0.005368 70:0.000537 71:0.006441 72:0.005368 73:0.000537 74:0.003757 75:0.003221 76:0.005368 77:0.002684 78:0.004831 79:0.005368 80:0.00161 81:0.002684 82:0.002684 83:0.000537 84:0.005904 85:0.002684 86:0.002147 87:0.003221 88:0.006441 89:0.002684 90:0.004294 91:0.004294 92:0.001074 93:0.000537 94:0.002684 95:0.004831 96:0.003221 97:0.002147 98:0.006441 99:0.003221 100:0.005904 101:0.004294 102:0.001074 103:0.002147 104:0.004831 105:0.001074 106:0.002147 107:0.002684 108:0.003221 109:0.00161 110:0.000537 111:0.005904 112:0.004294 113:0.002147 114:0.003757 115:0 116:0.008052 117:0.014493 118:0.005368 119:0.004294 120:0.001074 121:0.014493 122:0.006978 123:0.007515 124:0.004294 125:0 126:0.005368 127:0.004294 128:0.003221 129:0.004294 130:0.004294 131:0.002147 132:0.004831 133:0.002147 134:0.004294 135:0.002147 136:0 137:0.006978 138:0.002684 139:0.003757 140:0.002684 141:0.002147 142:0.004294 143:0.004294 144:0.006441 145:0.002147 146:0.006978 147:0.003221 148:0.005368 149:0.002684 150:0.003221 151:0.00161 152:0.002684 153:0.004831 154:0.004294 155:0.003757 156:0.003757 157:0.002684 158:0.000537 159:0.004831 160:0.003221 161:0.004831 162:0.001074 163:0.006441 164:0.004831 165:0.016103 166:0.005904 167:0.002147 168:0.003757 169:0.008052 170:0 171:0.006441 172:0.003221 173:0.002684 174:0.000537 175:0.00161 176:0.00161 177:0.002147 178:0.003221 179:0.000537 180:0.001074 181:0.004294 182:0.000537 183:0.000537 184:0.009125 185:0.005368 186:0.003221 187:0.003221 188:0.004294 189:0.004831 190:0 191:0 192:0.004294 193:0.005368 194:0.004294 195:0.001074 196:0.002147 197:0.002684 198:0.006978 199:0.006441 200:0.005368 201:0.006441 202:0.005904 203:0.004831 204:0.010735 205:0.002147 206:0 207:0.008052 208:0.001074 209:0.002147 210:0.008052 211:0.003221 212:0.005368 213:0.002147 214:0 215:0.002684 216:0.000537 217:0.002684 218:0.005368 219:0.005904 220:0.004831 221:0.005904 222:0.002684 223:0 224:0.003221 225:0.00161 226:0.001074 227:0.004831 228:0 229:0.001074 230:0.005904 231:0.005904 232:0.003757 233:0.009125 234:0.001074 235:0.01825 236:0.00161 237:0.014493 238:0.001074 239:0.005368 240:0.002684 241:0.004294 242:0.003757 243:0 244:0.002147 245:0.00161 246:0.004831 247:0.006441 248:0.003221 249:0 250:0.004294 251:0.001074 252:0.004294 253:0.005368 254:0.006978 255:0.004831 
2 0:0 1:0 2:0.007797 3:0 4:0.012671 5:0.006823 6:0.001949 7:0.010721 8:0.004873 9:0.001949 10:0 11:0.004873 12:0.005848 13:0 14:0.001949 15:0.003899 16:0.001949 17:0.004873 18:0 19:0.000975 20:0.003899 21:0.005848 22:0 23:0.005848 24:0.003899 25:0.003899 26:0.000975 27:0.002924 28:0 29:0 30:0 31:0.004873 32:0.000975 33:0.003899 34:0 35:0.022417 36:0.002924 37:0.002924 38:0.001949 39:0 40:0.005848 41:0 42:0.000975 43:0.011696 44:0.002924 45:0.000975 46:0.001949 47:0.001949 48:0.003899 49:0.005848 50:0.000975 51:0 52:0.000975 53:0.001949 54:0 55:0.002924 56:0 57:0.001949 58:0.011696 59:0.042885 60:0.007797 61:0.000975 62:0.002924 63:0 64:0 65:0 66:0.000975 67:0.000975 68:0.007797 69:0.001949 70:0.000975 71:0.009747 72:0.006823 73:0.004873 74:0.008772 75:0.000975 76:0 77:0 78:0.011696 79:0.013645 80:0.000975 81:0.003899 82:0 83:0.000975 84:0.000975 85:0.001949 86:0.000975 87:0.007797 88:0.000975 89:0 90:0.000975 91:0 92:0.000975 93:0.000975 94:0.047758 95:0.004873 96:0.067251 97:0.000975 98:0 99:0.001949 100:0 101:0 102:0.000975 103:0.003899 104:0 105:0 106:0 107:0.000975 108:0.002924 109:0.003899 110:0.003899 111:0.002924 112:0.001949 113:0.000975 114:0 115:0 116:0 117:0 118:0.006823 119:0.000975 120:0.011696 121:0 122:0.009747 123:0.003899 124:0 125:0 126:0 127:0 128:0.002924 129:0.000975 130:0 131:0.023392 132:0 133:0 134:0.001949 135:0.001949 136:0.000975 137:0 138:0.000975 139:0 140:0 141:0 142:0.005848 143:0.005848 144:0.007797 145:0.045809 146:0.002924 147:0.011696 148:0.000975 149:0.004873 150:0.001949 151:0.066277 152:0.002924 153:0 154:0.005848 155:0 156:0.000975 157:0.012671 158:0.000975 159:0.005848 160:0 161:0.000975 162:0 163:0.001949 164:0.001949 165:0.000975 166:0.001949 167:0.007797 168:0.002924 169:0.000975 170:0.010721 171:0.005848 172:0 173:0.001949 174:0 175:0 176:0 177:0.000975 178:0.000975 179:0 180:0 181:0.008772 182:0.006823 183:0 184:0 185:0 186:0.007797 187:0.007797 188:0 189:0 190:0.006823 191:0.018519 192:0.003899 193:0.007797 194:0.002924 195:0 196:0 197:0 198:0 199:0.000975 200:0.005848 201:0 202:0.007797 203:0.000975 204:0.000975 205:0.005848 206:0.000975 207:0 208:0.001949 209:0 210:0 211:0 212:0.002924 213:0 214:0 215:0.003899 216:0.001949 217:0 218:0 219:0.004873 220:0.013645 221:0 222:0.004873 223:0 224:0.005848 225:0 226:0 227:0 228:0.001949 229:0.004873 230:0.001949 231:0.009747 232:0.003899 233:0.001949 234:0.000975 235:0.000975 236:0 237:0 238:0.001949 239:0.000975 240:0.009747 241:0.000975 242:0.013645 243:0.000975 244:0 245:0.002924 246:0.010721 247:0 248:0 249:0 250:0.005848 251:0.007797 252:0.008772 253:0 254:0 255:0 
2 0:0.000664 1:0.001328 2:0.001992 3:0.000664 4:0.003984 5:0.00664 6:0.005312 7:0.005976 8:0.005312 9:0.003984 10:0.003984 11:0.005312 12:0.000664 13:0.001992 14:0.001992 15:0.012616 16:0.00332 17:0.004648 18:0 19:0.001328 20:0.005976 21:0.007304 22:0.004648 23:0.003984 24:0.000664 25:0.002656 26:0.002656 27:0 28:0.004648 29:0.005976 30:0 31:0.007304 32:0.001992 33:0.005976 34:0.005312 35:0.005312 36:0.001328 37:0.001992 38:0.005312 39:0 40:0.004648 41:0.004648 42:0.005976 43:0.005976 44:0.001328 45:0.000664 46:0.002656 47:0.001328 48:0.010624 49:0.000664 50:0.000664 51:0.020584 52:0.009296 53:0.001992 54:0.002656 55:0.005976 56:0.000664 57:0.001992 58:0.010624 59:0.001328 60:0.000664 61:0.001328 62:0.00332 63:0.004648 64:0 65:0.007304 66:0.011952 67:0.002656 68:0.00332 69:0.00332 70:0.001328 71:0.00332 72:0.005976 73:0.01328 74:0.001992 75:0.011288 76:0.002656 77:0.001328 78:0.004648 79:0.00664 80:0.012616 81:0.002656 82:0.003984 83:0.001992 84:0.002656 85:0.001328 86:0.000664 87:0.000664 88:0.000664 89:0.007304 90:0.002656 91:0.001992 92:0.009296 93:0.003984 94:0.000664 95:0.004648 96:0 97:0.002656 98:0 99:0.007968 100:0.001992 101:0.01328 102:0.007968 103:0.007304 104:0.002656 105:0.001328 106:0.000664 107:0.000664 108:0.00996 109:0.003984 110:0.00332 111:0.007968 112:0.004648 113:0.001328 114:0.00664 115:0 116:0.004648 117:0.008632 118:0.001992 119:0.004648 120:0.003984 121:0.00332 122:0.007968 123:0.00664 124:0.000664 125:0.001328 126:0.003984 127:0.002656 128:0.00332 129:0.005976 130:0.001992 131:0.004648 132:0.001992 133:0 134:0.00664 135:0.00332 136:0.005312 137:0.000664 138:0.003984 139:0.002656 140:0.000664 141:0.005312 142:0.014608 143:0.005312 144:0.003984 145:0.000664 146:0.003984 147:0.00332 148:0.001328 149:0.001992 150:0.002656 151:0.001992 152:0.007304 153:0.001328 154:0.003984 155:0 156:0.00332 157:0.003984 158:0.003984 159:0.000664 160:0.001328 161:0.00332 162:0.001992 163:0.001992 164:0.004648 165:0.005976 166:0 167:0.008632 168:0.005976 169:0.001992 170:0.005312 171:0.002656 172:0.007968 173:0.001328 174:0.013944 175:0.007304 176:0.001328 177:0.001328 178:0.001328 179:0.000664 180:0.004648 181:0.001328 182:0.00332 183:0.00996 184:0.001328 185:0.002656 186:0.015272 187:0.001328 188:0.005976 189:0.001328 190:0.000664 191:0.005976 192:0.004648 193:0.005312 194:0.00664 195:0.014608 196:0 197:0.003984 198:0.001328 199:0.005976 200:0.008632 201:0 202:0.007304 203:0.001992 204:0.007968 205:0.005312 206:0 207:0.000664 208:0.00664 209:0.001328 210:0.000664 211:0.005976 212:0.004648 213:0.00664 214:0 215:0.00332 216:0.000664 217:0.00332 218:0.000664 219:0.002656 220:0.001992 221:0.00332 222:0.008632 223:0.000664 224:0.005312 225:0 226:0.00332 227:0.00332 228:0.002656 229:0.00332 230:0.000664 231:0.007304 232:0.008632 233:0.00332 234:0.000664 235:0.004648 236:0.005312 237:0.005312 238:0.001992 239:0.002656 240:0.00664 241:0.001328 242:0.002656 243:0.00332 244:0.005312 245:0.002656 246:0.002656 247:0.004648 248:0 249:0.000664 250:0.00332 251:0.00664 252:0.002656 253:0.00332 254:0.001992 255:0.001992 
2 0:0.008455 1:0 2:0.009992 3:0.004612 4:0.002306 5:0.009224 6:0.010761 7:0.006149 8:0.009992 9:0.002306 10:0.003843 11:0.001537 12:0.001537 13:0.003843 14:0.001537 15:0.003075 16:0.002306 17:0.002306 18:0.002306 19:0.006149 20:0.006149 21:0.013067 22:0.003075 23:0.003075 24:0.004612 25:0.007686 26:0.003843 27:0.000769 28:0.000769 29:0.006149 30:0.000769 31:0.003843 32:0.004612 33:0.010761 34:0.006918 35:0.001537 36:0.002306 37:0.003843 38:0.00538 39:0 40:0.001537 41:0.002306 42:0.002306 43:0.002306 44:0.003843 45:0 46:0.004612 47:0.000769 48:0.001537 49:0.01153 50:0.003843 51:0.004612 52:0.003843 53:0.002306 54:0.003075 55:0.007686 56:0.000769 57:0.006149 58:0.001537 59:0.003075 60:0.009992 61:0.000769 62:0.001537 63:0 64:0.001537 65:0.00538 66:0.002306 67:0.001537 68:0.006149 69:0.009992 70:0.000769 71:0.004612 72:0.006149 73:0.001537 74:0.003075 75:0.003075 76:0.001537 77:0.00538 78:0.000769 79:0.002306 80:0.000769 81:0.003843 82:0 83:0.004612 84:0.002306 85:0.003843 86:0.008455 87:0.003843 88:0.004612 89:0.003843 90:0.013836 91:0.006918 92:0.006149 93:0.000769 94:0.00538 95:0.001537 96:0.007686 97:0.004612 98:0.001537 99:0.000769 100:0.001537 101:0.000769 102:0.004612 103:0.006149 104:0.007686 105:0.002306 106:0.010761 107:0 108:0.004612 109:0.002306 110:0.004612 111:0.002306 112:0.002306 113:0.006918 114:0.004612 115:0.002306 116:0.003075 117:0.002306 118:0.003843 119:0 120:0.008455 121:0.006149 122:0.006149 123:0.00538 124:0.001537 125:0 126:0.00538 127:0.003843 128:0.009224 129:0.003843 130:0 131:0.003843 132:0.001537 133:0.006149 134:0.000769 135:0.003075 136:0.001537 137:0.006149 138:0.001537 139:0 140:0.003075 141:0.008455 142:0.00538 143:0.002306 144:0.002306 145:0.003075 146:0.00538 147:0.003075 148:0.003075 149:0.004612 150:0.001537 151:0.006149 152:0.003075 153:0.001537 154:0.004612 155:0.003843 156:0.00538 157:0.009992 158:0.001537 159:0.002306 160:0.001537 161:0.002306 162:0 163:0.008455 164:0.002306 165:0.002306 166:0.003843 167:0.006149 168:0.003843 169:0.003843 170:0.007686 171:0.002306 172:0.002306 173:0.003075 174:0.003843 175:0.000769 176:0 177:0.002306 178:0.000769 179:0.000769 180:0.003075 181:0.004612 182:0.002306 183:0.003843 184:0.00538 185:0.008455 186:0.002306 187:0.013067 188:0.014604 189:0.004612 190:0.002306 191:0.006149 192:0.002306 193:0.003843 194:0.006149 195:0.006918 196:0.003075 197:0.003843 198:0.000769 199:0.000769 200:0.006918 201:0.000769 202:0.006149 203:0 204:0.004612 205:0.004612 206:0.001537 207:0.002306 208:0.002306 209:0.008455 210:0 211:0 212:0.013836 213:0.006149 214:0.001537 215:0.003843 216:0.00538 217:0 218:0.001537 219:0.002306 220:0.004612 221:0.00538 222:0.006149 223:0 224:0.002306 225:0 226:0 227:0.004612 228:0.006149 229:0.001537 230:0.006149 231:0.000769 232:0.008455 233:0.000769 234:0.000769 235:0.006149 236:0.006918 237:0.004612 238:0.003843 239:0.003843 240:0.000769 241:0.001537 242:0.013836 243:0.002306 244:0.000769 245:0.004612 246:0.009224 247:0.001537 248:0.001537 249:0 250:0.004612 251:0.003843 252:0.001537 253:0.007686 254:0.009992 255:0.003075 
2 0:0 1:0.004813 2:0.003008 3:0.001203 4:0.001805 5:0.008424 6:0.00722 7:0.007822 8:0.00361 9:0 10:0.004813 11:0.004813 12:0.012635 13:0 14:0.005415 15:0.016847 16:0.00722 17:0.005415 18:0.003008 19:0.001805 20:0.004813 21:0.002407 22:0.001203 23:0.008424 24:0 25:0.001805 26:0.007822 27:0.00361 28:0.000602 29:0.006619 30:0.007822 31:0.001805 32:0.006619 33:0.005415 34:0.006619 35:0 36:0.006619 37:0.006619 38:0.001203 39:0.000602 40:0.001805 41:0.005415 42:0.006017 43:0.003008 44:0.002407 45:0.001805 46:0.002407 47:0.009025 48:0.010229 49:0.011432 50:0 51:0.000602 52:0 53:0.00722 54:0.001203 55:0.006619 56:0.000602 57:0.00722 58:0.00361 59:0 60:0.004212 61:0.001203 62:0.001805 63:0.00361 64:0.001203 65:0.000602 66:0.003008 67:0.001203 68:0.004212 69:0.001805 70:0.007822 71:0.001203 72:0.004813 73:0 74:0.008424 75:0.001805 76:0.001203 77:0.004212 78:0.00361 79:0.006619 80:0.010229 81:0.011432 82:0 83:0.003008 84:0.004813 85:0.001203 86:0.00361 87:0.01083 88:0.001805 89:0.001805 90:0.000602 91:0 92:0.006619 93:0.00361 94:0.000602 95:0.001805 96:0.001805 97:0.004212 98:0.00361 99:0.001805 100:0.000602 101:0.004813 102:0.010229 103:0.003008 104:0.00361 105:0.002407 106:0 107:0.002407 108:0.00361 109:0.005415 110:0.008424 111:0.000602 112:0.006017 113:0.001203 114:0 115:0.000602 116:0.001203 117:0.000602 118:0.003008 119:0.013839 120:0.002407 121:0.001805 122:0.005415 123:0.004813 124:0.005415 125:0 126:0.00361 127:0.004813 128:0.002407 129:0.00361 130:0.002407 131:0.010229 132:0.006619 133:0 134:0.005415 135:0.003008 136:0.012635 137:0.003008 138:0.000602 139:0.000602 140:0.003008 141:0.005415 142:0.001203 143:0.00361 144:0.00361 145:0.009627 146:0.008424 147:0.005415 148:0.006017 149:0.001805 150:0.013237 151:0 152:0.00361 153:0.001203 154:0.010229 155:0.001805 156:0.001805 157:0.005415 158:0.000602 159:0.002407 160:0.004212 161:0.006017 162:0.001805 163:0.002407 164:0.001203 165:0.00722 166:0.005415 167:0.005415 168:0.001805 169:0.006619 170:0.019254 171:0.001805 172:0.000602 173:0.006619 174:0.003008 175:0.003008 176:0.004212 177:0.004813 178:0 179:0.000602 180:0 181:0.000602 182:0.013839 183:0.008424 184:0.000602 185:0.003008 186:0.006017 187:0.005415 188:0.005415 189:0.001203 190:0.006017 191:0.016847 192:0.001203 193:0.006017 194:0.003008 195:0.002407 196:0.010229 197:0.005415 198:0.000602 199:0.001203 200:0.001805 201:0.001805 202:0.001805 203:0.002407 204:0.001203 205:0.012635 206:0.000602 207:0.00361 208:0.009025 209:0.001805 210:0.006619 211:0.001203 212:0.000602 213:0.003008 214:0.002407 215:0.000602 216:0.001203 217:0.001805 218:0.001805 219:0.00361 220:0.006017 221:0.007822 222:0.001805 223:0.001805 224:0.00361 225:0.001805 226:0.001203 227:0.001805 228:0.007822 229:0.000602 230:0.000602 231:0.001805 232:0.002407 233:0.001203 234:0 235:0.004212 236:0.001203 237:0 238:0.00361 239:0.00361 240:0.002407 241:0.004212 242:0.009627 243:0.004813 244:0.002407 245:0.005415 246:0.006619 247:0.001805 248:0.001805 249:0.001203 250:0.005415 251:0.010229 252:0.004813 253:0.003008 254:0.00361 255:0.000602 
2 0:0 1:0.004315 2:0.003236 3:0.002157 4:0.003236 5:0 6:0.001079 7:0.006472 8:0.001079 9:0.001079 10:0.004315 11:0 12:0.003236 13:0.002157 14:0.003236 15:0.015102 16:0.003236 17:0.004315 18:0.006472 19:0 20:0 21:0.002157 22:0.006472 23:0.006472 24:0.002157 25:0 26:0 27:0.005394 28:0.003236 29:0.003236 30:0.007551 31:0.010787 32:0.00863 33:0.011866 34:0.001079 35:0 36:0.006472 37:0.001079 38:0.004315 39:0 40:0.012945 41:0.006472 42:0.001079 43:0 44:0.004315 45:0.005394 46:0.004315 47:0.004315 48:0.006472 49:0.001079 50:0.002157 51:0 52:0.002157 53:0 54:0.002157 55:0.001079 56:0.005394 57:0.001079 58:0.003236 59:0.012945 60:0 61:0.003236 62:0.001079 63:0.010787 64:0 65:0 66:0.001079 67:0.011866 68:0.004315 69:0.002157 70:0.00863 71:0.001079 72:0.002157 73:0.006472 74:0.004315 75:0.009709 76:0.014024 77:0.001079 78:0.005394 79:0.002157 80:0.001079 81:0.00863 82:0.002157 83:0.001079 84:0.004315 85:0.001079 86:0.001079 87:0.007551 88:0.006472 89:0.002157 90:0.004315 91:0.005394 92:0.007551 93:0.00863 94:0.007551 95:0.002157 96:0.015102 97:0.001079 98:0.005394 99:0 100:0.003236 101:0.001079 102:0.007551 103:0.002157 104:0.002157 105:0.007551 106:0 107:0.005394 108:0.003236 109:0.002157 110:0.005394 111:0.007551 112:0.001079 113:0 114:0.011866 115:0.004315 116:0.004315 117:0.004315 118:0 119:0.007551 120:0.002157 121:0.004315 122:0.001079 123:0.00863 124:0.002157 125:0 126:0.011866 127:0.006472 128:0.003236 129:0 130:0.006472 131:0 132:0.010787 133:0.015102 134:0.004315 135:0.003236 136:0.004315 137:0.001079 138:0.022654 139:0.00863 140:0.001079 141:0 142:0.002157 143:0.002157 144:0.001079 145:0 146:0.004315 147:0.002157 148:0.007551 149:0.004315 150:0.007551 151:0.010787 152:0.002157 153:0.011866 154:0.004315 155:0 156:0.007551 157:0 158:0 159:0.002157 160:0.002157 161:0.004315 162:0.003236 163:0.005394 164:0.002157 165:0.005394 166:0 167:0.004315 168:0.002157 169:0.002157 170:0.01726 171:0.010787 172:0.004315 173:0.006472 174:0.001079 175:0 176:0 177:0.002157 178:0.001079 179:0.004315 180:0 181:0.005394 182:0.003236 183:0.003236 184:0.001079 185:0 186:0.002157 187:0.001079 188:0.004315 189:0 190:0.00863 191:0.00863 192:0.004315 193:0.001079 194:0.002157 195:0.002157 196:0.001079 197:0 198:0.006472 199:0 200:0 201:0.003236 202:0.006472 203:0.007551 204:0.003236 205:0.001079 206:0 207:0.004315 208:0.002157 209:0 210:0.003236 211:0 212:0.006472 213:0 214:0.004315 215:0.007551 216:0.001079 217:0 218:0.004315 219:0.003236 220:0 221:0.001079 222:0.007551 223:0.004315 224:0.002157 225:0.003236 226:0.004315 227:0.004315 228:0.003236 229:0.001079 230:0.002157 231:0.003236 232:0.011866 233:0.002157 234:0.002157 235:0.007551 236:0 237:0.005394 238:0 239:0.005394 240:0.001079 241:0.005394 242:0 243:0.003236 244:0.001079 245:0.003236 246:0 247:0.003236 248:0.005394 249:0 250:0 251:0.016181 252:0 253:0.003236 254:0.009709 255:0.011866 
